#mdl#2#839
#rdr#25/7/0
9:u:%x[0,0],
10:u:%x[-1,0],
9:u:%x[1,0],
9:u:%x[0,1],
10:u:%x[-1,1],
9:u:%x[1,1],
9:u:%x[0,2],
10:u:%x[-1,2],
9:u:%x[1,2],
9:u:%x[0,3],
10:u:%x[-1,3],
9:u:%x[1,3],
9:u:%x[0,4],
10:u:%x[-1,4],
9:u:%x[1,4],
9:u:%x[0,5],
10:u:%x[-1,5],
9:u:%x[1,5],
9:u:%x[0,6],
10:u:%x[-1,6],
9:u:%x[1,6],
9:u:%x[0,7],
10:u:%x[-1,7],
9:u:%x[1,7],
2:b:,
#qrk#4
4:pA_B,
4:pA_I,
4:pA_L,
4:pA_U,
#qrk#1860
6:u:allo,
6:u:_x-1,
3:u:c,
3:u:7,
4:u:10,
3:u:8,
3:u:5,
3:u:6,
4:u:83,
4:u:81,
4:u:29,
4:u:30,
4:u:28,
2:b:,
5:u:est,
6:u:_x+1,
5:u:oui,
3:u:4,
4:u:82,
4:u:26,
5:u:ça,
4:u:va,
4:u:11,
4:u:27,
4:u:et,
4:u:17,
5:u:toi,
5:u:dis,
3:u:9,
4:u:je,
9:u:voulais,
4:u:te,
4:u:80,
10:u:demander,
4:u:86,
8:u:demain,
4:u:84,
4:u:vu,
5:u:que,
4:u:on,
3:u:a,
4:u:qu,
5:u:une,
7:u:heure,
6:u:pour,
8:u:manger,
4:u:85,
5:u:euh,
5:u:dit,
7:u:aille,
8:u:dehors,
4:u:hm,
4:u:21,
3:u:3,
4:u:88,
4:u:NA,
6:u:sais,
5:u:pas,
4:u:en,
6:u:fait,
7:u:parce,
4:u:19,
4:u:le,
6:u:truc,
4:u:14,
4:u:23,
4:u:13,
4:u:12,
3:u:j,
4:u:ai,
8:u:encore,
4:u:18,
4:u:22,
4:u:de,
9:u:monnaie,
4:u:ah,
7:u:ouais,
6:u:donc,
4:u:du,
6:u:coup,
10:u:voudrait,
6:u:dire,
11:u:mangerait,
7:u:genre,
4:u:un,
10:u:sandwich,
5:u:non,
6:u:vrai,
6:u:trop,
4:u:87,
3:u:1,
5:u:top,
7:u:enfin,
3:u:2,
4:u:16,
4:u:15,
7:u:comme,
4:u:m-,
4:u:f-,
4:u:me,
8:u:saoule,
5:u:peu,
5:u:des,
12:u:sandwiches,
8:u:voilà,
9:u:dépend,
4:u:si,
4:u:il,
6:u:nous,
8:u:lâche,
7:u:avant,
4:u:ou,
4:u:20,
3:u:d,
8:u:accord,
4:u:tu,
8:u:retard,
6:u:voit,
3:u:y,
4:u:la,
7:u:queue,
4:u:à,
8:u:limite,
6:u:veux,
4:u:ok,
4:u:é,
8:u:était,
10:u:prévoir,
5:u:moi,
7:u:aussi,
6:u:faut,
8:u:prenne,
3:u:l,
8:u:argent,
5:u:sur,
6:u:vois,
9:u:daccord,
6:u:mais,
7:u:mange,
8:u:salade,
8:u:laisse,
6:u:peut,
7:u:aller,
9:u:cantine,
7:u:toute,
8:u:façon,
8:u:pareil,
9:u:appeler,
5:u:vas,
8:u:donner,
9:u:petites,
6:u:news,
9:u:comment,
8:u:allait,
4:u:91,
7:u:avais,
4:u:se,
6:u:voie,
7:u:même,
6:u:elle,
5:u:là,
10:u:faudrait,
7:u:alors,
4:u:ce,
6:u:mois,
4:u:ci,
8:u:passé,
8:u:allure,
6:u:quoi,
7:u:été,
7:u:super,
5:u:ric,
5:u:rac,
5:u:ben,
11:u:attendais,
8:u:retour,
10:u:réunion,
3:u:m,
8:u:étais,
8:u:aurait,
4:u:pu,
6:u:voir,
7:u:quand,
7:u:faire,
5:u:bon,
6:u:puis,
8:u:après,
7:u:temps,
7:u:passe,
12:u:finalement,
8:u:arrive,
10:u:bientôt,
5:u:fin,
7:u:très,
6:u:vite,
12:u:exactement,
4:u:j-,
7:u:être,
8:u:essaie,
7:u:caler,
6:u:vous,
8:u:dirait,
9:u:semaine,
11:u:prochaine,
6:u:bien,
6:u:pris,
10:u:vendredi,
8:u:samedi,
6:u:cest,
10:u:possible,
17:u:éventuellement,
10:u:gérable,
6:u:soir,
6:u:cool,
12:u:clairement,
9:u:reparle,
12:u:carrément,
6:u:vais,
12:u:rapidement,
4:u:au,
7:u:moins,
9:u:envoyer,
6:u:mail,
5:u:pis,
10:u:toujours,
12:u:compliqué,
11:u:plusieurs,
4:u:as,
8:u:raison,
9:u:propose,
9:u:instant,
3:u:t,
7:u:irait,
9:u:parfait,
5:u:où,
6:u:hein,
5:u:nan,
8:u:disais,
8:u:petite,
8:u:bouffe,
6:u:mai-,
8:u:maison,
9:u:bonjour,
4:u:89,
7:u:salut,
9:u:entendu,
7:u:bruit,
7:u:merde,
8:u:entend,
9:u:arriver,
6:u:loin,
7:u:chaud,
5:u:ici,
7:u:aviez,
10:u:chouette,
11:u:installer,
5:u:les,
8:u:filles,
6:u:pose,
5:u:nos,
10:u:affaires,
6:u:waou,
4:u:90,
8:u:faites,
6:u:chez,
5:u:tes,
12:u:chaussures,
9:u:enlève,
5:u:mes,
9:u:obligé,
7:u:garde,
8:u:mettre,
6:u:joli,
6:u:suis,
10:u:craquée,
7:u:cette,
8:u:année,
10:u:rondelle,
8:u:citron,
6:u:tout,
6:u:plus,
8:u:grands,
6:u:2.02,
5:u:ils,
6:u:sont,
11:u:chouettes,
5:u:ces,
8:u:verres,
7:u:beaux,
10:u:achetés,
9:u:exprès,
5:u:ouh,
5:u:mis,
11:u:chauffage,
7:u:crois,
6:u:tour,
10:u:obligée,
6:u:fond,
11:u:autrement,
8:u:marche,
6:u:c“,
7:u:loose,
6:u:soit,
7:u:zéro,
9:u:éteint,
8:u:chiant,
6:u:fais,
11:u:engueuler,
10:u:consomme,
6:u:sers,
7:u:sûre,
4:u:oh,
8:u:partir,
8:u:moment,
8:u:rigolo,
5:u:ch-,
8:u:savais,
7:u:avait,
7:u:aimé,
7:u:avoir,
8:u:autres,
8:u:graals,
8:u:prévu,
11:u:inquiète,
8:u:paille,
7:u:allez,
10:u:habitude,
9:u:cuisine,
8:u:êtres,
7:u:miser,
15:u:présentation,
10:u:croirait,
6:u:dans,
8:u:dîner,
9:u:presque,
10:u:chercher,
7:u:autre,
7:u:mince,
13:u:commençais,
7:u:boire,
5:u:cas,
9:u:plaisir,
3:u:n,
10:u:empêche,
7:u:clair,
11:u:longtemps,
4:u:d-,
5:u:vue,
8:u:depuis,
5:u:cet,
14:u:anniversaire,
3:u:s,
6:u:vues,
9:u:remonte,
5:u:par,
11:u:croisées,
8:u:métro,
7:u:trois,
9:u:arrêts,
5:u:qui,
10:u:vraiment,
6:u:aïe,
8:u:vôtre,
8:u:santé,
8:u:mignon,
4:u:ma,
7:u:mère,
8:u:gardes,
8:u:cognac,
6:u:gros,
6:u:mets,
10:u:beaucoup,
13:u:normalement,
8:u:classe,
4:u:ne,
7:u:juste,
10:u:histoire,
7:u:petit,
6:u:sûr,
4:u:a-,
9:u:passée,
4:u:es,
7:u:seule,
9:u:souvent,
7:u:cours,
7:u:lundi,
13:u:interaction,
9:u:verbale,
6:u:lun-,
6:u:midi,
7:u:mardi,
10:u:mercredi,
9:u:syntaxe,
9:u:oublier,
6:u:neuf,
8:u:heures,
7:u:matin,
7:u:jeudi,
8:u:psycho,
6:u:demi,
6:u:fois,
6:u:deux,
6:u:int-,
9:u:analyse,
19:u:conversationnelle,
7:u:exact,
7:u:reste,
11:u:formation,
8:u:rester,
8:u:prends,
6:u:pire,
7:u:train,
9:u:revenir,
7:u:vient,
9:u:voiture,
9:u:crevée,
9:u:rentrer,
8:u:chaque,
10:u:aimerais,
8:u:restes,
9:u:ramène,
6:u:sait,
8:u:jamais,
9:u:quelque,
7:u:chose,
7:u:faute,
8:u:tomber,
10:u:pourquoi,
13:u:franchement,
14:u:gestionnaire,
7:u:paies,
9:u:croyais,
9:u:reprend,
8:u:début,
7:u:soeur,
9:u:galère,
5:u:son,
8:u:master,
4:u:sa,
11:u:première,
8:u:loupé,
13:u:recommencé,
11:u:deuxième,
10:u:reloupé,
5:u:ont,
6:u:rien,
8:u:savait,
4:u:s-,
9:u:voulait,
10:u:retenter,
12:u:troisième,
7:u:idée,
7:u:monde,
9:u:travail,
7:u:marre,
10:u:arrivée,
7:u:vingt,
8:u:quatre,
5:u:ans,
15:u:compréhensif,
8:u:partie,
9:u:essayer,
10:u:cherché,
9:u:trouvé,
5:u:ad-,
9:u:adultes,
9:u:appelle,
6:u:sai-,
14:u:considérée,
12:u:étudiante,
12:u:intégrée,
8:u:dedans,
5:u:ami,
7:u:style,
5:u:de-,
10:u:semaines,
12:u:entreprise,
9:u:bizarre,
9:u:passait,
8:u:déjà,
5:u:mal,
9:u:compris,
13:u:réellement,
7:u:cadre,
9:u:choisie,
7:u:prise,
10:u:logiciel,
8:u:permet,
9:u:censés,
5:u:eux,
11:u:expliquer,
16:u:fonctionnement,
5:u:aux,
13:u:entreprises,
9:u:doivent,
6:u:bons,
8:u:calée,
9:u:déçue,
7:u:cause,
7:u:allô,
8:u:coucou,
10:u:appelais,
6:u:avec,
8:u:parlé,
11:u:septembre,
8:u:veniez,
7:u:fête,
11:u:lumières,
12:u:invitation,
7:u:tient,
7:u:fasse,
6:u:cher,
8:u:savoir,
8:u:disait,
7:u:venir,
8:u:priori,
5:u:lui,
13:u:particulier,
9:u:regarde,
9:u:surtout,
6:u:prix,
9:u:billets,
7:u:jouer,
8:u:boulot,
6:u:peux,
10:u:regarder,
12:u:maintenant,
10:u:rappelle,
10:u:regardé,
6:u:coca,
9:u:attaque,
8:u:pizzas,
9:u:attends,
6:u:sors,
8:u:occupe,
6:u:1.10,
4:u:ta,
9:u:chèvre,
13:u:champignons,
8:u:jambon,
8:u:dessus,
10:u:pourrait,
7:u:sympa,
6:u:rire,
8:u:viande,
9:u:hachée,
9:u:chorizo,
10:u:poivrons,
12:u:allumettes,
9:u:lardons,
8:u:besoin,
9:u:occuper,
7:u:pâte,
5:u:ton,
5:u:job,
5:u:yes,
10:u:claquée,
5:u:dur,
6:u:week,
5:u:end,
11:u:émotions,
7:u:maman,
11:u:ressortir,
7:u:pense,
7:u:droit,
7:u:pète,
8:u:putain,
8:u:péter,
5:u:hé,
6:u:fous,
9:u:partout,
7:u:celle,
7:u:assez,
7:u:tiré,
9:u:arrives,
9:u:content,
7:u:jeté,
10:u:poubelle,
10:u:pratique,
8:u:bordel,
12:u:chicouille,
7:u:mieux,
12:u:dépêches,
8:u:chiche,
10:u:commande,
9:u:branche,
6:u:fils,
10:u:trancher,
7:u:gorge,
6:u:hier,
8:u:abusé,
6:u:dise,
10:u:balancer,
6:u:ayé,
6:u:vont,
10:u:emmerder,
4:u:t-,
12:u:vêtements,
6:u:êt-,
10:u:choquée,
9:u:acheté,
8:u:esprit,
9:u:laisses,
6:u:ceux,
7:u:hiver,
10:u:énervé,
5:u:don,
10:u:énerver,
9:u:rouleau,
13:u:pâtisserie,
6:u:oula,
8:u:aurais,
12:u:préféré,
9:u:trouver,
6:u:sans,
8:u:manche,
6:u:aime,
11:u:préfère,
9:u:manches,
10:u:échappe,
7:u:mains,
6:u:sera,
10:u:présent,
14:u:physiquement,
6:u:sept,
8:u:rentre,
9:u:pratico,
7:u:delà,
5:u:ait,
13:u:billetterie,
7:u:salle,
11:u:spectacle,
8:u:quelqu,
9:u:entrée,
9:u:décide,
5:u:pot,
9:u:souhait,
6:u:pots,
5:u:so-,
14:u:conférences,
9:u:débats,
8:u:budget,
10:u:organise,
4:u:l-,
14:u:installation,
11:u:matériel,
5:u:mai,
6:u:main,
7:u:place,
8:u:tables,
9:u:chaises,
9:u:caetera,
6:u:okay,
8:u:compte,
5:u:mon,
8:u:agenda,
11:u:organiser,
7:u:serai,
6:u:mer-,
7:u:jusqu,
7:u:aider,
11:u:théâtre,
7:u:souci,
7:u:point,
15:u:interrogation,
10:u:partiras,
10:u:viendrai,
11:u:resterais,
8:u:serait,
8:u:quelle,
4:u:96,
6:u:acc-,
6:u:tous,
11:u:mercredis,
8:u:fermé,
6:u:fini,
11:u:sûrement,
5:u:au-,
6:u:aura,
13:u:sollicitera,
7:u:votre,
9:u:atelier,
9:u:combien,
7:u:durer,
9:u:sachant,
9:u:numéro,
12:u:disponible,
5:u:dix,
6:u:huit,
13:u:conférence,
6:u:lieu,
8:u:rapide,
12:u:tranquille,
8:u:plaît,
9:u:horaire,
7:u:coût,
10:u:soixante,
7:u:euros,
8:u:blague,
10:u:comprise,
9:u:parlait,
9:u:fautive,
8:u:parlez,
8:u:fautif,
11:u:problème,
12:u:organisera,
9:u:acheter,
13:u:cacahuètes,
10:u:boissons,
8:u:suffit,
7:u:voyez,
8:u:choses,
8:u:débat,
11:u:organisez,
4:u:v-,
12:u:rencontrez,
6:u:plan,
7:u:suite,
9:u:contenu,
5:u:doc,
12:u:distribuer,
10:u:vacances,
8:u:quinze,
7:u:jours,
5:u:va-,
9:u:pendant,
7:u:avril,
12:u:travailler,
5:u:com,
9:u:diffuse,
9:u:affaire,
7:u:roule,
7:u:poser,
10:u:question,
15:u:communication,
9:u:support,
8:u:facile,
9:u:plutôt,
10:u:diffuser,
9:u:ensuite,
10:u:imaginer,
9:u:journal,
6:u:veut,
9:u:toucher,
12:u:population,
7:u:voter,
12:u:absolument,
10:u:sensible,
9:u:départ,
12:u:communique,
12:u:brouillard,
9:u:connais,
11:u:travaille,
8:u:Europe,
7:u:lieux,
15:u:prédilection,
7:u:doute,
8:u:public,
8:u:trouve,
9:u:verrais,
4:u:92,
9:u:espèce,
7:u:tract,
11:u:immeubles,
9:u:boîtes,
9:u:lettres,
10:u:quartier,
7:u:abord,
8:u:toutes,
12:u:activités,
15:u:systématique,
7:u:coupe,
12:u:aléatoire,
9:u:voisins,
6:u:cent,
12:u:locataires,
11:u:viendront,
7:u:elles,
13:u:condamnées,
9:u:motivé,
9:u:sportif,
13:u:parenthèse,
6:u:avez,
8:u:idées,
14:u:illuminantes,
10:u:hésitez,
8:u:membre,
7:u:verra,
13:u:facturation,
9:u:facture,
12:u:aujourdhui,
8:u:pardon,
10:u:terminé,
10:u:rentrée,
11:u:nutrition,
6:u:gens,
10:u:viennent,
5:u:MJC,
6:u:Oul-,
9:u:Oullins,
11:u:personnes,
10:u:seraient,
9:u:octobre,
7:u:dates,
4:u:i-,
11:u:envisager,
8:u:saison,
9:u:courant,
6:u:juin,
9:u:juillet,
11:u:réserver,
7:u:trucs,
10:u:prépare,
6:u:fixe,
10:u:dérange,
5:u:air,
11:u:derrière,
6:u:pote,
10:u:Bastille,
9:u:écoute,
7:u:diras,
9:u:répond,
13:u:téléphone,
10:u:réponds,
9:u:paraît,
6:u:part,
10:u:appelée,
9:u:demande,
10:u:regardes,
9:u:entends,
7:u:reçu,
10:u:messages,
9:u:appelé,
10:u:dimanche,
8:u:excuse,
15:u:crémaillère,
11:u:présente,
9:u:essayé,
13:u:rencontrée,
5:u:ja-,
9:u:pouvait,
8:u:passer,
8:u:venait,
11:u:repartait,
8:u:rendus,
9:u:pouvoir,
11:u:descendre,
8:u:penses,
9:u:suivant,
10:u:faisable,
9:u:bonsoir,
7:u:merci,
9:u:restés,
10:u:nombreux,
8:u:soucis,
8:u:emploi,
11:u:cinquante,
9:u:minutes,
10:u:exprimer,
7:u:court,
6:u:bref,
14:u:synthétique,
13:u:géographie,
9:u:science,
11:u:synthèse,
10:u:quarante,
6:u:cinq,
11:u:comprenez,
12:u:véritable,
7:u:défi,
8:u:lancé,
11:u:excuserez,
10:u:certains,
9:u:aspects,
9:u:pourrai,
11:u:évidence,
6:u:tard,
10:u:ailleurs,
5:u:lie,
7:u:utile,
11:u:agréable,
8:u:lorsqu,
12:u:géographe,
11:u:ruraliste,
7:u:vigne,
5:u:vin,
16:u:généralement,
9:u:termine,
9:u:chanson,
7:u:caves,
7:u:force,
14:u:dégustation,
8:u:ferons,
10:u:heureuse,
12:u:accueillir,
9:u:travaux,
11:u:pratiques,
9:u:reconnu,
9:u:panneau,
8:u:UNESCO,
5:u:Val,
7:u:Loire,
11:u:essentiel,
10:u:discours,
8:u:porter,
10:u:quelques,
14:u:définitions,
16:u:mondialisation,
11:u:reprendre,
10:u:définit,
13:u:représente,
11:u:notamment,
9:u:Laurent,
10:u:Carroué,
14:u:actuellement,
12:u:président,
9:u:respon-,
7:u:CAPES,
12:u:territoire,
9:u:inscrit,
13:u:géographes,
9:u:discute,
10:u:juristes,
12:u:également,
14:u:économistes,
10:u:manière,
12:u:présenter,
13:u:territoires,
11:u:simplifie,
11:u:Alexandre,
7:u:Moine,
7:u:mille,
14:u:interactions,
7:u:entre,
9:u:acteurs,
8:u:espace,
15:u:géographique,
6:u:cela,
10:u:reprends,
4:u:p-,
10:u:anglaise,
8:u:Jancis,
10:u:Robinson,
9:u:assiste,
11:u:mouvement,
11:u:diffusion,
9:u:passion,
14:u:consommation,
12:u:incroyable,
9:u:limites,
8:u:dirais,
12:u:oekoumène,
10:u:planète,
9:u:extrait,
11:u:contraire,
13:u:rétraction,
6:u:pays,
20:u:traditionnellement,
15:u:consommateurs,
13:u:producteurs,
14:u:exportateurs,
7:u:sorte,
15:u:contradiction,
6:u:ceci,
6:u:lié,
7:u:voulu,
9:u:montrer,
6:u:quel,
6:u:sens,
10:u:sérieux,
7:u:cirer,
7:u:tirer,
10:u:citation,
9:u:écrite,
14:u:circonstance,
8:u:écris,
10:u:articles,
12:u:simplement,
12:u:retiendrai,
9:u:dernier,
11:u:élément,
12:u:comprendre,
15:u:effectivement,
13:u:référence,
8:u:essaye,
13:u:présentent,
14:u:vitivinicole,
6:u:1.00,
11:u:société,
16:u:intermédiaire,
9:u:actions,
14:u:informations,
11:u:remontent,
12:u:éléments,
12:u:permettent,
9:u:paysage,
16:u:véritablement,
7:u:image,
9:u:visible,
9:u:renvoie,
6:u:leur,
9:u:surface,
11:u:terrestre,
8:u:niveau,
13:u:négociants,
14:u:commerçants,
20:u:interprofessionnel,
15:u:professionnel,
11:u:gravitent,
8:u:autour,
13:u:fondamental,
11:u:important,
13:u:exportation,
13:u:importation,
12:u:production,
9:u:gestion,
5:u:AOC,
5:u:AOP,
7:u:rôle,
13:u:grandissant,
9:u:veulent,
9:u:prendre,
7:u:poids,
9:u:excusez,
13:u:directement,
16:u:problématique,
7:u:quels,
9:u:moteurs,
8:u:freins,
11:u:expansion,
8:u:mesure,
13:u:considérer,
8:u:France,
8:u:remise,
11:u:approches,
11:u:proposent,
9:u:optique,
14:u:territoriale,
9:u:insiste,
9:u:traiter,
6:u:cel-,
11:u:certaines,
10:u:prévues,
9:u:thèmes,
14:u:événements,
12:u:fondateurs,
8:u:parler,
7:u:mythe,
11:u:fondateur,
12:u:archétype,
12:u:historique,
9:u:puisque,
10:u:suggère,
11:u:fortement,
12:u:rechercher,
13:u:différents,
8:u:seuils,
16:u:chronologiques,
8:u:amené,
13:u:évolutions,
7:u:près,
9:u:produit,
11:u:seulement,
10:u:agricole,
10:u:culturel,
11:u:religieux,
8:u:relier,
10:u:religion,
13:u:chrétienne,
9:u:assuré,
4:u:eu,
8:u:série,
8:u:crises,
15:u:fondamentales,
11:u:neuvième,
9:u:siècle,
12:u:entraîné,
11:u:création,
14:u:appellations,
9:u:origine,
13:u:contrôlée,
15:u:rapprochement,
8:u:points,
6:u:vins,
9:u:terroir,
9:u:cépage,
9:u:banquet,
8:u:Platon,
14:u:fondamentaux,
8:u:quête,
10:u:vérité,
11:u:évoquent,
11:u:symposium,
6:u:grec,
10:u:convives,
9:u:passent,
10:u:cratère,
8:u:lequel,
5:u:eau,
6:u:font,
8:u:éloge,
7:u:amour,
6:u:lors,
10:u:banquets,
9:u:lancent,
8:u:défis,
10:u:essayent,
12:u:apprécié,
7:u:ainsi,
5:u:né,
12:u:guillemets,
17:u:interprétation,
13:u:personnelle,
9:u:permets,
13:u:philosophie,
8:u:Grèce,
7:u:verre,
5:u:re-,
11:u:retrouver,
7:u:tiens,
11:u:préciser,
9:u:vivante,
8:u:notée,
8:u:propos,
10:u:Arménie,
12:u:Françoise,
11:u:Ardillier,
10:u:chansons,
11:u:réponses,
5:u:sud,
7:u:ouest,
11:u:français,
9:u:exemple,
10:u:revenant,
10:u:Bidarray,
12:u:connaissez,
8:u:voulez,
8:u:mangé,
4:u:bu,
10:u:ensemble,
10:u:commence,
9:u:strophe,
6:u:doit,
10:u:terminer,
5:u:mot,
10:u:internet,
8:u:verrez,
12:u:insisterai,
10:u:oreilles,
12:u:pourraient,
11:u:supporter,
10:u:origines,
14:u:caucasiennes,
14:u:fondamenteur,
7:u:noces,
6:u:Cana,
9:u:travers,
9:u:tableau,
12:u:Véronèse,
14:u:interpréter,
4:u:lu,
11:u:Évangile,
6:u:Jean,
13:u:personnages,
7:u:clés,
8:u:jeunes,
9:u:mariés,
8:u:marié,
7:u:femme,
9:u:mariée,
6:u:coin,
8:u:contre,
8:u:donné,
8:u:durant,
6:u:vint,
9:u:manquer,
7:u:grave,
8:u:erreur,
9:u:parents,
7:u:rater,
7:u:leurs,
7:u:Marie,
12:u:intervient,
17:u:personnellement,
8:u:Jésus,
10:u:signifie,
11:u:implicite,
8:u:oeuvre,
10:u:réclame,
7:u:venue,
11:u:attention,
10:u:réponse,
11:u:serviteur,
6:u:dira,
9:u:remplir,
8:u:jarres,
10:u:apporter,
9:u:maître,
13:u:cérémonie,
10:u:changée,
16:u:extraordinaire,
14:u:fondamentale,
16:u:transformation,
12:u:exégètes,
8:u:disent,
15:u:premièrement,
6:u:agit,
13:u:institution,
13:u:eucharistie,
11:u:sacrifice,
7:u:croix,
6:u:dont,
8:u:verser,
6:u:sang,
11:u:humanité,
6:u:pain,
12:u:considère,
7:u:vraie,
12:u:nourriture,
9:u:boisson,
7:u:envie,
9:u:rapport,
13:u:thématique,
11:u:proposée,
8:u:sommes,
6:u:ange,
9:u:ressort,
10:u:extraits,
8:u:sortir,
19:u:caractéristiques,
9:u:aliment,
8:u:festif,
7:u:objet,
14:u:civilisation,
19:u:méditerranéenne,
8:u:certes,
8:u:judéo,
10:u:tendance,
8:u:perdre,
11:u:influence,
7:u:perdu,
8:u:aspect,
10:u:continue,
8:u:garder,
7:u:modes,
9:u:changé,
12:u:auparavant,
10:u:buvaient,
17:u:régulièrement,
11:u:coupaient,
15:u:particulière,
14:u:disparaître,
8:u:grande,
9:u:vitesse,
9:u:plupart,
9:u:disparu,
12:u:bataillons,
9:u:paysans,
11:u:autrefois,
10:u:ouvriers,
10:u:courante,
15:u:complètement,
14:u:transmission,
7:u:inch-,
24:u:intergénérationnelle,
11:u:quasiment,
6:u:rite,
9:u:faisait,
9:u:famille,
7:u:père,
11:u:tellement,
7:u:pater,
10:u:familial,
11:u:apprenait,
5:u:ses,
9:u:enfants,
8:u:buvait,
6:u:âge,
6:u:clé,
13:u:commençait,
11:u:commencer,
10:u:explique,
11:u:Bourgogne,
7:u:rouge,
12:u:forcément,
10:u:approche,
12:u:intronisé,
6:u:fée,
11:u:sorcière,
8:u:Marine,
8:u:vivait,
6:u:haut,
7:u:nuage,
10:u:château,
7:u:tours,
9:u:dorées,
8:u:reçut,
10:u:baguette,
9:u:magique,
7:u:bête,
8:u:patins,
11:u:roulettes,
7:u:magi-,
8:u:simple,
9:u:rollers,
10:u:pourrais,
8:u:casser,
5:u:nez,
9:u:tombant,
7:u:digne,
8:u:cadeau,
10:u:recevoir,
8:u:bateau,
9:u:exclama,
10:u:basculer,
6:u:robe,
13:u:dégoutante,
9:u:chapeau,
7:u:jeter,
7:u:fées,
10:u:devaient,
11:u:gentilles,
9:u:propres,
8:u:tartes,
9:u:miettes,
6:u:thé,
11:u:renverser,
7:u:tache,
10:u:raconter,
6:u:voix,
12:u:mielleuses,
11:u:histoires,
8:u:douces,
9:u:tendres,
8:u:agiter,
5:u:ca-,
9:u:gâteau,
6:u:beau,
8:u:cerise,
10:u:trouvait,
14:u:terriblement,
12:u:ennuyeuses,
17:u:malheureusement,
10:u:bouillo-,
9:u:bouill-,
11:u:bouillote,
11:u:théière,
12:u:sorcières,
9:u:avaient,
7:u:salir,
7:u:crier,
9:u:patiner,
10:u:naviguer,
6:u:bord,
6:u:jour,
10:u:sursauta,
9:u:horreur,
8:u:écria,
9:u:devrais,
7:u:honte,
8:u:frappa,
6:u:pied,
7:u:hurla,
10:u:certaine,
15:u:approchèrent,
8:u:dirent,
11:u:horribles,
12:u:crâneuses,
12:u:concoctent,
9:u:potions,
13:u:dangereuses,
13:u:transformer,
9:u:crapaud,
5:u:fit,
9:u:devenir,
8:u:existe,
8:u:règle,
8:u:gronda,
8:u:docile,
10:u:soignée,
9:u:insista,
11:u:répliqua,
10:u:furieuse,
9:u:endroit,
6:u:bois,
9:u:soupira,
10:u:envolant,
9:u:regarda,
9:u:tardera,
8:u:envole,
9:u:cliques,
9:u:claques,
7:u:vivre,
10:u:trompait,
11:u:convenait,
14:u:parfaitement,
13:u:construisit,
12:u:magnifique,
8:u:cabane,
8:u:duquel,
9:u:navigua,
10:u:rivière,
9:u:nourrir,
10:u:cueillit,
7:u:baies,
11:u:noisettes,
10:u:étaient,
11:u:adorables,
8:u:prêta,
5:u:mit,
12:u:serpentant,
8:u:arbres,
7:u:belle,
7:u:patin,
7:u:tête,
7:u:longs,
8:u:noeuds,
6:u:cro-,
9:u:crochus,
11:u:justement,
8:u:crochu,
9:u:marrant,
8:u:offrit,
7:u:jeune,
7:u:fille,
7:u:balai,
10:u:flambant,
11:u:aussitôt,
8:u:voulut,
11:u:apprendre,
7:u:voler,
10:u:empoigna,
7:u:engin,
8:u:grimpa,
7:u:arbre,
16:u:encouragèrent,
7:u:sauta,
7:u:resta,
11:u:suspendue,
6:u:airs,
9:u:écrasa,
5:u:sol,
7:u:pensa,
10:u:redressa,
8:u:essaya,
9:u:nouveau,
6:u:bout,
9:u:parvint,
14:u:applaudirent,
8:u:rompre,
8:u:volant,
10:u:effleura,
10:u:renversa,
6:u:seau,
5:u:jus,
11:u:groseille,
14:u:soupirèrent,
9:u:trouves,
10:u:chapeaux,
9:u:pointus,
6:u:noir,
7:u:moche,
13:u:cuisinière,
10:u:marrante,
8:u:fonça,
11:u:direction,
6:u:ciel,
6:u:cria,
7:u:viens,
8:u:tenait,
8:u:debout,
5:u:eut,
9:u:souffle,
8:u:coupé,
11:u:effrayée,
9:u:devenue,
7:u:folle,
10:u:atterrit,
9:u:douceur,
7:u:riant,
8:u:appris,
11:u:construit,
10:u:navigué,
12:u:formidable,
11:u:élection,
5:u:Lot,
9:u:Garonne,
17:u:circonscription,
14:u:législative,
11:u:partielle,
11:u:siègeait,
8:u:jusque,
10:u:Jérôme,
9:u:Cahuzac,
8:u:ancien,
10:u:ministre,
12:u:désormais,
8:u:fraude,
9:u:fiscale,
8:u:Suisse,
11:u:déclaré,
6:u:fisc,
9:u:dirigé,
15:u:démissionné,
8:u:siège,
10:u:député,
9:u:fallait,
10:u:pourvoir,
5:u:UMP,
10:u:emporté,
6:u:face,
10:u:candidat,
7:u:Front,
10:u:National,
5:u:six,
7:u:score,
7:u:large,
6:u:tant,
15:u:participation,
8:u:faible,
7:u:cents,
8:u:écart,
8:u:hommes,
14:u:relativement,
8:u:serré,
6:u:duel,
9:u:leçons,
12:u:politiques,
10:u:Bertrand,
9:u:Lacoste,
4:u:FN,
11:u:présence,
8:u:second,
7:u:terre,
9:u:certain,
10:u:diverses,
13:u:réflexions,
7:u:surgi,
10:u:occasion,
8:u:côté,
4:u:PS,
10:u:laissent,
10:u:perplexe,
7:u:quant,
6:u:tire,
9:u:entend-,
13:u:évidemment,
10:u:réjouir,
11:u:candidats,
12:u:dirigeants,
8:u:tenter,
9:u:quelles,
9:u:raisons,
12:u:éliminés,
9:u:premier,
7:u:effet,
14:u:candidatures,
6:u:pea-,
14:u:parasitaires,
8:u:isoler,
12:u:Villeneuve,
12:u:partielles,
11:u:dérouler,
12:u:desquelles,
11:u:symptôme,
9:u:malaise,
15:u:considérable,
8:u:droite,
6:u:taux,
12:u:abstention,
11:u:démontre,
14:u:intéressent,
6:u:type,
8:u:joutes,
12:u:désespoir,
5:u:tel,
11:u:anxiété,
7:u:telle,
16:u:découragement,
10:u:proposé,
7:u:offre,
11:u:politique,
11:u:déplacer,
8:u:soient,
8:u:enjeux,
9:u:époque,
10:u:venaient,
7:u:untel,
9:u:aujourd,
5:u:hui,
15:u:tétanisation,
11:u:situation,
12:u:totalement,
15:u:désespérés,
14:u:extrêmement,
13:u:inquiétant,
10:u:dirigent,
10:u:prennent,
5:u:ts-,
10:u:tsunamis,
13:u:progressifs,
12:u:retombées,
12:u:répliques,
10:u:secouent,
5:u:kl-,
4:u:r-,
8:u:pourra,
14:u:explications,
10:u:allusion,
7:u:front,
14:u:républicain,
8:u:posais,
14:u:introduction,
6:u:mort,
17:u:définitivement,
8:u:Gauche,
11:u:Écologie,
11:u:général,
11:u:classique,
11:u:députés,
9:u:remette,
7:u:notre,
12:u:stratégie,
7:u:appel,
6:u:sein,
7:u:parti,
12:u:socialiste,
7:u:Louis,
9:u:Bernard,
11:u:agonisant,
8:u:amener,
5:u:soi,
12:u:électeurs,
13:u:électrices,
14:u:propositions,
6:u:mode,
5:u:vie,
8:u:morale,
10:u:regardez,
10:u:souvenez,
9:u:traité,
11:u:européen,
9:u:médias,
9:u:élites,
11:u:pensantes,
7:u:voté,
12:u:importante,
18:u:circonscriptions,
8:u:Loiret,
9:u:circon-,
7:u:ordre,
9:u:absten-,
12:u:élections,
7:u:route,
6:u:fort,
8:u:claque,
8:u:aucune,
10:u:triomphe,
7:u:grand,
9:u:gagnant,
14:u:reconnaître,
6:u:dieu,
11:u:positions,
6:u:anti,
9:u:radical,
9:u:succès,
11:u:engrangé,
8:u:nombre,
10:u:victoire,
12:u:symbolique,
7:u:voire,
13:u:médiatique,
6:u:avis,
13:u:municipales,
11:u:capacité,
10:u:nuisance,
4:u:b-,
4:u:z-,
14:u:européennes,
13:u:socialistes,
8:u:risque,
7:u:Modem,
5:u:UDI,
8:u:change,
8:u:crains,
10:u:marchait,
9:u:Jacques,
8:u:Chirac,
9:u:réélu,
5:u:Pen,
8:u:Hassan,
7:u:Kerim,
11:u:résultat,
5:u:rue,
6:u:faux,
11:u:persuadé,
8:u:gauche,
11:u:questions,
8:u:posent,
16:u:compatibilité,
9:u:unités,
8:u:statut,
13:u:sémantique,
14:u:morphologues,
12:u:défendent,
7:u:signe,
12:u:saussurien,
9:u:affixes,
12:u:polysémie,
8:u:traite,
12:u:générale,
9:u:simples,
14:u:linguistique,
6:u:syn-,
11:u:expliqué,
5:u:en-,
13:u:pragmatique,
8:u:morpho,
9:u:claires,
12:u:explicites,
8:u:trois-,
8:u:puisse,
12:u:consacrée,
10:u:méthode,
12:u:synchronie,
12:u:diachronie,
8:u:aborde,
11:u:intuition,
12:u:intuitives,
13:u:morphologie,
10:u:énoncé,
9:u:globale,
4:u:u-,
13:u:plurisémie,
15:u:multiplicité,
9:u:strates,
18:u:interprétatives,
11:u:morphème,
12:u:flexionnel,
13:u:unisémique,
16:u:pluristratique,
10:u:évitant,
11:u:théories,
14:u:différentes,
12:u:décrivent,
9:u:chacune,
8:u:strate,
13:u:différente,
10:u:opposent,
6:u:unes,
9:u:malheur,
11:u:consacrer,
9:u:séance,
12:u:difficiles,
11:u:résolues,
10:u:apparait,
8:u:étant,
14:u:compliquées,
8:u:celles,
21:u:polycatégorialité,
12:u:traitement,
20:u:polycatégorielles,
9:u:lexique,
13:u:catégoriel,
10:u:matière,
11:u:confiance,
13:u:imagination,
8:u:servir,
8:u:sortes,
12:u:problèmes,
10:u:aimerait,
8:u:semble,
13:u:expérience,
14:u:sémanticien,
13:u:morphologue,
11:u:évidente,
11:u:sentiment,
12:u:prospectif,
10:u:chantier,
13:u:modérateur,
11:u:François,
8:u:carré,
12:u:immodéré,
11:u:agitateur,
12:u:commencent,
8:u:fermer,
6:u:oeil,
12:u:intervenir,
14:u:flexionnelle,
6:u:mots,
12:u:différent,
13:u:traitements,
11:u:méthodes,
9:u:relève,
10:u:principe,
8:u:Claude,
10:u:position,
14:u:dégueulasse,
13:u:réfléchir,
10:u:bêtises,
11:u:procédé,
7:u:banal,
10:u:consiste,
14:u:apparaissent,
12:u:virtuelles,
13:u:quelquefois,
11:u:énoncés,
10:u:virtuels,
7:u:gêne,
15:u:sémanticiens,
10:u:évoqué,
10:u:rotation,
13:u:indéniable,
7:u:rotor,
9:u:rotatif,
11:u:rotatoire,
9:u:rotonde,
7:u:rôti,
9:u:postule,
6:u:base,
17:u:matériellement,
5:u:ose,
7:u:verbe,
7:u:roter,
12:u:imaginaire,
5:u:se-,
6:u:sert,
14:u:archimodèle,
8:u:machin,
9:u:modèle,
14:u:lexématique,
11:u:reconnait,
7:u:rotat,
11:u:associée,
9:u:lexème,
11:u:réaliser,
10:u:autonome,
10:u:lexicale,
11:u:locuteurs,
13:u:permettrait,
8:u:former,
10:u:nouveaux,
6:u:ét-,
13:u:appartenant,
8:u:proche,
11:u:filiation,
9:u:directe,
12:u:hypothèse,
11:u:paradigme,
7:u:parle,
12:u:structures,
17:u:intériorisées,
12:u:prédateur,
12:u:prédation,
12:u:construits,
14:u:fonctionnent,
8:u:parent,
8:u:direct,
9:u:existé,
14:u:contemporain,
4=0x1.60d8fbc549ed3p-1
5=-0x1.552d20fe4acc7p-2
6=-0x1.25ce367f3f844p-1
7=0x1.27981410cc469p-1
8=0x1.58fe840f4dc7cp-1
9=-0x1.fed5b4e42d249p-6
10=-0x1.18dcd4a9d985ep-4
11=0x1.2bcbf552adc29p-7
12=0x1.33cf30e6d6a17p-7
13=0x1.12d07b03d857fp-3
14=-0x1.18927a05a3564p-3
16=0x1.161ad90a8bb1p-7
17=0x1.552c092d0dbdep-8
18=-0x1.66d9055b447e3p-5
19=-0x1.21ef4f6f2e0bfp-13
20=-0x1.73fe45fa251dfp-4
21=0x1.029b43339d273p-2
22=-0x1.f355243e4d13bp-5
23=-0x1.3bbac691860bbp-4
24=0x1.4eb73d571b2eep-4
25=0x1.27ef25d67fe43p-3
26=-0x1.76d94d12d6fe7p-4
27=-0x1.aad1ef4c6c98cp-8
28=0x1.4f2ab93813327p-5
29=0x1.4815021384b63p-3
30=-0x1.490f55e1fb4b6p-6
31=-0x1.8cf263112c2bep-6
32=-0x1.1e342447ccb55p-8
33=-0x1.f0ea17502fcb3p-5
34=0x1.5c913fa97bb6p-4
35=-0x1.bf343051ec928p-18
36=-0x1.906bfeca6cd64p-10
37=0x1.28ef634339e37p-2
39=-0x1.9cbb29a24e401p-1
40=0x1.584fc699cfe02p-2
41=0x1.bb7302f8a1ba2p-2
42=0x1.2d748277147afp-3
43=-0x1.b1f2a194b9a8dp-4
44=0x1.881f29c7707aap-7
45=0x1.c543036739084p-4
46=-0x1.6f378bea63a12p-5
47=-0x1.c5a3eb77b1a7ep-3
48=0x1.e0feaa32b9132p-5
49=0x1.66f6a12ee96b5p-2
50=0x1.86d31f381866dp-2
51=-0x1.93e4b614b65bfp-3
52=-0x1.20f0e6d915cdep+2
53=0x1.78e83016c0e96p+0
54=-0x1.efccacbaf448dp-8
55=-0x1.b7f4cb0b2fce7p+0
56=-0x1.784964a0f273bp+2
57=0x1.36b7916c07088p+0
58=0x1.84ad87829b4a8p-1
59=-0x1.b3a633a3349c8p+1
60=0x1.595fba2e26ca1p+1
61=-0x1.4c179fdf0d426p+2
62=-0x1.1f2b20e65c62ep+1
63=0x1.1ce030fb870aap+1
64=0x1.8650d0b9c6774p+1
65=-0x1.4efeeb43d77c3p+1
66=-0x1.1b1de7afcfd24p+1
67=-0x1.8777053600abep-10
68=0x1.bc31e95a2022ep-4
69=0x1.1b3c5446ed7adp-3
70=-0x1.8b05c04954b61p-2
71=-0x1.e7675a4916885p-1
72=-0x1.5d2c73c13452cp-1
73=-0x1.d77b12a243da5p-1
74=0x1.199567ac4fe77p-1
75=0x1.ac9e2148a7b39p-2
76=0x1.60b2e16c97792p+0
77=-0x1.b7e24b9677648p-1
78=-0x1.12f06f1a1d95bp-3
79=0x1.17919874bb222p-4
80=0x1.0214477818bbcp-3
81=0x1.66964c06f057ap-3
82=-0x1.dfcf60d905754p-11
83=-0x1.aeb4e267362f2p-6
84=0x1.40914119210a3p-9
85=0x1.9acb77f96278ap-5
86=-0x1.ac1127c936ed8p-7
87=-0x1.a958213f755afp-7
88=-0x1.e757dd4f41e2bp-14
89=-0x1.0ff5e760faf5cp-3
90=0x1.2c92992e7a145p-3
91=-0x1.094c09b604097p-6
92=0x1.578ccfd0858ebp-3
93=-0x1.da584c8c26975p-2
94=0x1.ca5b8efcc6983p-5
95=0x1.4345be0b25da3p-6
96=0x1.04a04ad3a356ep-1
97=-0x1.4a2f627214bbcp-1
98=0x1.8fb0fa145a96ep-3
100=-0x1.50c7ca1dec5b4p-7
101=0x1.6f7ea4daed43p-4
102=-0x1.234df4e80631dp-3
103=0x1.65a09ffe7f798p-3
104=-0x1.dcb1b9ac1d5c5p-5
105=0x1.7dd339efb795cp-5
106=0x1.44a25a38c7fecp-4
107=0x1.580a38b6496c8p-6
108=-0x1.5d6194867d238p-7
109=0x1.18ae4e0511d32p-6
110=0x1.be3cc89fa47c6p-5
111=-0x1.2cc076966c3e1p-2
112=0x1.b236d9e43c621p-2
113=-0x1.659a127d3cdd9p-3
114=0x1.b3c6fc68f3e2dp-8
115=-0x1.aee86ce5caadp-4
117=-0x1.e7010ae393aa3p-4
120=0x1.a47fb58dc8341p-7
121=-0x1.64f423703fe13p-1
122=0x1.09b7c750976a5p-5
123=0x1.5612df9f0dd82p-8
124=-0x1.0879f71ee84d6p-7
125=0x1.c8152d22b784ep-7
126=0x1.31e09b0cdae92p-7
127=-0x1.2f3471b46fbb4p-4
128=0x1.f0383018673d2p-2
129=-0x1.1850cda6764e8p-2
130=0x1.601410e860c2ap-6
133=0x1.8967a2a230b01p-7
136=-0x1.17d1162df51ddp-3
137=0x1.3fe5836e3b233p-2
140=0x1.d3d57233c931dp-6
141=0x1.61da708d2e45ap-2
142=-0x1.2c032a2a87947p-3
143=-0x1.6590a19b340abp-3
144=0x1.5a23ec314722p-2
145=-0x1.a49851259d1a4p+0
148=0x1.1c8e28048a64dp-4
149=-0x1.81b75e1fc5434p-4
150=-0x1.84586b8d18458p-8
151=0x1.0d3c33c1afe4cp+0
153=-0x1.7d6f1626ad43ep-6
156=0x1.219cd61a03586p-4
157=-0x1.42ece70498af4p-4
158=0x1.d9ce166f8d7c9p-4
159=-0x1.a79b2f9ee9c8dp-8
160=0x1.ead28a0d4dc65p-2
161=-0x1.261eb2aca9a78p+0
162=-0x1.05c152197d644p-12
163=0x1.414e2cad7997fp+0
164=-0x1.3cf98b85c433dp-4
165=0x1.5eb574ae86a25p-1
168=-0x1.6b06e7ac2218ap-6
169=-0x1.72797f45ac209p-3
170=0x1.8014230f843b1p-5
171=0x1.3d70983b3efe4p-11
172=0x1.79b25a3742fd7p-3
173=0x1.808564fcfb96dp-7
174=-0x1.7b7d042e9dcabp+0
177=0x1.02a3ffd2b3641p+0
178=-0x1.3e2fe3a5a5d32p+0
180=-0x1.196779d0d3676p-5
181=-0x1.39edde660e75ap-5
182=0x1.2a3e7c4eed15cp-4
185=0x1.1f5495010f679p-2
188=-0x1.6553308785dc6p-8
189=-0x1.c5dfe1ea486dcp-15
190=0x1.38f2da013793dp-7
196=0x1.2d19d99b6734bp-3
197=-0x1.0c6893c32a4dcp-5
198=-0x1.30156339f2093p-4
199=0x1.ea3d7cf0428f8p-6
200=-0x1.9319fb73ecb12p-6
201=0x1.68901d1e6663cp-4
202=-0x1.00290231269cep-3
203=0x1.c6b0c0bf224bcp-1
205=-0x1.54e5c47400a71p-5
206=0x1.0a776496a7622p-5
217=-0x1.2460484326896p-1
220=0x1.a726e890d9316p-7
221=-0x1.0fe58b9b880cap-2
222=0x1.3c8e69616ea8cp-4
224=-0x1.ab67186c32ae5p-5
225=0x1.cd2fb5608a5d4p-3
226=0x1.f214140fdbb13p-4
227=-0x1.709a77565796ap-3
229=0x1.4929a0b0561e5p-3
231=-0x1.8a72b022e6aa1p-11
232=-0x1.0d9eeedfd0f0cp-4
233=0x1.beb9f42f655fbp-4
234=0x1.ba75259f0ce21p-7
235=-0x1.2906bf05169ccp-6
236=-0x1.373d0a84f43c7p-12
237=-0x1.ad8aca6b5483dp-2
238=0x1.0a0325e7c81fp+0
240=-0x1.090fc561447f4p-7
241=-0x1.796537565666ap-6
242=0x1.337553f0ba28cp-1
244=-0x1.fcaa5ef608752p-2
245=-0x1.ebfd725055134p-7
246=0x1.2a3cd62f46c4cp-4
247=0x1.32f3b930e1f81p-8
248=0x1.71ec10d7958b2p-8
249=-0x1.0be613a60105fp-4
251=0x1.d0ea55ecb28ddp-1
253=-0x1.9a0124e394cbdp-3
254=0x1.ccaab2b60e294p-3
255=-0x1.8bb72b028fbf5p-10
257=0x1.644b1d950f12dp+0
258=-0x1.4eedd2039ce98p-3
260=-0x1.003f6670a6442p-2
261=0x1.110e479122d31p-3
262=-0x1.531602ae01dc7p-7
268=0x1.5aea8820356a2p-4
269=-0x1.ab0b3f217dd3p-5
270=-0x1.42b3ce18c33aap-12
276=0x1.d9d7198cfbd4ep-10
277=0x1.2f792be6e923dp-4
278=-0x1.0fd79f2ee5192p-7
279=-0x1.c008dcb73925ap-3
280=-0x1.7317c1ff7dac9p-2
281=0x1.b1ff1752e2b2cp-4
282=-0x1.7dd56de6392b3p-3
283=0x1.e1217b83e25e2p-5
284=-0x1.87f95357db843p-9
285=-0x1.438fa40f11c1bp-8
286=0x1.2222b2fff665bp-7
287=0x1.4597580eb4fcbp-7
288=0x1.6ff54229e636cp-9
290=-0x1.70c316e6fbcf3p+0
296=-0x1.1080f84c7f41ap-4
297=0x1.90f41eab04486p-3
298=-0x1.5e3a436b3c187p-6
300=0x1.a48e7a3f82e3ap-6
301=-0x1.0315b4c4431cdp-5
302=0x1.4d4cf0c5ff2ap-6
304=-0x1.0ae92b48d8cd8p+0
305=0x1.9a57092fcde76p-4
306=0x1.f33340260b702p-5
313=-0x1.6691a57cab22ep-5
314=0x1.31b9bc123483p+0
315=-0x1.5e42475dd8cbep-1
316=-0x1.94cfb8b240c26p-10
317=-0x1.34ed5aa78e9b2p+0
318=-0x1.4125c6e662e47p-7
319=0x1.652092de446a4p+0
320=0x1.b8dd145eae824p-7
321=-0x1.b07ebcca7a39dp-2
322=0x1.f8181068327cbp-4
324=-0x1.543e58e0287bbp+0
325=0x1.92525c068cc84p-4
326=0x1.392e7461f2fdcp-4
328=-0x1.74e892e8aadccp-4
329=0x1.6fe40935660abp-2
330=-0x1.6c39fe66f6e38p-4
336=-0x1.fc839ef248307p-2
337=0x1.8de38737c166ep-4
348=-0x1.38a1a7f13e59fp+0
349=0x1.5305d9611b8c8p-7
350=0x1.b383fda6d50a3p-4
356=0x1.439270dc0ded7p-6
357=-0x1.484684753178ap-2
358=-0x1.7decc599191c9p-8
359=0x1.88935cb2f0401p+0
365=0x1.77d7df2919addp-3
368=-0x1.84c0be2498f0ap-2
369=-0x1.ae4fabbbfa9e2p-10
370=0x1.b36856b45716cp-3
371=-0x1.391dd99a5ad81p-13
372=0x1.ca6935fedaddfp-4
373=0x1.a25b0b192acdep-3
374=0x1.18752ced6da8ep-5
375=0x1.484c143e6d4bcp-4
380=0x1.2870a8593c7cdp-5
381=-0x1.068d8fbf3dp-4
382=0x1.d33fdc84032c5p-6
383=-0x1.4209721e89f9p-5
384=-0x1.8eb96c57c75f4p-4
385=0x1.25137f8ca051dp-2
386=0x1.1ac392bd1339p-4
387=-0x1.0e2f0b2d0f465p-3
388=0x1.61e4081915464p-2
389=0x1.8802fa864490ap-7
390=-0x1.1d1627fa9bccdp-4
391=-0x1.6d6206dc5bfdp-6
392=0x1.9519addd72638p-4
393=0x1.069fa07ea0e14p-1
394=-0x1.cde27c9414873p+0
395=-0x1.e60ac3e8ef60fp-6
396=0x1.fb1ef7b5e3063p-7
397=-0x1.d5df676fe3b34p-5
398=0x1.08ed9b7959e61p-5
401=0x1.b44a3e2d4cce1p-4
409=0x1.2edeaa8ccdc7ap-6
410=-0x1.02fb88c675eaap-4
421=0x1.2101b9996c589p+0
422=-0x1.0e56185f3ab7bp-4
428=0x1.43695de6d5bc4p-3
429=-0x1.3107deb6b0de8p+0
430=0x1.bc33c78a31879p-2
431=0x1.48fd999539ca8p+0
436=-0x1.3561c88e8cbe6p-5
437=0x1.21f80dbef443bp-3
438=-0x1.09ab8f09e73ebp-3
439=0x1.7ade50f034ac8p-8
441=-0x1.1fcddd6adf9f6p-3
442=0x1.c27d5671e5016p-2
444=0x1.1707b81cde83ap-7
445=-0x1.acf53c21f694ap-14
456=-0x1.58c6592e82763p-9
457=-0x1.93be5bb163a49p-4
458=0x1.27a520d560b82p-1
460=-0x1.2cf08c0414353p-4
461=0x1.b63e6f1647097p-5
462=-0x1.d88ffd249ba41p-8
463=-0x1.7db4a02438172p-7
464=-0x1.c28515791a751p-4
465=0x1.e56ac840b316dp-4
466=0x1.213c4ee0b2596p-6
468=0x1.070244d1bef1ap-6
469=-0x1.b9fa14336f516p-10
472=-0x1.17ff966d7cfe9p-3
473=0x1.1170566553a14p-9
474=0x1.9dbc67522c266p-2
475=0x1.36f702bf1512fp-17
484=0x1.14d108035a85p-2
485=-0x1.827836e7d6f2dp-2
486=0x1.f5c840881644cp-7
488=-0x1.7ae5cd5acc667p-9
489=-0x1.b3268ca2dc99ap-5
490=0x1.2f5aaf7407199p-4
491=0x1.516360ad4cbfep-1
496=-0x1.4344eac04e1e8p+0
497=0x1.031813ac63cfp-4
498=0x1.d582c49786276p-6
504=0x1.02e331b9b442dp-1
505=-0x1.43759aa7761b9p-12
506=-0x1.9cac42f5de15ap-2
509=-0x1.74999f67dd07dp-3
510=-0x1.07b2c92b53418p-10
511=0x1.d7d4b8f648436p-1
513=0x1.8754521967dep-15
517=0x1.b18b9394df128p-3
518=-0x1.16ebcf114aac3p-7
524=0x1.52c4f6cd24f46p-1
525=-0x1.dfad65183ded9p-1
526=0x1.13d82c573ad4p-3
528=0x1.cb38901c547c6p-11
529=-0x1.8b90bda73bc56p-9
533=0x1.7afb6b9f5a652p-2
540=-0x1.cf3debc838f8cp-4
541=0x1.3a6a9526cf102p-3
542=-0x1.61e22d77f08b2p-9
549=0x1.b30359607f5ddp+0
550=-0x1.73ff59a4cc04dp-7
552=0x1.3af60c897a35p-4
553=-0x1.fdf6802c7ec97p-1
554=0x1.5471d1250a624p-2
560=0x1.3f30afad12a31p-2
561=-0x1.1acbf5f9330fcp-3
562=0x1.1d8fe2a61b479p-7
563=-0x1.3dadc227cd44cp-11
576=0x1.09fccbd173e42p-14
581=0x1.dacde364ff6efp-4
590=0x1.93ebb9650b4f6p-12
592=0x1.89290a1b1cc6fp-6
593=-0x1.3638542412113p-4
594=0x1.01138b56d556cp-7
604=0x1.720ca563ee669p+0
605=-0x1.e87c180d904fap-7
620=-0x1.5f37f118c4ed8p-8
621=0x1.a6a79c2b352b4p-6
622=-0x1.bb0265b3b79c2p-1
623=0x1.787e1cbf09a29p+1
625=0x1.2a051e08d3d31p-5
626=-0x1.1900745ff508ep-12
628=0x1.be2230ad03e43p-4
629=-0x1.84639bf89b58ap-1
630=0x1.98efaad9e9e27p-3
632=0x1.b5371533709c3p-15
636=0x1.a1770eecbc03cp-1
637=0x1.5b22e0a6ddb18p-7
638=-0x1.b7c300481acacp-7
645=0x1.35f647ccb2661p-1
646=-0x1.1989b06f7f02p-5
648=0x1.15505e97b9fe4p-3
649=-0x1.4edc875a5d346p-2
650=0x1.cac861f7c8413p-5
651=0x1.e5f6a7deed383p-8
652=-0x1.08ecc38206fe8p-8
653=-0x1.ad69fb2ed6e02p-5
654=0x1.eaae10c4ae208p-12
655=0x1.e41cfa49b8e4bp-1
660=0x1.d52a900d9f04fp-2
661=-0x1.c0300f49380e8p-4
662=0x1.81a2cd3f71188p-6
663=-0x1.5b6855d540e44p-10
665=-0x1.29555d142a50ep-7
666=0x1.ab0c1cec0e03ep-5
669=-0x1.162781d45249p+0
684=0x1.fd2ada6cca5b1p-5
685=-0x1.3c6475d057118p-1
686=0x1.7756be19cf85dp-3
688=0x1.826ffd046a1dap-7
689=-0x1.017b169101de8p-5
704=0x1.755750d77a603p-2
705=0x1.398f616696427p-8
707=-0x1.c306630511624p-1
713=-0x1.24e86d7467a88p+1
717=-0x1.49786582e86f5p+1
720=0x1.68152b5814a96p-1
722=-0x1.fa0e55efe0747p-8
729=0x1.01343ab26a6efp-1
730=-0x1.1566a875a075dp-6
737=-0x1.d699daf601481p+0
745=0x1.c8ee5ccbceedcp-1
748=0x1.8902443d623d8p-2
749=-0x1.a62515b3717eap-1
750=0x1.645df2914724cp-1
751=-0x1.9f327b5417098p-9
756=0x1.8f8ef1261c65ep-9
757=-0x1.3af82d1d0567dp-1
758=0x1.68b4dc54bd802p-3
765=0x1.1dfd3e4927468p-2
768=-0x1.3f47c0cf80c82p-7
769=0x1.c53b98c4ca596p-5
773=0x1.69f10766f9cd4p-9
784=-0x1.721135e86c0c8p-8
786=0x1.091b537c5167ap+1
789=0x1.999073d828fcdp-3
793=0x1.af06b0d81e58cp-11
801=0x1.21b2397d5c84ap+0
813=0x1.a5cd201f80437p-7
814=-0x1.29c97112852b9p-2
828=0x1.18b8d4c5ed65dp-8
829=-0x1.3ef164d75da3cp-2
830=0x1.341501e981361p-2
837=0x1.36ab845499e82p-2
841=0x1.ea2a391e0a26p-4
861=0x1.3392ae846cc56p-2
869=0x1.f47432bd77158p-2
870=-0x1.edaa2a5dc8b88p-5
877=-0x1.554765eeee41bp-2
882=-0x1.76e89c4182f9ep-9
888=-0x1.3a92c781750eep-5
889=-0x1.c286aea02d00ep-2
890=0x1.b564fd1848a9dp-4
908=0x1.622ee82d7199ep-7
909=-0x1.9a14c1c61d76ep-2
910=0x1.474ebec895e5dp-6
936=-0x1.44c170603b8b4p-1
937=0x1.791e1b004319dp-1
941=-0x1.153c09fa55979p-9
942=0x1.80514d650cc4dp-7
945=0x1.572652191b012p+0
947=-0x1.453703725bf97p-6
948=0x1.bf164f63cd2d6p-9
949=-0x1.1196c2a7b21c9p-5
950=0x1.9ab006a9c3b8ap-8
952=-0x1.7855fa4375e25p-9
953=-0x1.731bf900d2baap-1
954=0x1.369cbc631807bp-5
955=0x1.43620b201275bp+0
984=0x1.ed1e1fd62f0a6p-4
985=-0x1.50e666cd4d0acp-4
986=0x1.2f68965b5cb84p-10
993=0x1.72470ee3880ecp-9
1036=-0x1.150be42ff2107p-1
1037=0x1.abfc57124b6d8p-9
1038=0x1.33ee4ea00d1e4p-5
1061=-0x1.faf37ffd618b7p-8
1097=-0x1.a0116b5bf9558p-7
1098=0x1.b1e5c7ea507ebp-3
1104=0x1.c38f1952099a9p-8
1112=-0x1.7574f401268a1p-2
1113=0x1.9a02ee2b19cc9p-9
1114=0x1.d8293ced3f14bp-15
1128=0x1.2507759f92febp-2
1129=-0x1.c30524efb7f77p-3
1130=0x1.5f548c96d7399p-7
1137=-0x1.3a00a4f1dd818p+0
1141=-0x1.658465f2c7653p+0
1145=-0x1.8606b93802676p-2
1146=0x1.563a78a3508dp-3
1149=0x1.4474762ae7586p-6
1150=-0x1.40eedff06b9d4p-3
1157=0x1.3eedd975ec8e4p-7
1176=0x1.72482f77f2716p-1
1177=-0x1.015400273b4ccp+0
1178=0x1.7fc7b1159c594p+0
1188=0x1.ea13c1a628418p-2
1189=-0x1.050a9d7855e19p-8
1194=0x1.3b0262ea13478p-7
1201=0x1.e6de9ae58b3fdp-3
1209=-0x1.51ab4160cccefp-1
1237=0x1.d261037d790dep-6
1253=-0x1.3465b0fdcaabfp+0
1256=0x1.19194e8bb2aabp-7
1257=-0x1.13e63734a14f1p+0
1258=0x1.a48bf681dc88bp-8
1261=0x1.11083d13c597p-5
1280=-0x1.6b9eb67405fdbp-8
1281=0x1.ba701f7cd3e31p-4
1289=0x1.a8de128d694bap-6
1293=0x1.3cb242adbf6b9p-7
1305=-0x1.0538f20f38e9bp+1
1313=0x1.19e9753ec54f9p-2
1333=-0x1.4c41aa69dfddp-5
1334=0x1.5fc08d0ed111fp+0
1340=0x1.dc19811647058p-5
1341=-0x1.df42c25b9207ap-10
1342=-0x1.392dff60fe955p+0
1357=0x1.3864772e3f6fcp-4
1381=0x1.bba8c8baf76bbp-2
1382=-0x1.a68ddedccc69fp-2
1409=-0x1.5f7f90a854944p-6
1410=0x1.c4f99284cd46p-3
1413=-0x1.28fb82d0a454fp+0
1414=0x1.b847a76f1e97bp-7
1417=0x1.b7a6a903a1636p-2
1418=-0x1.461c939915b54p-4
1428=0x1.1e9f2f61bd139p-1
1430=-0x1.15749636f4521p-7
1441=0x1.38d1c99bd8f83p-8
1449=0x1.0f9080eac3d47p+0
1453=0x1.faf1d00004c48p-2
1457=-0x1.5467cd7aeed96p-2
1458=0x1.659ec262bba6ap-4
1472=-0x1.026495df2b4cfp-9
1473=0x1.90dedab34136dp-18
1476=0x1.7efee619f5ff3p-1
1477=-0x1.f9e16d1ebe273p+0
1478=0x1.b1149c9b79525p-3
1488=0x1.0207e346a4862p-2
1489=-0x1.5b77a94f614eap-8
1497=0x1.1c5f8895b8d0dp-8
1508=0x1.636c079d27c7cp+0
1510=-0x1.a021874d56536p-4
1525=-0x1.aece924fdbc0ap-3
1527=0x1.12fb5e8270d0ep+1
1536=0x1.2c07b079e6feep-7
1549=-0x1.c2cc10693987bp-1
1553=0x1.772664b73291bp-6
1554=-0x1.99775bf546c17p-11
1569=-0x1.22c9cb5cf6a1ap-1
1573=-0x1.bb8aea9ef3188p-2
1574=0x1.d8e8be4bd3a73p-5
1576=0x1.2784831c6cb64p+0
1577=-0x1.a1ee66fd2381ap-7
1580=0x1.41e1d86c00f42p-7
1581=-0x1.bbaa9a0d13779p-5
1589=-0x1.1a3f685b27eb2p-4
1592=0x1.2b3d51e814aa9p-8
1593=-0x1.3217b43264c3cp-1
1600=0x1.f9e19ca326b1ap+0
1601=-0x1.35a78567a3ed2p-1
1609=-0x1.74f65bf471bbbp+0
1617=0x1.4a5a5c4238ea1p-1
1633=-0x1.77d7a29bd2516p-2
1635=0x1.2b0e54d4c77ccp-2
1641=0x1.acc010a118184p-8
1677=0x1.1d4a94f25a1cdp-7
1697=0x1.0f7f67801e5b4p-9
1717=0x1.070ec0a4ae6d2p-9
1721=-0x1.488727c69918dp+0
1722=0x1.3895eca3ab3b9p-4
1723=0x1.3a4d899c83008p-5
1733=-0x1.f079085f167cfp-2
1734=0x1.8db094a5245a5p-2
1745=-0x1.4fefc9082a514p+0
1753=-0x1.70b435293cb91p+0
1756=0x1.ff6d7ac24c127p-5
1757=-0x1.a76cd3fd3ff72p-2
1761=0x1.a541d494a13p-4
1765=-0x1.0e4825491fff1p-1
1766=0x1.bf6579870aefp-2
1769=0x1.8978028de8d2p-18
1788=-0x1.2bbe5b33b1ac4p-6
1790=0x1.0ea6fc969a9c8p-2
1793=0x1.3eb7af9c40867p-9
1801=0x1.4ce6e68142245p-4
1805=0x1.497ce455e120dp-8
1806=-0x1.1020c4788b3a5p-5
1838=0x1.de1074a5df79ep-9
1841=0x1.00219f1cf24b5p-4
1845=0x1.4ead2bd796af2p-5
1870=0x1.24296725fbcf9p-6
1872=0x1.2ca1a28ccd406p-9
1873=-0x1.acea9e0df2e1ap-3
1874=0x1.574499242f782p-6
1877=0x1.784ec913cad66p-8
1890=0x1.39b1310867bd3p+0
1897=-0x1.1034b5f80106fp+0
1920=0x1.23290eab71ed4p-3
1921=-0x1.a2e1c31d2eb8p+0
1929=-0x1.60e9768fe69fap-8
1968=-0x1.14d222cbc99ebp-11
1969=0x1.125e28cfc8eacp-8
1980=-0x1.2a3389beb79f4p-3
1981=0x1.7af22b846ac92p-6
1984=0x1.03640dbc6e1d4p-6
1985=-0x1.6af4130ac440ap+0
1997=-0x1.32db8fe53f725p+0
2013=-0x1.1c2b85a26cfe1p+1
2015=0x1.1b62cbe3c359cp+1
2020=-0x1.3be43a7213bbcp-1
2021=0x1.05606765c544bp-1
2084=-0x1.76efe731c7734p-5
2085=-0x1.5a2dbf78dfbb8p-1
2086=0x1.095d3123c150dp-5
2087=0x1.1ca357f62e495p+1
2101=-0x1.1f7044c462c94p+0
2120=0x1.06bd6f796659dp+0
2121=-0x1.b4cbcd49a02bbp-3
2153=-0x1.31cc76f4291cp+0
2155=0x1.1504aa41d1984p+1
2241=-0x1.2ee42438b2ed7p+1
2244=0x1.38e050762cf57p+0
2249=0x1.4b486d574a91ep-7
2256=0x1.d95fe43117ef9p-1
2257=-0x1.6e5f5e564ccabp-1
2264=0x1.831bf88916031p-8
2265=-0x1.56428d3ed3c7ap-3
2266=0x1.c4e5d6340765ep-6
2324=0x1.939c7aafd8852p-1
2325=-0x1.c83184820e773p+0
2449=-0x1.6488d5b482bfcp+1
2453=-0x1.379f767c7b33fp+1
2455=0x1.39987ecccf31bp+1
2456=0x1.2488a5f0fbc53p+0
2457=-0x1.2bd1048ab929ep-6
2485=-0x1.61aa6b7803448p+0
2492=0x1.3280fd948dcd7p-1
2493=-0x1.7860cdae37239p+1
2497=0x1.27cc23b8f0496p-3
2508=0x1.f7239b8ae1dc9p-7
2509=-0x1.3d17f7dedf4bp-2
2510=0x1.fc25c9a134112p-8
2532=0x1.5b0de52cfd81dp+0
2533=-0x1.2556c57f54ae2p-8
2552=0x1.af09f8df83092p-2
2553=-0x1.b56b145f92342p+0
2554=0x1.fb413e7872ab3p-4
2685=0x1.0c54f45b55e83p-7
2701=-0x1.b0fe0e4778f02p+0
2733=0x1.daa3245277bbfp-9
2766=0x1.33a941e924efbp-7
2769=-0x1.96dad8babf493p+0
2797=-0x1.2db46678b0597p-3
2798=0x1.e40ffe938ba7dp-1
2801=-0x1.7af41b621d7cap-3
2803=0x1.7c08562e03ff3p+0
2861=-0x1.9535507cfad06p+0
2897=0x1.c587361360f97p-11
2917=-0x1.a1ebc6869cb4ap+0
2925=-0x1.258dca937de46p+1
2943=0x1.3ffda87637adfp+0
2944=0x1.56e520ea14fb6p-7
2945=-0x1.02ff6081d1e6dp+0
2946=0x1.1b85d83c45286p-9
2966=0x1.14ba9e44f60c4p-6
2968=0x1.0cc640164a0ccp-6
2969=-0x1.6d948cbeef22cp+0
2970=0x1.b8c8926547427p-4
2980=0x1.1f204ccd101e8p-2
2993=-0x1.b3d676ebde6bep-6
2994=0x1.186d7fb4ab59ap-2
2997=-0x1.0aca7bb4085f9p-8
2998=0x1.6bc451dcbc34fp-6
3005=-0x1.f0183228fd662p+0
3012=0x1.697205c943077p-1
3013=-0x1.552579fa73105p+1
3014=0x1.670959a1060bfp-4
3121=0x1.f4b5d377c9c6cp-1
3122=-0x1.6c50db7db1438p-7
3160=0x1.b3c7e7260efadp+0
3161=-0x1.fe0c5b9843492p-1
3269=-0x1.a2e646155076fp+1
3303=0x1.4da9e1a19bbcep+1
3309=-0x1.567b9971314d6p+0
3398=0x1.cd72a62169e71p-2
3552=0x1.09f13d10f3703p-2
3553=-0x1.1c1dfd6093466p+0
3554=0x1.97550699aa3f1p-5
3634=0x1.763747a5f794fp-3
3705=-0x1.5a55f27b3c5c5p+1
3760=0x1.800a284c60039p-2
3761=-0x1.95dc1b75ca58dp+0
3762=0x1.872596c628e63p-2
3921=0x1.1265d94d730fap-3
3932=0x1.6e137f0b19cb7p+0
3933=-0x1.0faf160d9cf73p-1
4013=-0x1.83097af71a25cp-10
4053=0x1.c5d9706bf77dp-9
4128=0x1.1fc6537109273p-6
4129=-0x1.7746781b5456ep+0
4130=0x1.7dc13e751f809p-7
4216=-0x1.0546863cf0c53p-8
4217=0x1.819ae404bc8a9p-4
4218=-0x1.37f9d8441eadfp-12
4441=0x1.f2eaf984f59afp-9
4660=0x1.e23310d10e824p-3
4661=-0x1.6124cd480e29fp+0
4662=0x1.d5bcd23a7e2b4p-3
4696=0x1.a39cc2ad926d4p-2
4697=-0x1.04a658c3a436ep+0
4698=0x1.6916268384cb1p-3
4813=-0x1.6f1c426fdf67bp+1
4814=0x1.9a3abc875a86fp+1
4977=0x1.62c073154e0fap-6
4980=0x1.2c0722f38bf5fp-1
4993=-0x1.87909024872d9p+0
5084=0x1.2e75f778fc4bp+0
5085=-0x1.3a93c4731af05p-1
5109=0x1.dae482f362fa6p-9
5160=0x1.d74988e053e14p+0
5161=-0x1.0ee66a4484b42p-1
5162=-0x1.0dc1a096c3dfap-17
5164=0x1.1e9005bbcad36p-3
5165=-0x1.ceb05febcfb6ap-1
5166=0x1.c5f3edabf0147p-8
5168=0x1.e3128d33201ddp-1
5169=-0x1.ec1a50f83d7dp-1
5170=0x1.48fc5f653b65bp-1
5171=-0x1.80d91ded37448p-8
5173=0x1.bfd5adc27df33p-9
5190=0x1.6d94b32a7e949p-5
5192=0x1.8a056e84c81eap-5
5193=-0x1.1a7439096c18cp+0
5200=-0x1.d28343ea2fa4cp-2
5201=0x1.77b8b425d3152p-15
5204=0x1.9e3f2f925cb93p-6
5205=-0x1.3adae801a5811p+0
5208=0x1.9e828b7f34917p-2
5217=-0x1.ed7ae21a8b0a6p-1
5232=0x1.e05281c1ea169p+0
5233=-0x1.5bf144f7aac19p-2
5252=0x1.29c7e86b9287ep-10
5254=-0x1.572f954b3b97p-3
5260=0x1.9cf45b3a11804p-2
5261=-0x1.486a5b9418237p+1
5262=0x1.7d5e2260ab598p-2
5281=-0x1.20d5ede0bd8e7p+0
5285=-0x1.e2fb217201f9fp+0
5288=0x1.c9a028ea005bep-13
5360=0x1.88e04912578f7p-3
5361=-0x1.0edddc49986f6p-8
5396=0x1.f7634071111a7p+0
5397=-0x1.9beac296ea0fbp+1
5400=0x1.431fcfa625841p+1
5401=-0x1.ffd0a4e96facfp-5
5402=-0x1.2c2ef0729c311p-7
5424=-0x1.48e4454e4461ap-11
5425=0x1.dc593b2a0c867p-8
5444=0x1.099e49eec9f23p+0
5445=-0x1.27c7307eea461p-4
5452=0x1.3f50c89e60ca4p-6
5461=0x1.1e5f5ddd47f98p-10
5481=-0x1.a4162eaaf6d5p+0
5505=-0x1.01cb45011885dp+0
5513=0x1.9ad898a9d4ebdp-5
5548=0x1.f6f3a0663897dp-1
5549=-0x1.35c7cd8a5787dp-2
5557=-0x1.a08a255b6d2bp+1
5558=0x1.bddca0f88e1fap+1
5569=0x1.470edb1dc4d29p-8
5571=-0x1.0258b48fea588p-10
5585=-0x1.99b08d34e26eep+0
5586=0x1.eca78ddc94f79p-4
5617=-0x1.11403914e37c2p+1
5632=0x1.42a6a317c0d56p-4
5633=-0x1.861c8a5702a4bp+1
5693=0x1.85f765d1dcc22p-14
5712=0x1.73d4c82cd25dcp-2
5713=-0x1.590fc3836337p+0
5718=0x1.2d7bf414ff768p-9
5721=-0x1.e33222671edd1p-7
5724=-0x1.e09a9eb45f8d8p-6
5725=0x1.d7158bb1660b5p-2
5733=-0x1.7acddcdf8a2c8p+1
5776=0x1.1543d92178df4p-4
5777=-0x1.6418b041d6a8bp+1
5793=-0x1.6f6fa8f85f812p+1
5801=-0x1.0975ffe5ecdc6p-6
5802=0x1.0539772ebdf6ap+1
5809=-0x1.b6264585cb113p+0
5817=0x1.e524f2ea98ce2p-6
5820=0x1.d41630758818bp-2
5821=-0x1.e665296387e3ep-12
5846=0x1.e834aa6825a7cp-2
5849=-0x1.5f0ca4681fd9dp+0
5850=0x1.074eccee44392p-1
5851=0x1.1dc6f86402f62p+1
5881=0x1.d376c75358bacp-6
5882=-0x1.410e8afbb111ep-19
5885=0x1.ac68b339a3c84p-7
5909=-0x1.aab66be32b761p+0
5932=0x1.ec153643c2cc3p-7
5933=-0x1.ffd85dca5caecp+0
5934=0x1.f98f25184d9dep-7
5969=-0x1.7f89b116d56f8p+0
5980=0x1.bb9f266455624p+0
5981=-0x1.0e9f874548871p-1
5985=0x1.5f9ae727172d1p-18
6044=0x1.2c72650e78b59p-6
6045=-0x1.c639adc51e151p-13
6229=-0x1.79bdc97557478p-2
6230=0x1.9189cf8e1e4cap-1
6288=0x1.e09cb46e5d75bp-3
6289=-0x1.5f84bab773923p+0
6290=0x1.af13bacda967cp-3
6305=-0x1.f2c3034d2ea95p-6
6306=0x1.4891764b523ap+0
6453=0x1.aa01514c2d921p-12
6521=0x1.8095bc86480c7p-18
6565=-0x1.0f89bf9166181p+1
6597=0x1.8837fb60d3469p-7
6640=0x1.dd3f1642204c1p-2
6641=-0x1.814de008a235p+0
6704=0x1.22d43f3c78b0cp-1
6705=-0x1.47cdb9662b966p+1
6706=0x1.3193f6fb72ef5p-1
6745=0x1.628b57eb45d1ep-11
6784=0x1.58145fa282576p-1
6785=-0x1.617c03025e091p+1
6789=-0x1.48f325e8eadfap+1
6821=0x1.437bcea94a101p-2
6889=-0x1.74e9b9a482b13p+0
6905=-0x1.193e35d7b0be4p+1
6928=0x1.4e46d67dacfa5p-6
6929=-0x1.fa4e2f1a14ba8p-3
6930=0x1.4b0afbd3bee26p-7
6976=0x1.0681e2d680f77p-7
6977=-0x1.e719bb97021dep-13
7189=-0x1.cddc3fd5210ap-6
7190=0x1.8adb21daae8bep-1
7192=0x1.6a65f1f650848p-10
7209=-0x1.1ad6ad7c85905p-2
7210=0x1.042b79df12e13p+1
7241=-0x1.7eea3e1edbd31p-1
7249=-0x1.6bcfe7260054ep+1
7257=-0x1.d337df1176577p-1
7289=0x1.13cb38209540ep-2
7320=0x1.5011769b83d68p-4
7321=-0x1.30ecdf2b87b99p+1
7322=0x1.459638980d26ep-4
