#mdl#2#1245
#rdr#25/7/0
9:u:%x[0,0],
10:u:%x[-1,0],
9:u:%x[1,0],
9:u:%x[0,1],
10:u:%x[-1,1],
9:u:%x[1,1],
9:u:%x[0,2],
10:u:%x[-1,2],
9:u:%x[1,2],
9:u:%x[0,3],
10:u:%x[-1,3],
9:u:%x[1,3],
9:u:%x[0,4],
10:u:%x[-1,4],
9:u:%x[1,4],
9:u:%x[0,5],
10:u:%x[-1,5],
9:u:%x[1,5],
9:u:%x[0,6],
10:u:%x[-1,6],
9:u:%x[1,6],
9:u:%x[0,7],
10:u:%x[-1,7],
9:u:%x[1,7],
2:b:,
#qrk#4
4:pA_B,
4:pA_I,
4:pA_L,
4:pA_U,
#qrk#1880
9:u:all\\o^,
6:u:_x-1,
5:u:"c",
4:u:10,
4:u:15,
4:u:12,
3:u:7,
3:u:8,
4:u:83,
4:u:81,
4:u:43,
4:u:42,
4:u:44,
4:u:40,
2:b:,
5:u:est,
6:u:_x+1,
5:u:oui,
3:u:6,
4:u:82,
4:u:38,
4:u:41,
4:u:37,
6:u:\\ca,
4:u:va,
3:u:9,
4:u:17,
4:u:39,
4:u:et,
4:u:11,
4:u:26,
5:u:toi,
5:u:dis,
4:u:14,
4:u:je,
4:u:13,
9:u:voulais,
4:u:te,
4:u:80,
10:u:demander,
4:u:86,
8:u:demain,
4:u:84,
4:u:vu,
5:u:que,
4:u:on,
3:u:a,
6:u:"qu",
5:u:une,
7:u:heure,
6:u:pour,
8:u:manger,
4:u:85,
5:u:euh,
5:u:dit,
3:u:5,
7:u:aille,
8:u:dehors,
4:u:hm,
4:u:31,
3:u:4,
4:u:88,
4:u:NA,
6:u:sais,
5:u:pas,
4:u:en,
6:u:fait,
7:u:parce,
4:u:28,
4:u:le,
6:u:truc,
4:u:21,
4:u:35,
4:u:19,
4:u:20,
4:u:18,
4:u:29,
5:u:"j",
4:u:ai,
8:u:encore,
4:u:33,
4:u:de,
9:u:monnaie,
4:u:ah,
7:u:ouais,
6:u:donc,
4:u:du,
6:u:coup,
10:u:voudrait,
6:u:dire,
11:u:mangerait,
7:u:genre,
4:u:25,
4:u:un,
10:u:sandwich,
5:u:non,
6:u:vrai,
6:u:trop,
4:u:87,
3:u:1,
5:u:top,
7:u:enfin,
4:u:27,
3:u:2,
4:u:24,
4:u:32,
4:u:22,
7:u:comme,
4:u:23,
4:u:m-,
4:u:f-,
4:u:me,
4:u:34,
8:u:saoule,
5:u:peu,
5:u:des,
12:u:sandwiches,
10:u:voil\\a`,
12:u:"d\\epend",
4:u:si,
4:u:il,
6:u:nous,
10:u:l\\a^che,
7:u:avant,
4:u:ou,
4:u:30,
5:u:"d",
8:u:accord,
4:u:tu,
8:u:retard,
6:u:voit,
3:u:y,
4:u:la,
7:u:queue,
6:u:\\a`,
8:u:limite,
6:u:veux,
4:u:ok,
8:u:"\\e-",
11:u:"\\etait",
13:u:"pr\\evoir",
5:u:moi,
7:u:aussi,
6:u:faut,
8:u:prenne,
5:u:"l",
8:u:argent,
5:u:sur,
6:u:vois,
11:u:"daccord",
6:u:mais,
7:u:mange,
8:u:salade,
8:u:laisse,
6:u:peut,
7:u:aller,
9:u:cantine,
7:u:toute,
9:u:fa\\con,
8:u:pareil,
9:u:appeler,
5:u:vas,
8:u:donner,
9:u:petites,
6:u:news,
9:u:comment,
5:u:ça,
8:u:allait,
4:u:91,
7:u:avais,
4:u:se,
6:u:voie,
7:u:même,
6:u:elle,
5:u:là,
10:u:faudrait,
7:u:alors,
4:u:ce,
6:u:mois,
4:u:ci,
8:u:passé,
4:u:à,
8:u:allure,
6:u:quoi,
7:u:été,
7:u:super,
5:u:ric,
5:u:rac,
5:u:ben,
8:u:façon,
11:u:attendais,
8:u:retour,
10:u:réunion,
5:u:"m",
8:u:étais,
8:u:aurait,
4:u:pu,
6:u:voir,
7:u:quand,
7:u:faire,
8:u:voilà,
5:u:bon,
3:u:3,
6:u:puis,
8:u:après,
7:u:temps,
7:u:passe,
12:u:finalement,
8:u:arrive,
10:u:bientôt,
5:u:fin,
4:u:16,
7:u:très,
6:u:vite,
12:u:exactement,
4:u:j-,
7:u:être,
8:u:essaie,
7:u:caler,
6:u:vous,
8:u:dirait,
9:u:semaine,
11:u:prochaine,
6:u:bien,
6:u:pris,
10:u:vendredi,
8:u:samedi,
8:u:"cest",
10:u:possible,
17:u:éventuellement,
10:u:gérable,
6:u:soir,
6:u:cool,
12:u:clairement,
9:u:reparle,
12:u:carrément,
6:u:vais,
12:u:rapidement,
4:u:au,
7:u:moins,
9:u:envoyer,
6:u:mail,
5:u:pis,
10:u:toujours,
12:u:compliqué,
11:u:plusieurs,
4:u:as,
8:u:raison,
9:u:propose,
9:u:instant,
5:u:"t",
7:u:irait,
9:u:parfait,
5:u:où,
6:u:hein,
5:u:nan,
8:u:disais,
8:u:petite,
8:u:bouffe,
6:u:mai-,
8:u:maison,
9:u:bonjour,
4:u:89,
7:u:salut,
9:u:entendu,
7:u:bruit,
7:u:merde,
8:u:entend,
9:u:arriver,
6:u:loin,
7:u:chaud,
5:u:ici,
7:u:aviez,
10:u:chouette,
11:u:installer,
5:u:les,
8:u:filles,
6:u:pose,
5:u:nos,
10:u:affaires,
6:u:waou,
4:u:90,
8:u:faites,
6:u:chez,
5:u:tes,
12:u:chaussures,
9:u:enlève,
5:u:mes,
9:u:obligé,
7:u:garde,
8:u:mettre,
6:u:joli,
6:u:suis,
10:u:craquée,
7:u:cette,
8:u:année,
10:u:rondelle,
8:u:citron,
6:u:tout,
6:u:plus,
8:u:grands,
6:u:2.02,
5:u:ils,
6:u:sont,
11:u:chouettes,
5:u:ces,
8:u:verres,
7:u:beaux,
10:u:achetés,
9:u:exprès,
5:u:ouh,
5:u:mis,
11:u:chauffage,
7:u:crois,
6:u:tour,
10:u:obligée,
6:u:fond,
11:u:autrement,
8:u:marche,
6:u:c“,
7:u:loose,
6:u:soit,
7:u:zéro,
9:u:éteint,
8:u:chiant,
6:u:fais,
11:u:engueuler,
10:u:consomme,
6:u:sers,
7:u:sûre,
4:u:oh,
8:u:partir,
8:u:moment,
8:u:rigolo,
5:u:ch-,
8:u:savais,
7:u:avait,
7:u:aimé,
7:u:avoir,
8:u:autres,
8:u:graals,
8:u:prévu,
11:u:inquiète,
8:u:paille,
7:u:allez,
10:u:habitude,
9:u:cuisine,
8:u:êtres,
7:u:miser,
15:u:présentation,
10:u:croirait,
6:u:dans,
8:u:dîner,
9:u:presque,
10:u:chercher,
7:u:autre,
7:u:mince,
13:u:commençais,
7:u:boire,
5:u:cas,
9:u:plaisir,
5:u:"n",
10:u:empêche,
7:u:clair,
11:u:longtemps,
4:u:d-,
5:u:vue,
8:u:depuis,
5:u:cet,
14:u:anniversaire,
5:u:"s",
6:u:vues,
9:u:remonte,
5:u:par,
11:u:croisées,
8:u:métro,
7:u:trois,
9:u:arrêts,
8:u:était,
5:u:qui,
10:u:vraiment,
6:u:aïe,
8:u:vôtre,
8:u:santé,
8:u:mignon,
4:u:ma,
7:u:mère,
8:u:gardes,
8:u:cognac,
6:u:gros,
6:u:mets,
10:u:beaucoup,
13:u:normalement,
8:u:classe,
4:u:ne,
7:u:juste,
10:u:histoire,
7:u:petit,
6:u:sûr,
4:u:a-,
9:u:passée,
4:u:es,
7:u:seule,
9:u:souvent,
7:u:cours,
7:u:lundi,
13:u:interaction,
9:u:verbale,
6:u:lun-,
6:u:midi,
7:u:mardi,
10:u:mercredi,
9:u:syntaxe,
9:u:oublier,
6:u:neuf,
8:u:heures,
7:u:matin,
7:u:jeudi,
8:u:psycho,
6:u:demi,
6:u:fois,
6:u:deux,
6:u:int-,
9:u:analyse,
19:u:conversationnelle,
7:u:exact,
7:u:reste,
11:u:formation,
8:u:rester,
8:u:prends,
6:u:pire,
7:u:train,
9:u:revenir,
7:u:vient,
9:u:voiture,
9:u:crevée,
9:u:rentrer,
8:u:chaque,
10:u:aimerais,
8:u:restes,
9:u:ramène,
6:u:sait,
8:u:jamais,
9:u:quelque,
7:u:chose,
7:u:faute,
8:u:tomber,
10:u:pourquoi,
13:u:franchement,
14:u:gestionnaire,
7:u:paies,
9:u:croyais,
9:u:reprend,
8:u:début,
7:u:soeur,
9:u:galère,
5:u:son,
8:u:master,
4:u:sa,
11:u:première,
8:u:loupé,
13:u:recommencé,
11:u:deuxième,
10:u:reloupé,
5:u:ont,
6:u:rien,
8:u:savait,
4:u:s-,
9:u:voulait,
10:u:retenter,
12:u:troisième,
7:u:idée,
7:u:monde,
9:u:travail,
7:u:marre,
10:u:arrivée,
7:u:vingt,
8:u:quatre,
5:u:ans,
15:u:compréhensif,
8:u:partie,
9:u:essayer,
10:u:cherché,
9:u:trouvé,
5:u:ad-,
9:u:adultes,
9:u:appelle,
6:u:sai-,
14:u:considérée,
12:u:étudiante,
12:u:intégrée,
8:u:dedans,
5:u:ami,
7:u:style,
5:u:de-,
10:u:semaines,
12:u:entreprise,
9:u:bizarre,
9:u:passait,
8:u:déjà,
5:u:mal,
9:u:compris,
13:u:réellement,
7:u:cadre,
9:u:choisie,
7:u:prise,
10:u:logiciel,
8:u:permet,
9:u:censés,
5:u:eux,
11:u:expliquer,
16:u:fonctionnement,
5:u:aux,
13:u:entreprises,
9:u:doivent,
6:u:bons,
8:u:calée,
9:u:déçue,
7:u:cause,
7:u:allô,
8:u:coucou,
10:u:appelais,
6:u:avec,
8:u:parlé,
11:u:septembre,
8:u:veniez,
7:u:fête,
11:u:lumières,
12:u:invitation,
7:u:tient,
7:u:fasse,
6:u:cher,
8:u:savoir,
8:u:disait,
7:u:venir,
8:u:priori,
5:u:lui,
13:u:particulier,
9:u:regarde,
9:u:surtout,
6:u:prix,
9:u:billets,
7:u:jouer,
8:u:boulot,
6:u:peux,
10:u:regarder,
12:u:maintenant,
10:u:rappelle,
10:u:regardé,
6:u:coca,
9:u:attaque,
8:u:pizzas,
9:u:attends,
6:u:sors,
8:u:occupe,
6:u:1.10,
4:u:ta,
9:u:chèvre,
13:u:champignons,
8:u:jambon,
8:u:dessus,
10:u:pourrait,
7:u:sympa,
6:u:rire,
8:u:viande,
9:u:hachée,
9:u:chorizo,
10:u:poivrons,
12:u:allumettes,
9:u:lardons,
8:u:besoin,
9:u:occuper,
7:u:pâte,
5:u:ton,
5:u:job,
5:u:yes,
10:u:claquée,
5:u:dur,
6:u:week,
5:u:end,
11:u:émotions,
7:u:maman,
11:u:ressortir,
7:u:pense,
7:u:droit,
7:u:pète,
8:u:putain,
8:u:péter,
5:u:hé,
6:u:fous,
9:u:partout,
7:u:celle,
7:u:assez,
7:u:tiré,
9:u:arrives,
9:u:content,
7:u:jeté,
10:u:poubelle,
10:u:pratique,
8:u:bordel,
12:u:chicouille,
7:u:mieux,
12:u:dépêches,
8:u:chiche,
10:u:commande,
9:u:branche,
6:u:fils,
10:u:trancher,
7:u:gorge,
6:u:hier,
8:u:abusé,
6:u:dise,
10:u:balancer,
6:u:ayé,
6:u:vont,
10:u:emmerder,
4:u:t-,
12:u:vêtements,
6:u:êt-,
10:u:choquée,
9:u:acheté,
8:u:esprit,
9:u:laisses,
6:u:ceux,
7:u:hiver,
10:u:énervé,
5:u:don,
10:u:énerver,
9:u:rouleau,
13:u:pâtisserie,
6:u:oula,
8:u:aurais,
12:u:préféré,
9:u:trouver,
6:u:sans,
8:u:manche,
6:u:aime,
11:u:préfère,
9:u:manches,
10:u:échappe,
7:u:mains,
6:u:sera,
10:u:présent,
14:u:physiquement,
6:u:sept,
8:u:rentre,
9:u:pratico,
7:u:delà,
5:u:ait,
13:u:billetterie,
7:u:salle,
11:u:spectacle,
10:u:"quelqu",
9:u:entrée,
9:u:décide,
5:u:pot,
9:u:souhait,
6:u:pots,
5:u:so-,
14:u:conférences,
9:u:débats,
8:u:budget,
10:u:organise,
4:u:l-,
14:u:installation,
11:u:matériel,
5:u:mai,
6:u:main,
7:u:place,
8:u:tables,
9:u:chaises,
9:u:caetera,
6:u:okay,
8:u:compte,
5:u:mon,
8:u:agenda,
11:u:organiser,
7:u:serai,
6:u:mer-,
9:u:"jusqu",
7:u:aider,
11:u:théâtre,
7:u:souci,
7:u:point,
15:u:interrogation,
10:u:partiras,
10:u:viendrai,
11:u:resterais,
8:u:serait,
8:u:quelle,
4:u:96,
6:u:acc-,
6:u:tous,
11:u:mercredis,
8:u:fermé,
6:u:fini,
11:u:sûrement,
5:u:au-,
6:u:aura,
13:u:sollicitera,
7:u:votre,
9:u:atelier,
9:u:combien,
7:u:durer,
9:u:sachant,
9:u:numéro,
12:u:disponible,
5:u:dix,
6:u:huit,
13:u:conférence,
6:u:lieu,
8:u:rapide,
12:u:tranquille,
8:u:plaît,
9:u:horaire,
7:u:coût,
10:u:soixante,
7:u:euros,
8:u:blague,
10:u:comprise,
9:u:parlait,
9:u:fautive,
8:u:parlez,
8:u:fautif,
11:u:problème,
12:u:organisera,
9:u:acheter,
13:u:cacahuètes,
10:u:boissons,
8:u:suffit,
7:u:voyez,
8:u:choses,
8:u:débat,
11:u:organisez,
4:u:v-,
12:u:rencontrez,
6:u:plan,
7:u:suite,
9:u:contenu,
5:u:doc,
12:u:distribuer,
10:u:vacances,
8:u:quinze,
7:u:jours,
5:u:va-,
9:u:pendant,
7:u:avril,
12:u:travailler,
5:u:com,
9:u:diffuse,
9:u:affaire,
7:u:roule,
7:u:poser,
10:u:question,
15:u:communication,
9:u:support,
8:u:facile,
9:u:plutôt,
10:u:diffuser,
9:u:ensuite,
10:u:imaginer,
9:u:journal,
6:u:veut,
9:u:toucher,
12:u:population,
7:u:voter,
12:u:absolument,
10:u:sensible,
9:u:départ,
12:u:communique,
12:u:brouillard,
9:u:connais,
11:u:travaille,
8:u:Europe,
7:u:lieux,
15:u:prédilection,
7:u:doute,
8:u:public,
8:u:trouve,
9:u:verrais,
4:u:92,
9:u:espèce,
7:u:tract,
11:u:immeubles,
9:u:boîtes,
9:u:lettres,
10:u:quartier,
7:u:abord,
8:u:toutes,
12:u:activités,
15:u:systématique,
7:u:coupe,
12:u:aléatoire,
9:u:voisins,
6:u:cent,
12:u:locataires,
11:u:viendront,
7:u:elles,
13:u:condamnées,
9:u:motivé,
9:u:sportif,
13:u:parenthèse,
6:u:avez,
8:u:idées,
14:u:illuminantes,
10:u:hésitez,
8:u:membre,
7:u:verra,
13:u:facturation,
9:u:facture,
14:u:"aujourdhui",
8:u:pardon,
10:u:terminé,
10:u:rentrée,
11:u:nutrition,
6:u:gens,
10:u:viennent,
5:u:MJC,
6:u:Oul-,
9:u:Oullins,
11:u:personnes,
10:u:seraient,
9:u:octobre,
7:u:dates,
4:u:i-,
11:u:envisager,
8:u:saison,
9:u:courant,
6:u:juin,
9:u:juillet,
11:u:réserver,
7:u:trucs,
10:u:prépare,
6:u:fixe,
10:u:dérange,
5:u:air,
11:u:derrière,
6:u:pote,
10:u:Bastille,
9:u:écoute,
7:u:diras,
9:u:répond,
13:u:téléphone,
10:u:réponds,
9:u:paraît,
6:u:part,
10:u:appelée,
9:u:demande,
10:u:regardes,
9:u:entends,
7:u:reçu,
10:u:messages,
9:u:appelé,
10:u:dimanche,
8:u:excuse,
15:u:crémaillère,
11:u:présente,
9:u:essayé,
13:u:rencontrée,
5:u:ja-,
9:u:pouvait,
8:u:passer,
8:u:venait,
11:u:repartait,
8:u:rendus,
9:u:pouvoir,
11:u:descendre,
8:u:penses,
9:u:suivant,
10:u:faisable,
9:u:bonsoir,
7:u:merci,
9:u:restés,
10:u:nombreux,
8:u:soucis,
8:u:emploi,
11:u:cinquante,
9:u:minutes,
10:u:exprimer,
7:u:court,
6:u:bref,
14:u:synthétique,
13:u:géographie,
9:u:science,
11:u:synthèse,
10:u:quarante,
6:u:cinq,
11:u:comprenez,
12:u:véritable,
7:u:défi,
8:u:lancé,
11:u:excuserez,
10:u:certains,
9:u:aspects,
9:u:pourrai,
11:u:évidence,
6:u:tard,
10:u:ailleurs,
5:u:lie,
7:u:utile,
11:u:agréable,
10:u:"lorsqu",
12:u:géographe,
11:u:ruraliste,
7:u:vigne,
5:u:vin,
16:u:généralement,
9:u:termine,
9:u:chanson,
7:u:caves,
7:u:force,
14:u:dégustation,
8:u:ferons,
10:u:heureuse,
12:u:accueillir,
9:u:travaux,
11:u:pratiques,
9:u:reconnu,
9:u:panneau,
8:u:UNESCO,
5:u:Val,
7:u:Loire,
11:u:essentiel,
10:u:discours,
8:u:porter,
10:u:quelques,
14:u:définitions,
16:u:mondialisation,
11:u:reprendre,
10:u:définit,
13:u:représente,
11:u:notamment,
9:u:Laurent,
10:u:Carroué,
14:u:actuellement,
12:u:président,
9:u:respon-,
7:u:CAPES,
12:u:territoire,
9:u:inscrit,
13:u:géographes,
9:u:discute,
10:u:juristes,
12:u:également,
14:u:économistes,
10:u:manière,
12:u:présenter,
13:u:territoires,
11:u:simplifie,
11:u:Alexandre,
7:u:Moine,
7:u:mille,
14:u:interactions,
7:u:entre,
9:u:acteurs,
8:u:espace,
15:u:géographique,
6:u:cela,
10:u:reprends,
4:u:p-,
10:u:anglaise,
8:u:Jancis,
10:u:Robinson,
9:u:assiste,
11:u:mouvement,
11:u:diffusion,
9:u:passion,
14:u:consommation,
12:u:incroyable,
9:u:limites,
8:u:dirais,
12:u:oekoumène,
10:u:planète,
9:u:extrait,
11:u:contraire,
13:u:rétraction,
6:u:pays,
20:u:traditionnellement,
15:u:consommateurs,
13:u:producteurs,
14:u:exportateurs,
7:u:sorte,
15:u:contradiction,
6:u:ceci,
6:u:lié,
7:u:voulu,
9:u:montrer,
6:u:quel,
6:u:sens,
10:u:sérieux,
7:u:cirer,
7:u:tirer,
10:u:citation,
9:u:écrite,
14:u:circonstance,
8:u:écris,
10:u:articles,
12:u:simplement,
12:u:retiendrai,
9:u:dernier,
11:u:élément,
12:u:comprendre,
15:u:effectivement,
13:u:référence,
8:u:essaye,
13:u:présentent,
14:u:vitivinicole,
6:u:1.00,
11:u:société,
16:u:intermédiaire,
9:u:actions,
14:u:informations,
11:u:remontent,
12:u:éléments,
12:u:permettent,
9:u:paysage,
16:u:véritablement,
7:u:image,
9:u:visible,
9:u:renvoie,
6:u:leur,
9:u:surface,
11:u:terrestre,
8:u:niveau,
13:u:négociants,
14:u:commerçants,
20:u:interprofessionnel,
15:u:professionnel,
11:u:gravitent,
8:u:autour,
13:u:fondamental,
11:u:important,
13:u:exportation,
13:u:importation,
12:u:production,
9:u:gestion,
5:u:AOC,
5:u:AOP,
7:u:rôle,
13:u:grandissant,
9:u:veulent,
9:u:prendre,
7:u:poids,
9:u:excusez,
13:u:directement,
16:u:problématique,
7:u:quels,
9:u:moteurs,
8:u:freins,
11:u:expansion,
8:u:mesure,
13:u:considérer,
8:u:France,
8:u:remise,
11:u:approches,
11:u:proposent,
9:u:optique,
14:u:territoriale,
9:u:insiste,
9:u:traiter,
6:u:cel-,
11:u:certaines,
10:u:prévues,
9:u:thèmes,
14:u:événements,
12:u:fondateurs,
8:u:parler,
7:u:mythe,
11:u:fondateur,
12:u:archétype,
12:u:historique,
9:u:puisque,
10:u:suggère,
11:u:fortement,
12:u:rechercher,
13:u:différents,
8:u:seuils,
16:u:chronologiques,
8:u:amené,
13:u:évolutions,
7:u:près,
9:u:produit,
11:u:seulement,
10:u:agricole,
10:u:culturel,
11:u:religieux,
8:u:relier,
10:u:religion,
13:u:chrétienne,
9:u:assuré,
4:u:eu,
8:u:série,
8:u:crises,
15:u:fondamentales,
11:u:neuvième,
9:u:siècle,
12:u:entraîné,
11:u:création,
14:u:appellations,
9:u:origine,
13:u:contrôlée,
15:u:rapprochement,
8:u:points,
6:u:vins,
9:u:terroir,
9:u:cépage,
9:u:banquet,
8:u:Platon,
14:u:fondamentaux,
8:u:quête,
10:u:vérité,
11:u:évoquent,
11:u:symposium,
6:u:grec,
10:u:convives,
9:u:passent,
10:u:cratère,
8:u:lequel,
5:u:eau,
6:u:font,
8:u:éloge,
7:u:amour,
6:u:lors,
10:u:banquets,
9:u:lancent,
8:u:défis,
10:u:essayent,
12:u:apprécié,
7:u:ainsi,
5:u:né,
12:u:guillemets,
17:u:interprétation,
13:u:personnelle,
9:u:permets,
13:u:philosophie,
8:u:Grèce,
7:u:verre,
5:u:re-,
11:u:retrouver,
7:u:tiens,
11:u:préciser,
9:u:vivante,
8:u:notée,
8:u:propos,
10:u:Arménie,
12:u:Françoise,
11:u:Ardillier,
10:u:chansons,
11:u:réponses,
5:u:sud,
7:u:ouest,
11:u:français,
9:u:exemple,
10:u:revenant,
10:u:Bidarray,
12:u:connaissez,
8:u:voulez,
8:u:mangé,
4:u:bu,
10:u:ensemble,
10:u:commence,
9:u:strophe,
6:u:doit,
10:u:terminer,
5:u:mot,
10:u:internet,
8:u:verrez,
12:u:insisterai,
10:u:oreilles,
12:u:pourraient,
11:u:supporter,
10:u:origines,
14:u:caucasiennes,
14:u:fondamenteur,
7:u:noces,
6:u:Cana,
9:u:travers,
9:u:tableau,
12:u:Véronèse,
14:u:interpréter,
4:u:lu,
11:u:Évangile,
6:u:Jean,
13:u:personnages,
7:u:clés,
8:u:jeunes,
9:u:mariés,
8:u:marié,
7:u:femme,
9:u:mariée,
6:u:coin,
8:u:contre,
8:u:donné,
8:u:durant,
6:u:vint,
9:u:manquer,
7:u:grave,
8:u:erreur,
9:u:parents,
7:u:rater,
7:u:leurs,
7:u:Marie,
12:u:intervient,
17:u:personnellement,
8:u:Jésus,
10:u:signifie,
11:u:implicite,
8:u:oeuvre,
10:u:réclame,
7:u:venue,
11:u:attention,
10:u:réponse,
11:u:serviteur,
6:u:dira,
9:u:remplir,
8:u:jarres,
10:u:apporter,
9:u:maître,
13:u:cérémonie,
10:u:changée,
16:u:extraordinaire,
14:u:fondamentale,
16:u:transformation,
12:u:exégètes,
8:u:disent,
15:u:premièrement,
6:u:agit,
13:u:institution,
13:u:eucharistie,
11:u:sacrifice,
7:u:croix,
6:u:dont,
8:u:verser,
6:u:sang,
11:u:humanité,
6:u:pain,
12:u:considère,
7:u:vraie,
12:u:nourriture,
9:u:boisson,
7:u:envie,
9:u:rapport,
13:u:thématique,
11:u:proposée,
8:u:sommes,
6:u:ange,
9:u:ressort,
10:u:extraits,
8:u:sortir,
19:u:caractéristiques,
9:u:aliment,
8:u:festif,
7:u:objet,
14:u:civilisation,
19:u:méditerranéenne,
8:u:certes,
8:u:judéo,
10:u:tendance,
8:u:perdre,
11:u:influence,
7:u:perdu,
8:u:aspect,
10:u:continue,
8:u:garder,
7:u:modes,
9:u:changé,
12:u:auparavant,
10:u:buvaient,
17:u:régulièrement,
11:u:coupaient,
15:u:particulière,
14:u:disparaître,
8:u:grande,
9:u:vitesse,
9:u:plupart,
9:u:disparu,
12:u:bataillons,
9:u:paysans,
11:u:autrefois,
10:u:ouvriers,
10:u:courante,
15:u:complètement,
14:u:transmission,
7:u:inch-,
24:u:intergénérationnelle,
11:u:quasiment,
6:u:rite,
9:u:faisait,
9:u:famille,
7:u:père,
11:u:tellement,
7:u:pater,
10:u:familial,
11:u:apprenait,
5:u:ses,
9:u:enfants,
8:u:buvait,
6:u:âge,
6:u:clé,
13:u:commençait,
11:u:commencer,
10:u:explique,
11:u:Bourgogne,
7:u:rouge,
12:u:forcément,
10:u:approche,
12:u:intronisé,
6:u:fée,
11:u:sorcière,
8:u:Marine,
8:u:vivait,
6:u:haut,
7:u:nuage,
10:u:château,
7:u:tours,
9:u:dorées,
8:u:reçut,
10:u:baguette,
9:u:magique,
7:u:bête,
8:u:patins,
11:u:roulettes,
7:u:magi-,
8:u:simple,
9:u:rollers,
10:u:pourrais,
8:u:casser,
5:u:nez,
9:u:tombant,
7:u:digne,
8:u:cadeau,
10:u:recevoir,
8:u:bateau,
9:u:exclama,
10:u:basculer,
6:u:robe,
13:u:dégoutante,
9:u:chapeau,
7:u:jeter,
7:u:fées,
10:u:devaient,
11:u:gentilles,
9:u:propres,
8:u:tartes,
9:u:miettes,
6:u:thé,
11:u:renverser,
7:u:tache,
10:u:raconter,
6:u:voix,
12:u:mielleuses,
11:u:histoires,
8:u:douces,
9:u:tendres,
8:u:agiter,
5:u:ca-,
9:u:gâteau,
6:u:beau,
8:u:cerise,
10:u:trouvait,
14:u:terriblement,
12:u:ennuyeuses,
17:u:malheureusement,
10:u:bouillo-,
9:u:bouill-,
11:u:bouillote,
11:u:théière,
12:u:sorcières,
9:u:avaient,
7:u:salir,
7:u:crier,
9:u:patiner,
10:u:naviguer,
6:u:bord,
6:u:jour,
10:u:sursauta,
9:u:horreur,
8:u:écria,
9:u:devrais,
7:u:honte,
8:u:frappa,
6:u:pied,
7:u:hurla,
10:u:certaine,
15:u:approchèrent,
8:u:dirent,
11:u:horribles,
12:u:crâneuses,
12:u:concoctent,
9:u:potions,
13:u:dangereuses,
13:u:transformer,
9:u:crapaud,
5:u:fit,
9:u:devenir,
8:u:existe,
8:u:règle,
8:u:gronda,
8:u:docile,
10:u:soignée,
9:u:insista,
11:u:répliqua,
10:u:furieuse,
9:u:endroit,
6:u:bois,
9:u:soupira,
10:u:envolant,
9:u:regarda,
9:u:tardera,
8:u:envole,
9:u:cliques,
9:u:claques,
7:u:vivre,
10:u:trompait,
11:u:convenait,
14:u:parfaitement,
13:u:construisit,
12:u:magnifique,
8:u:cabane,
8:u:duquel,
9:u:navigua,
10:u:rivière,
9:u:nourrir,
10:u:cueillit,
7:u:baies,
11:u:noisettes,
10:u:étaient,
11:u:adorables,
8:u:prêta,
5:u:mit,
12:u:serpentant,
8:u:arbres,
7:u:belle,
7:u:patin,
7:u:tête,
7:u:longs,
8:u:noeuds,
6:u:cro-,
9:u:crochus,
11:u:justement,
8:u:crochu,
9:u:marrant,
8:u:offrit,
7:u:jeune,
7:u:fille,
7:u:balai,
10:u:flambant,
11:u:aussitôt,
8:u:voulut,
11:u:apprendre,
7:u:voler,
10:u:empoigna,
7:u:engin,
8:u:grimpa,
7:u:arbre,
16:u:encouragèrent,
7:u:sauta,
7:u:resta,
11:u:suspendue,
6:u:airs,
9:u:écrasa,
5:u:sol,
7:u:pensa,
10:u:redressa,
8:u:essaya,
9:u:nouveau,
6:u:bout,
9:u:parvint,
14:u:applaudirent,
8:u:rompre,
8:u:volant,
10:u:effleura,
10:u:renversa,
6:u:seau,
5:u:jus,
11:u:groseille,
14:u:soupirèrent,
9:u:trouves,
10:u:chapeaux,
9:u:pointus,
6:u:noir,
7:u:moche,
13:u:cuisinière,
10:u:marrante,
8:u:fonça,
11:u:direction,
6:u:ciel,
6:u:cria,
7:u:viens,
8:u:tenait,
8:u:debout,
5:u:eut,
9:u:souffle,
8:u:coupé,
11:u:effrayée,
9:u:devenue,
7:u:folle,
10:u:atterrit,
9:u:douceur,
7:u:riant,
8:u:appris,
11:u:construit,
10:u:navigué,
12:u:formidable,
11:u:élection,
5:u:Lot,
9:u:Garonne,
17:u:circonscription,
14:u:législative,
11:u:partielle,
11:u:siègeait,
8:u:jusque,
10:u:Jérôme,
9:u:Cahuzac,
8:u:ancien,
10:u:ministre,
12:u:désormais,
8:u:fraude,
9:u:fiscale,
8:u:Suisse,
11:u:déclaré,
6:u:fisc,
9:u:dirigé,
15:u:démissionné,
8:u:siège,
10:u:député,
9:u:fallait,
10:u:pourvoir,
5:u:UMP,
10:u:emporté,
6:u:face,
10:u:candidat,
7:u:Front,
10:u:National,
5:u:six,
7:u:score,
7:u:large,
6:u:tant,
15:u:participation,
8:u:faible,
7:u:cents,
8:u:écart,
8:u:hommes,
14:u:relativement,
8:u:serré,
6:u:duel,
9:u:leçons,
12:u:politiques,
10:u:Bertrand,
9:u:Lacoste,
4:u:FN,
11:u:présence,
8:u:second,
7:u:terre,
9:u:certain,
10:u:diverses,
13:u:réflexions,
7:u:surgi,
10:u:occasion,
8:u:côté,
4:u:PS,
10:u:laissent,
10:u:perplexe,
7:u:quant,
6:u:tire,
9:u:entend-,
13:u:évidemment,
10:u:réjouir,
11:u:candidats,
12:u:dirigeants,
8:u:tenter,
9:u:quelles,
9:u:raisons,
12:u:éliminés,
9:u:premier,
7:u:effet,
14:u:candidatures,
6:u:pea-,
14:u:parasitaires,
8:u:isoler,
12:u:Villeneuve,
12:u:partielles,
11:u:dérouler,
12:u:desquelles,
11:u:symptôme,
9:u:malaise,
15:u:considérable,
8:u:droite,
6:u:taux,
12:u:abstention,
11:u:démontre,
14:u:intéressent,
6:u:type,
8:u:joutes,
12:u:désespoir,
5:u:tel,
11:u:anxiété,
7:u:telle,
16:u:découragement,
10:u:proposé,
7:u:offre,
11:u:politique,
11:u:déplacer,
8:u:soient,
8:u:enjeux,
9:u:époque,
10:u:venaient,
7:u:untel,
11:u:"aujourd",
5:u:hui,
15:u:tétanisation,
11:u:situation,
12:u:totalement,
15:u:désespérés,
14:u:extrêmement,
13:u:inquiétant,
10:u:dirigent,
10:u:prennent,
5:u:ts-,
10:u:tsunamis,
13:u:progressifs,
12:u:retombées,
12:u:répliques,
10:u:secouent,
5:u:kl-,
4:u:r-,
8:u:pourra,
14:u:explications,
10:u:allusion,
7:u:front,
14:u:républicain,
8:u:posais,
14:u:introduction,
6:u:mort,
17:u:définitivement,
8:u:Gauche,
11:u:Écologie,
11:u:général,
11:u:classique,
11:u:députés,
9:u:remette,
7:u:notre,
12:u:stratégie,
7:u:appel,
6:u:sein,
7:u:parti,
12:u:socialiste,
7:u:Louis,
9:u:Bernard,
11:u:agonisant,
8:u:amener,
5:u:soi,
12:u:électeurs,
13:u:électrices,
14:u:propositions,
6:u:mode,
5:u:vie,
8:u:morale,
10:u:regardez,
10:u:souvenez,
9:u:traité,
11:u:européen,
9:u:médias,
9:u:élites,
11:u:pensantes,
7:u:voté,
12:u:importante,
18:u:circonscriptions,
8:u:Loiret,
9:u:circon-,
7:u:ordre,
9:u:absten-,
12:u:élections,
7:u:route,
6:u:fort,
8:u:claque,
8:u:aucune,
10:u:triomphe,
7:u:grand,
9:u:gagnant,
14:u:reconnaître,
6:u:dieu,
11:u:positions,
6:u:anti,
9:u:radical,
9:u:succès,
11:u:engrangé,
8:u:nombre,
10:u:victoire,
12:u:symbolique,
7:u:voire,
13:u:médiatique,
6:u:avis,
13:u:municipales,
11:u:capacité,
10:u:nuisance,
4:u:b-,
4:u:z-,
14:u:européennes,
13:u:socialistes,
8:u:risque,
7:u:Modem,
5:u:UDI,
8:u:change,
8:u:crains,
10:u:marchait,
9:u:Jacques,
8:u:Chirac,
9:u:réélu,
5:u:Pen,
8:u:Hassan,
7:u:Kerim,
11:u:résultat,
5:u:rue,
6:u:faux,
11:u:persuadé,
8:u:gauche,
11:u:questions,
8:u:posent,
16:u:compatibilité,
9:u:unités,
8:u:statut,
13:u:sémantique,
14:u:morphologues,
12:u:défendent,
7:u:signe,
12:u:saussurien,
9:u:affixes,
12:u:polysémie,
8:u:traite,
12:u:générale,
9:u:simples,
14:u:linguistique,
6:u:syn-,
11:u:expliqué,
5:u:en-,
13:u:pragmatique,
8:u:morpho,
9:u:claires,
12:u:explicites,
8:u:trois-,
8:u:puisse,
12:u:consacrée,
10:u:méthode,
12:u:synchronie,
12:u:diachronie,
8:u:aborde,
11:u:intuition,
12:u:intuitives,
13:u:morphologie,
10:u:énoncé,
9:u:globale,
4:u:u-,
13:u:plurisémie,
15:u:multiplicité,
9:u:strates,
18:u:interprétatives,
11:u:morphème,
12:u:flexionnel,
13:u:unisémique,
16:u:pluristratique,
10:u:évitant,
11:u:théories,
14:u:différentes,
12:u:décrivent,
9:u:chacune,
8:u:strate,
13:u:différente,
10:u:opposent,
6:u:unes,
9:u:malheur,
11:u:consacrer,
9:u:séance,
12:u:difficiles,
11:u:résolues,
10:u:apparait,
8:u:étant,
14:u:compliquées,
8:u:celles,
21:u:polycatégorialité,
12:u:traitement,
20:u:polycatégorielles,
9:u:lexique,
13:u:catégoriel,
10:u:matière,
11:u:confiance,
13:u:imagination,
8:u:servir,
8:u:sortes,
12:u:problèmes,
10:u:aimerait,
8:u:semble,
13:u:expérience,
14:u:sémanticien,
13:u:morphologue,
11:u:évidente,
11:u:sentiment,
12:u:prospectif,
10:u:chantier,
13:u:modérateur,
11:u:François,
8:u:carré,
12:u:immodéré,
11:u:agitateur,
12:u:commencent,
8:u:fermer,
6:u:oeil,
12:u:intervenir,
14:u:flexionnelle,
6:u:mots,
12:u:différent,
13:u:traitements,
11:u:méthodes,
9:u:relève,
10:u:principe,
8:u:Claude,
10:u:position,
14:u:dégueulasse,
13:u:réfléchir,
10:u:bêtises,
11:u:procédé,
7:u:banal,
10:u:consiste,
14:u:apparaissent,
12:u:virtuelles,
13:u:quelquefois,
11:u:énoncés,
10:u:virtuels,
7:u:gêne,
15:u:sémanticiens,
10:u:évoqué,
10:u:rotation,
13:u:indéniable,
7:u:rotor,
9:u:rotatif,
11:u:rotatoire,
9:u:rotonde,
7:u:rôti,
9:u:postule,
6:u:base,
17:u:matériellement,
5:u:ose,
7:u:verbe,
7:u:roter,
12:u:imaginaire,
5:u:se-,
6:u:sert,
14:u:archimodèle,
8:u:machin,
9:u:modèle,
14:u:lexématique,
11:u:reconnait,
7:u:rotat,
11:u:associée,
9:u:lexème,
11:u:réaliser,
10:u:autonome,
10:u:lexicale,
11:u:locuteurs,
13:u:permettrait,
8:u:former,
10:u:nouveaux,
6:u:ét-,
13:u:appartenant,
8:u:proche,
11:u:filiation,
9:u:directe,
12:u:hypothèse,
11:u:paradigme,
7:u:parle,
12:u:structures,
17:u:intériorisées,
12:u:prédateur,
12:u:prédation,
12:u:construits,
14:u:fonctionnent,
8:u:parent,
8:u:direct,
9:u:existé,
14:u:contemporain,
4=0x1.9d02a613c020cp-2
5=-0x1.1a8298947f029p-1
6=-0x1.6b9273a9c6e1p-1
7=0x1.883e5d45fea06p-2
8=0x1.caa0972194e19p-6
9=-0x1.c37d72f0c5d56p-7
10=-0x1.870da6bf90544p-8
11=-0x1.ea89df0e1b5e8p-8
12=-0x1.45a19297f9fdep-9
13=0x1.d1d09caf4dae4p-5
14=-0x1.e3e7225346f5p-8
15=-0x1.07a05ae92c20ep-5
16=0x1.58448884970aep-7
17=-0x1.09a618ba7931cp-7
18=0x1.26b6ce9d9822ap-8
19=-0x1.94df678245f3ap-8
20=-0x1.ff42f1a139a7p-8
21=0x1.1abad34bc7efcp-5
22=-0x1.ccdcb20031a34p-8
23=-0x1.1ec3393de4ceap-6
24=0x1.64edb3623bf13p-6
25=0x1.735c65b690772p-4
26=-0x1.481056594326ep-6
27=-0x1.0b84762ba8af6p-4
28=-0x1.8b9fccbf5d67p-8
29=0x1.67deee63eea56p-4
30=-0x1.08f31c4d70fcdp-6
31=-0x1.fab252005ee4fp-5
32=0x1.2043e842737bp-5
33=-0x1.5dfc649baaf4ap-4
34=0x1.0a0f99dd91875p-4
35=-0x1.2cc04665b3947p-6
36=-0x1.9dd6716aab7c5p-7
37=0x1.e313d1a7d8f64p-3
38=-0x1.9c8564f74e43bp-5
39=-0x1.291a7ba6641c6p-2
40=0x1.62e8bf4cd208p-5
41=0x1.0ac3dfbfb1493p-2
42=0x1.07f89908e5a98p-6
43=-0x1.0ccb2623be086p-2
44=0x1.f3f93bb042ap-5
45=0x1.649b7f5744fbap-2
46=0x1.4536efc4f3bc9p-6
47=-0x1.17f35258ebe4ep-2
48=-0x1.40bf6592eb9d7p-7
49=0x1.c0281cc730534p-5
50=-0x1.63e2d08ed9461p-8
51=-0x1.7527f0f328303p-5
53=0x1.2f124d253fa66p-3
54=0x1.19332ef3a63cdp-7
55=-0x1.726cc10bdd487p-3
56=-0x1.84c92caee04ccp-4
57=0x1.d85634c319a7fp-3
58=-0x1.dac543f407996p-7
59=-0x1.b48bf1dd71a29p-5
60=-0x1.1702a073380dfp-1
61=0x1.f5922de328e54p-2
62=0x1.cf9e70bf7c052p-3
63=-0x1.159ef64200b8cp-3
64=0x1.21455b4ea9b78p-1
65=-0x1.10c61471f7fa6p-1
66=-0x1.395a78814227ep-4
68=0x1.6a5caa2acdbc8p-5
69=-0x1.37e279a0e8ad4p-3
70=-0x1.ce698b44dd463p-5
71=-0x1.d0b092a74267ep-7
72=-0x1.0e81d3332a269p-10
73=0x1.883d1fa00d3f5p-5
74=-0x1.06ce5b68c6029p-5
75=-0x1.f387f27742636p-6
76=-0x1.585913d000cdfp-1
77=-0x1.09047746e0cc8p-1
78=0x1.d62797afba4d2p-2
79=0x1.5aad6c16d9953p-2
80=0x1.8ff31e43cd753p-7
81=-0x1.7e6fe3611082dp-6
82=0x1.6bf387d5f6103p-10
83=0x1.1fc268ec2e161p-8
84=0x1.252708d8f0cfcp-4
85=0x1.54e1b45abac26p-6
86=0x1.688b856e5e7dp-9
87=-0x1.12b25cf188c6ap-4
88=0x1.018aa785439aep-5
89=0x1.8b58d74d38c9ap-6
90=0x1.34442a089d266p-7
91=-0x1.93bccc00ff601p-5
92=0x1.2b13f9bdda897p-8
93=-0x1.34b912d41abcp-6
94=0x1.a86592100a848p-8
95=0x1.7d23d06b31fc2p-10
96=0x1.8e672c4811325p-6
97=0x1.2ce0cfc4c9046p-2
98=0x1.9bdbd78bb9904p-5
99=-0x1.686fbcb6fb57ep-2
100=-0x1.7854b517effacp-16
102=0x1.c1ede66c7aa6dp-14
104=-0x1.11ddb9fb59654p-15
106=0x1.7a34ef8bff4aap-18
108=0x1.c46df41e5fdb8p-8
109=-0x1.93034b8302b7bp-7
110=0x1.af6044a4aeaa8p-8
111=-0x1.5b1856ccd33e6p-9
112=0x1.54256c1d334ecp-6
113=0x1.56e8f33c681cdp-6
114=0x1.6156fcac84804p-10
115=-0x1.a34aad7360f69p-5
116=-0x1.4059dc365fbp-7
117=0x1.3a322e81e1d6dp-6
118=-0x1.bda01add10a92p-8
119=-0x1.fad74f0befbd7p-11
120=0x1.34ad94cb78781p-5
121=-0x1.9a12bf439b8c4p-5
122=0x1.9788b74108d18p-6
123=-0x1.0e4de1f82148bp-7
124=-0x1.3eb47c7649a74p-9
125=0x1.24146be2d594cp-6
126=-0x1.8b8bf4b0103e6p-11
127=-0x1.0a9145e8037e6p-6
129=0x1.32fb7fa7bf2afp-5
130=-0x1.b8768447b9574p-7
131=-0x1.237c88388738fp-6
132=0x1.62808556d116ep-7
133=-0x1.322b55f23889ep-6
134=0x1.dcd7abbc81049p-8
135=-0x1.52ec2444267d4p-13
137=-0x1.13a32e64c9564p-10
138=0x1.8de4f5edf43bbp-10
140=0x1.1005764b43f26p-8
141=-0x1.72148fec63baap-7
142=0x1.b4828246561dep-9
143=0x1.94038e7ff6a8p-12
144=0x1.2fa72db092b8ep-12
145=0x1.43793d0949de8p-8
146=-0x1.38a38be81536ap-11
147=-0x1.a84b46c63a19fp-9
148=0x1.25063c8001555p-5
149=-0x1.025120c4a0992p-5
150=0x1.42131fa161f6ap-7
151=-0x1.34ff4a2f3989bp-7
152=0x1.e7a6865cec5bep-7
153=-0x1.57601b7c1044ap-6
154=0x1.d91f14fa38cd2p-6
155=-0x1.76bf6cd653f19p-7
157=0x1.724d5782f4c5p-11
160=-0x1.27a14bc4a858p-9
161=0x1.f43c5fe0ce4d4p-9
164=-0x1.6d7169d703a49p-5
165=0x1.76e35596f12f8p-3
166=-0x1.297867b7bb367p-4
167=-0x1.053db412328bep-3
168=0x1.5e69b318046c7p-10
169=-0x1.2a6441f173c48p-8
170=0x1.7184b820182ecp-10
172=0x1.99c8eb1b7d89ap-7
173=-0x1.9c39c55d426b2p-6
174=0x1.da70eaade581ap-8
175=0x1.ed8ce758563c8p-9
176=0x1.36b5257b52915p-10
177=-0x1.14c8e7c667b5p-8
178=0x1.4ac6c2512894p-10
180=0x1.507d1d3c822d2p-5
181=-0x1.6a74901cc4daap-4
182=0x1.2928ceaa65a4ep-4
183=-0x1.084d45e08ed7cp-6
184=0x1.b5074a17ed69ep-8
185=-0x1.2f9721adf6fccp-7
187=0x1.44588740e3ec9p-10
188=-0x1.7cd60f58d84c6p-6
189=0x1.ffc53b78717d5p-5
190=-0x1.a78a7a7db4d2ap-6
191=-0x1.b756c49c377a6p-7
192=0x1.024d49ae1e3bp-8
193=0x1.ff803d0eb8f99p-10
195=-0x1.4ab62c4088682p-8
196=-0x1.75c35562174aep-9
197=0x1.fcf11435c468p-6
198=-0x1.28f3c8359ddep-6
199=-0x1.1401e6e171989p-8
200=-0x1.587ad1ecdfc38p-7
201=0x1.20ca0c03e508ap-5
202=-0x1.3f225a668a648p-6
203=-0x1.0875f30175581p-8
204=-0x1.040503f35e551p-8
206=0x1.4ead3c5a4ef76p-7
207=-0x1.2efde7b5153d2p-11
208=-0x1.362aee5765eb6p-11
209=0x1.f29387345642ap-9
210=-0x1.656177a01fd84p-12
212=-0x1.c3dba503ed7bp-10
213=0x1.2301c758dc9b7p-9
214=0x1.ee48252e8b982p-9
215=-0x1.fa4ae13cbc26ap-10
217=0x1.c6f410c190164p-11
220=0x1.a974f8d4447d8p-6
221=-0x1.0e2736c06356ep-5
222=0x1.24963ca9e9653p-7
223=-0x1.1ef35ed7b933ap-7
225=0x1.2156a519d4b54p-7
226=-0x1.61b4a7f927e9bp-9
227=-0x1.3ef41473c7a75p-9
228=-0x1.faf8b2a2c15dap-10
229=0x1.fe30e117ee9fep-9
231=-0x1.54d5ff771287cp-12
232=0x1.219fe5e8d3f8ep-8
233=0x1.009e0fc537e9dp-3
234=0x1.43ebf84ec29d7p-6
235=-0x1.06342ac52e28ap-3
244=0x1.7b0241e07654p-9
245=-0x1.f689399e985aap-8
246=0x1.6731cd52fd716p-10
247=0x1.ef11c41e06fdfp-10
248=0x1.57b77f5c53aa4p-7
249=-0x1.4e38d5bcb7603p-5
250=0x1.92ca0513da862p-6
251=0x1.d80b184629e53p-12
252=-0x1.8f2859aa86c62p-6
253=0x1.1024fea1c5a63p-3
254=0x1.315cea2fdd02bp-6
255=-0x1.054eae29ca3e3p-3
256=-0x1.bc5509d0cc05cp-10
257=0x1.1b6f5d1ed4c47p-7
258=-0x1.250a087b9f776p-9
259=-0x1.f8b6527419736p-10
260=-0x1.2439f8bd74cbap-7
261=0x1.b280163c6e415p-4
262=-0x1.1eb5b9baee974p-6
263=-0x1.62ca5bee65bc4p-4
264=0x1.1285bc982e0dep-7
265=-0x1.4849fe4d76004p-6
266=0x1.8394126268c12p-7
267=-0x1.639eeb701192p-10
268=-0x1.2e7863394f96cp-7
269=0x1.127f699a4e1fep-6
270=0x1.2540e2d9dddaep-10
271=-0x1.beea89410de1ap-7
272=-0x1.26c678e233ecdp-7
273=0x1.061439587733ep-6
274=-0x1.72a99318795eap-10
275=-0x1.f77e46db5a81dp-9
277=0x1.ddd92138bd61p-10
278=-0x1.59b3889fcfaeep-10
280=0x1.9c98b9ec730dap-9
281=-0x1.9b20475442d4p-10
282=0x1.0e39c8041b418p-10
283=-0x1.4dbe26e5f8fd8p-9
284=-0x1.174d99c33a2f8p-8
285=0x1.0782e023e22d2p-6
286=-0x1.0443bb3c5ace4p-8
287=-0x1.219d36d726fdbp-9
288=-0x1.ae625757b0fd1p-7
289=0x1.9c412d500a788p-6
290=-0x1.b2cadf192eb72p-9
291=-0x1.f8076ada6513fp-7
292=-0x1.6c835d6e82c28p-11
293=0x1.fa1086edfcefp-9
294=-0x1.c7afaf0e719edp-12
296=0x1.a448272962996p-8
297=-0x1.13bfd15800d78p-6
298=0x1.46803da4bbc39p-9
299=0x1.7c9ef12772bf2p-11
304=0x1.4c661ef9b865bp-9
305=0x1.3d57c62d80e4ep-10
307=-0x1.bbb31a82558ap-8
308=-0x1.28b32dcc9cc8fp-10
309=0x1.d92f08383fef8p-7
310=-0x1.07b4b98eee478p-7
311=-0x1.0e8cdaf73e748p-9
312=-0x1.a778f5454aa6dp-8
313=0x1.570fe077cb5e4p-6
314=-0x1.1fa16f3207518p-7
315=-0x1.adc8b7acdef66p-10
316=-0x1.c600f4bf4850ap-8
317=0x1.b73c952aef2acp-7
318=-0x1.c9f17fb58a6b4p-9
319=-0x1.d141f38a24388p-14
320=0x1.80f200c7f8942p-10
322=-0x1.10b64dd8e8794p-11
323=-0x1.69f200856f6b9p-12
324=-0x1.0db30e828f961p-11
325=0x1.09782c977d9f2p-6
326=-0x1.28be80b65b77cp-7
327=-0x1.0e9b624d148bbp-9
328=-0x1.e73e9394a9653p-17
329=0x1.521f76b18cb68p-10
332=0x1.bb0b4fadc088cp-12
333=-0x1.09fcf1d712da7p-9
334=0x1.f888ff6878cdap-9
335=-0x1.eba5c9049b3ep-10
336=-0x1.1d35dea0ca624p-5
337=0x1.fc649623f796cp-5
338=-0x1.c0410186ea114p-8
339=-0x1.403697eb3166cp-6
344=0x1.1d2c1c9b3a195p-8
345=-0x1.26f35253f72a2p-7
346=0x1.67ebd9d9e84bcp-8
347=-0x1.b6ad1d7dc7293p-10
348=0x1.66668ae7235f4p-7
349=-0x1.1630f627fbc94p-4
350=0x1.c4b72949ddfffp-9
351=0x1.a1320129180cap-5
352=0x1.3953f57c8204cp-6
353=-0x1.b166d277b2d9ep-6
354=0x1.4a6a6e3ca9038p-7
355=-0x1.6bf9e31d9d3ebp-10
356=-0x1.eed8fba7c36c4p-7
357=0x1.8135b31f11c71p-6
358=-0x1.563aae6b70103p-12
359=-0x1.d623f49a70718p-9
360=-0x1.44b948e8dcd7ep-8
361=0x1.be1eb72c2764cp-7
362=-0x1.43a0a83ad8c74p-8
363=-0x1.2479e3d7db8afp-13
368=-0x1.6da760f8a0ff6p-9
369=0x1.f0eeca58e2bbep-9
377=0x1.22eb3e843178p-18
380=0x1.3a462cfaf6e23p-7
381=-0x1.814814ae991d2p-7
382=0x1.3537c1c993f26p-9
383=-0x1.474d8ae15a1c6p-10
384=-0x1.0712cc3775396p-6
385=0x1.a9698d40cb791p-7
386=0x1.cc31a8bdae058p-9
387=-0x1.d817dc03ab2a1p-9
392=0x1.06e81e6be5773p-8
393=-0x1.da95d485bce31p-7
395=0x1.65d2a5ca88ep-7
396=0x1.13faafd43fcfcp-14
397=-0x1.2200801f71c4fp-9
398=0x1.57c5b599d185ap-12
400=-0x1.135f59465dfcap-8
401=0x1.041631031914ap-7
402=-0x1.c30ebb675156p-13
403=-0x1.b59fd425ac3ep-16
404=-0x1.6fbf82a381e3ep-8
405=0x1.0829f14dee3dap-11
406=0x1.8900ec3311879p-7
407=-0x1.ab413142308e2p-9
408=0x1.7436018ce8fb2p-7
409=0x1.eea329ce154d1p-5
410=0x1.4b2c743ca6dc7p-6
411=-0x1.e23050df0a5f7p-5
416=0x1.bb91ef61eef8p-9
417=-0x1.3d6f932e16c54p-8
418=0x1.e17e343b2861ap-9
419=-0x1.014530f3c0866p-11
420=-0x1.167586cb8519fp-8
421=0x1.0a8f6301305adp-7
422=-0x1.fa1674fc8992ap-9
423=0x1.3eaaec0ed46a2p-10
425=0x1.3405fb8aba96cp-3
426=-0x1.edffc8bd058c7p-6
427=-0x1.7b1e4b89f66a8p-4
428=0x1.23add22360265p-12
429=0x1.3cb481abb6a5p-9
430=-0x1.b120ef172764p-10
431=-0x1.a25c75b621c41p-11
432=0x1.1c77d20197a75p-6
433=-0x1.c3c218210f4dap-6
434=0x1.71c1fd36e9812p-7
435=-0x1.3545a3ecbcd69p-9
436=-0x1.8386da17f7e3ap-13
437=0x1.778bd6e218a75p-7
438=-0x1.2335690ce960ap-7
439=-0x1.5448d62ab2717p-9
440=0x1.46649e5ce339bp-10
441=-0x1.2b65b5ecbd31ep-8
442=0x1.31175ad950ca7p-8
443=-0x1.10e18f49966d7p-10
444=0x1.20cffa083a424p-8
445=-0x1.5023aaea4d665p-12
447=-0x1.1027ebb4d85bbp-9
449=0x1.0410b94794d4p-11
457=0x1.d532a4a07af81p-9
458=-0x1.5cdf8fc94355cp-9
462=-0x1.33ffb244a01ecp-16
469=0x1.ff527ec03a764p-12
472=-0x1.8079352688becp-7
473=0x1.bca4297a72c57p-6
474=-0x1.8ac2db3489baap-8
475=-0x1.a74230b219391p-9
481=0x1.aa06a4f75cbd4p-14
488=-0x1.aa210a88fb846p-9
489=0x1.7e01bc2402f92p-7
490=-0x1.3ee10d2802a6ap-8
492=0x1.c12ba60b23069p-13
493=0x1.56bed835a9395p-9
494=0x1.0e6388ae4bb3cp-11
495=-0x1.7cedfd52c6ffp-9
497=0x1.1c8c7d3199c14p-10
498=-0x1.d3960ac40154ep-12
505=0x1.e7b32f898f638p-11
508=0x1.07f3b0c3f9812p-10
509=-0x1.0b3826f81cecep-8
510=0x1.f380c4a141129p-9
511=-0x1.4099970875c2ap-12
512=0x1.6fd47f31f02fcp-7
513=-0x1.b8c8bc0cc09b8p-6
514=0x1.f3ad4b2416c8p-7
515=-0x1.817dc60a04dc6p-10
516=-0x1.c5c69357b96aep-10
517=0x1.ef49fb823c5fap-8
518=0x1.c0fd3e75c05f3p-11
519=-0x1.568718327a461p-8
520=0x1.d9ad78191d38ep-11
523=-0x1.836a79a7fb228p-13
524=-0x1.78ebca183edf2p-9
525=0x1.698193d9c0389p-9
526=0x1.26f00b69d51bep-8
527=-0x1.777bfdb00fa58p-8
529=0x1.e7759389ae3adp-14
533=0x1.d7ee16384562ap-13
536=0x1.dfa441a65da12p-11
537=0x1.3f1d9ee70b04ep-9
538=-0x1.27a02b6139fe9p-11
539=-0x1.90dbaf24d44dep-9
540=-0x1.09757ceb66bb9p-9
542=0x1.14211b7e24842p-7
543=-0x1.f7197c4311568p-11
549=0x1.06ccdf119366bp-10
556=0x1.4d0134495c567p-10
557=0x1.db8651bb03ea8p-11
558=-0x1.4fae03db6dfaap-9
561=-0x1.c18d30e8ca8f4p-8
563=0x1.041711dac81afp-7
576=0x1.4ff0bc915c492p-6
577=-0x1.ab885278ff4d7p-6
578=0x1.432ab8139950cp-7
579=-0x1.c8f003d826a12p-10
580=0x1.e03523cf13523p-13
581=0x1.1cae4fc793a58p-13
584=-0x1.09b673bf68d4ep-10
585=0x1.7e45e23f8156p-8
586=-0x1.77a418e4f4e12p-10
592=-0x1.2fff0d8ec53c1p-7
593=0x1.082c81c26f647p-6
594=-0x1.2b75855366fdp-8
595=-0x1.8717b36c41c42p-9
600=-0x1.8a79539331ee5p-8
601=0x1.0872471d0702bp-6
602=-0x1.8aa2f72e8b0dfp-8
603=-0x1.cff048b683368p-15
604=0x1.0d4be60958eep-8
605=-0x1.ce95a295d1d67p-8
606=0x1.1caba5573b57bp-8
607=-0x1.94fbb0b9f02e8p-15
612=0x1.712750ce27372p-8
613=-0x1.d317a509acba4p-9
614=0x1.bdc09ce2c11a1p-11
615=-0x1.35bb191802b03p-9
617=0x1.01e06c55e14cep-11
625=0x1.a408cc9ad5114p-10
628=-0x1.65700d4588ed2p-12
629=0x1.0f80f7da917dp-7
630=-0x1.0e46ada748f96p-8
631=-0x1.a0278253a2e4p-16
632=-0x1.e983e76c2e3edp-12
633=0x1.d23c86b69284p-9
634=-0x1.1d65e003e3871p-12
640=-0x1.b7af237028d26p-10
641=0x1.06b51fdd51a67p-9
644=0x1.9a1f15e43b844p-10
645=-0x1.47e7c7620f2ep-8
646=0x1.9acb317f7e484p-10
656=0x1.283785fa1d13ep-10
674=-0x1.b971639911bd5p-11
675=0x1.24fe64b6d0338p-9
676=0x1.454ad3cebcd14p-6
677=-0x1.278119c362954p-5
678=0x1.88b4c0076348p-7
679=-0x1.496b129b9ff66p-10
684=0x1.257dcaf0225e1p-8
685=-0x1.468bb974129cp-7
686=0x1.4191a5c9818c6p-8
690=-0x1.8ecef6002e619p-13
692=0x1.0f169f0680988p-7
693=-0x1.5371a7b30ff24p-8
695=-0x1.8298edc03bb3dp-12
700=-0x1.78c6a40e9306fp-9
701=0x1.29ac9760bd189p-7
702=-0x1.7e09b3c3f92c2p-9
704=0x1.1297a7352cc17p-6
705=-0x1.ba0b82e0a1a38p-6
706=0x1.14e08800b52aep-7
707=-0x1.8a1dd55f12036p-10
708=0x1.8f7130d747594p-9
709=-0x1.758df71f18388p-8
710=0x1.4fe4e8000be77p-11
716=0x1.0436fc03905e2p-7
717=-0x1.4093ef64dc426p-7
718=0x1.e0a07568b57cbp-9
719=-0x1.470e18bff5b48p-10
720=-0x1.31106916986fcp-9
721=0x1.f567ce9586024p-7
722=-0x1.34fa6719fc602p-8
723=-0x1.0cf0108716e1dp-7
724=0x1.e28a375bc309ep-11
725=-0x1.d064e6e7e5558p-9
726=0x1.475918b428d28p-10
733=0x1.0355241418a2ep-14
736=-0x1.589979ba86b9p-6
737=0x1.7e2a3aa7223dp-6
739=-0x1.5cbf5288c67a7p-7
744=0x1.ce85ec169f45dp-8
745=-0x1.00e726801183cp-6
746=0x1.3772040fc84dep-7
747=-0x1.a1bf7f10e9e92p-14
752=-0x1.078c769d3d796p-15
753=0x1.b628a186baeecp-10
754=-0x1.0ca64fc488b43p-16
764=0x1.7f743e306422bp-6
765=-0x1.c075b6cb38464p-8
766=0x1.083d5be976693p-9
767=-0x1.264a684dca997p-7
769=0x1.a196409b170d2p-10
770=-0x1.2bbb2d2bede84p-16
776=0x1.72d0fbc70b764p-10
777=-0x1.18b0d5497d64cp-8
778=0x1.7a29680865846p-10
780=0x1.abc75c82745e8p-10
781=-0x1.51671823136dp-8
782=0x1.b1595efa04ac1p-10
784=0x1.5a58efcc50cacp-9
785=-0x1.432efb05c9cd9p-13
786=-0x1.f18dc6247508cp-12
792=0x1.b9678d3ee96bbp-9
793=-0x1.b164aa9f8ed4p-10
794=-0x1.65c68ced20efep-13
797=0x1.1ffc6f37d5c01p-12
800=0x1.b5159d1199465p-9
801=-0x1.7cbaf9882aaffp-7
802=0x1.19c6c73030dd5p-8
803=0x1.3110f761b052cp-10
808=-0x1.0a151c1198b66p-8
809=0x1.7894d4cccc442p-7
810=-0x1.03e2f93c062f3p-8
812=0x1.7a7e3516ef0c2p-6
813=-0x1.2230aa0b1a842p-4
814=0x1.a51ef0434b69p-6
815=0x1.8c8e10e7ddbccp-7
816=0x1.b53777aa8b23ap-6
817=-0x1.7d7db70fd0e9ep-5
818=0x1.b33ea1b585aeap-6
819=-0x1.0323a032a1d0bp-9
820=-0x1.e80d4bdf74d66p-5
821=0x1.caf611da1e44ap-3
822=-0x1.489c7692990cbp-5
823=-0x1.3a55687f870f6p-3
824=-0x1.7c7e2675354eap-12
825=0x1.91f798c234d8ep-11
828=0x1.28119be60ce6ep-8
829=-0x1.bb7218962be32p-7
830=0x1.07a9e3375e081p-7
832=-0x1.00ded9ed0ceb4p-11
833=0x1.c317ef13adec9p-9
834=-0x1.92dba23ed30c3p-12
837=0x1.ce767bac3acb5p-9
838=-0x1.70cea42d2c69bp-12
841=0x1.0079294b79824p-11
845=0x1.2aa1087077eaap-10
856=0x1.1684dbb267708p-10
857=0x1.e7e8da9fd93b8p-9
858=-0x1.106c45886bfa9p-8
859=-0x1.a4a747ac3562p-16
861=-0x1.c75fe85cf6d44p-10
862=0x1.dbbc5a3037p-9
865=0x1.23eb2d66c8943p-10
876=-0x1.9f29aed8c50ecp-8
877=0x1.2635036452455p-6
878=-0x1.889d36c6248dap-8
889=0x1.f3674f059b226p-8
890=-0x1.8a58381fb6e2ep-8
891=-0x1.f565b5c80a21cp-11
893=0x1.44f080db54eabp-16
897=0x1.2b04d7c27f718p-10
904=-0x1.313568eda994fp-11
905=-0x1.e5e199986d16fp-12
909=0x1.bbe10d438782dp-14
912=-0x1.75f0f642f7168p-10
913=0x1.55ee509a61896p-8
914=-0x1.f81e66905fe52p-11
917=0x1.f55fc308dc89cp-11
929=0x1.1164d6f5258dap-16
933=0x1.2a4f9c115ba2ap-11
936=-0x1.177d1bfd80d88p-10
937=0x1.3f1f79cfd1156p-8
938=-0x1.b37544a3f9f94p-11
941=0x1.1116ca9daaa8ep-15
949=0x1.d2fb2928f61fbp-13
952=0x1.50cfd60128464p-10
953=-0x1.1ab57571b9b82p-8
954=0x1.8ff8af93a6659p-10
956=0x1.735bfc8e81d5ap-10
957=-0x1.f538c7ceeb1acp-11
964=0x1.c3766093689c4p-8
965=-0x1.6bb9942fc249p-7
966=0x1.d774002848962p-8
967=-0x1.25607532b769cp-13
968=0x1.3e232f72dc00ap-11
985=-0x1.94c61582340ccp-10
996=-0x1.6c596f6adb15ep-11
997=0x1.638df6e2a54b8p-10
1001=0x1.022b18f3dd8eap-11
1009=0x1.802daf813c0c3p-14
1012=-0x1.624a61ecf3df2p-10
1013=0x1.8ef70f4754efbp-10
1018=0x1.1064505635169p-10
1021=0x1.b7fae24a73bd7p-12
1025=-0x1.4ece0235aee3cp-13
1028=0x1.1663aa23151ecp-8
1029=-0x1.4428b263bcf1dp-6
1030=0x1.e30b832ce60eap-8
1031=0x1.faa0d4e00be76p-9
1041=0x1.fe019cb5355d4p-11
1060=0x1.df7664091cd48p-10
1061=-0x1.8f98f18971e3dp-8
1062=0x1.ab14ebaa28cd1p-10
1069=0x1.64a716361631p-10
1097=0x1.572ee1077bfc7p-11
1112=-0x1.dae4254870661p-9
1113=0x1.169af9afbef24p-8
1114=0x1.eb2d00bf7d9b2p-8
1115=-0x1.3b7e5ce9347f9p-8
1137=-0x1.194b0450ca07bp-10
1138=-0x1.79e5d759a6a84p-11
1139=0x1.eb27d5d24f342p-9
1145=0x1.c7fd494486a1fp-14
1174=0x1.3c1920ae20a0ap-10
1181=0x1.05ee07afb25e2p-10
1182=-0x1.ba0e538ae3464p-11
1188=-0x1.8336a5c36ba7ep-9
1189=0x1.e8d0508923dfep-10
1190=0x1.83d484d452308p-10
1193=0x1.b0550e256ed7bp-14
1204=0x1.d1934d091691fp-9
1205=-0x1.5d009185bc2f6p-8
1206=0x1.ae29c1d299bafp-9
1207=-0x1.54e50de3b8a97p-10
1208=0x1.d93fe5e0d0256p-10
1211=-0x1.8981cdfbd27b8p-12
1212=0x1.940edda918c85p-10
1213=-0x1.27315e44e0a51p-8
1214=0x1.8ee9f01e6fa42p-10
1216=0x1.b7be8bd2aeb1ep-10
1217=-0x1.56561bec76447p-8
1218=0x1.b67b91d51bc52p-10
1220=0x1.aa984e5f169acp-10
1221=-0x1.dbe0037130678p-9
1222=0x1.3526d3a83d949p-9
1225=0x1.707f902a3ab54p-8
1226=-0x1.902255824ead4p-9
1232=-0x1.473c6f030dc7fp-11
1233=0x1.21d31d2d0dcb6p-8
1234=-0x1.5fbac00b00173p-11
1252=0x1.26e6ae4710337p-7
1253=-0x1.30126ebff24dp-6
1254=0x1.1229c3f8830f9p-7
1264=0x1.8f81e620a9ccp-12
1269=-0x1.08aee441522d6p-12
1270=0x1.7769129e0162ep-10
1273=0x1.031075f9ca7f9p-15
1276=-0x1.900b7088f4c6bp-12
1277=0x1.d1f13398b23fap-9
1278=-0x1.9cce9934143ecp-12
1284=0x1.8e65731ff4f24p-10
1285=-0x1.236ae7c8124bcp-8
1286=0x1.8ee3c27865dbcp-10
1297=0x1.b005becec868ep-10
1298=-0x1.91661b03d0273p-16
1312=-0x1.8b57ad0061bc4p-13
1313=0x1.4990bf913873bp-9
1314=-0x1.849d74bf30de7p-14
1328=0x1.3e324a96a1984p-10
1329=-0x1.f20074f692554p-9
1330=0x1.3005126b5406ep-10
1332=0x1.1cf78879845b4p-10
1333=-0x1.9fc13436d5fa8p-9
1334=0x1.808edffcf81f8p-11
1337=0x1.2f37ab7ef0ab2p-10
1341=0x1.de699f2ed0fdfp-11
1356=-0x1.e634e255dee38p-10
1357=0x1.d52b98a465046p-8
1358=-0x1.0deb4bcd752bbp-9
1364=-0x1.0396395b1a81ep-11
1365=0x1.df938e2a2c26p-9
1366=-0x1.c748446a01138p-16
1368=-0x1.0420ccabb1734p-12
1369=0x1.4e62f8ad1036dp-14
1377=0x1.d4fdd17714aaap-12
1380=0x1.4da6c21d95d14p-10
1381=-0x1.1d94e8272a3b6p-8
1382=0x1.484da47506ea8p-10
1389=0x1.95e97d43df802p-13
1409=-0x1.63f524f2c164cp-10
1410=0x1.b3e51beae68b8p-10
1417=0x1.2634afd6623cap-7
1418=-0x1.4a90c2068c9fbp-7
1419=-0x1.f7aabdd2205dap-11
1433=0x1.18872d37b7ff9p-9
1434=-0x1.888e5f8db834cp-16
1445=0x1.183d92c358f2ep-11
1449=0x1.02ef4bdf058b9p-12
1456=-0x1.2e5c3851ecc8p-12
1457=0x1.eb120706990c2p-7
1458=-0x1.398b755b92e83p-7
1459=-0x1.0adac12851a63p-10
1473=0x1.a7e1e0528c3d4p-14
1481=0x1.98f084b7c6a87p-12
1486=0x1.462cc22ca99a8p-10
1488=0x1.457d2485153bfp-10
1489=-0x1.02062a84ed592p-8
1490=0x1.4a459cc985ed6p-10
1492=-0x1.2dea9304938fep-11
1493=0x1.5e4b5f2b4ed7ap-8
1494=-0x1.fe4bb65dc5184p-11
1495=-0x1.114bce75ec234p-11
1504=0x1.9f91f24dfe0dap-8
1505=-0x1.b7c632fc44129p-8
1516=-0x1.7018110e7bc06p-16
1517=0x1.584f599ecbd9dp-10
1524=-0x1.40a07707b4ca2p-13
1525=0x1.76d969f079f7ap-9
1526=-0x1.c63c5d43f1f72p-13
1528=-0x1.e4ef5f18e7a8dp-7
1529=0x1.3dbf05281570ap-5
1530=-0x1.04af4697e82aep-6
1531=-0x1.0addf21089d73p-8
1532=-0x1.6428da64259d4p-12
1533=0x1.9eb94460baa46p-9
1534=-0x1.b740462df3392p-13
1536=0x1.ac27337f5ed38p-10
1537=-0x1.031d7bc858edbp-7
1538=0x1.56e0e8569d556p-8
1553=-0x1.3c51263a38cccp-9
1554=0x1.3591093513c33p-8
1556=0x1.4c3c61658cd65p-8
1557=-0x1.85c4a569c120dp-7
1558=0x1.77501ab5c0f0ep-8
1568=0x1.00d9558226116p-11
1577=0x1.dea3af27622fep-11
1588=0x1.77c94b664cd5ap-8
1589=-0x1.2cd01bd4b6a44p-9
1590=-0x1.47fcc77bb7e14p-10
1593=0x1.8fec5f748f2b1p-11
1597=0x1.421ce5be09d66p-12
1601=-0x1.0db205fc0b20ap-12
1607=0x1.80d508334b364p-10
1617=0x1.511c7f17b1087p-13
1618=-0x1.7c1cb314e1a18p-11
1628=0x1.0f013c697bcdbp-11
1629=-0x1.5595f4916a772p-9
1630=0x1.fe08d487ac70fp-11
1637=0x1.7b190a7b1a946p-14
1648=0x1.8d9c6fd42af3p-10
1649=-0x1.3ef7963bab978p-8
1650=0x1.85f0be5ed9ebp-10
1652=0x1.388f5334eb3e4p-10
1653=-0x1.fa9573245d052p-9
1654=0x1.463f74b0b47ffp-10
1656=0x1.5e061a72434dbp-10
1657=-0x1.314335afd5a32p-11
1660=0x1.e164f022c2c74p-11
1661=-0x1.9c185831b6fccp-9
1662=0x1.b292367885839p-11
1668=0x1.8f3f58a56214p-11
1669=-0x1.b2927f2aca97ep-9
1670=0x1.bc8d4c959b422p-11
1672=0x1.c129730ed8ce2p-15
1673=-0x1.6b80b73d0cc0bp-10
1674=0x1.f20a598185ca8p-13
1677=0x1.62105dfa76099p-11
1680=0x1.b6593ca1e99cp-10
1681=-0x1.6a86803af7f96p-10
1688=0x1.99eb4a3c93bf7p-10
1689=-0x1.534db098f6a7p-8
1690=0x1.e06526d70fb13p-10
1693=0x1.83ff1bccc70bap-11
1696=-0x1.6ee75137ad8dep-9
1697=0x1.17c7b20c17b72p-7
1698=-0x1.4104cf595c0cap-9
1713=-0x1.a54e52268c0efp-10
1715=0x1.bbfe47c2c5b06p-10
1720=-0x1.4951e8b21a04ap-13
1721=0x1.2872f8ed1b737p-9
1722=-0x1.11027fabd6986p-12
1737=0x1.556d3e339e7ccp-14
1757=0x1.80c33e873edfap-11
1769=0x1.56974f48a1668p-14
1777=0x1.37e6b7a952a7ap-11
1781=0x1.abd868d716839p-12
1785=0x1.2b7ff4c35e5f8p-9
1789=0x1.296b7d56fb6d2p-14
1797=0x1.62111ce032497p-12
1801=-0x1.007c991420a02p-8
1802=0x1.10364a779402cp-10
1803=0x1.c2039c18751b8p-13
1812=0x1.2d1319d399a0cp-14
1813=-0x1.5a294c8fc5d39p-8
1814=0x1.0977e067d6df9p-8
1824=0x1.9bdd84aba2ecfp-11
1825=-0x1.9e5f9e0d74ad5p-9
1826=0x1.6c4c9a0f05377p-10
1832=0x1.9443f7ec36d9p-10
1833=-0x1.40e816ea268p-8
1834=0x1.86f11efa4e39ep-10
1836=0x1.a5498280eebeap-9
1837=-0x1.00cc4376f920bp-7
1838=0x1.a67efe2d1421dp-9
1841=0x1.cdf78f3d036cfp-13
1844=0x1.db23a4ef22ed2p-9
1845=-0x1.8943597d97ffp-7
1846=0x1.0cd4be4f8a894p-7
1860=0x1.c42721f242c51p-11
1861=-0x1.bd911b16ed19ep-9
1862=0x1.a9733b4c30948p-11
1868=-0x1.7926186fa8f8cp-9
1869=0x1.124114109345p-10
1870=0x1.c6a079f16e0a4p-10
1873=0x1.4708c7d7544d1p-10
1881=0x1.549b42bb18f35p-11
1884=0x1.50c9d6e0721d1p-11
1901=0x1.2c7f837d4145p-12
1916=-0x1.4399a7cd67bfp-13
1921=0x1.30289c6a29d7p-9
1925=0x1.2f968e06baaeap-11
1929=0x1.79aefaeb4f506p-11
1950=0x1.16232f4ef3a5ep-10
1952=0x1.cec49f2730ea2p-11
1953=-0x1.97b726a0ff72ep-9
1954=0x1.a9c39573ecb37p-11
1957=0x1.af04df12bae51p-13
1969=-0x1.68746f3478ba7p-11
1970=0x1.55a292a3c773fp-10
1976=0x1.83fe1ce9dee3fp-11
1977=-0x1.73b2aad394e0fp-9
1978=0x1.81e3abba729dp-11
2000=0x1.6bb26f8e2131p-10
2001=-0x1.2d5ddad716a34p-8
2002=0x1.6a25111505486p-10
2008=0x1.2f35b1f818faap-12
2009=-0x1.bbf9d9b5e4d36p-10
2010=0x1.9b86d263fe0a6p-13
2045=0x1.43e190508c695p-12
2049=0x1.38ad7e9c2fc56p-11
2053=0x1.6f476c6b0464ep-13
2060=-0x1.5ec281e4ed4f6p-11
2061=-0x1.03eadbb9e4b13p-11
2062=0x1.8ed023d105bedp-9
2064=0x1.92b67509956a7p-10
2065=-0x1.413e0f38da1aap-8
2066=0x1.8c2669525d72ep-10
2076=0x1.a5fbb27e52c69p-10
2077=-0x1.4c24c6245c9p-8
2078=0x1.9fe6aef9c5679p-10
2093=-0x1.c37bb49950d9p-10
2095=0x1.c121ae4861968p-10
2100=-0x1.25b7e4f6dcbafp-8
2101=0x1.c68b1907500afp-8
2102=-0x1.a8d0a4efe64aep-12
2156=-0x1.26a7814292554p-13
2157=0x1.9994a935c8c57p-9
2158=-0x1.28f55faa846fcp-12
2164=0x1.30ccac865497p-19
2165=-0x1.8e42e474789bep-7
2166=0x1.d8c9a75b2c00bp-9
2167=0x1.3e7cdf7e0404dp-8
2180=0x1.93a43b84ffe5p-10
2181=-0x1.45c45abbb03ffp-8
2182=0x1.9b9edcac7a3ecp-10
2189=0x1.7bc0b3ef5ef56p-14
2200=0x1.8431988e8b8fcp-10
2201=-0x1.d2b66a2a0bccp-11
2232=0x1.7c68332a0dc02p-10
2233=-0x1.393da0476a209p-8
2235=0x1.c11275b55c44bp-10
2284=0x1.dd6ad24ba2d09p-10
2285=-0x1.bd9244ca258dep-10
2304=-0x1.50d61e04e4d3cp-13
2306=0x1.048b1dbf3167cp-12
2320=0x1.04d4b305ebfccp-9
2321=-0x1.2933709dd5502p-7
2322=0x1.8bfff89609a7ep-10
2323=0x1.b6561f2c507fep-10
2324=0x1.272faa3a22ce9p-8
2325=-0x1.24317d9ee8e86p-9
2329=0x1.eb9c3e38d9f66p-10
2336=0x1.06cfeccb56982p-7
2337=-0x1.83934cb3e0e8ap-7
2338=0x1.290093c2a1a87p-8
2344=0x1.127ac1d0e3c46p-13
2345=-0x1.7de68d02b24dap-9
2346=0x1.90c3b11be79e2p-14
2364=0x1.1cef8ad4426e8p-14
2365=0x1.00162c04291ecp-12
2367=-0x1.81fef7fcc7d2cp-14
2381=0x1.87ee1f793d188p-11
2404=0x1.6928ee741a3e1p-8
2405=-0x1.87a6b38d126e4p-7
2406=0x1.509f3a884cdd4p-8
2528=0x1.bfb81406d227ep-10
2529=-0x1.5b74c2013dd74p-8
2530=0x1.c0fce01cfb75bp-10
2533=-0x1.014230903d4acp-9
2535=0x1.de93f12072a1p-10
2536=0x1.9c73a23207068p-10
2537=-0x1.0bb47aafe336p-10
2549=0x1.3a6cd8c5e244bp-11
2564=0x1.adc2e2ad39b14p-10
2565=-0x1.54e4706045b69p-8
2566=0x1.ba6ebdb4165aap-10
2572=0x1.943bf20400cfap-10
2573=-0x1.460e488feba7ap-8
2574=0x1.eb4d5247d0985p-10
2576=-0x1.ef4ebc702d73p-12
2577=0x1.cbe9a92dbdc6p-9
2578=-0x1.1215398f75435p-11
2588=0x1.802cd56062508p-11
2589=-0x1.9035526440736p-9
2590=0x1.37a51f15f96p-10
2597=-0x1.790c1a115b797p-10
2598=0x1.bf960168571ap-10
2612=0x1.3dc7c601702f9p-10
2613=-0x1.d3c1970a2d30ap-12
2632=0x1.4a90140a1bf97p-8
2633=-0x1.8292d39b46a9ep-7
2634=0x1.4c0bf38b52c49p-8
2684=0x1.1934dadc5c31ep-10
2685=-0x1.a06c2d48a7a06p-12
2709=0x1.a2f7cf2ef4959p-12
2764=-0x1.580c00ea0ccfep-13
2765=0x1.4cce0ebe0a476p-9
2766=-0x1.afd081eb982ccp-13
2780=0x1.61d47dc1d6597p-10
2781=-0x1.cdb36ee449937p-9
2782=0x1.5d4a6146a6fbap-10
2841=0x1.712a92ccb4f6ep-12
2846=0x1.2ee069f4e887p-11
2848=0x1.a1b12feda054cp-10
2849=-0x1.2df9a4d6303cp-8
2850=0x1.9b94bee1cfe9ep-10
2877=-0x1.300bce4f40486p-12
2878=0x1.7730869dd2e6ep-10
2881=-0x1.168b2bc9c99e4p-10
2883=0x1.1911ceafa74d7p-10
2909=0x1.279548615320ap-11
2936=-0x1.5b6c72cef2d49p-13
2937=0x1.7c43b721e1f56p-9
2938=-0x1.74970bd33d80ap-12
2940=0x1.42e846e3bbf8cp-10
2941=-0x1.111e4462904e3p-8
2942=0x1.35a011134629fp-10
2961=0x1.3ac71d65bc1e6p-14
2996=0x1.8b9b45021c106p-10
2997=-0x1.2295b922175a4p-8
2998=0x1.851b1ff01768ep-10
3004=0x1.c3a771870de14p-10
3005=-0x1.5c4b61f51dd6ap-8
3006=0x1.c02b25231d8f6p-10
3008=0x1.c3fdaedcdd5c8p-10
3009=-0x1.8556b691cdc4ep-10
3023=0x1.61fed187e18e4p-10
3024=0x1.910ef71355f72p-9
3025=-0x1.dd1ccc38fb068p-8
3026=0x1.87e1f28e7092cp-9
3045=-0x1.3a9b3e548c1dcp-10
3046=0x1.a5091657716f6p-10
3048=0x1.a3f336140e74p-10
3049=-0x1.4e4285f8050e2p-8
3050=0x1.aad90ea8726e3p-10
3060=0x1.0eb8369500bbfp-8
3061=-0x1.0949cf170955p-9
3073=-0x1.bee47b154186fp-9
3074=0x1.3bedc46c27978p-8
3078=0x1.3ca18a5af85f8p-10
3084=0x1.88d33aa64f33cp-10
3085=-0x1.43a197df137f9p-8
3086=0x1.ef556e035b9bcp-10
3092=0x1.d77abd47f18e5p-10
3093=-0x1.6727f747a09b2p-8
3094=0x1.d61dadb849082p-10
3161=0x1.45573ee7965c1p-11
3165=0x1.878a65239043ep-13
3189=0x1.9f1c57b65d438p-12
3200=-0x1.4227638a5bd9cp-10
3201=0x1.5402ce69fb648p-8
3202=-0x1.df9860c21753cp-11
3221=0x1.332e96d650b7p-11
3240=0x1.b2f5b675b579ep-10
3241=-0x1.72ce6eed8aef4p-10
3273=0x1.5e3bb8324e277p-12
3348=0x1.b5b628c702a2ep-10
3349=-0x1.562dcd42a5c7ap-8
3350=0x1.035bff6585d66p-9
3381=-0x1.923d9ed4a4656p-11
3383=0x1.99fc35e6da67cp-10
3388=0x1.88dadba6c2cep-11
3389=-0x1.a31fee2db175ep-9
3390=0x1.8b9871847729ap-11
3393=0x1.fd99ec966375ap-13
3436=0x1.669909f31ef8fp-10
3437=-0x1.455f60cb6218cp-11
3477=-0x1.75d2b5814fafep-10
3478=0x1.bf40eac3b7a9p-10
3517=0x1.6115c4b5848c8p-16
3601=0x1.1e7ce6091c47fp-11
3632=0x1.0231e38d6a07dp-8
3633=-0x1.02e78cfa13014p-7
3634=0x1.28aecd2e63fdp-8
3713=-0x1.30ee7dae5c58ep-12
3714=0x1.1a16b0360f28cp-10
3784=0x1.c7be008c2726ap-10
3785=-0x1.41d12dbb3c92fp-8
3786=0x1.c5974d5bee2dp-10
3824=-0x1.b1e336b11a86p-12
3825=0x1.d024aca795dbep-9
3826=-0x1.f159eb75a8b92p-12
3840=0x1.547d4ff1a5b8ap-8
3841=-0x1.9912229800ac4p-7
3842=0x1.71697c5c6cf6fp-8
3881=0x1.4cacbe0969234p-16
3908=0x1.0a970a9294b15p-10
3909=-0x1.58d20c927a06ep-12
3937=0x1.115aa85e8aff1p-12
3965=0x1.c74fbec8caa95p-11
4001=0x1.314d4ba635762p-11
4012=0x1.17bfa26fe394ap-7
4013=-0x1.5abe3f980a41ap-7
4014=0x1.dd6894c9f935dp-11
4093=-0x1.695f5f91ba63fp-10
4208=0x1.a0dbb8dfca62bp-10
4209=-0x1.2df54838512f7p-8
4210=0x1.9d23b6eb4f0bcp-10
4373=0x1.0b7620e1f8e9ep-10
4485=0x1.7994a93c9136fp-12
4621=0x1.285f43ae3ce3dp-14
4709=0x1.08cb66e6a20d5p-12
4740=0x1.14250f99a38dap-8
4741=-0x1.49be7a9a048c8p-7
4742=0x1.11886d2f427d7p-8
4776=0x1.1db73ba84f77cp-7
4777=-0x1.2e59c6aa26272p-6
4778=0x1.0f12d8610f76ep-7
4813=0x1.956bcfd287e66p-19
4893=-0x1.01049181c815ap-9
4894=0x1.1f14cf64c096ap-9
5060=0x1.8d5e4d3821734p-10
5061=-0x1.2f8c75163b25fp-10
5072=0x1.ccf615b7146fcp-10
5073=-0x1.5f81e2900aeb9p-8
5074=0x1.c36bc1d900778p-10
5113=0x1.08255cf417da8p-11
5164=0x1.203ec366c818cp-8
5165=-0x1.b9f12021f3202p-8
5166=0x1.6bfa82a38361ep-11
5189=0x1.26ee06325528ep-10
5240=0x1.8fc899efb501cp-7
5241=-0x1.612cded0da24ap-6
5242=0x1.05ef3a76a3dd1p-7
5244=0x1.669e4d1dd0b4p-9
5245=-0x1.bdf9cec2450b8p-8
5246=0x1.d78089d4c658ep-9
5248=0x1.e127c82d5231p-6
5249=-0x1.aa1dd5b5ff2e9p-5
5250=0x1.887927cab3735p-6
5251=-0x1.9b0089ec9a198p-10
5269=-0x1.7d23719b0b81ep-12
5270=0x1.5191068a1b636p-10
5272=0x1.639ee6ca7979ep-10
5273=-0x1.13884d8133579p-8
5274=0x1.717b57df04437p-10
5281=-0x1.5fbd1ab2cf0e8p-9
5282=0x1.2afac3a58c364p-8
5284=0x1.3134b15555b09p-8
5285=-0x1.71fe19379b296p-7
5286=0x1.4a8c776cb8ffap-8
5288=0x1.3f82e2e5a2f48p-10
5289=-0x1.748df5abd355bp-12
5296=0x1.7b0927b1e7dbep-10
5297=-0x1.1d9158654c31bp-8
5298=0x1.8303aa229ab8p-10
5312=0x1.cc33cec6d8246p-10
5313=-0x1.8379bd9a89218p-11
5321=0x1.50d48e62133d9p-13
5332=0x1.7691814039fcdp-10
5333=-0x1.c353f5246d97cp-11
5340=0x1.1d1116aac6cb2p-7
5341=-0x1.38fc54151fd1p-6
5342=0x1.29e4448befab7p-7
5360=0x1.63bbf8fcba84p-10
5361=-0x1.1233a438f8ea4p-8
5362=0x1.6d3a4fd2222bep-10
5364=0x1.9e97e300a05e5p-10
5365=-0x1.4b631a269136p-8
5366=0x1.a64f6cf679054p-10
5368=0x1.a566b18f75d44p-14
5440=0x1.55b8d9a22ff22p-10
5441=-0x1.0bfc1707c2653p-11
5476=0x1.625194eddad3cp-8
5477=-0x1.2138c29e1f054p-7
5478=0x1.9a76a741dd623p-10
5480=0x1.4b8feb3cd4fb6p-7
5481=-0x1.9a94ab01c2ce8p-7
5482=0x1.29caec8b6c816p-9
5524=0x1.9f71efac90e8p-10
5525=-0x1.3ac33e63774cfp-10
5532=0x1.b296fab0b911cp-10
5533=-0x1.64dc90bf23768p-10
5557=-0x1.4a2bafc0bcc0cp-11
5558=0x1.69ee24162110ep-10
5560=0x1.5d5a495e9b5e8p-10
5561=-0x1.0efd24104798ep-8
5562=0x1.6702a3129ff26p-10
5584=0x1.b7887d8631d3ap-10
5585=-0x1.57e3b2d08e934p-8
5586=0x1.bb88b1e4acfc4p-10
5593=0x1.b5c9410e33054p-10
5594=-0x1.a7656868da278p-16
5628=0x1.5ad44764b9b56p-8
5629=-0x1.e46bc16fb3756p-9
5637=-0x1.093c14d1b74p-9
5638=0x1.21fa621f2cc0ap-9
5649=-0x1.29dd62d16ca6ap-10
5650=0x1.d85714dbb7ce8p-10
5664=0x1.c8a2282ba642cp-10
5665=-0x1.602d057e3374ap-8
5666=0x1.c9fb2d12b092p-10
5696=0x1.8ece0ee5d701cp-10
5697=-0x1.2859a982de00ep-8
5698=0x1.995a70d2fd6fp-10
5712=0x1.c3e322227c192p-10
5713=-0x1.5e02e1fd4825ep-8
5714=0x1.c651b10881ac2p-10
5717=0x1.adfc249b60f26p-13
5753=0x1.2c3282e945634p-11
5792=0x1.2ee1d19ea95e3p-8
5793=-0x1.4d400dfe69dc5p-7
5794=0x1.47fb364b44c4ep-8
5797=-0x1.517b58c83ed21p-10
5798=0x1.aa5c4fec65d92p-10
5800=0x1.92135ef83554ap-10
5801=-0x1.42e3e82ab4a0cp-8
5802=0x1.947a1fe5d3f31p-10
5812=0x1.c50274419d8f4p-10
5813=-0x1.5f6e325eb737p-8
5814=0x1.cadab606969b2p-10
5816=0x1.b4e5dd9fa642ep-10
5817=-0x1.6543d29687c1p-10
5856=0x1.c43d8ef1461ap-10
5857=-0x1.5ecc24f1379edp-8
5858=0x1.c96870f2a7f6fp-10
5872=0x1.bf6643ac17edfp-10
5873=-0x1.5cfa3edd047b8p-8
5874=0x1.c6ead877a3d1bp-10
5876=0x1.bd0d194cf98d3p-10
5877=-0x1.8295007771e1cp-10
5881=-0x1.5a107197f932ap-10
5882=0x1.b3a4bb4695c0cp-10
5888=0x1.bbe8f6b186afp-10
5889=-0x1.5938540e5bfdcp-8
5890=0x1.bd125c26083e7p-10
5900=0x1.aed63d68840dp-10
5901=-0x1.613d77b9dc19p-10
5925=-0x1.6c57f75031b82p-9
5926=0x1.26bd6ed64d91fp-8
5928=0x1.e4eb4112de254p-11
5929=-0x1.706e8db3045d7p-7
5930=0x1.3c74f2f61835ep-8
5931=0x1.ca611baf10a54p-10
5988=0x1.a09f8055dd918p-10
5989=-0x1.4c06d16dc897ep-8
5990=0x1.a7a4141c9aea2p-10
6012=0x1.aec5a72c0cc89p-10
6013=-0x1.5595691823b2bp-8
6014=0x1.bb7dd684c1db6p-10
6048=0x1.51051d624ec5ap-10
6049=-0x1.0c96a5be676p-8
6050=0x1.6a122b28c9418p-10
6060=0x1.a6f98e375a1b4p-10
6061=-0x1.30bf749d074aep-10
6124=0x1.001548e07999cp-11
6141=0x1.2de36c16c2653p-12
6308=0x1.8277f0c65b6a6p-10
6309=-0x1.03b8836f6169bp-7
6310=0x1.5f180fdbb2bddp-8
6368=0x1.15a380704595dp-8
6369=-0x1.4f999c2fb6b95p-7
6370=0x1.1a6c943e4be1bp-8
6385=-0x1.84ed90b558d6dp-10
6386=0x1.c608b0af15fd3p-10
6533=0x1.3524dc8ca86b3p-12
6644=0x1.d54df3ecee785p-10
6645=-0x1.673be04323f78p-8
6646=0x1.d8cd605c7701p-10
6720=0x1.9d93b13c56e86p-10
6721=-0x1.2f8a1d604452fp-8
6722=0x1.a5a08b2fcf53p-10
6784=0x1.668cee6913be6p-8
6785=-0x1.a3119c11bcffp-7
6786=0x1.6847bb57953a6p-8
6864=0x1.c875645c80be4p-10
6865=-0x1.60c54a637dae8p-8
6866=0x1.ccf941a2e54fp-10
6868=0x1.d1f0b93a7e348p-10
6869=-0x1.654c85ade600fp-8
6870=0x1.d43c0d4a109dbp-10
6881=0x1.90016e49c805fp-10
6882=-0x1.cf858b6e1bd12p-14
6901=0x1.90340c2a4470ap-10
6902=-0x1.f060b2cd52614p-15
6968=0x1.d1314c8a5c95ap-10
6969=-0x1.628ccd5595b26p-8
6970=0x1.cb2ed296f2b8p-10
6984=0x1.d8f9480488272p-10
6985=-0x1.6778a3456c756p-8
6986=0x1.d5df7c1b70583p-10
7008=0x1.43871f2470049p-11
7009=-0x1.2368f16c0a907p-9
7010=0x1.bf14caebcac2ap-12
7056=0x1.d0719711b5f5fp-10
7057=-0x1.9768036af17bap-10
7269=-0x1.b3513e658ec5p-10
7270=0x1.0a7871cdb4c8bp-9
7272=0x1.cf369de4ce3ecp-10
7273=-0x1.93b1fce61d3dep-10
7289=-0x1.5da9bf2f4cc5ep-10
7290=0x1.a8d5f01a3706fp-10
7317=-0x1.4c8664edf73b4p-10
7318=0x1.9cacaf63cbcdep-10
7320=0x1.c01eb0e30fb54p-10
7321=-0x1.57099863ebeaap-8
7322=0x1.b072c0bbafcecp-10
7328=0x1.dff10961b672dp-10
7329=-0x1.6ae37d2c39bfp-8
7330=0x1.db99ab13c8654p-10
7336=0x1.a12f19b6fb274p-11
7337=-0x1.9d3b7abefcef4p-9
7338=0x1.4e091fdbb38ep-11
7368=-0x1.ba42d0bd7314bp-14
7369=0x1.46a3f3a531f42p-9
7370=-0x1.100d898a1831fp-12
7373=-0x1.941c521b0527ap-10
7374=0x1.c856e6f024fc2p-10
7400=0x1.c105fa847c7bp-10
7401=-0x1.58d824a9f26fdp-8
7402=0x1.b6a51faa42de6p-10
7437=0x1.08f33c6fd064fp-13
