#mdl#2#1246
#rdr#25/7/0
9:u:%x[0,0],
10:u:%x[-1,0],
9:u:%x[1,0],
9:u:%x[0,1],
10:u:%x[-1,1],
9:u:%x[1,1],
9:u:%x[0,2],
10:u:%x[-1,2],
9:u:%x[1,2],
9:u:%x[0,3],
10:u:%x[-1,3],
9:u:%x[1,3],
9:u:%x[0,4],
10:u:%x[-1,4],
9:u:%x[1,4],
9:u:%x[0,5],
10:u:%x[-1,5],
9:u:%x[1,5],
9:u:%x[0,6],
10:u:%x[-1,6],
9:u:%x[1,6],
9:u:%x[0,7],
10:u:%x[-1,7],
9:u:%x[1,7],
2:b:,
#qrk#4
4:pA_B,
4:pA_I,
4:pA_L,
4:pA_U,
#qrk#1880
9:u:all\\o^,
6:u:_x-1,
5:u:"c",
4:u:10,
4:u:15,
4:u:12,
3:u:7,
3:u:8,
4:u:83,
4:u:81,
4:u:43,
4:u:42,
4:u:44,
4:u:40,
2:b:,
5:u:est,
6:u:_x+1,
5:u:oui,
3:u:6,
4:u:82,
4:u:38,
4:u:41,
4:u:37,
5:u:\\c,
4:u:va,
3:u:a,
4:u:17,
3:u:9,
4:u:39,
4:u:et,
4:u:11,
4:u:26,
5:u:toi,
5:u:dis,
4:u:14,
4:u:je,
4:u:13,
9:u:voulais,
4:u:te,
4:u:80,
10:u:demander,
4:u:86,
8:u:demain,
4:u:84,
4:u:vu,
5:u:que,
4:u:on,
6:u:"qu",
5:u:une,
7:u:heure,
6:u:pour,
8:u:manger,
4:u:85,
5:u:euh,
5:u:dit,
3:u:5,
7:u:aille,
8:u:dehors,
4:u:hm,
4:u:31,
3:u:4,
4:u:88,
4:u:NA,
6:u:sais,
5:u:pas,
4:u:en,
6:u:fait,
7:u:parce,
4:u:28,
4:u:le,
6:u:truc,
4:u:21,
4:u:35,
4:u:19,
4:u:20,
4:u:18,
4:u:29,
5:u:"j",
4:u:ai,
8:u:encore,
4:u:33,
4:u:de,
9:u:monnaie,
4:u:ah,
7:u:ouais,
6:u:donc,
4:u:du,
6:u:coup,
10:u:voudrait,
6:u:dire,
11:u:mangerait,
7:u:genre,
4:u:25,
4:u:un,
10:u:sandwich,
5:u:non,
6:u:vrai,
6:u:trop,
4:u:87,
3:u:1,
5:u:top,
7:u:enfin,
4:u:27,
3:u:2,
4:u:24,
4:u:32,
4:u:22,
7:u:comme,
4:u:23,
4:u:m-,
4:u:f-,
4:u:me,
4:u:34,
8:u:saoule,
5:u:peu,
5:u:des,
12:u:sandwiches,
10:u:voil\\a`,
12:u:"d\\epend",
4:u:si,
4:u:il,
6:u:nous,
10:u:l\\a^che,
7:u:avant,
4:u:ou,
4:u:30,
5:u:"d",
8:u:accord,
4:u:tu,
8:u:retard,
6:u:voit,
3:u:y,
4:u:la,
7:u:queue,
6:u:\\a`,
8:u:limite,
6:u:veux,
4:u:ok,
8:u:"\\e-",
11:u:"\\etait",
13:u:"pr\\evoir",
5:u:moi,
7:u:aussi,
6:u:faut,
8:u:prenne,
5:u:"l",
8:u:argent,
5:u:sur,
6:u:vois,
11:u:"daccord",
6:u:mais,
7:u:mange,
8:u:salade,
8:u:laisse,
6:u:peut,
7:u:aller,
9:u:cantine,
7:u:toute,
7:u:fa\\c,
8:u:pareil,
9:u:appeler,
5:u:vas,
8:u:donner,
9:u:petites,
6:u:news,
9:u:comment,
5:u:ça,
8:u:allait,
4:u:91,
7:u:avais,
4:u:se,
6:u:voie,
7:u:même,
6:u:elle,
5:u:là,
10:u:faudrait,
7:u:alors,
4:u:ce,
6:u:mois,
4:u:ci,
8:u:passé,
4:u:à,
8:u:allure,
6:u:quoi,
7:u:été,
7:u:super,
5:u:ric,
5:u:rac,
5:u:ben,
8:u:façon,
11:u:attendais,
8:u:retour,
10:u:réunion,
5:u:"m",
8:u:étais,
8:u:aurait,
4:u:pu,
6:u:voir,
7:u:quand,
7:u:faire,
8:u:voilà,
5:u:bon,
3:u:3,
6:u:puis,
8:u:après,
7:u:temps,
7:u:passe,
12:u:finalement,
8:u:arrive,
10:u:bientôt,
5:u:fin,
4:u:16,
7:u:très,
6:u:vite,
12:u:exactement,
4:u:j-,
7:u:être,
8:u:essaie,
7:u:caler,
6:u:vous,
8:u:dirait,
9:u:semaine,
11:u:prochaine,
6:u:bien,
6:u:pris,
10:u:vendredi,
8:u:samedi,
8:u:"cest",
10:u:possible,
17:u:éventuellement,
10:u:gérable,
6:u:soir,
6:u:cool,
12:u:clairement,
9:u:reparle,
12:u:carrément,
6:u:vais,
12:u:rapidement,
4:u:au,
7:u:moins,
9:u:envoyer,
6:u:mail,
5:u:pis,
10:u:toujours,
12:u:compliqué,
11:u:plusieurs,
4:u:as,
8:u:raison,
9:u:propose,
9:u:instant,
5:u:"t",
7:u:irait,
9:u:parfait,
5:u:où,
6:u:hein,
5:u:nan,
8:u:disais,
8:u:petite,
8:u:bouffe,
6:u:mai-,
8:u:maison,
9:u:bonjour,
4:u:89,
7:u:salut,
9:u:entendu,
7:u:bruit,
7:u:merde,
8:u:entend,
9:u:arriver,
6:u:loin,
7:u:chaud,
5:u:ici,
7:u:aviez,
10:u:chouette,
11:u:installer,
5:u:les,
8:u:filles,
6:u:pose,
5:u:nos,
10:u:affaires,
6:u:waou,
4:u:90,
8:u:faites,
6:u:chez,
5:u:tes,
12:u:chaussures,
9:u:enlève,
5:u:mes,
9:u:obligé,
7:u:garde,
8:u:mettre,
6:u:joli,
6:u:suis,
10:u:craquée,
7:u:cette,
8:u:année,
10:u:rondelle,
8:u:citron,
6:u:tout,
6:u:plus,
8:u:grands,
6:u:2.02,
5:u:ils,
6:u:sont,
11:u:chouettes,
5:u:ces,
8:u:verres,
7:u:beaux,
10:u:achetés,
9:u:exprès,
5:u:ouh,
5:u:mis,
11:u:chauffage,
7:u:crois,
6:u:tour,
10:u:obligée,
6:u:fond,
11:u:autrement,
8:u:marche,
6:u:c“,
7:u:loose,
6:u:soit,
7:u:zéro,
9:u:éteint,
8:u:chiant,
6:u:fais,
11:u:engueuler,
10:u:consomme,
6:u:sers,
7:u:sûre,
4:u:oh,
8:u:partir,
8:u:moment,
8:u:rigolo,
5:u:ch-,
8:u:savais,
7:u:avait,
7:u:aimé,
7:u:avoir,
8:u:autres,
8:u:graals,
8:u:prévu,
11:u:inquiète,
8:u:paille,
7:u:allez,
10:u:habitude,
9:u:cuisine,
8:u:êtres,
7:u:miser,
15:u:présentation,
10:u:croirait,
6:u:dans,
8:u:dîner,
9:u:presque,
10:u:chercher,
7:u:autre,
7:u:mince,
13:u:commençais,
7:u:boire,
5:u:cas,
9:u:plaisir,
5:u:"n",
10:u:empêche,
7:u:clair,
11:u:longtemps,
4:u:d-,
5:u:vue,
8:u:depuis,
5:u:cet,
14:u:anniversaire,
5:u:"s",
6:u:vues,
9:u:remonte,
5:u:par,
11:u:croisées,
8:u:métro,
7:u:trois,
9:u:arrêts,
8:u:était,
5:u:qui,
10:u:vraiment,
6:u:aïe,
8:u:vôtre,
8:u:santé,
8:u:mignon,
4:u:ma,
7:u:mère,
8:u:gardes,
8:u:cognac,
6:u:gros,
6:u:mets,
10:u:beaucoup,
13:u:normalement,
8:u:classe,
4:u:ne,
7:u:juste,
10:u:histoire,
7:u:petit,
6:u:sûr,
4:u:a-,
9:u:passée,
4:u:es,
7:u:seule,
9:u:souvent,
7:u:cours,
7:u:lundi,
13:u:interaction,
9:u:verbale,
6:u:lun-,
6:u:midi,
7:u:mardi,
10:u:mercredi,
9:u:syntaxe,
9:u:oublier,
6:u:neuf,
8:u:heures,
7:u:matin,
7:u:jeudi,
8:u:psycho,
6:u:demi,
6:u:fois,
6:u:deux,
6:u:int-,
9:u:analyse,
19:u:conversationnelle,
7:u:exact,
7:u:reste,
11:u:formation,
8:u:rester,
8:u:prends,
6:u:pire,
7:u:train,
9:u:revenir,
7:u:vient,
9:u:voiture,
9:u:crevée,
9:u:rentrer,
8:u:chaque,
10:u:aimerais,
8:u:restes,
9:u:ramène,
6:u:sait,
8:u:jamais,
9:u:quelque,
7:u:chose,
7:u:faute,
8:u:tomber,
10:u:pourquoi,
13:u:franchement,
14:u:gestionnaire,
7:u:paies,
9:u:croyais,
9:u:reprend,
8:u:début,
7:u:soeur,
9:u:galère,
5:u:son,
8:u:master,
4:u:sa,
11:u:première,
8:u:loupé,
13:u:recommencé,
11:u:deuxième,
10:u:reloupé,
5:u:ont,
6:u:rien,
8:u:savait,
4:u:s-,
9:u:voulait,
10:u:retenter,
12:u:troisième,
7:u:idée,
7:u:monde,
9:u:travail,
7:u:marre,
10:u:arrivée,
7:u:vingt,
8:u:quatre,
5:u:ans,
15:u:compréhensif,
8:u:partie,
9:u:essayer,
10:u:cherché,
9:u:trouvé,
5:u:ad-,
9:u:adultes,
9:u:appelle,
6:u:sai-,
14:u:considérée,
12:u:étudiante,
12:u:intégrée,
8:u:dedans,
5:u:ami,
7:u:style,
5:u:de-,
10:u:semaines,
12:u:entreprise,
9:u:bizarre,
9:u:passait,
8:u:déjà,
5:u:mal,
9:u:compris,
13:u:réellement,
7:u:cadre,
9:u:choisie,
7:u:prise,
10:u:logiciel,
8:u:permet,
9:u:censés,
5:u:eux,
11:u:expliquer,
16:u:fonctionnement,
5:u:aux,
13:u:entreprises,
9:u:doivent,
6:u:bons,
8:u:calée,
9:u:déçue,
7:u:cause,
7:u:allô,
8:u:coucou,
10:u:appelais,
6:u:avec,
8:u:parlé,
11:u:septembre,
8:u:veniez,
7:u:fête,
11:u:lumières,
12:u:invitation,
7:u:tient,
7:u:fasse,
6:u:cher,
8:u:savoir,
8:u:disait,
7:u:venir,
8:u:priori,
5:u:lui,
13:u:particulier,
9:u:regarde,
9:u:surtout,
6:u:prix,
9:u:billets,
7:u:jouer,
8:u:boulot,
6:u:peux,
10:u:regarder,
12:u:maintenant,
10:u:rappelle,
10:u:regardé,
6:u:coca,
9:u:attaque,
8:u:pizzas,
9:u:attends,
6:u:sors,
8:u:occupe,
6:u:1.10,
4:u:ta,
9:u:chèvre,
13:u:champignons,
8:u:jambon,
8:u:dessus,
10:u:pourrait,
7:u:sympa,
6:u:rire,
8:u:viande,
9:u:hachée,
9:u:chorizo,
10:u:poivrons,
12:u:allumettes,
9:u:lardons,
8:u:besoin,
9:u:occuper,
7:u:pâte,
5:u:ton,
5:u:job,
5:u:yes,
10:u:claquée,
5:u:dur,
6:u:week,
5:u:end,
11:u:émotions,
7:u:maman,
11:u:ressortir,
7:u:pense,
7:u:droit,
7:u:pète,
8:u:putain,
8:u:péter,
5:u:hé,
6:u:fous,
9:u:partout,
7:u:celle,
7:u:assez,
7:u:tiré,
9:u:arrives,
9:u:content,
7:u:jeté,
10:u:poubelle,
10:u:pratique,
8:u:bordel,
12:u:chicouille,
7:u:mieux,
12:u:dépêches,
8:u:chiche,
10:u:commande,
9:u:branche,
6:u:fils,
10:u:trancher,
7:u:gorge,
6:u:hier,
8:u:abusé,
6:u:dise,
10:u:balancer,
6:u:ayé,
6:u:vont,
10:u:emmerder,
4:u:t-,
12:u:vêtements,
6:u:êt-,
10:u:choquée,
9:u:acheté,
8:u:esprit,
9:u:laisses,
6:u:ceux,
7:u:hiver,
10:u:énervé,
5:u:don,
10:u:énerver,
9:u:rouleau,
13:u:pâtisserie,
6:u:oula,
8:u:aurais,
12:u:préféré,
9:u:trouver,
6:u:sans,
8:u:manche,
6:u:aime,
11:u:préfère,
9:u:manches,
10:u:échappe,
7:u:mains,
6:u:sera,
10:u:présent,
14:u:physiquement,
6:u:sept,
8:u:rentre,
9:u:pratico,
7:u:delà,
5:u:ait,
13:u:billetterie,
7:u:salle,
11:u:spectacle,
10:u:"quelqu",
9:u:entrée,
9:u:décide,
5:u:pot,
9:u:souhait,
6:u:pots,
5:u:so-,
14:u:conférences,
9:u:débats,
8:u:budget,
10:u:organise,
4:u:l-,
14:u:installation,
11:u:matériel,
5:u:mai,
6:u:main,
7:u:place,
8:u:tables,
9:u:chaises,
9:u:caetera,
6:u:okay,
8:u:compte,
5:u:mon,
8:u:agenda,
11:u:organiser,
7:u:serai,
6:u:mer-,
9:u:"jusqu",
7:u:aider,
11:u:théâtre,
7:u:souci,
7:u:point,
15:u:interrogation,
10:u:partiras,
10:u:viendrai,
11:u:resterais,
8:u:serait,
8:u:quelle,
4:u:96,
6:u:acc-,
6:u:tous,
11:u:mercredis,
8:u:fermé,
6:u:fini,
11:u:sûrement,
5:u:au-,
6:u:aura,
13:u:sollicitera,
7:u:votre,
9:u:atelier,
9:u:combien,
7:u:durer,
9:u:sachant,
9:u:numéro,
12:u:disponible,
5:u:dix,
6:u:huit,
13:u:conférence,
6:u:lieu,
8:u:rapide,
12:u:tranquille,
8:u:plaît,
9:u:horaire,
7:u:coût,
10:u:soixante,
7:u:euros,
8:u:blague,
10:u:comprise,
9:u:parlait,
9:u:fautive,
8:u:parlez,
8:u:fautif,
11:u:problème,
12:u:organisera,
9:u:acheter,
13:u:cacahuètes,
10:u:boissons,
8:u:suffit,
7:u:voyez,
8:u:choses,
8:u:débat,
11:u:organisez,
4:u:v-,
12:u:rencontrez,
6:u:plan,
7:u:suite,
9:u:contenu,
5:u:doc,
12:u:distribuer,
10:u:vacances,
8:u:quinze,
7:u:jours,
5:u:va-,
9:u:pendant,
7:u:avril,
12:u:travailler,
5:u:com,
9:u:diffuse,
9:u:affaire,
7:u:roule,
7:u:poser,
10:u:question,
15:u:communication,
9:u:support,
8:u:facile,
9:u:plutôt,
10:u:diffuser,
9:u:ensuite,
10:u:imaginer,
9:u:journal,
6:u:veut,
9:u:toucher,
12:u:population,
7:u:voter,
12:u:absolument,
10:u:sensible,
9:u:départ,
12:u:communique,
12:u:brouillard,
9:u:connais,
11:u:travaille,
8:u:Europe,
7:u:lieux,
15:u:prédilection,
7:u:doute,
8:u:public,
8:u:trouve,
9:u:verrais,
4:u:92,
9:u:espèce,
7:u:tract,
11:u:immeubles,
9:u:boîtes,
9:u:lettres,
10:u:quartier,
7:u:abord,
8:u:toutes,
12:u:activités,
15:u:systématique,
7:u:coupe,
12:u:aléatoire,
9:u:voisins,
6:u:cent,
12:u:locataires,
11:u:viendront,
7:u:elles,
13:u:condamnées,
9:u:motivé,
9:u:sportif,
13:u:parenthèse,
6:u:avez,
8:u:idées,
14:u:illuminantes,
10:u:hésitez,
8:u:membre,
7:u:verra,
13:u:facturation,
9:u:facture,
14:u:"aujourdhui",
8:u:pardon,
10:u:terminé,
10:u:rentrée,
11:u:nutrition,
6:u:gens,
10:u:viennent,
5:u:MJC,
6:u:Oul-,
9:u:Oullins,
11:u:personnes,
10:u:seraient,
9:u:octobre,
7:u:dates,
4:u:i-,
11:u:envisager,
8:u:saison,
9:u:courant,
6:u:juin,
9:u:juillet,
11:u:réserver,
7:u:trucs,
10:u:prépare,
6:u:fixe,
10:u:dérange,
5:u:air,
11:u:derrière,
6:u:pote,
10:u:Bastille,
9:u:écoute,
7:u:diras,
9:u:répond,
13:u:téléphone,
10:u:réponds,
9:u:paraît,
6:u:part,
10:u:appelée,
9:u:demande,
10:u:regardes,
9:u:entends,
7:u:reçu,
10:u:messages,
9:u:appelé,
10:u:dimanche,
8:u:excuse,
15:u:crémaillère,
11:u:présente,
9:u:essayé,
13:u:rencontrée,
5:u:ja-,
9:u:pouvait,
8:u:passer,
8:u:venait,
11:u:repartait,
8:u:rendus,
9:u:pouvoir,
11:u:descendre,
8:u:penses,
9:u:suivant,
10:u:faisable,
9:u:bonsoir,
7:u:merci,
9:u:restés,
10:u:nombreux,
8:u:soucis,
8:u:emploi,
11:u:cinquante,
9:u:minutes,
10:u:exprimer,
7:u:court,
6:u:bref,
14:u:synthétique,
13:u:géographie,
9:u:science,
11:u:synthèse,
10:u:quarante,
6:u:cinq,
11:u:comprenez,
12:u:véritable,
7:u:défi,
8:u:lancé,
11:u:excuserez,
10:u:certains,
9:u:aspects,
9:u:pourrai,
11:u:évidence,
6:u:tard,
10:u:ailleurs,
5:u:lie,
7:u:utile,
11:u:agréable,
10:u:"lorsqu",
12:u:géographe,
11:u:ruraliste,
7:u:vigne,
5:u:vin,
16:u:généralement,
9:u:termine,
9:u:chanson,
7:u:caves,
7:u:force,
14:u:dégustation,
8:u:ferons,
10:u:heureuse,
12:u:accueillir,
9:u:travaux,
11:u:pratiques,
9:u:reconnu,
9:u:panneau,
8:u:UNESCO,
5:u:Val,
7:u:Loire,
11:u:essentiel,
10:u:discours,
8:u:porter,
10:u:quelques,
14:u:définitions,
16:u:mondialisation,
11:u:reprendre,
10:u:définit,
13:u:représente,
11:u:notamment,
9:u:Laurent,
10:u:Carroué,
14:u:actuellement,
12:u:président,
9:u:respon-,
7:u:CAPES,
12:u:territoire,
9:u:inscrit,
13:u:géographes,
9:u:discute,
10:u:juristes,
12:u:également,
14:u:économistes,
10:u:manière,
12:u:présenter,
13:u:territoires,
11:u:simplifie,
11:u:Alexandre,
7:u:Moine,
7:u:mille,
14:u:interactions,
7:u:entre,
9:u:acteurs,
8:u:espace,
15:u:géographique,
6:u:cela,
10:u:reprends,
4:u:p-,
10:u:anglaise,
8:u:Jancis,
10:u:Robinson,
9:u:assiste,
11:u:mouvement,
11:u:diffusion,
9:u:passion,
14:u:consommation,
12:u:incroyable,
9:u:limites,
8:u:dirais,
12:u:oekoumène,
10:u:planète,
9:u:extrait,
11:u:contraire,
13:u:rétraction,
6:u:pays,
20:u:traditionnellement,
15:u:consommateurs,
13:u:producteurs,
14:u:exportateurs,
7:u:sorte,
15:u:contradiction,
6:u:ceci,
6:u:lié,
7:u:voulu,
9:u:montrer,
6:u:quel,
6:u:sens,
10:u:sérieux,
7:u:cirer,
7:u:tirer,
10:u:citation,
9:u:écrite,
14:u:circonstance,
8:u:écris,
10:u:articles,
12:u:simplement,
12:u:retiendrai,
9:u:dernier,
11:u:élément,
12:u:comprendre,
15:u:effectivement,
13:u:référence,
8:u:essaye,
13:u:présentent,
14:u:vitivinicole,
6:u:1.00,
11:u:société,
16:u:intermédiaire,
9:u:actions,
14:u:informations,
11:u:remontent,
12:u:éléments,
12:u:permettent,
9:u:paysage,
16:u:véritablement,
7:u:image,
9:u:visible,
9:u:renvoie,
6:u:leur,
9:u:surface,
11:u:terrestre,
8:u:niveau,
13:u:négociants,
14:u:commerçants,
20:u:interprofessionnel,
15:u:professionnel,
11:u:gravitent,
8:u:autour,
13:u:fondamental,
11:u:important,
13:u:exportation,
13:u:importation,
12:u:production,
9:u:gestion,
5:u:AOC,
5:u:AOP,
7:u:rôle,
13:u:grandissant,
9:u:veulent,
9:u:prendre,
7:u:poids,
9:u:excusez,
13:u:directement,
16:u:problématique,
7:u:quels,
9:u:moteurs,
8:u:freins,
11:u:expansion,
8:u:mesure,
13:u:considérer,
8:u:France,
8:u:remise,
11:u:approches,
11:u:proposent,
9:u:optique,
14:u:territoriale,
9:u:insiste,
9:u:traiter,
6:u:cel-,
11:u:certaines,
10:u:prévues,
9:u:thèmes,
14:u:événements,
12:u:fondateurs,
8:u:parler,
7:u:mythe,
11:u:fondateur,
12:u:archétype,
12:u:historique,
9:u:puisque,
10:u:suggère,
11:u:fortement,
12:u:rechercher,
13:u:différents,
8:u:seuils,
16:u:chronologiques,
8:u:amené,
13:u:évolutions,
7:u:près,
9:u:produit,
11:u:seulement,
10:u:agricole,
10:u:culturel,
11:u:religieux,
8:u:relier,
10:u:religion,
13:u:chrétienne,
9:u:assuré,
4:u:eu,
8:u:série,
8:u:crises,
15:u:fondamentales,
11:u:neuvième,
9:u:siècle,
12:u:entraîné,
11:u:création,
14:u:appellations,
9:u:origine,
13:u:contrôlée,
15:u:rapprochement,
8:u:points,
6:u:vins,
9:u:terroir,
9:u:cépage,
9:u:banquet,
8:u:Platon,
14:u:fondamentaux,
8:u:quête,
10:u:vérité,
11:u:évoquent,
11:u:symposium,
6:u:grec,
10:u:convives,
9:u:passent,
10:u:cratère,
8:u:lequel,
5:u:eau,
6:u:font,
8:u:éloge,
7:u:amour,
6:u:lors,
10:u:banquets,
9:u:lancent,
8:u:défis,
10:u:essayent,
12:u:apprécié,
7:u:ainsi,
5:u:né,
12:u:guillemets,
17:u:interprétation,
13:u:personnelle,
9:u:permets,
13:u:philosophie,
8:u:Grèce,
7:u:verre,
5:u:re-,
11:u:retrouver,
7:u:tiens,
11:u:préciser,
9:u:vivante,
8:u:notée,
8:u:propos,
10:u:Arménie,
12:u:Françoise,
11:u:Ardillier,
10:u:chansons,
11:u:réponses,
5:u:sud,
7:u:ouest,
11:u:français,
9:u:exemple,
10:u:revenant,
10:u:Bidarray,
12:u:connaissez,
8:u:voulez,
8:u:mangé,
4:u:bu,
10:u:ensemble,
10:u:commence,
9:u:strophe,
6:u:doit,
10:u:terminer,
5:u:mot,
10:u:internet,
8:u:verrez,
12:u:insisterai,
10:u:oreilles,
12:u:pourraient,
11:u:supporter,
10:u:origines,
14:u:caucasiennes,
14:u:fondamenteur,
7:u:noces,
6:u:Cana,
9:u:travers,
9:u:tableau,
12:u:Véronèse,
14:u:interpréter,
4:u:lu,
11:u:Évangile,
6:u:Jean,
13:u:personnages,
7:u:clés,
8:u:jeunes,
9:u:mariés,
8:u:marié,
7:u:femme,
9:u:mariée,
6:u:coin,
8:u:contre,
8:u:donné,
8:u:durant,
6:u:vint,
9:u:manquer,
7:u:grave,
8:u:erreur,
9:u:parents,
7:u:rater,
7:u:leurs,
7:u:Marie,
12:u:intervient,
17:u:personnellement,
8:u:Jésus,
10:u:signifie,
11:u:implicite,
8:u:oeuvre,
10:u:réclame,
7:u:venue,
11:u:attention,
10:u:réponse,
11:u:serviteur,
6:u:dira,
9:u:remplir,
8:u:jarres,
10:u:apporter,
9:u:maître,
13:u:cérémonie,
10:u:changée,
16:u:extraordinaire,
14:u:fondamentale,
16:u:transformation,
12:u:exégètes,
8:u:disent,
15:u:premièrement,
6:u:agit,
13:u:institution,
13:u:eucharistie,
11:u:sacrifice,
7:u:croix,
6:u:dont,
8:u:verser,
6:u:sang,
11:u:humanité,
6:u:pain,
12:u:considère,
7:u:vraie,
12:u:nourriture,
9:u:boisson,
7:u:envie,
9:u:rapport,
13:u:thématique,
11:u:proposée,
8:u:sommes,
6:u:ange,
9:u:ressort,
10:u:extraits,
8:u:sortir,
19:u:caractéristiques,
9:u:aliment,
8:u:festif,
7:u:objet,
14:u:civilisation,
19:u:méditerranéenne,
8:u:certes,
8:u:judéo,
10:u:tendance,
8:u:perdre,
11:u:influence,
7:u:perdu,
8:u:aspect,
10:u:continue,
8:u:garder,
7:u:modes,
9:u:changé,
12:u:auparavant,
10:u:buvaient,
17:u:régulièrement,
11:u:coupaient,
15:u:particulière,
14:u:disparaître,
8:u:grande,
9:u:vitesse,
9:u:plupart,
9:u:disparu,
12:u:bataillons,
9:u:paysans,
11:u:autrefois,
10:u:ouvriers,
10:u:courante,
15:u:complètement,
14:u:transmission,
7:u:inch-,
24:u:intergénérationnelle,
11:u:quasiment,
6:u:rite,
9:u:faisait,
9:u:famille,
7:u:père,
11:u:tellement,
7:u:pater,
10:u:familial,
11:u:apprenait,
5:u:ses,
9:u:enfants,
8:u:buvait,
6:u:âge,
6:u:clé,
13:u:commençait,
11:u:commencer,
10:u:explique,
11:u:Bourgogne,
7:u:rouge,
12:u:forcément,
10:u:approche,
12:u:intronisé,
6:u:fée,
11:u:sorcière,
8:u:Marine,
8:u:vivait,
6:u:haut,
7:u:nuage,
10:u:château,
7:u:tours,
9:u:dorées,
8:u:reçut,
10:u:baguette,
9:u:magique,
7:u:bête,
8:u:patins,
11:u:roulettes,
7:u:magi-,
8:u:simple,
9:u:rollers,
10:u:pourrais,
8:u:casser,
5:u:nez,
9:u:tombant,
7:u:digne,
8:u:cadeau,
10:u:recevoir,
8:u:bateau,
9:u:exclama,
10:u:basculer,
6:u:robe,
13:u:dégoutante,
9:u:chapeau,
7:u:jeter,
7:u:fées,
10:u:devaient,
11:u:gentilles,
9:u:propres,
8:u:tartes,
9:u:miettes,
6:u:thé,
11:u:renverser,
7:u:tache,
10:u:raconter,
6:u:voix,
12:u:mielleuses,
11:u:histoires,
8:u:douces,
9:u:tendres,
8:u:agiter,
5:u:ca-,
9:u:gâteau,
6:u:beau,
8:u:cerise,
10:u:trouvait,
14:u:terriblement,
12:u:ennuyeuses,
17:u:malheureusement,
10:u:bouillo-,
9:u:bouill-,
11:u:bouillote,
11:u:théière,
12:u:sorcières,
9:u:avaient,
7:u:salir,
7:u:crier,
9:u:patiner,
10:u:naviguer,
6:u:bord,
6:u:jour,
10:u:sursauta,
9:u:horreur,
8:u:écria,
9:u:devrais,
7:u:honte,
8:u:frappa,
6:u:pied,
7:u:hurla,
10:u:certaine,
15:u:approchèrent,
8:u:dirent,
11:u:horribles,
12:u:crâneuses,
12:u:concoctent,
9:u:potions,
13:u:dangereuses,
13:u:transformer,
9:u:crapaud,
5:u:fit,
9:u:devenir,
8:u:existe,
8:u:règle,
8:u:gronda,
8:u:docile,
10:u:soignée,
9:u:insista,
11:u:répliqua,
10:u:furieuse,
9:u:endroit,
6:u:bois,
9:u:soupira,
10:u:envolant,
9:u:regarda,
9:u:tardera,
8:u:envole,
9:u:cliques,
9:u:claques,
7:u:vivre,
10:u:trompait,
11:u:convenait,
14:u:parfaitement,
13:u:construisit,
12:u:magnifique,
8:u:cabane,
8:u:duquel,
9:u:navigua,
10:u:rivière,
9:u:nourrir,
10:u:cueillit,
7:u:baies,
11:u:noisettes,
10:u:étaient,
11:u:adorables,
8:u:prêta,
5:u:mit,
12:u:serpentant,
8:u:arbres,
7:u:belle,
7:u:patin,
7:u:tête,
7:u:longs,
8:u:noeuds,
6:u:cro-,
9:u:crochus,
11:u:justement,
8:u:crochu,
9:u:marrant,
8:u:offrit,
7:u:jeune,
7:u:fille,
7:u:balai,
10:u:flambant,
11:u:aussitôt,
8:u:voulut,
11:u:apprendre,
7:u:voler,
10:u:empoigna,
7:u:engin,
8:u:grimpa,
7:u:arbre,
16:u:encouragèrent,
7:u:sauta,
7:u:resta,
11:u:suspendue,
6:u:airs,
9:u:écrasa,
5:u:sol,
7:u:pensa,
10:u:redressa,
8:u:essaya,
9:u:nouveau,
6:u:bout,
9:u:parvint,
14:u:applaudirent,
8:u:rompre,
8:u:volant,
10:u:effleura,
10:u:renversa,
6:u:seau,
5:u:jus,
11:u:groseille,
14:u:soupirèrent,
9:u:trouves,
10:u:chapeaux,
9:u:pointus,
6:u:noir,
7:u:moche,
13:u:cuisinière,
10:u:marrante,
8:u:fonça,
11:u:direction,
6:u:ciel,
6:u:cria,
7:u:viens,
8:u:tenait,
8:u:debout,
5:u:eut,
9:u:souffle,
8:u:coupé,
11:u:effrayée,
9:u:devenue,
7:u:folle,
10:u:atterrit,
9:u:douceur,
7:u:riant,
8:u:appris,
11:u:construit,
10:u:navigué,
12:u:formidable,
11:u:élection,
5:u:Lot,
9:u:Garonne,
17:u:circonscription,
14:u:législative,
11:u:partielle,
11:u:siègeait,
8:u:jusque,
10:u:Jérôme,
9:u:Cahuzac,
8:u:ancien,
10:u:ministre,
12:u:désormais,
8:u:fraude,
9:u:fiscale,
8:u:Suisse,
11:u:déclaré,
6:u:fisc,
9:u:dirigé,
15:u:démissionné,
8:u:siège,
10:u:député,
9:u:fallait,
10:u:pourvoir,
5:u:UMP,
10:u:emporté,
6:u:face,
10:u:candidat,
7:u:Front,
10:u:National,
5:u:six,
7:u:score,
7:u:large,
6:u:tant,
15:u:participation,
8:u:faible,
7:u:cents,
8:u:écart,
8:u:hommes,
14:u:relativement,
8:u:serré,
6:u:duel,
9:u:leçons,
12:u:politiques,
10:u:Bertrand,
9:u:Lacoste,
4:u:FN,
11:u:présence,
8:u:second,
7:u:terre,
9:u:certain,
10:u:diverses,
13:u:réflexions,
7:u:surgi,
10:u:occasion,
8:u:côté,
4:u:PS,
10:u:laissent,
10:u:perplexe,
7:u:quant,
6:u:tire,
9:u:entend-,
13:u:évidemment,
10:u:réjouir,
11:u:candidats,
12:u:dirigeants,
8:u:tenter,
9:u:quelles,
9:u:raisons,
12:u:éliminés,
9:u:premier,
7:u:effet,
14:u:candidatures,
6:u:pea-,
14:u:parasitaires,
8:u:isoler,
12:u:Villeneuve,
12:u:partielles,
11:u:dérouler,
12:u:desquelles,
11:u:symptôme,
9:u:malaise,
15:u:considérable,
8:u:droite,
6:u:taux,
12:u:abstention,
11:u:démontre,
14:u:intéressent,
6:u:type,
8:u:joutes,
12:u:désespoir,
5:u:tel,
11:u:anxiété,
7:u:telle,
16:u:découragement,
10:u:proposé,
7:u:offre,
11:u:politique,
11:u:déplacer,
8:u:soient,
8:u:enjeux,
9:u:époque,
10:u:venaient,
7:u:untel,
11:u:"aujourd",
5:u:hui,
15:u:tétanisation,
11:u:situation,
12:u:totalement,
15:u:désespérés,
14:u:extrêmement,
13:u:inquiétant,
10:u:dirigent,
10:u:prennent,
5:u:ts-,
10:u:tsunamis,
13:u:progressifs,
12:u:retombées,
12:u:répliques,
10:u:secouent,
5:u:kl-,
4:u:r-,
8:u:pourra,
14:u:explications,
10:u:allusion,
7:u:front,
14:u:républicain,
8:u:posais,
14:u:introduction,
6:u:mort,
17:u:définitivement,
8:u:Gauche,
11:u:Écologie,
11:u:général,
11:u:classique,
11:u:députés,
9:u:remette,
7:u:notre,
12:u:stratégie,
7:u:appel,
6:u:sein,
7:u:parti,
12:u:socialiste,
7:u:Louis,
9:u:Bernard,
11:u:agonisant,
8:u:amener,
5:u:soi,
12:u:électeurs,
13:u:électrices,
14:u:propositions,
6:u:mode,
5:u:vie,
8:u:morale,
10:u:regardez,
10:u:souvenez,
9:u:traité,
11:u:européen,
9:u:médias,
9:u:élites,
11:u:pensantes,
7:u:voté,
12:u:importante,
18:u:circonscriptions,
8:u:Loiret,
9:u:circon-,
7:u:ordre,
9:u:absten-,
12:u:élections,
7:u:route,
6:u:fort,
8:u:claque,
8:u:aucune,
10:u:triomphe,
7:u:grand,
9:u:gagnant,
14:u:reconnaître,
6:u:dieu,
11:u:positions,
6:u:anti,
9:u:radical,
9:u:succès,
11:u:engrangé,
8:u:nombre,
10:u:victoire,
12:u:symbolique,
7:u:voire,
13:u:médiatique,
6:u:avis,
13:u:municipales,
11:u:capacité,
10:u:nuisance,
4:u:b-,
4:u:z-,
14:u:européennes,
13:u:socialistes,
8:u:risque,
7:u:Modem,
5:u:UDI,
8:u:change,
8:u:crains,
10:u:marchait,
9:u:Jacques,
8:u:Chirac,
9:u:réélu,
5:u:Pen,
8:u:Hassan,
7:u:Kerim,
11:u:résultat,
5:u:rue,
6:u:faux,
11:u:persuadé,
8:u:gauche,
11:u:questions,
8:u:posent,
16:u:compatibilité,
9:u:unités,
8:u:statut,
13:u:sémantique,
14:u:morphologues,
12:u:défendent,
7:u:signe,
12:u:saussurien,
9:u:affixes,
12:u:polysémie,
8:u:traite,
12:u:générale,
9:u:simples,
14:u:linguistique,
6:u:syn-,
11:u:expliqué,
5:u:en-,
13:u:pragmatique,
8:u:morpho,
9:u:claires,
12:u:explicites,
8:u:trois-,
8:u:puisse,
12:u:consacrée,
10:u:méthode,
12:u:synchronie,
12:u:diachronie,
8:u:aborde,
11:u:intuition,
12:u:intuitives,
13:u:morphologie,
10:u:énoncé,
9:u:globale,
4:u:u-,
13:u:plurisémie,
15:u:multiplicité,
9:u:strates,
18:u:interprétatives,
11:u:morphème,
12:u:flexionnel,
13:u:unisémique,
16:u:pluristratique,
10:u:évitant,
11:u:théories,
14:u:différentes,
12:u:décrivent,
9:u:chacune,
8:u:strate,
13:u:différente,
10:u:opposent,
6:u:unes,
9:u:malheur,
11:u:consacrer,
9:u:séance,
12:u:difficiles,
11:u:résolues,
10:u:apparait,
8:u:étant,
14:u:compliquées,
8:u:celles,
21:u:polycatégorialité,
12:u:traitement,
20:u:polycatégorielles,
9:u:lexique,
13:u:catégoriel,
10:u:matière,
11:u:confiance,
13:u:imagination,
8:u:servir,
8:u:sortes,
12:u:problèmes,
10:u:aimerait,
8:u:semble,
13:u:expérience,
14:u:sémanticien,
13:u:morphologue,
11:u:évidente,
11:u:sentiment,
12:u:prospectif,
10:u:chantier,
13:u:modérateur,
11:u:François,
8:u:carré,
12:u:immodéré,
11:u:agitateur,
12:u:commencent,
8:u:fermer,
6:u:oeil,
12:u:intervenir,
14:u:flexionnelle,
6:u:mots,
12:u:différent,
13:u:traitements,
11:u:méthodes,
9:u:relève,
10:u:principe,
8:u:Claude,
10:u:position,
14:u:dégueulasse,
13:u:réfléchir,
10:u:bêtises,
11:u:procédé,
7:u:banal,
10:u:consiste,
14:u:apparaissent,
12:u:virtuelles,
13:u:quelquefois,
11:u:énoncés,
10:u:virtuels,
7:u:gêne,
15:u:sémanticiens,
10:u:évoqué,
10:u:rotation,
13:u:indéniable,
7:u:rotor,
9:u:rotatif,
11:u:rotatoire,
9:u:rotonde,
7:u:rôti,
9:u:postule,
6:u:base,
17:u:matériellement,
5:u:ose,
7:u:verbe,
7:u:roter,
12:u:imaginaire,
5:u:se-,
6:u:sert,
14:u:archimodèle,
8:u:machin,
9:u:modèle,
14:u:lexématique,
11:u:reconnait,
7:u:rotat,
11:u:associée,
9:u:lexème,
11:u:réaliser,
10:u:autonome,
10:u:lexicale,
11:u:locuteurs,
13:u:permettrait,
8:u:former,
10:u:nouveaux,
6:u:ét-,
13:u:appartenant,
8:u:proche,
11:u:filiation,
9:u:directe,
12:u:hypothèse,
11:u:paradigme,
7:u:parle,
12:u:structures,
17:u:intériorisées,
12:u:prédateur,
12:u:prédation,
12:u:construits,
14:u:fonctionnent,
8:u:parent,
8:u:direct,
9:u:existé,
14:u:contemporain,
4=0x1.9cb210ebbeadep-2
5=-0x1.1a8132fbaa5aap-1
6=-0x1.6b416272e4a7dp-1
7=0x1.88e0b5ba8f468p-2
8=0x1.c71dafe69e58ap-6
9=-0x1.c08b90f9cc7cap-7
10=-0x1.812382faff18p-8
11=-0x1.e97d7ecc8063dp-8
12=-0x1.36eb83c572058p-9
13=0x1.cf4a25fbae948p-5
14=-0x1.e4fe0c16bd5e4p-8
15=-0x1.07463b506606ap-5
16=0x1.518b87a3facf3p-7
17=-0x1.01781d02b3b2ep-7
18=0x1.1e0a6d8713142p-8
19=-0x1.9376160f2018ap-8
20=-0x1.f78bfce90d96cp-8
21=0x1.17c446ea1ac02p-5
22=-0x1.c59e080822f9p-8
23=-0x1.04e879ae1d888p-6
24=0x1.639f2d32e0bf7p-6
25=0x1.7102e3e5d1e97p-4
26=-0x1.4198a6500236ep-6
27=-0x1.0b17cc4dd6bc1p-4
28=-0x1.822daf4c1097ap-8
29=0x1.67abd486cf68fp-4
30=-0x1.0728559a8286ep-6
31=-0x1.fa62788713a86p-5
32=0x1.1cdc5677fd0e9p-5
33=-0x1.59d040f49740ep-4
34=0x1.07fa71be9cd4ap-4
35=-0x1.2c58d776718bep-6
36=-0x1.98d4fb2cdb19p-7
37=0x1.e1190579b7168p-3
38=-0x1.98f412a950654p-5
39=-0x1.278f97508d73p-2
40=0x1.61344771637cep-5
41=0x1.09e7111b27298p-2
42=0x1.11e6083039cc3p-6
43=-0x1.0c46157e58be8p-2
44=0x1.ef37de2209aep-5
45=0x1.63893ed85ed3cp-2
46=0x1.6b23fbcd9fa7cp-5
47=-0x1.1741ad804785cp-2
48=-0x1.3be5c2f209736p-7
49=0x1.0cc7782cc4ca7p-4
50=-0x1.56a51db8ba4cap-8
51=-0x1.74256c0052dc6p-5
53=0x1.2d44ed5048afp-3
54=0x1.1b216de8aab0dp-7
55=-0x1.71a7585cf5fcep-3
56=-0x1.81e1decd65fb6p-4
57=0x1.d4cf5ca33c653p-3
58=-0x1.d6aaa96d16f11p-7
59=-0x1.b2862d403778dp-5
60=-0x1.145b2a742640cp-1
61=0x1.f0cc00dd8169cp-2
62=0x1.cc9e8189b6701p-3
63=-0x1.13d6aa433f7c5p-3
64=0x1.1e6f69996bfb8p-1
65=-0x1.0e16e2e32fe59p-1
66=-0x1.36c0f17b65c13p-4
68=0x1.63aba20636a59p-5
69=-0x1.35a97491a533bp-3
70=-0x1.cc0fbd4f6d7c2p-5
71=-0x1.d0b3da8d31421p-7
72=-0x1.0672adaa25d1cp-10
73=0x1.83c7080703a46p-5
74=-0x1.03ad0b5131107p-5
75=-0x1.f050ece748b4fp-6
76=-0x1.580d8d02ac5e6p-1
77=-0x1.0903467348892p-1
78=0x1.d55ea1cdf0604p-2
79=0x1.5b32b4a7cefep-2
80=0x1.8cb5fa278f72bp-7
81=-0x1.7b6fa261cba2p-6
82=0x1.611786e9b3a51p-10
83=0x1.200141bd04f52p-8
84=0x1.25f2df029c65p-4
85=0x1.539554782dfe6p-6
86=0x1.8a80c733354f4p-9
87=-0x1.123c372ba5046p-4
88=0x1.fcbf29c00d2d4p-6
89=0x1.8cb19c0555aacp-6
90=0x1.334ca6a1ae433p-7
91=-0x1.9243b125d6518p-5
92=0x1.2921a3c64ab4p-8
93=-0x1.325ce1c073d5p-6
94=0x1.a4fd817fbab36p-8
95=0x1.7d39204f79fcbp-10
96=0x1.903831244022ep-6
97=0x1.2da8f9b160154p-2
98=0x1.98ed7821cd459p-5
99=-0x1.6782771d6a254p-2
100=-0x1.6820a86a8955p-16
102=0x1.c42f2b80aee5dp-14
104=-0x1.db0559df484e6p-12
105=0x1.e325fd8056188p-12
108=0x1.c186a777f1879p-8
109=-0x1.902d5c68f4d8cp-7
110=0x1.ac59245d7bc87p-8
111=-0x1.5b246ed3882dfp-9
112=-0x1.0bfad58fb0adcp-8
113=0x1.0eb61d27babap-5
114=-0x1.1094c71b97ef5p-6
115=-0x1.28d0d6cc171c7p-7
116=-0x1.3bc5af46272c6p-7
117=0x1.364899bd7e24cp-6
118=-0x1.b77610f497dfp-8
119=-0x1.ff004ab621d7ep-11
120=0x1.51ac5fd7c0e7ep-6
121=0x1.5b1b2e44c17fbp-6
122=0x1.086e669276e5ep-8
123=-0x1.a2a657dbc2702p-5
124=0x1.31acf967cda54p-5
125=-0x1.88ae342b1e354p-5
126=0x1.644a226451b64p-6
127=-0x1.ef0c64e3fe18p-8
128=-0x1.39a8c1895a3d8p-9
129=0x1.20d2c176ebf9bp-6
130=-0x1.803f6031fe3f5p-11
131=-0x1.08e5a55824622p-6
133=0x1.2f7cc4676b714p-5
134=-0x1.b10fdf1ecddcdp-7
135=-0x1.22efd721c8627p-6
136=0x1.5f55b44e24c73p-7
137=-0x1.2f785d53d3a04p-6
138=0x1.d8c79874e1654p-8
139=-0x1.588322982a9c8p-13
141=-0x1.12a5fecb461bcp-10
142=0x1.8ced171de3036p-10
144=0x1.0e401e57281f9p-8
145=-0x1.6f19dd884d716p-7
146=0x1.b1609c5edfed2p-9
147=0x1.8e95562b3391p-12
148=0x1.36102dd41d34ep-12
149=0x1.3de139cf52e54p-8
150=-0x1.2cf9b2dba3ec4p-11
151=-0x1.a662c409f7168p-9
152=0x1.2295d2d7d4dd8p-5
153=-0x1.ff8c02aed660dp-6
154=0x1.3f6511f58581p-7
155=-0x1.3424f28035b24p-7
156=0x1.e5e862b072d4ap-7
157=-0x1.547a2d6242448p-6
158=0x1.d62eb6d3d30e6p-6
159=-0x1.760d98958b2eep-7
161=0x1.6d24b1bb4580ep-11
164=-0x1.2afa8ae638bcbp-9
165=0x1.fadb422c369e6p-9
168=-0x1.69bc3f5a9f8fp-5
169=0x1.73b4df3cda01ap-3
170=-0x1.267a4100e276cp-4
171=-0x1.03f59ed4c691ap-3
172=0x1.5b88e1e1de44fp-10
173=-0x1.27cb11471078fp-8
174=0x1.6e5fed3962caep-10
176=0x1.9630a2de93734p-7
177=-0x1.989cd595957bcp-6
178=0x1.db17fccdfc2eep-8
179=0x1.e3c00dc37e6fbp-9
180=0x1.345d5d455dd32p-10
181=-0x1.1277a9ffdde72p-8
182=0x1.482329e2b088cp-10
184=0x1.4cee51974247p-5
185=-0x1.66a23a225cfbep-4
186=0x1.2700aa272f8f4p-4
187=-0x1.07af84b1c3396p-6
188=0x1.b189472c3740fp-8
189=-0x1.2d0cb1937d158p-7
191=0x1.4304015462936p-10
192=-0x1.78a3ed6d83ae7p-6
193=0x1.fa965cbc437a8p-5
194=-0x1.a2dcc1fa915e4p-6
195=-0x1.b4f0ca5ce7802p-7
196=0x1.c4a0acd7c3e1p-8
197=-0x1.0adcfd0306ee8p-8
198=0x1.1f590934b1f14p-9
199=-0x1.4cbd095ad321cp-8
200=-0x1.546c02c5a19f8p-7
201=0x1.1dbc642ab2457p-5
202=-0x1.3bc614f05ea21p-6
203=-0x1.07e8cf2625cf8p-8
204=-0x1.0016a82dcc6ddp-8
206=0x1.4c6b9ada51d92p-7
207=-0x1.359868dbd9297p-11
208=-0x1.3239c4c21ca4fp-11
209=0x1.ed766763ceb6ap-9
210=-0x1.5e886754e0407p-12
212=-0x1.bd41a677e90d2p-10
213=0x1.20f423cb8e914p-9
214=0x1.ebeccd3b9c3p-9
215=-0x1.fa37ae9b3810dp-10
217=0x1.cf3f98efb3cd2p-11
220=0x1.a3035731e1cb8p-6
221=-0x1.09cdb4282a585p-5
222=0x1.211dbc79d2f04p-7
223=-0x1.1ea3f41d88af7p-7
225=0x1.2276e25d5ed13p-7
226=-0x1.60e7fbc024499p-9
227=-0x1.45f2b895af214p-9
228=-0x1.f8c85bdd7f8dfp-10
229=0x1.fc1959e23a2dp-9
231=-0x1.5ae76c3f6c6e8p-12
232=0x1.1ef1735987a06p-8
233=0x1.fffc702cc5f0cp-4
234=0x1.45191bc1977eap-6
235=-0x1.05b45a911d696p-3
244=0x1.7731a83de2cb6p-9
245=-0x1.f32ab5031a45bp-8
246=0x1.675d2cf1c3929p-10
247=0x1.eff6270a4a972p-10
248=0x1.54d9f7e29f7b4p-7
249=-0x1.4b38751538fbbp-5
250=0x1.8f1bd42f3a82cp-6
252=-0x1.8e10da7b55f9ep-6
253=0x1.0f93127ac3b5cp-3
254=0x1.2f33b81ee546p-6
255=-0x1.03e97644fd2fbp-3
256=-0x1.b53ddbb3480dap-10
257=0x1.18381779a82eap-7
258=-0x1.2050e73676434p-9
259=-0x1.f7bc9b7ec4deep-10
260=-0x1.23b17828870dcp-7
261=0x1.aee2de16b5e08p-4
262=-0x1.1ddf44460d472p-6
263=-0x1.6076f92b46eb2p-4
264=0x1.105a2bae15fdcp-7
265=-0x1.459531e2e6dcdp-6
266=0x1.804ec0e84c9d6p-7
267=-0x1.62b643d896f89p-10
268=-0x1.2a92bf71be3ap-7
269=0x1.0f912e0c90dedp-6
270=0x1.296dd3d91597bp-10
271=-0x1.bc7ffe19369e7p-7
272=-0x1.25470104e8bbep-7
273=0x1.052d22409ec3ap-6
274=-0x1.75d0f56e7537p-10
275=-0x1.f83c87bc67984p-9
277=0x1.2ae1f48ea5895p-9
278=-0x1.7fb9f1534a5aap-10
280=0x1.9bc88121f2413p-9
281=-0x1.9f8a6c59aa37cp-10
282=0x1.1028a8ce45876p-10
283=-0x1.4cca26d6ce0edp-9
284=-0x1.1367344fc8dcep-8
285=0x1.04998061b0f3ep-6
286=-0x1.009e3c5939da2p-8
287=-0x1.20ba9f7853f9ep-9
288=-0x1.a91efaedb5978p-7
289=0x1.97b2386a0261p-6
290=-0x1.ad60ff80ad6aep-9
291=-0x1.f54753aa05515p-7
292=-0x1.67e969cf6507cp-11
293=0x1.f4af0f18456e2p-9
294=-0x1.bfa901497601ap-12
296=0x1.a0e2eafdac4ffp-8
297=-0x1.118c8da48db6fp-6
298=0x1.449f022f20b27p-9
299=0x1.7c6823f123a84p-11
304=0x1.4d3e9f92e9d62p-9
305=0x1.2fb766dbf2a2p-10
307=-0x1.b8c79b7ad0ba1p-8
308=-0x1.26e947667a731p-10
309=0x1.d36de070ae5d4p-7
310=-0x1.04da6d8f1e4bfp-7
311=-0x1.0bbc3ca482c8cp-9
312=-0x1.a0bcd7c9fedc2p-8
313=0x1.52b5afb57d20ep-6
314=-0x1.1bc0ed05a8195p-7
315=-0x1.ac90cfa17a8ep-10
316=-0x1.c17366aab1166p-8
317=0x1.b2c4bf28beb7cp-7
318=-0x1.c5355df14e68fp-9
319=-0x1.d0991aa857478p-14
320=0x1.810e0edf53f0ep-10
322=-0x1.0bf2783cdb458p-11
323=-0x1.70fd9a649f7e5p-12
324=-0x1.080af838974dp-11
325=0x1.06ab1b1484c66p-6
326=-0x1.2573e0970ae79p-7
327=-0x1.0e169348db66dp-9
328=-0x1.cc61ec63396e2p-17
329=0x1.4d9238dc06352p-10
332=0x1.c39686048c904p-12
333=-0x1.0c9ff6d5cfd6ap-9
334=0x1.f8221756f6c76p-9
335=-0x1.e9e08f76c6438p-10
336=-0x1.1a91307a7fa92p-5
337=0x1.f821e9fe5395ep-5
338=-0x1.bb86a4fae4b72p-8
339=-0x1.3eac75aaee3d3p-6
344=0x1.1bf40909e5035p-8
345=-0x1.2520ae0d0e0c6p-7
346=0x1.64898a53c412ap-8
347=-0x1.b26289996832cp-10
348=0x1.639035689843cp-7
349=-0x1.13f244a1fd338p-4
350=0x1.b3d50783bf1acp-9
351=0x1.9d9823a123cbep-5
352=0x1.3704b8e31186cp-6
353=-0x1.adc4e72be0896p-6
354=0x1.4746cb499ea13p-7
355=-0x1.6ae256349d552p-10
356=-0x1.ea81108ee577ap-7
357=0x1.7e1f02195a3ep-6
358=-0x1.50537bb17b2dcp-12
359=-0x1.d55348ee0eb87p-9
360=-0x1.448ea94959c0fp-8
361=0x1.bcdd1979ed602p-7
362=-0x1.42cef7b41dc64p-8
363=-0x1.34e76b9963518p-13
368=-0x1.6e1049cee9361p-9
369=0x1.f1266751fe07bp-9
377=0x1.60fe8ab09757p-18
380=0x1.379c7ac4c98c4p-7
381=-0x1.7e5c5d301020ep-7
382=0x1.33dd480706d79p-9
383=-0x1.469ae4b2d1ddp-10
384=-0x1.046dad1035186p-6
385=0x1.a56776c16c8dp-7
386=0x1.c8c5fbd552ea4p-9
387=-0x1.d796ea28008e7p-9
392=0x1.04f7643933f55p-8
393=-0x1.d6cfcdb3a3286p-7
395=0x1.649892ec92a1ap-7
396=0x1.1749a80f39b0ap-14
397=-0x1.1f59ff6be256ep-9
398=0x1.56e40f20ed7a4p-12
400=-0x1.0fff024619d1p-8
401=0x1.00ebcab1f00bcp-7
402=-0x1.b076861588a83p-13
403=-0x1.f1111c396a4a8p-16
404=-0x1.6b58d5fbb66d6p-8
405=0x1.df5beb707b4b8p-12
406=0x1.86aa668f41d1p-7
407=-0x1.a7b81ec8cfb02p-9
408=0x1.6fa892045463cp-7
409=0x1.ec57b04a31135p-5
410=0x1.4ac5febc9b646p-6
411=-0x1.e135273dac493p-5
416=0x1.ac7b5d3f3f196p-9
417=-0x1.3c4a969b9c01ap-8
418=0x1.d4ee90e506c53p-9
419=-0x1.04844663b888ap-11
420=-0x1.1348a6371107ap-8
421=0x1.079bbf62c498ap-7
422=-0x1.f4193d4dcf6c8p-9
423=0x1.3dba4d82f2572p-10
425=0x1.341109dd97c1fp-3
426=-0x1.ee8f609478f8ep-6
427=-0x1.7a81df5c93df5p-4
428=0x1.293253806831fp-12
429=0x1.37252689b7fe4p-9
430=-0x1.a84b7a53fb776p-10
431=-0x1.a2421d822399ep-11
432=0x1.19fab680fee28p-6
433=-0x1.bfdfa4a509239p-6
434=0x1.6eacb9b8411ccp-7
435=-0x1.348789c2fc513p-9
436=-0x1.97adc8b394614p-13
437=0x1.741a71e43a3f8p-7
438=-0x1.207429dfb32ebp-7
439=-0x1.53f52e678179cp-9
440=0x1.463eb67fe48e4p-10
441=-0x1.28cc96de2a06bp-8
442=0x1.2ef0d6a08365p-8
443=-0x1.10cacfcd1e443p-10
444=0x1.1ee01b7941492p-8
445=-0x1.55e502e857bd4p-12
447=-0x1.0f7b1d83a689cp-9
449=0x1.024f456c7e59ep-11
457=0x1.ddb5ec582b48cp-9
458=-0x1.61f8d818b36eep-9
462=-0x1.93d8c99c7fd28p-14
469=0x1.fcbaf33b9fd81p-12
472=-0x1.7c8da66e56702p-7
473=0x1.b87e83f4c5956p-6
474=-0x1.865a83f7e95acp-8
475=-0x1.a6c61f9ea8d12p-9
481=0x1.a642e3ee08822p-14
488=-0x1.afb355cc414d8p-9
489=0x1.80a0893d9a2b9p-7
490=-0x1.400a21c06224ep-8
492=0x1.cbbd42fde476dp-13
493=0x1.536aa84c27d12p-9
494=0x1.0e8e5dca3023p-11
495=-0x1.7c7d22e179979p-9
497=0x1.1b09e7766e837p-10
498=-0x1.cb970f1df446bp-12
505=0x1.dfdddb0fc44aep-11
508=0x1.089d9e8a3190ap-10
509=-0x1.089a9bfc2f3adp-8
510=0x1.ef992e0f96c2fp-9
511=-0x1.44e82829aeb24p-12
512=0x1.6ca52fac6acfap-7
513=-0x1.b50ab4a78bedcp-6
514=0x1.ef4310441735ep-7
515=-0x1.7e1213d5f553p-10
516=-0x1.bf3c902671d4cp-10
517=0x1.ead1d75fcb33cp-8
518=0x1.c4ed800743d02p-11
519=-0x1.54a149440bc85p-8
520=0x1.d803af70eac73p-11
523=-0x1.850226571bd4p-13
524=-0x1.705d62771a88dp-9
525=0x1.61be17caa1b35p-9
526=0x1.26fca3af8eb1bp-8
527=-0x1.766e32ac9a524p-8
529=0x1.c364ca96e2dcp-14
533=0x1.cfdd0ef09090ap-13
536=0x1.5deb93c510cc5p-10
537=0x1.3d8db28868c95p-9
538=-0x1.2010fbbe71c04p-11
539=-0x1.8fcf8d637306bp-9
540=-0x1.076d11f316937p-9
542=0x1.117ad0f46d20bp-7
543=-0x1.ffd845d14586bp-11
549=0x1.010e8bfdcfe5ap-10
556=0x1.4b258929f4cd7p-10
557=0x1.d741884e72956p-11
558=-0x1.4bf2bc6300d58p-9
561=-0x1.bde5b85e8a498p-8
563=0x1.01af42764373dp-7
576=0x1.4d3820d98ff0cp-6
577=-0x1.a7c3be50047c4p-6
578=0x1.4064f626b5a42p-7
579=-0x1.c7cfd98ba5e2p-10
580=0x1.e8dda1686ad2p-13
581=0x1.165306b9e88bcp-13
584=-0x1.05b9e4914ab48p-10
585=0x1.7a72d0025f5e4p-8
586=-0x1.7371f866dd15ep-10
592=-0x1.2cd151ea48be4p-7
593=0x1.056e6dc061d56p-6
594=-0x1.27c19e8af1f6ep-8
595=-0x1.86a9ed7f9485cp-9
600=-0x1.8687165a81f72p-8
601=0x1.05fc15d06c634p-6
602=-0x1.86a8fa07c8befp-8
603=-0x1.0cc3cab6c9b78p-14
604=0x1.0b3b0410f4605p-8
605=-0x1.ca9752a6ea971p-8
606=0x1.1a914f4533f15p-8
607=-0x1.939e04ca3963cp-15
612=0x1.68c5f2344ab09p-8
613=-0x1.c33274240351ap-9
614=0x1.b46e8d9b3c89fp-11
615=-0x1.34fbcd75c74f8p-9
617=0x1.f5452810abe5bp-12
625=0x1.9fc5465a8a507p-10
628=-0x1.5b1444e7ce8cp-12
629=0x1.0ca2e29500d14p-7
630=-0x1.0b40f092680cep-8
631=-0x1.fadbb7937539p-16
632=-0x1.e3596053b6fbap-12
633=0x1.cd9739bb2088ep-9
634=-0x1.187755d43805dp-12
640=-0x1.c2f9544769332p-10
641=0x1.0f236c3a61e59p-9
644=0x1.769689fdb691ap-10
645=-0x1.34d333e3bf5b8p-8
646=0x1.7b9d4242e6131p-10
656=0x1.262a7800684bfp-10
674=-0x1.b5319c2870b82p-11
675=0x1.2262ad55278f2p-9
676=0x1.42c281f8ceb45p-6
677=-0x1.25478114c0f5ap-5
678=0x1.8634d4438da28p-7
679=-0x1.493fd3d6a0ff6p-10
684=0x1.22f3e05ccdd9cp-8
685=-0x1.438cb25134104p-7
686=0x1.3ed4918249b42p-8
690=-0x1.876ea177ea966p-13
692=0x1.0cb111fe1c37bp-7
693=-0x1.4fcd919c68c4ap-8
695=-0x1.8715e66314eefp-12
700=-0x1.74cb9092240c6p-9
701=0x1.26cfbadff5641p-7
702=-0x1.7a0475a8bb842p-9
704=0x1.106eccb94285ep-6
705=-0x1.b633f3e4f205ap-6
706=0x1.12bc21f679a44p-7
707=-0x1.8a0ae9622adfep-10
708=0x1.8be3a85aabe54p-9
709=-0x1.7208d2f5588p-8
710=0x1.52d19b396e584p-11
716=0x1.02305875d328p-7
717=-0x1.3dda06a14830ap-7
718=0x1.db559cdefcbp-9
719=-0x1.43b6b210ea984p-10
720=-0x1.2ad5185f1d894p-9
721=0x1.efd2c34f9f8c1p-7
722=-0x1.30af1418dafa2p-8
723=-0x1.0b7b962449388p-7
724=0x1.de8da241b5c1ep-11
725=-0x1.cc489929a30e6p-9
726=0x1.44e39cfcd02eap-10
733=0x1.f57bca64ab54bp-15
736=-0x1.5510c4e842fa6p-6
737=0x1.7a5a6b5596086p-6
739=-0x1.5b0374da92a7bp-7
744=0x1.cabb547e07a27p-8
745=-0x1.fde5e31d8469ap-7
746=0x1.355586fc750d8p-7
747=-0x1.a245879bfbc1ap-14
752=-0x1.0402294fcc48ap-15
753=0x1.afd6ba434c98ap-10
754=-0x1.eba4761f676abp-17
764=0x1.7d0a33e19cc5fp-6
765=-0x1.bdd647076057cp-8
766=0x1.06557f7030c98p-9
767=-0x1.2398cc5fc715p-7
769=0x1.9cf112d0c0dcap-10
770=-0x1.1e770cf5c803p-16
776=0x1.6f680a22fe6c3p-10
777=-0x1.15f4a0fc89b75p-8
778=0x1.76b05010bd2bp-10
780=0x1.a7e6e70e93569p-10
781=-0x1.4e4eca0f2946ep-8
782=0x1.ad61553dabb34p-10
784=0x1.578ab2f7111b8p-9
785=-0x1.48cf0c7b258eep-13
786=-0x1.e8f582a12e0b6p-12
792=0x1.b57bb90397edp-9
793=-0x1.addd539e046f4p-10
794=-0x1.605bb29a45062p-13
797=0x1.1e23c11677b38p-12
800=0x1.b12602aefe809p-9
801=-0x1.793e43a5ba1e1p-7
802=0x1.179b0b5ddc578p-8
803=0x1.2df81f51a5c66p-10
808=-0x1.073e0b477b79p-8
809=0x1.74eafeb10b4bcp-7
810=-0x1.01291463871e2p-8
812=0x1.76b50865b4706p-6
813=-0x1.1f9455c63116cp-4
814=0x1.a0f12f5891246p-6
815=0x1.8b5d91871b2fbp-7
816=0x1.b16679b37a7a6p-6
817=-0x1.79f8e70350d11p-5
818=0x1.af7be99cb60a6p-6
819=-0x1.0272b75addef9p-9
820=-0x1.e545e22e4cc56p-5
821=0x1.c8aae26b25024p-3
822=-0x1.487cbb15bc38cp-5
823=-0x1.38bcc5e9fcf42p-3
824=-0x1.75492c934dfa8p-12
825=0x1.8f1b29c18f188p-11
828=0x1.25b4a41a3af9ap-8
829=-0x1.b79b7d370453bp-7
830=0x1.055634814de8cp-7
832=-0x1.fc96643bf0fabp-12
833=0x1.bee6bfdc5e6b8p-9
834=-0x1.8e3557f18128ep-12
836=-0x1.c9d619b9cf67bp-16
837=0x1.ca19cc2608daap-9
838=-0x1.6cc5b61acc3bcp-12
841=0x1.0026cd2ed452dp-11
845=0x1.279a8c04adfcep-10
856=0x1.174e935978154p-10
857=0x1.e3065e909b176p-9
858=-0x1.0bbb83f5e3fd9p-8
859=-0x1.c4835c323962p-16
861=-0x1.c38517d520e19p-10
862=0x1.d75e1f2d999e4p-9
865=0x1.20e122db1169ap-10
876=-0x1.9a93dc4be9c6dp-8
877=0x1.2356e0c185ec9p-6
878=-0x1.8433b79f60a72p-8
889=0x1.ee731ecad3376p-8
890=-0x1.8615dea2c33d7p-8
891=-0x1.f547122585fa2p-11
893=0x1.3fc7639e753c7p-16
897=0x1.26c4aa94c3bc8p-10
904=-0x1.2ff0449dfe35ap-11
905=-0x1.d8af6f4e54f9ap-12
909=0x1.b49d5f341253p-14
912=-0x1.7101560c422f8p-10
913=0x1.51f74faaaea1p-8
914=-0x1.efcfcf8b0f88p-11
917=0x1.eee8a4b1bc25p-11
929=0x1.070f19f579f3fp-16
933=0x1.257abfca51c75p-11
936=-0x1.13f73b4f18c1cp-10
937=0x1.3b9d19d1ada41p-8
938=-0x1.ac95c041e574ap-11
941=0x1.02d737ac923c5p-15
949=0x1.cc6aab9cab47ep-13
952=0x1.4e15b40abcde5p-10
953=-0x1.1843a9ca42f1ep-8
954=0x1.8cdd418a72783p-10
956=0x1.7137dd9fbcf81p-10
957=-0x1.efa8783b11cbcp-11
964=0x1.bf89d63fab132p-8
965=-0x1.67af72f19f053p-7
966=0x1.d36b637f89982p-8
967=-0x1.3413f75abeb6cp-13
968=0x1.3bd9b8a3f3c12p-11
985=-0x1.9131776e71f46p-10
996=-0x1.6729b3f1e9e16p-11
997=0x1.5faca0895cf96p-10
1001=0x1.fee6834e6d234p-12
1009=0x1.747c6470961d2p-14
1012=-0x1.5d6b6c82ece2p-10
1013=0x1.88b87e620970ep-10
1018=0x1.0eb1164a782cep-10
1021=0x1.b0581cfc41752p-12
1025=-0x1.5491b7bb9af36p-13
1028=0x1.133242b6d7bbcp-8
1029=-0x1.41502f7b2b208p-6
1030=0x1.df33823d4a52ep-8
1031=0x1.f8a63252e606ap-9
1041=0x1.f76a03c553df4p-11
1060=0x1.dad3f54324502p-10
1061=-0x1.8c502bf6c7262p-8
1062=0x1.a738a19aaf4c5p-10
1069=0x1.6145f712d031p-10
1097=0x1.52ffa6640cbd4p-11
1112=-0x1.d4c7f466fa238p-9
1113=0x1.15f18f38c709dp-8
1114=0x1.e7c0f50601d3ep-8
1115=-0x1.3af6405a6715ep-8
1137=-0x1.1ac4ae5b63a11p-10
1138=-0x1.7a7fddffe1d2p-11
1139=0x1.e9fbe3098c506p-9
1145=0x1.bdace78ea4d04p-14
1174=0x1.3a6a2b81564fcp-10
1181=0x1.03d6ae798b88ep-10
1182=-0x1.b4c426cefc448p-11
1188=-0x1.7f7b26fc0aefbp-9
1189=0x1.e57995fccb3cbp-10
1190=0x1.8562ab47076f2p-10
1193=0x1.a5e5bd8f67e32p-14
1204=0x1.ce5847c657ecep-9
1205=-0x1.59aee9056a4b6p-8
1206=0x1.abadd3296b0b5p-9
1207=-0x1.54be7d4c378fdp-10
1208=0x1.d69f7368a8215p-10
1211=-0x1.8d6aa8351f13p-12
1212=0x1.9065a9a33492fp-10
1213=-0x1.245e70a500fe9p-8
1214=0x1.8b609acccdfbfp-10
1216=0x1.b3c7ae9bca832p-10
1217=-0x1.533c255deb7ap-8
1218=0x1.b29955f710f81p-10
1220=0x1.a7b431a26f0acp-10
1221=-0x1.d72d1a392f8cbp-9
1222=0x1.32c9f9ff61b82p-9
1225=0x1.6cdebff4af24cp-8
1226=-0x1.8bcfe1beaccap-9
1232=-0x1.4459da9a9f8eap-11
1233=0x1.1f484f41eb90bp-8
1234=-0x1.5bca8a4dbdd0ep-11
1252=0x1.2451a397dfecp-7
1253=-0x1.2d5c60cb9eb08p-6
1254=0x1.0fb2c6ee5e868p-7
1264=0x1.8d797cba3b957p-12
1269=-0x1.09efcfdbdc461p-12
1270=0x1.74bbda7ce885p-10
1273=0x1.f56c6c8f80bbap-16
1276=-0x1.8bd3a21ce8de4p-12
1277=0x1.cd9af1d55d8d8p-9
1278=-0x1.97574e56c103dp-12
1284=0x1.8aebe1595e35ep-10
1285=-0x1.20a78c29bf9cfp-8
1286=0x1.8b69a4a95201p-10
1297=0x1.ab9b7669e3ea2p-10
1298=-0x1.90917afec19e1p-16
1312=-0x1.8abf908acf6eep-13
1313=0x1.461d6b49ecff2p-9
1314=-0x1.0abedde6c49bdp-14
1328=0x1.3b87945aaba7p-10
1329=-0x1.ed5e3bc91fd06p-9
1330=0x1.2d6d6ecfef073p-10
1332=0x1.1afcdda14d552p-10
1333=-0x1.9c30048f44f75p-9
1334=0x1.7d9ff098528e4p-11
1337=0x1.2b39d3ccfbafap-10
1341=0x1.d914ffb41e16ap-11
1356=-0x1.e07bdaea8d72dp-10
1357=0x1.d0a2d8e6ebe48p-8
1358=-0x1.0b156b80678c2p-9
1364=-0x1.0156e4afcc166p-11
1365=0x1.db4be9cdf8086p-9
1366=-0x1.c1366d9e49fc6p-16
1368=-0x1.fefe1ac7f45f4p-13
1369=0x1.48165ab78a137p-14
1377=0x1.d01f9d0e9262ap-12
1380=0x1.4b0096798d104p-10
1381=-0x1.1b2fd1a9009d6p-8
1382=0x1.45d362887dd36p-10
1389=0x1.8f020ce1b8be6p-13
1409=-0x1.60b57fa40a517p-10
1410=0x1.afe457703acc8p-10
1417=0x1.2379cb391bc88p-7
1418=-0x1.477e09e72a648p-7
1419=-0x1.f8bc04943cdb6p-11
1433=0x1.153ab516cf46dp-9
1434=-0x1.7969ea308ed7bp-16
1445=0x1.15c4d9b0846e6p-11
1449=0x1.017b2c782f1a1p-12
1456=-0x1.275594672fc8ap-12
1457=0x1.e654f8ad74d4p-7
1458=-0x1.3683f2704f955p-7
1459=-0x1.0aaaf7dc36cabp-10
1473=0x1.a005556f4847ap-14
1481=0x1.947283d0dd53cp-12
1486=0x1.43812f2fb218ep-10
1488=0x1.4297b1de36a58p-10
1489=-0x1.ff1be74be0ff2p-9
1490=0x1.4758e5731b4f5p-10
1492=-0x1.29786997b8b82p-11
1493=0x1.5ae8bc32ff7aap-8
1494=-0x1.f749d54040a77p-11
1495=-0x1.1157af2d05532p-11
1504=0x1.9bcc6ea132938p-8
1505=-0x1.b38da6866f261p-8
1516=-0x1.68b560adac866p-16
1517=0x1.54345e3f6586ep-10
1524=-0x1.3378a43d7e316p-13
1525=0x1.721959eb306bep-9
1526=-0x1.b8c90abe84004p-13
1528=-0x1.dff736168a9c4p-7
1529=0x1.3ab6ff15bee53p-5
1530=-0x1.01fdd2d1741aap-6
1531=-0x1.0a88374565ba9p-8
1532=-0x1.5f793110528ebp-12
1533=0x1.9a7ecc4e0bcacp-9
1534=-0x1.ae97b59f9c673p-13
1536=0x1.a95dd5060a1adp-10
1537=-0x1.00e4c4e8d22a1p-7
1538=0x1.53f067af5a23fp-8
1553=-0x1.39f59a505426ep-9
1554=0x1.330d50ee5a71cp-8
1556=0x1.493a69c24379p-8
1557=-0x1.8258f29d3e948p-7
1558=0x1.743df8be5fd8bp-8
1568=0x1.fdd7d0f67b7eap-12
1577=0x1.d991c0853f5dcp-11
1588=0x1.74683157613aap-8
1589=-0x1.2a09a2bd209e1p-9
1590=-0x1.4466d338df8b6p-10
1593=0x1.8b577dcf1243p-11
1597=0x1.410788d8044e8p-12
1601=-0x1.11e351b973d29p-12
1607=0x1.7d04c896850c3p-10
1617=0x1.4240e283b74d5p-13
1618=-0x1.75ccf1f5388a2p-11
1628=0x1.0e2156460207ep-11
1629=-0x1.5332f5938fc02p-9
1630=0x1.fc3c18d1700aep-11
1637=0x1.7506ce55ee6dbp-14
1648=0x1.8a42237901ep-10
1649=-0x1.3c2aade445e82p-8
1650=0x1.829e8195ab556p-10
1652=0x1.361deca239eb5p-10
1653=-0x1.f60fd1c522c4cp-9
1654=0x1.43ace2aa17e57p-10
1656=0x1.5b1968bc717bep-10
1657=-0x1.2f4fe59b82e3p-11
1660=0x1.dd36c819ac87bp-11
1661=-0x1.981e8ae2e030ep-9
1662=0x1.aed69fac0b22ep-11
1668=0x1.8bc8ed3da5f8ap-11
1669=-0x1.ae8780a3f6c72p-9
1670=0x1.b88e1c6b26184p-11
1672=0x1.c65c5f3211432p-15
1673=-0x1.677fd309b2e02p-10
1674=0x1.eff3ce3e20884p-13
1677=0x1.5e0a13ddfb468p-11
1680=0x1.b27b35374104p-10
1681=-0x1.6781c5292605fp-10
1688=0x1.9627914b2a176p-10
1689=-0x1.5044afc28909ep-8
1690=0x1.dc6ab48aa5006p-10
1693=0x1.7fa9110eeb4bcp-11
1696=-0x1.6afda2345706p-9
1697=0x1.15092929278bfp-7
1698=-0x1.3d562c2b34dbp-9
1713=-0x1.a1c187c49e5adp-10
1715=0x1.b7ea469141ccap-10
1720=-0x1.438feffa96de9p-13
1721=0x1.248e8f160b98ep-9
1722=-0x1.0a6df522d6f84p-12
1737=0x1.53a84480c6b53p-14
1757=0x1.7c39b77a30eb4p-11
1769=0x1.4d21c5a2f2d46p-14
1777=0x1.358f1ed87e3dp-11
1781=0x1.a6e62d1b3744bp-12
1785=0x1.28566aa2862aep-9
1789=0x1.217ecd3cd0617p-14
1797=0x1.5e53864886f8cp-12
1801=-0x1.fd822b676da63p-9
1802=0x1.0e69846dac58p-10
1803=0x1.c247ab23709afp-13
1812=0x1.30c0d167dbdb3p-14
1813=-0x1.572f2dcaef1c8p-8
1814=0x1.07418d19f7963p-8
1824=0x1.98ec1cb69b4e6p-11
1825=-0x1.9b056f1a96dbcp-9
1826=0x1.6a5ca0bd0ca93p-10
1832=0x1.90c1f84096d4ap-10
1833=-0x1.3e143e38ba12p-8
1834=0x1.83abf18031122p-10
1836=0x1.a19ae31dd8499p-9
1837=-0x1.fd1092747a93ep-8
1838=0x1.a2f1db2c76924p-9
1841=0x1.caf4c7e1a7068p-13
1844=0x1.d6a82c0e50a42p-9
1845=-0x1.858857c0234f7p-7
1846=0x1.0a76ab9219ce9p-7
1860=0x1.c07681e984812p-11
1861=-0x1.b998bbafd112cp-9
1862=0x1.a611189dec34ap-11
1868=-0x1.752a9d9ac39e6p-9
1869=0x1.116d34a6d53a3p-10
1870=0x1.c2f93cad2e65cp-10
1873=0x1.443b44dfa06bep-10
1881=0x1.5205c3f1fbb07p-11
1884=0x1.4e9ad5e54e704p-11
1901=0x1.2bc5b6cf13f7ep-12
1916=-0x1.3ff6e1ce35c6p-13
1921=0x1.2d5540815721p-9
1925=0x1.2c9b9895d65dcp-11
1929=0x1.75806250b3174p-11
1950=0x1.14568c08f87eap-10
1952=0x1.cb9324d62d324p-11
1953=-0x1.9460b68e1bac9p-9
1954=0x1.a7824c537fb83p-11
1957=0x1.af20d9d67f569p-13
1969=-0x1.6692a847c6b64p-11
1970=0x1.52f09000fb4d1p-10
1976=0x1.82159a25399a4p-11
1977=-0x1.70df36d639c24p-9
1978=0x1.803e1eaabf352p-11
2000=0x1.68c7430fe4d84p-10
2001=-0x1.2adf29150ce0cp-8
2002=0x1.6784fdeb18502p-10
2008=0x1.2d8d6e220e44ep-12
2009=-0x1.b8c2623bc86a5p-10
2010=0x1.9b0be213c9d27p-13
2045=0x1.3c7a212aa23dp-12
2049=0x1.33fbd3f25a5fbp-11
2053=0x1.6aab53868cb6p-13
2060=-0x1.5a4de9fac233fp-11
2061=-0x1.051a1d0c18518p-11
2062=0x1.8b846783a8cf9p-9
2064=0x1.8f43fbf5601p-10
2065=-0x1.3e71425a1abbap-8
2066=0x1.88e809c771a8fp-10
2076=0x1.a26e59556f898p-10
2077=-0x1.49446e0e35b66p-8
2078=0x1.9c7f35343667p-10
2093=-0x1.bf9494be6678fp-10
2095=0x1.bd012e6bf4cd2p-10
2100=-0x1.22c0aeaaa0916p-8
2101=0x1.c1cccf97151e5p-8
2102=-0x1.a74508ce06e2dp-12
2156=-0x1.20c677df9ac23p-13
2157=0x1.95bd15edd9b2cp-9
2158=-0x1.269ecbcbfc77ap-12
2164=0x1.33ddcc8863d8p-19
2165=-0x1.8a780bb0abd02p-7
2166=0x1.d4571d745d1acp-9
2167=0x1.3b60942c00f7cp-8
2180=0x1.90169e3eaafd2p-10
2181=-0x1.42d70767818ddp-8
2182=0x1.97fe0a62b85f1p-10
2189=0x1.74b1144eab592p-14
2200=0x1.80cdfb529180ap-10
2201=-0x1.cec8a6025bab5p-11
2232=0x1.78da87be5c494p-10
2233=-0x1.365da00cfb28cp-8
2235=0x1.bcd9cdc16a41p-10
2284=0x1.d8fd0a5b2687ep-10
2285=-0x1.b968b6681783ap-10
2304=-0x1.4b42c4a466f88p-13
2306=0x1.054129d3002cdp-12
2320=0x1.029c259c8f985p-9
2321=-0x1.2684171058f6bp-7
2322=0x1.8861d220ee5acp-10
2323=0x1.b24d8784b6c8ep-10
2324=0x1.24c389afb6a3fp-8
2325=-0x1.22581968a3a6ep-9
2329=0x1.e566c7bf5a397p-10
2336=0x1.047cecd26ffa3p-7
2337=-0x1.7ff39258cfecep-7
2338=0x1.269493a2d2c69p-8
2344=0x1.13a6f0f1e5312p-13
2345=-0x1.7b1a9e194da0ep-9
2346=0x1.9439e3a36b256p-14
2364=0x1.4bda9b80d8abp-14
2365=0x1.f8a84593e9f6cp-13
2367=-0x1.8244c2bdf88efp-14
2381=0x1.85263b4fe0634p-11
2404=0x1.65fa4b526af1p-8
2405=-0x1.8414b7c58364ep-7
2406=0x1.4d962b5740d32p-8
2528=0x1.bbb33a2c4c7f9p-10
2529=-0x1.584b41b04166dp-8
2530=0x1.bcef3d12b396cp-10
2533=-0x1.fe15875d58e08p-10
2535=0x1.da2c63d4ba85ep-10
2536=0x1.98a497161c826p-10
2537=-0x1.09141b91dd804p-10
2549=0x1.3797b40e2f46ap-11
2564=0x1.aa06d4ba518c5p-10
2565=-0x1.51d4c09e356c6p-8
2566=0x1.b67a5e957e85dp-10
2572=0x1.909d14f8d600ep-10
2573=-0x1.4315faf899599p-8
2574=0x1.e7219dffe1308p-10
2576=-0x1.e92a1beda8eep-12
2577=0x1.c7631a976615ap-9
2578=-0x1.0e9130881598cp-11
2588=0x1.7d0253e5f110bp-11
2589=-0x1.8ca35a559c90dp-9
2590=0x1.359b0eb62da46p-10
2597=-0x1.75d190c22394ap-10
2598=0x1.bb94e01207beep-10
2612=0x1.3b53b372aff1bp-10
2613=-0x1.d17d1c222090cp-12
2632=0x1.4798adbea4c74p-8
2633=-0x1.7f0c35ca85c5fp-7
2634=0x1.490cd02015cffp-8
2684=0x1.16ab7202716f2p-10
2685=-0x1.9dafd3ba6f76ap-12
2709=0x1.a0ba941b54196p-12
2764=-0x1.557f419e8b1e1p-13
2765=0x1.49b6acfdbab2ep-9
2766=-0x1.ae4ddea78860ap-13
2780=0x1.5ef7d89e2621ap-10
2781=-0x1.c9652bcdcee42p-9
2782=0x1.5a9024a66d876p-10
2841=0x1.6f62e5be70e14p-12
2846=0x1.2ce655df08318p-11
2848=0x1.9de34d6d05c47p-10
2849=-0x1.2b0ef99bd7c48p-8
2850=0x1.97d6de783f7f7p-10
2877=-0x1.2f35a1002b36p-12
2878=0x1.7433882f3a31ap-10
2881=-0x1.14fb1b65f696cp-10
2883=0x1.162255d34c196p-10
2909=0x1.2480e9b411adcp-11
2936=-0x1.59386cd34deedp-13
2937=0x1.78b3881b09b8ep-9
2938=-0x1.6ffee280c95e8p-12
2940=0x1.3fb5fbdcde9b8p-10
2941=-0x1.0e6e3f341aab7p-8
2942=0x1.3291cf3f01fcp-10
2961=0x1.39b1fd4f4a6b4p-14
2996=0x1.88004a439e0aap-10
2997=-0x1.1fc342ed8f4b5p-8
2998=0x1.818832c77331ap-10
3004=0x1.bf75adb13d91p-10
3005=-0x1.590f4e4f60f5ap-8
3006=0x1.bc0287b46c966p-10
3008=0x1.bfcfe55aeacd6p-10
3009=-0x1.81b7eb9d38067p-10
3023=0x1.5e700a86cb8d8p-10
3024=0x1.8d7b4ea4669f2p-9
3025=-0x1.d8cbb4f4b813p-8
3026=0x1.8474437e0bf8bp-9
3045=-0x1.382800b4bfa6bp-10
3046=0x1.a15e79eefea61p-10
3048=0x1.a046dc147d1d6p-10
3049=-0x1.4b448c59a90fdp-8
3050=0x1.a719550cb5f4bp-10
3060=0x1.0c31e403097a2p-8
3061=-0x1.064f35677fa56p-9
3073=-0x1.bb1a3038123dap-9
3074=0x1.3923de2d6c2d2p-8
3078=0x1.3a53f878ceaf4p-10
3084=0x1.8549bf327646bp-10
3085=-0x1.40b45ec84f55p-8
3086=0x1.eb4815a9b9a65p-10
3092=0x1.d31ebe94b132ap-10
3093=-0x1.63d4a8d2f2298p-8
3094=0x1.d1c5e63d937ffp-10
3161=0x1.43582ed99c14cp-11
3165=0x1.8850816f6cc3ap-13
3189=0x1.9d2461574f6dp-12
3200=-0x1.3e154b4d51708p-10
3201=0x1.506eb5d9b5b3cp-8
3202=-0x1.d91f561bcf79dp-11
3221=0x1.31e53804939ccp-11
3240=0x1.aef73c7236594p-10
3241=-0x1.6f65c8f0b04f3p-10
3273=0x1.5acf38defdefp-12
3348=0x1.b1b3d814c861p-10
3349=-0x1.530a8dae5ed13p-8
3350=0x1.0129244e781b4p-9
3381=-0x1.907924115296dp-11
3383=0x1.962c11796d4f6p-10
3388=0x1.8535ce1f84f3dp-11
3389=-0x1.9f2aa2e876816p-9
3390=0x1.881fba18f7f42p-11
3393=0x1.f76a632477dfp-13
3436=0x1.637b48def3433p-10
3437=-0x1.42d8360e7625cp-11
3477=-0x1.728ba70577f94p-10
3478=0x1.bb39a804af40ep-10
3517=0x1.65d0186b01534p-16
3601=0x1.1d489c9e61114p-11
3632=0x1.fe63810830e6p-9
3633=-0x1.ff77cbd68fdep-8
3634=0x1.25f4326d1674ep-8
3713=-0x1.2e1b4af283473p-12
3714=0x1.179f94ab60bd4p-10
3784=0x1.c37949c784c7ep-10
3785=-0x1.3ea84faa2de63p-8
3786=0x1.c159964905f84p-10
3824=-0x1.aed42b64cff9dp-12
3825=0x1.cc56a9ec161fep-9
3826=-0x1.ed34b042d76a2p-12
3840=0x1.515588ed1c70ap-8
3841=-0x1.95562796872b8p-7
3842=0x1.6e25807aa1e13p-8
3881=0x1.58e6ac396bdd8p-16
3908=0x1.08115f1789d97p-10
3909=-0x1.54c96e674473fp-12
3937=0x1.0feab55458e9bp-12
3965=0x1.c36219b7b0decp-11
4001=0x1.2d354c0303a49p-11
4012=0x1.152b7d634a7e8p-7
4013=-0x1.5771b318584a8p-7
4014=0x1.d93dfb6bb318ap-11
4093=-0x1.6a6f0d6338db9p-10
4208=0x1.9d05d8f8c9cd4p-10
4209=-0x1.2b08d90dd405cp-8
4210=0x1.9963dfb6bc6p-10
4373=0x1.07cfb775b9a7bp-10
4485=0x1.77aa573ec5936p-12
4621=0x1.2d566ae23cd52p-14
4709=0x1.08cb8f482934ap-12
4740=0x1.1184ead8f363dp-8
4741=-0x1.469a80ea962a4p-7
4742=0x1.0ef5cba1217ccp-8
4776=0x1.1b420c4af47a4p-7
4777=-0x1.2bb2a868b2802p-6
4778=0x1.0caebc63a16f7p-7
4813=0x1.7b520079aeb92p-19
4893=-0x1.fd8efdd8b738ep-10
4894=0x1.1c9d722e1f094p-9
5060=0x1.89bbb2d60297ap-10
5061=-0x1.2d2d061de9f22p-10
5072=0x1.c8c368e4aa4f8p-10
5073=-0x1.5c4e3ad45ba15p-8
5074=0x1.bf6566a73050ep-10
5113=0x1.046684ed441fp-11
5164=0x1.1d84b26b6dbe3p-8
5165=-0x1.b5ce662750e8p-8
5166=0x1.6922b411e46b6p-11
5189=0x1.23f66c556839p-10
5240=0x1.8c37093a56558p-7
5241=-0x1.5dfb49c8700aep-6
5242=0x1.039121d7ed154p-7
5244=0x1.637eb6e4a9234p-9
5245=-0x1.ba09a9cfa536p-8
5246=0x1.d3d85088224ecp-9
5248=0x1.dcf90b1471f3ap-6
5249=-0x1.a6594749a74dp-5
5250=0x1.84f2f259328f8p-6
5251=-0x1.99bc0b832cd38p-10
5269=-0x1.7afe7ce80f333p-12
5270=0x1.4ebaa4068c4bcp-10
5272=0x1.609080134c43cp-10
5273=-0x1.10f0e14f61c41p-8
5274=0x1.6e40441fb1e39p-10
5281=-0x1.5ca5afd1ec14ap-9
5282=0x1.2853976aba14p-8
5284=0x1.2e6d03c97fc71p-8
5285=-0x1.6eaab5ae9dd21p-7
5286=0x1.47af110f59accp-8
5288=0x1.3cd3b286e3bc4p-10
5289=-0x1.72fd13dabf17bp-12
5296=0x1.779f5605c7284p-10
5297=-0x1.1ad120692ae9p-8
5298=0x1.7f82263c83472p-10
5312=0x1.c88924d9645cp-10
5313=-0x1.808ecd2adb76ap-11
5321=0x1.4d1a379aa495ep-13
5332=0x1.7341ce513734cp-10
5333=-0x1.bfed2b0f5bba6p-11
5340=0x1.1a797773a2de2p-7
5341=-0x1.361e4c895d8b9p-6
5342=0x1.273a8d7532e46p-7
5360=0x1.60b10b85d85d4p-10
5361=-0x1.0fa52c95ceda2p-8
5362=0x1.6a1bbf3593e2ep-10
5364=0x1.9ae8a70963008p-10
5365=-0x1.4865726424709p-8
5366=0x1.a290dd735d94dp-10
5368=0x1.a8cb0b45aa26bp-14
5440=0x1.52cd96d03b534p-10
5441=-0x1.09f4340d93e59p-11
5476=0x1.5f2177317692p-8
5477=-0x1.1ea027d4424c1p-7
5478=0x1.96f8651b9fddap-10
5480=0x1.48b63397a524ep-7
5481=-0x1.96ff85f977638p-7
5482=0x1.27baf97af9a8dp-9
5524=0x1.9bbcc04768bc2p-10
5525=-0x1.380fc0f585851p-10
5532=0x1.aeb31bc8af222p-10
5533=-0x1.61cca2c077a58p-10
5557=-0x1.4768ef29f84e8p-11
5558=0x1.66c34db54e3a4p-10
5560=0x1.5a43d0cb28dbp-10
5561=-0x1.0c69343b6ba84p-8
5562=0x1.63d9dbe6e3ab6p-10
5584=0x1.b39d40d91641ep-10
5585=-0x1.54c69d6856d0ap-8
5586=0x1.b7912c557c9bep-10
5593=0x1.b1294d8aac354p-10
5594=-0x1.9605df4daa862p-16
5628=0x1.57ce785197526p-8
5629=-0x1.dffcd693f14acp-9
5637=-0x1.06f6036b69778p-9
5638=0x1.1f83eccf47376p-9
5649=-0x1.2768fcb33f186p-10
5650=0x1.d45e70f80478ap-10
5664=0x1.c4773dd7ea444p-10
5665=-0x1.5cf0df2fe1de6p-8
5666=0x1.c5cbe47eff9c2p-10
5696=0x1.8b361200e7f9cp-10
5697=-0x1.257f1167ec514p-8
5698=0x1.95a25ae961df2p-10
5712=0x1.bfc942f9d4992p-10
5713=-0x1.5acf0a9fc898cp-8
5714=0x1.c232089b285cep-10
5717=0x1.ab908a3017ab4p-13
5753=0x1.28431e90d65d2p-11
5792=0x1.2c2d20b142bdap-8
5793=-0x1.4a1d59fb87b08p-7
5794=0x1.4525e9f15126p-8
5797=-0x1.4e855fae4b871p-10
5798=0x1.a680341d21e14p-10
5800=0x1.8e8092841d0cap-10
5801=-0x1.3ff8170bb84f4p-8
5802=0x1.90dd724001ae4p-10
5812=0x1.c0d3342c1b9d5p-10
5813=-0x1.5c2e239520662p-8
5814=0x1.c69fa5ca26cbfp-10
5816=0x1.b0df2a271b193p-10
5817=-0x1.6202fabea5259p-10
5856=0x1.c016d1ce6ac82p-10
5857=-0x1.5b9028de8f756p-8
5858=0x1.c5345a9d0eb68p-10
5872=0x1.bb6f81734a3fap-10
5873=-0x1.59d34aa1636b1p-8
5874=0x1.c2da0ad46eedcp-10
5876=0x1.b91dd65361b94p-10
5877=-0x1.7f51ea804486ep-10
5881=-0x1.5727213744614p-10
5882=0x1.afc222efff858p-10
5888=0x1.b7df4e8cd3985p-10
5889=-0x1.560ee11e786bap-8
5890=0x1.b907b964ab56ap-10
5900=0x1.ab07a46c2d57bp-10
5901=-0x1.5e4a2b2285d4cp-10
5925=-0x1.6957c9706f928p-9
5926=0x1.2425a79fa2e65p-8
5928=0x1.e1a46adaa58f9p-11
5929=-0x1.6d2515c10d28p-7
5930=0x1.39aead8c05b36p-8
5931=0x1.c619e4ce2d91cp-10
5988=0x1.9cdf7f258dc81p-10
5989=-0x1.490151b34dd68p-8
5990=0x1.a3d586c459c22p-10
6012=0x1.ab0e24faffc8cp-10
6013=-0x1.528bbaa658e64p-8
6014=0x1.b79e907f6869cp-10
6048=0x1.4e6f0b36add8ap-10
6049=-0x1.0a328915b1ca3p-8
6050=0x1.672063a01da9dp-10
6060=0x1.a327959068b09p-10
6061=-0x1.2de554e101ad2p-10
6124=0x1.fef2b6a9ffe08p-12
6141=0x1.2d17fe6325ab9p-12
6308=0x1.7f5e7f0681672p-10
6309=-0x1.014c651c1c0acp-7
6310=0x1.5bf4c986dff34p-8
6368=0x1.131fadb9636bep-8
6369=-0x1.4c876460a1272p-7
6370=0x1.17e0f3226b206p-8
6385=-0x1.81e1f10bc484p-10
6386=0x1.c21b6edfdd66ap-10
6533=0x1.340f9034a451cp-12
6644=0x1.d1073fa6a628dp-10
6645=-0x1.63f099293b648p-8
6646=0x1.d47e7265ea67bp-10
6720=0x1.99ffe497956bcp-10
6721=-0x1.2cb3748e46d19p-8
6722=0x1.a1f5143d60e48p-10
6784=0x1.634e87478aab8p-8
6785=-0x1.9f4286e85476cp-7
6786=0x1.6506399da9b6dp-8
6864=0x1.c46161a64fb83p-10
6865=-0x1.5d932cbf3aaddp-8
6866=0x1.c8d94f3751bc6p-10
6868=0x1.cdb4f57f5e096p-10
6869=-0x1.6207dd52392a8p-8
6870=0x1.cffd93c0aef49p-10
6881=0x1.8dc386585f481p-10
6882=-0x1.cf3a354783bacp-14
6901=0x1.8d539fda76dccp-10
6902=-0x1.f46e39dbaa5cdp-15
6968=0x1.cce5750667506p-10
6969=-0x1.5f46994ad32a8p-8
6970=0x1.c6f884b6f2cfp-10
6984=0x1.d49f436e2f568p-10
6985=-0x1.6428c9f34ec03p-8
6986=0x1.d1930503cee2p-10
7008=0x1.40890ab6adc38p-11
7009=-0x1.2035773c7982bp-9
7010=0x1.bb21040116448p-12
7056=0x1.cc2269edc4ca2p-10
7057=-0x1.939897cdb2dacp-10
7269=-0x1.af9dd7c28b08bp-10
7270=0x1.083ce166ca1b6p-9
7272=0x1.caf3dbfde83f1p-10
7273=-0x1.90077d2cd3071p-10
7289=-0x1.5a8eaa8b23957p-10
7290=0x1.a4fff97fe014fp-10
7317=-0x1.4953e3e97786p-10
7318=0x1.98d0d3ec0969ap-10
7320=0x1.bbe80f657f31fp-10
7321=-0x1.53d3089a00e67p-8
7322=0x1.ac6277bf0821ep-10
7328=0x1.db7fcbedb3da6p-10
7329=-0x1.6787054dacd4bp-8
7330=0x1.d734a0c63eaffp-10
7336=0x1.9dda01e2c2599p-11
7337=-0x1.99a01ef13727p-9
7338=0x1.4bb1433025e17p-11
7368=-0x1.b1e46ea267b6cp-14
7369=0x1.4303b7eca2d9p-9
7370=-0x1.0ac7fdc8936e4p-12
7373=-0x1.907965e38d33p-10
7374=0x1.c4304511321p-10
7400=0x1.bcdc5cbec8d2ap-10
7401=-0x1.55a6a4077e1dep-8
7402=0x1.b29b2e64ef2d4p-10
7437=0x1.07a70c3d2620ep-13
