#mdl#2#1948
#rdr#25/7/0
9:u:%x[0,0],
10:u:%x[-1,0],
9:u:%x[1,0],
9:u:%x[0,1],
10:u:%x[-1,1],
9:u:%x[1,1],
9:u:%x[0,2],
10:u:%x[-1,2],
9:u:%x[1,2],
9:u:%x[0,3],
10:u:%x[-1,3],
9:u:%x[1,3],
9:u:%x[0,4],
10:u:%x[-1,4],
9:u:%x[1,4],
9:u:%x[0,5],
10:u:%x[-1,5],
9:u:%x[1,5],
9:u:%x[0,6],
10:u:%x[-1,6],
9:u:%x[1,6],
9:u:%x[0,7],
10:u:%x[-1,7],
9:u:%x[1,7],
2:b:,
#qrk#4
4:pA_B,
4:pA_I,
4:pA_L,
4:pA_U,
#qrk#1880
9:u:all\\o^,
6:u:_x-1,
5:u:"c",
4:u:10,
4:u:15,
4:u:12,
3:u:7,
3:u:8,
4:u:83,
4:u:81,
4:u:43,
4:u:42,
4:u:44,
4:u:40,
2:b:,
5:u:est,
5:u:oui,
3:u:6,
4:u:82,
4:u:38,
4:u:41,
4:u:37,
6:u:\\ca,
3:u:9,
4:u:39,
4:u:va,
4:u:17,
4:u:11,
4:u:26,
4:u:et,
5:u:toi,
5:u:dis,
4:u:14,
4:u:je,
4:u:13,
9:u:voulais,
4:u:te,
4:u:80,
10:u:demander,
4:u:86,
8:u:demain,
4:u:84,
4:u:vu,
5:u:que,
4:u:on,
3:u:a,
6:u:"qu",
5:u:une,
7:u:heure,
6:u:pour,
8:u:manger,
4:u:85,
5:u:euh,
5:u:dit,
3:u:5,
7:u:aille,
8:u:dehors,
4:u:31,
4:u:hm,
3:u:4,
4:u:88,
4:u:NA,
6:u:sais,
5:u:pas,
4:u:en,
6:u:fait,
7:u:parce,
4:u:28,
4:u:le,
6:u:truc,
4:u:21,
4:u:35,
4:u:19,
4:u:20,
4:u:18,
4:u:29,
5:u:"j",
4:u:ai,
8:u:encore,
4:u:33,
4:u:de,
9:u:monnaie,
4:u:ah,
7:u:ouais,
6:u:donc,
4:u:du,
6:u:coup,
10:u:voudrait,
6:u:dire,
11:u:mangerait,
7:u:genre,
4:u:25,
4:u:un,
10:u:sandwich,
5:u:non,
6:u:vrai,
6:u:trop,
4:u:87,
3:u:1,
5:u:top,
4:u:27,
7:u:enfin,
3:u:2,
4:u:24,
4:u:32,
4:u:22,
7:u:comme,
4:u:23,
4:u:m-,
4:u:f-,
4:u:me,
4:u:34,
8:u:saoule,
5:u:peu,
5:u:des,
12:u:sandwiches,
10:u:voil\\a`,
12:u:"d\\epend",
4:u:si,
4:u:il,
6:u:nous,
10:u:l\\a^che,
7:u:avant,
4:u:ou,
4:u:30,
5:u:"d",
8:u:accord,
4:u:tu,
8:u:retard,
6:u:voit,
3:u:y,
4:u:la,
7:u:queue,
6:u:\\a`,
8:u:limite,
6:u:veux,
4:u:ok,
8:u:"\\e-",
11:u:"\\etait",
13:u:"pr\\evoir",
5:u:moi,
7:u:aussi,
6:u:faut,
8:u:prenne,
5:u:"l",
8:u:argent,
5:u:sur,
6:u:vois,
11:u:"daccord",
6:u:mais,
7:u:mange,
8:u:salade,
8:u:laisse,
6:u:peut,
7:u:aller,
9:u:cantine,
7:u:toute,
9:u:fa\\con,
8:u:pareil,
9:u:appeler,
5:u:vas,
8:u:donner,
9:u:petites,
6:u:news,
9:u:comment,
5:u:ça,
8:u:allait,
4:u:91,
7:u:avais,
4:u:se,
6:u:voie,
7:u:même,
6:u:elle,
5:u:là,
10:u:faudrait,
7:u:alors,
4:u:ce,
6:u:mois,
4:u:ci,
8:u:passé,
4:u:à,
8:u:allure,
6:u:quoi,
7:u:été,
7:u:super,
5:u:ric,
5:u:rac,
5:u:ben,
8:u:façon,
11:u:attendais,
8:u:retour,
10:u:réunion,
5:u:"m",
8:u:étais,
8:u:aurait,
4:u:pu,
6:u:voir,
7:u:quand,
7:u:faire,
8:u:voilà,
5:u:bon,
3:u:3,
6:u:puis,
8:u:après,
7:u:temps,
7:u:passe,
12:u:finalement,
8:u:arrive,
10:u:bientôt,
5:u:fin,
4:u:16,
7:u:très,
6:u:vite,
12:u:exactement,
4:u:j-,
7:u:être,
8:u:essaie,
7:u:caler,
6:u:vous,
8:u:dirait,
9:u:semaine,
11:u:prochaine,
6:u:bien,
6:u:pris,
10:u:vendredi,
8:u:samedi,
8:u:"cest",
10:u:possible,
17:u:éventuellement,
10:u:gérable,
6:u:soir,
6:u:cool,
12:u:clairement,
9:u:reparle,
12:u:carrément,
6:u:vais,
12:u:rapidement,
4:u:au,
7:u:moins,
9:u:envoyer,
6:u:mail,
5:u:pis,
10:u:toujours,
12:u:compliqué,
11:u:plusieurs,
4:u:as,
8:u:raison,
9:u:propose,
9:u:instant,
5:u:"t",
7:u:irait,
9:u:parfait,
5:u:où,
6:u:hein,
5:u:nan,
8:u:disais,
8:u:petite,
8:u:bouffe,
6:u:mai-,
8:u:maison,
9:u:bonjour,
4:u:89,
7:u:salut,
9:u:entendu,
7:u:bruit,
7:u:merde,
8:u:entend,
9:u:arriver,
6:u:loin,
7:u:chaud,
5:u:ici,
7:u:aviez,
10:u:chouette,
11:u:installer,
5:u:les,
8:u:filles,
6:u:pose,
5:u:nos,
10:u:affaires,
6:u:waou,
4:u:90,
8:u:faites,
6:u:chez,
5:u:tes,
12:u:chaussures,
9:u:enlève,
5:u:mes,
9:u:obligé,
7:u:garde,
8:u:mettre,
6:u:joli,
6:u:suis,
10:u:craquée,
7:u:cette,
8:u:année,
10:u:rondelle,
8:u:citron,
6:u:tout,
6:u:plus,
8:u:grands,
6:u:2.02,
5:u:ils,
6:u:sont,
11:u:chouettes,
5:u:ces,
8:u:verres,
7:u:beaux,
10:u:achetés,
9:u:exprès,
5:u:ouh,
5:u:mis,
11:u:chauffage,
7:u:crois,
6:u:tour,
10:u:obligée,
6:u:fond,
11:u:autrement,
8:u:marche,
6:u:c“,
7:u:loose,
6:u:soit,
7:u:zéro,
9:u:éteint,
8:u:chiant,
6:u:fais,
11:u:engueuler,
10:u:consomme,
6:u:sers,
7:u:sûre,
4:u:oh,
8:u:partir,
8:u:moment,
8:u:rigolo,
5:u:ch-,
8:u:savais,
7:u:avait,
7:u:aimé,
7:u:avoir,
8:u:autres,
8:u:graals,
8:u:prévu,
11:u:inquiète,
8:u:paille,
7:u:allez,
10:u:habitude,
9:u:cuisine,
8:u:êtres,
7:u:miser,
15:u:présentation,
10:u:croirait,
6:u:dans,
8:u:dîner,
9:u:presque,
10:u:chercher,
7:u:autre,
7:u:mince,
13:u:commençais,
7:u:boire,
5:u:cas,
9:u:plaisir,
5:u:"n",
10:u:empêche,
7:u:clair,
11:u:longtemps,
4:u:d-,
5:u:vue,
8:u:depuis,
5:u:cet,
14:u:anniversaire,
5:u:"s",
6:u:vues,
9:u:remonte,
5:u:par,
11:u:croisées,
8:u:métro,
7:u:trois,
9:u:arrêts,
8:u:était,
5:u:qui,
10:u:vraiment,
6:u:aïe,
8:u:vôtre,
8:u:santé,
8:u:mignon,
4:u:ma,
7:u:mère,
8:u:gardes,
8:u:cognac,
6:u:gros,
6:u:mets,
10:u:beaucoup,
13:u:normalement,
8:u:classe,
4:u:ne,
7:u:juste,
10:u:histoire,
7:u:petit,
6:u:sûr,
4:u:a-,
9:u:passée,
4:u:es,
7:u:seule,
9:u:souvent,
7:u:cours,
7:u:lundi,
13:u:interaction,
9:u:verbale,
6:u:lun-,
6:u:midi,
7:u:mardi,
10:u:mercredi,
9:u:syntaxe,
9:u:oublier,
6:u:neuf,
8:u:heures,
7:u:matin,
7:u:jeudi,
8:u:psycho,
6:u:demi,
6:u:fois,
6:u:deux,
6:u:int-,
9:u:analyse,
19:u:conversationnelle,
7:u:exact,
7:u:reste,
11:u:formation,
8:u:rester,
8:u:prends,
6:u:pire,
7:u:train,
9:u:revenir,
7:u:vient,
9:u:voiture,
9:u:crevée,
9:u:rentrer,
8:u:chaque,
10:u:aimerais,
8:u:restes,
9:u:ramène,
6:u:sait,
8:u:jamais,
9:u:quelque,
7:u:chose,
7:u:faute,
8:u:tomber,
10:u:pourquoi,
13:u:franchement,
14:u:gestionnaire,
7:u:paies,
9:u:croyais,
9:u:reprend,
8:u:début,
7:u:soeur,
9:u:galère,
5:u:son,
8:u:master,
4:u:sa,
11:u:première,
8:u:loupé,
13:u:recommencé,
11:u:deuxième,
10:u:reloupé,
5:u:ont,
6:u:rien,
8:u:savait,
4:u:s-,
9:u:voulait,
10:u:retenter,
12:u:troisième,
7:u:idée,
7:u:monde,
9:u:travail,
7:u:marre,
10:u:arrivée,
7:u:vingt,
8:u:quatre,
5:u:ans,
15:u:compréhensif,
8:u:partie,
9:u:essayer,
10:u:cherché,
9:u:trouvé,
5:u:ad-,
9:u:adultes,
9:u:appelle,
6:u:sai-,
14:u:considérée,
12:u:étudiante,
12:u:intégrée,
8:u:dedans,
5:u:ami,
7:u:style,
5:u:de-,
10:u:semaines,
12:u:entreprise,
9:u:bizarre,
9:u:passait,
8:u:déjà,
5:u:mal,
9:u:compris,
13:u:réellement,
7:u:cadre,
9:u:choisie,
7:u:prise,
10:u:logiciel,
8:u:permet,
9:u:censés,
5:u:eux,
11:u:expliquer,
16:u:fonctionnement,
5:u:aux,
13:u:entreprises,
9:u:doivent,
6:u:bons,
8:u:calée,
9:u:déçue,
7:u:cause,
7:u:allô,
8:u:coucou,
10:u:appelais,
6:u:avec,
8:u:parlé,
11:u:septembre,
8:u:veniez,
7:u:fête,
11:u:lumières,
12:u:invitation,
7:u:tient,
7:u:fasse,
6:u:cher,
8:u:savoir,
8:u:disait,
7:u:venir,
8:u:priori,
5:u:lui,
13:u:particulier,
9:u:regarde,
9:u:surtout,
6:u:prix,
9:u:billets,
7:u:jouer,
8:u:boulot,
6:u:peux,
10:u:regarder,
12:u:maintenant,
10:u:rappelle,
10:u:regardé,
6:u:coca,
9:u:attaque,
8:u:pizzas,
9:u:attends,
6:u:sors,
8:u:occupe,
6:u:1.10,
4:u:ta,
9:u:chèvre,
13:u:champignons,
8:u:jambon,
8:u:dessus,
10:u:pourrait,
7:u:sympa,
6:u:rire,
8:u:viande,
9:u:hachée,
9:u:chorizo,
10:u:poivrons,
12:u:allumettes,
9:u:lardons,
8:u:besoin,
9:u:occuper,
7:u:pâte,
5:u:ton,
5:u:job,
5:u:yes,
10:u:claquée,
5:u:dur,
6:u:week,
5:u:end,
11:u:émotions,
7:u:maman,
11:u:ressortir,
7:u:pense,
7:u:droit,
7:u:pète,
8:u:putain,
8:u:péter,
5:u:hé,
6:u:fous,
9:u:partout,
7:u:celle,
7:u:assez,
7:u:tiré,
9:u:arrives,
9:u:content,
7:u:jeté,
10:u:poubelle,
10:u:pratique,
8:u:bordel,
12:u:chicouille,
7:u:mieux,
12:u:dépêches,
8:u:chiche,
10:u:commande,
9:u:branche,
6:u:fils,
10:u:trancher,
7:u:gorge,
6:u:hier,
8:u:abusé,
6:u:dise,
10:u:balancer,
6:u:ayé,
6:u:vont,
10:u:emmerder,
4:u:t-,
12:u:vêtements,
6:u:êt-,
10:u:choquée,
9:u:acheté,
8:u:esprit,
9:u:laisses,
6:u:ceux,
7:u:hiver,
10:u:énervé,
5:u:don,
10:u:énerver,
9:u:rouleau,
13:u:pâtisserie,
6:u:oula,
8:u:aurais,
12:u:préféré,
9:u:trouver,
6:u:sans,
8:u:manche,
6:u:aime,
11:u:préfère,
9:u:manches,
10:u:échappe,
7:u:mains,
6:u:sera,
10:u:présent,
14:u:physiquement,
6:u:sept,
8:u:rentre,
9:u:pratico,
7:u:delà,
5:u:ait,
13:u:billetterie,
7:u:salle,
11:u:spectacle,
10:u:"quelqu",
9:u:entrée,
9:u:décide,
5:u:pot,
9:u:souhait,
6:u:pots,
5:u:so-,
14:u:conférences,
9:u:débats,
8:u:budget,
10:u:organise,
4:u:l-,
14:u:installation,
11:u:matériel,
5:u:mai,
6:u:main,
7:u:place,
8:u:tables,
9:u:chaises,
9:u:caetera,
6:u:okay,
8:u:compte,
5:u:mon,
8:u:agenda,
11:u:organiser,
7:u:serai,
6:u:mer-,
9:u:"jusqu",
7:u:aider,
11:u:théâtre,
7:u:souci,
7:u:point,
15:u:interrogation,
10:u:partiras,
10:u:viendrai,
11:u:resterais,
8:u:serait,
8:u:quelle,
4:u:96,
6:u:acc-,
6:u:tous,
11:u:mercredis,
8:u:fermé,
6:u:fini,
11:u:sûrement,
5:u:au-,
6:u:aura,
13:u:sollicitera,
7:u:votre,
9:u:atelier,
9:u:combien,
7:u:durer,
9:u:sachant,
9:u:numéro,
12:u:disponible,
5:u:dix,
6:u:huit,
13:u:conférence,
6:u:lieu,
8:u:rapide,
12:u:tranquille,
8:u:plaît,
9:u:horaire,
7:u:coût,
10:u:soixante,
7:u:euros,
8:u:blague,
10:u:comprise,
9:u:parlait,
9:u:fautive,
8:u:parlez,
8:u:fautif,
11:u:problème,
12:u:organisera,
9:u:acheter,
13:u:cacahuètes,
10:u:boissons,
8:u:suffit,
7:u:voyez,
8:u:choses,
8:u:débat,
11:u:organisez,
4:u:v-,
12:u:rencontrez,
6:u:plan,
7:u:suite,
9:u:contenu,
5:u:doc,
12:u:distribuer,
10:u:vacances,
8:u:quinze,
7:u:jours,
5:u:va-,
9:u:pendant,
7:u:avril,
12:u:travailler,
5:u:com,
9:u:diffuse,
9:u:affaire,
7:u:roule,
7:u:poser,
10:u:question,
15:u:communication,
9:u:support,
8:u:facile,
9:u:plutôt,
10:u:diffuser,
9:u:ensuite,
10:u:imaginer,
9:u:journal,
6:u:veut,
9:u:toucher,
12:u:population,
7:u:voter,
12:u:absolument,
10:u:sensible,
9:u:départ,
12:u:communique,
12:u:brouillard,
9:u:connais,
11:u:travaille,
8:u:Europe,
7:u:lieux,
15:u:prédilection,
7:u:doute,
8:u:public,
8:u:trouve,
9:u:verrais,
4:u:92,
9:u:espèce,
7:u:tract,
11:u:immeubles,
9:u:boîtes,
9:u:lettres,
10:u:quartier,
7:u:abord,
8:u:toutes,
12:u:activités,
15:u:systématique,
7:u:coupe,
12:u:aléatoire,
9:u:voisins,
6:u:cent,
12:u:locataires,
11:u:viendront,
7:u:elles,
13:u:condamnées,
9:u:motivé,
9:u:sportif,
13:u:parenthèse,
6:u:avez,
8:u:idées,
14:u:illuminantes,
10:u:hésitez,
8:u:membre,
7:u:verra,
13:u:facturation,
9:u:facture,
14:u:"aujourdhui",
8:u:pardon,
10:u:terminé,
10:u:rentrée,
11:u:nutrition,
6:u:gens,
10:u:viennent,
5:u:MJC,
6:u:Oul-,
9:u:Oullins,
11:u:personnes,
10:u:seraient,
9:u:octobre,
7:u:dates,
4:u:i-,
11:u:envisager,
8:u:saison,
9:u:courant,
6:u:juin,
9:u:juillet,
11:u:réserver,
7:u:trucs,
10:u:prépare,
6:u:fixe,
10:u:dérange,
5:u:air,
11:u:derrière,
6:u:pote,
10:u:Bastille,
9:u:écoute,
7:u:diras,
9:u:répond,
13:u:téléphone,
10:u:réponds,
9:u:paraît,
6:u:part,
10:u:appelée,
9:u:demande,
10:u:regardes,
9:u:entends,
7:u:reçu,
10:u:messages,
9:u:appelé,
10:u:dimanche,
8:u:excuse,
15:u:crémaillère,
11:u:présente,
9:u:essayé,
13:u:rencontrée,
5:u:ja-,
9:u:pouvait,
8:u:passer,
8:u:venait,
11:u:repartait,
8:u:rendus,
9:u:pouvoir,
11:u:descendre,
8:u:penses,
9:u:suivant,
10:u:faisable,
9:u:bonsoir,
7:u:merci,
9:u:restés,
10:u:nombreux,
8:u:soucis,
8:u:emploi,
11:u:cinquante,
9:u:minutes,
10:u:exprimer,
7:u:court,
6:u:bref,
14:u:synthétique,
13:u:géographie,
9:u:science,
11:u:synthèse,
10:u:quarante,
6:u:cinq,
11:u:comprenez,
12:u:véritable,
7:u:défi,
8:u:lancé,
11:u:excuserez,
10:u:certains,
9:u:aspects,
9:u:pourrai,
11:u:évidence,
6:u:tard,
10:u:ailleurs,
5:u:lie,
7:u:utile,
11:u:agréable,
10:u:"lorsqu",
12:u:géographe,
11:u:ruraliste,
7:u:vigne,
5:u:vin,
16:u:généralement,
9:u:termine,
9:u:chanson,
7:u:caves,
7:u:force,
14:u:dégustation,
8:u:ferons,
10:u:heureuse,
12:u:accueillir,
9:u:travaux,
11:u:pratiques,
9:u:reconnu,
9:u:panneau,
8:u:UNESCO,
5:u:Val,
7:u:Loire,
11:u:essentiel,
10:u:discours,
8:u:porter,
10:u:quelques,
14:u:définitions,
16:u:mondialisation,
11:u:reprendre,
10:u:définit,
13:u:représente,
11:u:notamment,
9:u:Laurent,
10:u:Carroué,
14:u:actuellement,
12:u:président,
9:u:respon-,
7:u:CAPES,
12:u:territoire,
9:u:inscrit,
13:u:géographes,
9:u:discute,
10:u:juristes,
12:u:également,
14:u:économistes,
10:u:manière,
12:u:présenter,
13:u:territoires,
11:u:simplifie,
11:u:Alexandre,
7:u:Moine,
7:u:mille,
14:u:interactions,
7:u:entre,
9:u:acteurs,
8:u:espace,
15:u:géographique,
6:u:cela,
10:u:reprends,
4:u:p-,
10:u:anglaise,
8:u:Jancis,
10:u:Robinson,
9:u:assiste,
11:u:mouvement,
11:u:diffusion,
9:u:passion,
14:u:consommation,
12:u:incroyable,
9:u:limites,
8:u:dirais,
12:u:oekoumène,
10:u:planète,
9:u:extrait,
11:u:contraire,
13:u:rétraction,
6:u:pays,
20:u:traditionnellement,
15:u:consommateurs,
13:u:producteurs,
14:u:exportateurs,
7:u:sorte,
15:u:contradiction,
6:u:ceci,
6:u:lié,
7:u:voulu,
9:u:montrer,
6:u:quel,
6:u:sens,
10:u:sérieux,
7:u:cirer,
7:u:tirer,
10:u:citation,
9:u:écrite,
14:u:circonstance,
8:u:écris,
10:u:articles,
12:u:simplement,
12:u:retiendrai,
9:u:dernier,
11:u:élément,
12:u:comprendre,
15:u:effectivement,
13:u:référence,
8:u:essaye,
13:u:présentent,
14:u:vitivinicole,
6:u:1.00,
11:u:société,
16:u:intermédiaire,
9:u:actions,
14:u:informations,
11:u:remontent,
12:u:éléments,
12:u:permettent,
9:u:paysage,
16:u:véritablement,
7:u:image,
9:u:visible,
9:u:renvoie,
6:u:leur,
9:u:surface,
11:u:terrestre,
8:u:niveau,
13:u:négociants,
14:u:commerçants,
20:u:interprofessionnel,
15:u:professionnel,
11:u:gravitent,
8:u:autour,
13:u:fondamental,
11:u:important,
13:u:exportation,
13:u:importation,
12:u:production,
9:u:gestion,
5:u:AOC,
5:u:AOP,
7:u:rôle,
13:u:grandissant,
9:u:veulent,
9:u:prendre,
7:u:poids,
9:u:excusez,
13:u:directement,
16:u:problématique,
7:u:quels,
9:u:moteurs,
8:u:freins,
11:u:expansion,
8:u:mesure,
13:u:considérer,
8:u:France,
8:u:remise,
11:u:approches,
11:u:proposent,
9:u:optique,
14:u:territoriale,
9:u:insiste,
9:u:traiter,
6:u:cel-,
11:u:certaines,
10:u:prévues,
9:u:thèmes,
14:u:événements,
12:u:fondateurs,
8:u:parler,
7:u:mythe,
11:u:fondateur,
12:u:archétype,
12:u:historique,
9:u:puisque,
10:u:suggère,
11:u:fortement,
12:u:rechercher,
13:u:différents,
8:u:seuils,
16:u:chronologiques,
8:u:amené,
13:u:évolutions,
7:u:près,
9:u:produit,
11:u:seulement,
10:u:agricole,
10:u:culturel,
11:u:religieux,
8:u:relier,
10:u:religion,
13:u:chrétienne,
9:u:assuré,
4:u:eu,
8:u:série,
8:u:crises,
15:u:fondamentales,
11:u:neuvième,
9:u:siècle,
12:u:entraîné,
11:u:création,
14:u:appellations,
9:u:origine,
13:u:contrôlée,
15:u:rapprochement,
8:u:points,
6:u:vins,
9:u:terroir,
9:u:cépage,
9:u:banquet,
8:u:Platon,
14:u:fondamentaux,
8:u:quête,
10:u:vérité,
11:u:évoquent,
11:u:symposium,
6:u:grec,
10:u:convives,
9:u:passent,
10:u:cratère,
8:u:lequel,
5:u:eau,
6:u:font,
8:u:éloge,
7:u:amour,
6:u:lors,
10:u:banquets,
9:u:lancent,
8:u:défis,
10:u:essayent,
12:u:apprécié,
7:u:ainsi,
5:u:né,
12:u:guillemets,
17:u:interprétation,
13:u:personnelle,
9:u:permets,
13:u:philosophie,
8:u:Grèce,
7:u:verre,
5:u:re-,
11:u:retrouver,
7:u:tiens,
11:u:préciser,
9:u:vivante,
8:u:notée,
8:u:propos,
10:u:Arménie,
12:u:Françoise,
11:u:Ardillier,
10:u:chansons,
11:u:réponses,
5:u:sud,
7:u:ouest,
11:u:français,
9:u:exemple,
10:u:revenant,
10:u:Bidarray,
12:u:connaissez,
8:u:voulez,
8:u:mangé,
4:u:bu,
10:u:ensemble,
10:u:commence,
9:u:strophe,
6:u:doit,
10:u:terminer,
5:u:mot,
10:u:internet,
8:u:verrez,
12:u:insisterai,
10:u:oreilles,
12:u:pourraient,
11:u:supporter,
10:u:origines,
14:u:caucasiennes,
14:u:fondamenteur,
7:u:noces,
6:u:Cana,
9:u:travers,
9:u:tableau,
12:u:Véronèse,
14:u:interpréter,
4:u:lu,
11:u:Évangile,
6:u:Jean,
13:u:personnages,
7:u:clés,
8:u:jeunes,
9:u:mariés,
8:u:marié,
7:u:femme,
9:u:mariée,
6:u:coin,
8:u:contre,
8:u:donné,
8:u:durant,
6:u:vint,
9:u:manquer,
7:u:grave,
8:u:erreur,
9:u:parents,
7:u:rater,
7:u:leurs,
7:u:Marie,
12:u:intervient,
17:u:personnellement,
8:u:Jésus,
10:u:signifie,
11:u:implicite,
8:u:oeuvre,
10:u:réclame,
7:u:venue,
11:u:attention,
10:u:réponse,
11:u:serviteur,
6:u:dira,
9:u:remplir,
8:u:jarres,
10:u:apporter,
9:u:maître,
13:u:cérémonie,
10:u:changée,
16:u:extraordinaire,
14:u:fondamentale,
16:u:transformation,
12:u:exégètes,
8:u:disent,
15:u:premièrement,
6:u:agit,
13:u:institution,
13:u:eucharistie,
11:u:sacrifice,
7:u:croix,
6:u:dont,
8:u:verser,
6:u:sang,
11:u:humanité,
6:u:pain,
12:u:considère,
7:u:vraie,
12:u:nourriture,
9:u:boisson,
7:u:envie,
9:u:rapport,
13:u:thématique,
11:u:proposée,
8:u:sommes,
6:u:ange,
9:u:ressort,
10:u:extraits,
8:u:sortir,
19:u:caractéristiques,
9:u:aliment,
8:u:festif,
7:u:objet,
14:u:civilisation,
19:u:méditerranéenne,
8:u:certes,
8:u:judéo,
10:u:tendance,
8:u:perdre,
11:u:influence,
7:u:perdu,
8:u:aspect,
10:u:continue,
8:u:garder,
7:u:modes,
9:u:changé,
12:u:auparavant,
10:u:buvaient,
17:u:régulièrement,
11:u:coupaient,
15:u:particulière,
14:u:disparaître,
8:u:grande,
9:u:vitesse,
9:u:plupart,
9:u:disparu,
12:u:bataillons,
9:u:paysans,
11:u:autrefois,
10:u:ouvriers,
10:u:courante,
15:u:complètement,
14:u:transmission,
7:u:inch-,
24:u:intergénérationnelle,
11:u:quasiment,
6:u:rite,
9:u:faisait,
9:u:famille,
7:u:père,
11:u:tellement,
7:u:pater,
10:u:familial,
11:u:apprenait,
5:u:ses,
9:u:enfants,
8:u:buvait,
6:u:âge,
6:u:clé,
13:u:commençait,
11:u:commencer,
10:u:explique,
11:u:Bourgogne,
7:u:rouge,
12:u:forcément,
10:u:approche,
12:u:intronisé,
6:u:fée,
11:u:sorcière,
8:u:Marine,
8:u:vivait,
6:u:haut,
7:u:nuage,
10:u:château,
7:u:tours,
9:u:dorées,
8:u:reçut,
10:u:baguette,
9:u:magique,
7:u:bête,
8:u:patins,
11:u:roulettes,
7:u:magi-,
8:u:simple,
9:u:rollers,
10:u:pourrais,
8:u:casser,
5:u:nez,
9:u:tombant,
7:u:digne,
8:u:cadeau,
10:u:recevoir,
8:u:bateau,
9:u:exclama,
10:u:basculer,
6:u:robe,
13:u:dégoutante,
9:u:chapeau,
7:u:jeter,
7:u:fées,
10:u:devaient,
11:u:gentilles,
9:u:propres,
8:u:tartes,
9:u:miettes,
6:u:thé,
11:u:renverser,
7:u:tache,
10:u:raconter,
6:u:voix,
12:u:mielleuses,
11:u:histoires,
8:u:douces,
9:u:tendres,
8:u:agiter,
5:u:ca-,
9:u:gâteau,
6:u:beau,
8:u:cerise,
10:u:trouvait,
14:u:terriblement,
12:u:ennuyeuses,
17:u:malheureusement,
10:u:bouillo-,
9:u:bouill-,
11:u:bouillote,
11:u:théière,
12:u:sorcières,
9:u:avaient,
7:u:salir,
7:u:crier,
9:u:patiner,
10:u:naviguer,
6:u:bord,
6:u:jour,
10:u:sursauta,
9:u:horreur,
8:u:écria,
9:u:devrais,
7:u:honte,
8:u:frappa,
6:u:pied,
7:u:hurla,
10:u:certaine,
15:u:approchèrent,
8:u:dirent,
11:u:horribles,
12:u:crâneuses,
12:u:concoctent,
9:u:potions,
13:u:dangereuses,
13:u:transformer,
9:u:crapaud,
5:u:fit,
9:u:devenir,
8:u:existe,
8:u:règle,
8:u:gronda,
8:u:docile,
10:u:soignée,
9:u:insista,
11:u:répliqua,
10:u:furieuse,
9:u:endroit,
6:u:bois,
9:u:soupira,
10:u:envolant,
9:u:regarda,
9:u:tardera,
8:u:envole,
9:u:cliques,
9:u:claques,
7:u:vivre,
10:u:trompait,
11:u:convenait,
14:u:parfaitement,
13:u:construisit,
12:u:magnifique,
8:u:cabane,
8:u:duquel,
9:u:navigua,
10:u:rivière,
9:u:nourrir,
10:u:cueillit,
7:u:baies,
11:u:noisettes,
10:u:étaient,
11:u:adorables,
8:u:prêta,
5:u:mit,
12:u:serpentant,
8:u:arbres,
7:u:belle,
7:u:patin,
7:u:tête,
7:u:longs,
8:u:noeuds,
6:u:cro-,
9:u:crochus,
11:u:justement,
8:u:crochu,
9:u:marrant,
8:u:offrit,
7:u:jeune,
7:u:fille,
7:u:balai,
10:u:flambant,
11:u:aussitôt,
8:u:voulut,
11:u:apprendre,
7:u:voler,
10:u:empoigna,
7:u:engin,
8:u:grimpa,
7:u:arbre,
16:u:encouragèrent,
7:u:sauta,
7:u:resta,
11:u:suspendue,
6:u:airs,
9:u:écrasa,
5:u:sol,
7:u:pensa,
10:u:redressa,
8:u:essaya,
9:u:nouveau,
6:u:bout,
9:u:parvint,
14:u:applaudirent,
8:u:rompre,
8:u:volant,
10:u:effleura,
10:u:renversa,
6:u:seau,
5:u:jus,
11:u:groseille,
14:u:soupirèrent,
9:u:trouves,
10:u:chapeaux,
9:u:pointus,
6:u:noir,
7:u:moche,
13:u:cuisinière,
10:u:marrante,
8:u:fonça,
11:u:direction,
6:u:ciel,
6:u:cria,
7:u:viens,
8:u:tenait,
8:u:debout,
5:u:eut,
9:u:souffle,
8:u:coupé,
11:u:effrayée,
9:u:devenue,
7:u:folle,
10:u:atterrit,
9:u:douceur,
7:u:riant,
8:u:appris,
11:u:construit,
10:u:navigué,
12:u:formidable,
11:u:élection,
5:u:Lot,
9:u:Garonne,
17:u:circonscription,
14:u:législative,
11:u:partielle,
11:u:siègeait,
8:u:jusque,
10:u:Jérôme,
9:u:Cahuzac,
8:u:ancien,
10:u:ministre,
12:u:désormais,
8:u:fraude,
9:u:fiscale,
8:u:Suisse,
11:u:déclaré,
6:u:fisc,
9:u:dirigé,
15:u:démissionné,
8:u:siège,
10:u:député,
9:u:fallait,
10:u:pourvoir,
5:u:UMP,
10:u:emporté,
6:u:face,
10:u:candidat,
7:u:Front,
10:u:National,
5:u:six,
7:u:score,
7:u:large,
6:u:tant,
15:u:participation,
8:u:faible,
7:u:cents,
8:u:écart,
8:u:hommes,
14:u:relativement,
8:u:serré,
6:u:duel,
9:u:leçons,
12:u:politiques,
10:u:Bertrand,
9:u:Lacoste,
4:u:FN,
11:u:présence,
8:u:second,
7:u:terre,
9:u:certain,
10:u:diverses,
13:u:réflexions,
7:u:surgi,
10:u:occasion,
8:u:côté,
4:u:PS,
10:u:laissent,
10:u:perplexe,
7:u:quant,
6:u:tire,
9:u:entend-,
13:u:évidemment,
10:u:réjouir,
11:u:candidats,
12:u:dirigeants,
8:u:tenter,
9:u:quelles,
9:u:raisons,
12:u:éliminés,
9:u:premier,
7:u:effet,
14:u:candidatures,
6:u:pea-,
14:u:parasitaires,
8:u:isoler,
12:u:Villeneuve,
12:u:partielles,
11:u:dérouler,
12:u:desquelles,
11:u:symptôme,
9:u:malaise,
15:u:considérable,
8:u:droite,
6:u:taux,
12:u:abstention,
11:u:démontre,
14:u:intéressent,
6:u:type,
8:u:joutes,
12:u:désespoir,
5:u:tel,
11:u:anxiété,
7:u:telle,
16:u:découragement,
10:u:proposé,
7:u:offre,
11:u:politique,
11:u:déplacer,
8:u:soient,
8:u:enjeux,
9:u:époque,
10:u:venaient,
7:u:untel,
11:u:"aujourd",
5:u:hui,
15:u:tétanisation,
11:u:situation,
12:u:totalement,
15:u:désespérés,
14:u:extrêmement,
13:u:inquiétant,
10:u:dirigent,
10:u:prennent,
5:u:ts-,
10:u:tsunamis,
13:u:progressifs,
12:u:retombées,
12:u:répliques,
10:u:secouent,
5:u:kl-,
4:u:r-,
8:u:pourra,
14:u:explications,
10:u:allusion,
7:u:front,
14:u:républicain,
8:u:posais,
14:u:introduction,
6:u:mort,
17:u:définitivement,
8:u:Gauche,
11:u:Écologie,
11:u:général,
11:u:classique,
11:u:députés,
9:u:remette,
7:u:notre,
12:u:stratégie,
7:u:appel,
6:u:sein,
7:u:parti,
12:u:socialiste,
7:u:Louis,
9:u:Bernard,
11:u:agonisant,
8:u:amener,
5:u:soi,
12:u:électeurs,
13:u:électrices,
14:u:propositions,
6:u:mode,
5:u:vie,
8:u:morale,
10:u:regardez,
10:u:souvenez,
9:u:traité,
11:u:européen,
9:u:médias,
9:u:élites,
11:u:pensantes,
7:u:voté,
12:u:importante,
18:u:circonscriptions,
8:u:Loiret,
9:u:circon-,
7:u:ordre,
9:u:absten-,
12:u:élections,
7:u:route,
6:u:fort,
8:u:claque,
8:u:aucune,
10:u:triomphe,
7:u:grand,
9:u:gagnant,
14:u:reconnaître,
6:u:dieu,
11:u:positions,
6:u:anti,
9:u:radical,
9:u:succès,
11:u:engrangé,
8:u:nombre,
10:u:victoire,
12:u:symbolique,
7:u:voire,
13:u:médiatique,
6:u:avis,
13:u:municipales,
11:u:capacité,
10:u:nuisance,
4:u:b-,
4:u:z-,
14:u:européennes,
13:u:socialistes,
8:u:risque,
7:u:Modem,
5:u:UDI,
8:u:change,
8:u:crains,
10:u:marchait,
9:u:Jacques,
8:u:Chirac,
9:u:réélu,
5:u:Pen,
8:u:Hassan,
7:u:Kerim,
11:u:résultat,
5:u:rue,
6:u:faux,
11:u:persuadé,
8:u:gauche,
11:u:questions,
8:u:posent,
16:u:compatibilité,
9:u:unités,
8:u:statut,
13:u:sémantique,
14:u:morphologues,
12:u:défendent,
7:u:signe,
12:u:saussurien,
9:u:affixes,
12:u:polysémie,
8:u:traite,
12:u:générale,
9:u:simples,
14:u:linguistique,
6:u:syn-,
11:u:expliqué,
5:u:en-,
13:u:pragmatique,
8:u:morpho,
9:u:claires,
12:u:explicites,
8:u:trois-,
8:u:puisse,
12:u:consacrée,
10:u:méthode,
12:u:synchronie,
12:u:diachronie,
8:u:aborde,
11:u:intuition,
12:u:intuitives,
13:u:morphologie,
10:u:énoncé,
9:u:globale,
4:u:u-,
13:u:plurisémie,
15:u:multiplicité,
9:u:strates,
18:u:interprétatives,
11:u:morphème,
12:u:flexionnel,
13:u:unisémique,
16:u:pluristratique,
10:u:évitant,
11:u:théories,
14:u:différentes,
12:u:décrivent,
9:u:chacune,
8:u:strate,
13:u:différente,
10:u:opposent,
6:u:unes,
9:u:malheur,
11:u:consacrer,
9:u:séance,
12:u:difficiles,
11:u:résolues,
10:u:apparait,
8:u:étant,
14:u:compliquées,
8:u:celles,
21:u:polycatégorialité,
12:u:traitement,
20:u:polycatégorielles,
9:u:lexique,
13:u:catégoriel,
10:u:matière,
11:u:confiance,
13:u:imagination,
8:u:servir,
8:u:sortes,
12:u:problèmes,
10:u:aimerait,
8:u:semble,
13:u:expérience,
14:u:sémanticien,
13:u:morphologue,
11:u:évidente,
11:u:sentiment,
12:u:prospectif,
10:u:chantier,
13:u:modérateur,
11:u:François,
8:u:carré,
12:u:immodéré,
11:u:agitateur,
12:u:commencent,
8:u:fermer,
6:u:oeil,
12:u:intervenir,
14:u:flexionnelle,
6:u:mots,
12:u:différent,
13:u:traitements,
11:u:méthodes,
9:u:relève,
10:u:principe,
8:u:Claude,
10:u:position,
14:u:dégueulasse,
13:u:réfléchir,
10:u:bêtises,
11:u:procédé,
7:u:banal,
10:u:consiste,
14:u:apparaissent,
12:u:virtuelles,
13:u:quelquefois,
11:u:énoncés,
10:u:virtuels,
7:u:gêne,
15:u:sémanticiens,
10:u:évoqué,
10:u:rotation,
13:u:indéniable,
7:u:rotor,
9:u:rotatif,
11:u:rotatoire,
9:u:rotonde,
7:u:rôti,
9:u:postule,
6:u:base,
17:u:matériellement,
5:u:ose,
7:u:verbe,
7:u:roter,
12:u:imaginaire,
5:u:se-,
6:u:sert,
14:u:archimodèle,
8:u:machin,
9:u:modèle,
14:u:lexématique,
11:u:reconnait,
7:u:rotat,
11:u:associée,
9:u:lexème,
11:u:réaliser,
10:u:autonome,
10:u:lexicale,
11:u:locuteurs,
13:u:permettrait,
8:u:former,
10:u:nouveaux,
6:u:ét-,
13:u:appartenant,
8:u:proche,
11:u:filiation,
9:u:directe,
12:u:hypothèse,
11:u:paradigme,
7:u:parle,
12:u:structures,
17:u:intériorisées,
12:u:prédateur,
12:u:prédation,
12:u:construits,
14:u:fonctionnent,
8:u:parent,
8:u:direct,
9:u:existé,
14:u:contemporain,
6:u:_x+1,
4=0x1.9719c49129691p-2
5=-0x1.ec0827737c04p-5
8=0x1.6a76c028be1afp-2
9=-0x1.f072b31865489p-6
10=-0x1.357d465e6b113p-6
11=0x1.97be62d2a976bp-9
12=-0x1.412c4fa1a73a2p-5
13=0x1.c0b9d854ac586p-5
14=-0x1.47ea733d244dep-5
15=0x1.0ee23d7c30db4p-5
16=-0x1.f862f946d9986p-8
17=-0x1.de23d6d18db2ap-8
18=0x1.42de4c6bdb15ep-8
19=0x1.a154c7cf55674p-7
20=-0x1.64ca9fb72c3c5p-7
21=0x1.90f97788f8d8ap-10
22=-0x1.64ea2527acabp-3
23=0x1.1e273aa48a0d8p-2
24=0x1.2a748f1d86cd4p-4
25=0x1.bc288bba98be8p-5
26=-0x1.243ca4a636281p-3
27=0x1.f821f2563cff6p-6
28=-0x1.288859a74e79bp-6
29=0x1.ec3faa2b72a54p-5
30=-0x1.010a366f557fbp-5
31=-0x1.a2dbc307b7431p-5
32=-0x1.6195bb714f02cp-9
33=-0x1.7839e57e9598fp-4
34=0x1.cebbe50e809f9p-8
35=0x1.6e5bc72f2b162p-4
36=-0x1.9f483d6fdd121p-5
37=0x1.14bf1aea07c4ap-2
38=0x1.a8f3661596233p-4
39=-0x1.5d52e0d044c36p-1
40=0x1.dd04e059d69e8p-4
41=0x1.aca0fe7975df6p-3
42=-0x1.5d3e3e8bfb7dp-4
43=-0x1.62657ca5687f8p-5
44=0x1.883a50759fd39p-3
45=0x1.5db2006ab17bep-2
46=0x1.7f12d82677bc3p-4
47=0x1.ee82d083f798fp-6
48=-0x1.5b05287f844bap-5
49=0x1.a653f30b3409fp-5
50=0x1.5a8ed237581c6p-9
51=-0x1.7a9a5a3208932p-6
52=-0x1.0a95cd07ac49fp-4
53=0x1.f06997c6706ap-4
54=0x1.5e98c3f6ec0b3p-4
55=0x1.325b7d865d98ep-4
56=-0x1.6795fa0a52892p+2
57=0x1.74f259d0ec58p-1
58=-0x1.5c8cacb71c0e7p-2
59=-0x1.0aa8f1c9a3174p+2
60=-0x1.ca1d98ce7ab44p+2
61=0x1.befca7b5f1d89p-2
62=0x1.7cca52988dd9p-1
63=-0x1.93780d0861e99p+2
64=0x1.02d90cad79b85p+1
65=-0x1.5d926b8f48b33p+2
66=-0x1.bc0195aa21e69p+1
67=0x1.74242456c794ep+0
68=0x1.2ed1aa5c90033p+0
69=-0x1.310d2edf237e4p+2
70=-0x1.d166f6486f868p+1
71=-0x1.11137be5795fcp-2
72=0x1.e06a6426f892fp-3
73=0x1.5449eb93982fcp-5
74=-0x1.10d22769bdfe4p-4
75=-0x1.5b3031c64c726p-1
76=0x1.96a9e997357b4p+0
77=-0x1.02471279ddacfp+0
78=-0x1.e3c0ac690b44cp-2
79=0x1.12eca85d3f1b8p-1
80=0x1.049b1477c3e89p-4
81=0x1.c33849026e797p-4
82=-0x1.814c924bbd408p-6
83=0x1.9d9cbf7ba79eep-5
84=-0x1.444993875eb6ep-7
85=-0x1.ed38d426d8f38p-7
86=-0x1.255a91005c9fep-4
87=0x1.5ff8da0d379efp-4
88=0x1.16b6229f741cfp-8
89=-0x1.2ff15465b3e82p-4
90=0x1.b08a193c1e176p-5
91=-0x1.ddc425cd1239ap-9
92=0x1.9c4e45527afb1p-3
93=0x1.9d01c6f74e9bfp-2
94=0x1.1325d492ac2bap-2
95=0x1.843da809ce456p-3
97=-0x1.fba5bfb49e234p-7
99=0x1.f85e37f5e08eap-12
101=-0x1.fa111dd9fc6ebp-9
102=0x1.5f4790e450253p-11
104=-0x1.336ad9b20f4bap-5
105=0x1.a61cd7f32728cp-4
106=-0x1.36b223ba2d59fp-5
107=-0x1.a9e366f6b52bap-3
108=0x1.0f4444ce2a61ap-5
109=-0x1.823527dd7a468p-5
110=0x1.0884f27fc3454p-4
111=0x1.49d740a238ad8p-7
112=0x1.848187b2c8911p-1
113=-0x1.3c488c81b9038p-2
114=0x1.45b388c28bff6p-4
115=-0x1.f8152d1812c5fp-5
116=0x1.af86d2b097474p-14
117=0x1.92fd015793c54p-4
118=-0x1.6e080a9581844p-2
119=0x1.bc6e684ffad9ap-2
120=0x1.23c75fb76bda8p-8
121=0x1.107cd08569d12p-6
122=-0x1.2c30e90972cfap-2
123=0x1.d70a1626f340cp-7
124=0x1.fee249619e0ecp-5
125=-0x1.e1ce7c2efed75p-8
127=-0x1.56f35c2220d7ap-5
128=-0x1.16d7110cd59fep-6
129=-0x1.65d779fb1b556p-6
130=0x1.42bcaf820b0adp-2
132=0x1.5578fdc864e38p-3
133=-0x1.a7bfef8618245p-1
134=0x1.14a5f6062aa5p-2
136=0x1.27d7471d2d85p-7
137=-0x1.4ead4a7d23fb7p-3
138=0x1.f938f7c7bd8f7p-2
140=-0x1.bd68cffaaa532p-3
141=-0x1.19f7a57b668bp-7
142=0x1.d3a303d4266c6p-8
143=0x1.1c96e8cdd959dp-2
144=0x1.0a143c6957009p-2
145=-0x1.6f6a2dba4e862p-2
146=0x1.54a8574353302p-9
147=0x1.12f2282cdc3f6p-4
148=0x1.27199f0b25b3ap-5
149=-0x1.578135fcb82e7p-6
150=-0x1.2eeb3261696b8p-4
151=-0x1.3231268846082p-2
153=0x1.db44e0be5d58fp-3
156=-0x1.b932280432fep-5
157=0x1.eb9d1dbacee28p-10
158=0x1.59cad00e534d2p-3
160=-0x1.5e1f3f3921969p-5
161=0x1.e9cc37eec48acp-3
162=-0x1.12908fd4d5277p-3
163=-0x1.0eb3fbf1d4375p+0
164=0x1.c91d037ef3288p-5
165=-0x1.12270bdd02ba7p-1
168=0x1.5eaea00e73e19p-3
169=-0x1.9dcad8110b9b2p-3
170=-0x1.f66e5c65e5b3bp-5
171=0x1.c8a55df8d2af2p-7
173=-0x1.b48fd57b18548p-3
176=0x1.0119f85d5b4a6p-5
177=-0x1.335738b319764p-3
178=0x1.17608ea6ee1d4p-4
179=-0x1.51fc7abf17fbp-5
180=0x1.2c7039d9ef33p-2
181=-0x1.1cf64fb5d1effp-1
182=-0x1.63a52771f50dfp-10
183=0x1.60cca19fec99dp+0
184=-0x1.0b972444f9e1cp-3
185=0x1.90af265f2354bp-1
186=-0x1.c38f78a2061c6p-2
187=-0x1.2282c6c27c90bp-2
188=0x1.fd2e31e3ea9e8p-3
189=-0x1.d36a2a7fa2aa4p-4
190=0x1.08ba0b40c974bp-4
191=0x1.6cb14c2fbc7eap-5
192=0x1.1a02521225f42p-7
193=0x1.383dadd870a96p-4
194=-0x1.dbb7ffe4a1749p-1
195=-0x1.78be8cc8362b2p-7
196=0x1.04559023bc1eap-11
197=0x1.037a340d7307cp-1
198=-0x1.43b7da22b307p-1
200=-0x1.26d5e81efc8a2p-3
201=0x1.57605d50aed9p-8
202=0x1.128434571ccd4p-2
205=0x1.0294a1cdda413p+0
208=-0x1.5c204e173a72fp-1
209=-0x1.50f5b76dbd0d7p-9
210=0x1.187e0cc5d6535p-1
212=-0x1.0b0519228c98p+0
213=-0x1.6a598c6a3e6b1p-12
214=0x1.93e8ffc036f2ap-23
215=0x1.96ed7fbb4ef7ap-4
216=0x1.3baaf82afa0e6p-6
217=-0x1.6e967b3a78fdp-3
218=-0x1.32cccb4923868p-4
219=0x1.a47636aa1ab76p-3
220=0x1.9993cb17e5fffp-5
221=0x1.21db35881d58ap-3
222=-0x1.6550eabb44628p-2
223=0x1.d0136a888f021p-5
224=-0x1.7c0557225f097p-1
225=0x1.0bae7368ec6f8p-7
226=0x1.6844dfed8fd16p-3
228=0x1.b8692adbe8bafp-6
229=0x1.969a418e35009p-3
230=0x1.0afd6c13a7a8ap-4
231=-0x1.094f1b30f709ep-5
237=-0x1.ee8d6f5abc954p-1
238=0x1.fdc96ff507094p-5
240=0x1.8cdce2d370f98p-3
241=-0x1.af87a4b02be5ep-3
242=0x1.d571c6ce480dap-4
244=0x1.d6d6db9329934p-2
245=-0x1.a4fd3e992a5fcp+0
246=0x1.5fc83f80bb368p-1
247=0x1.47765b358ed1p-5
248=-0x1.95605efc56652p-5
249=0x1.5c30064838d24p-3
250=0x1.7284c6c4bcbcep-4
251=-0x1.01103508113d2p-3
252=-0x1.5fb215bd032e8p-5
253=0x1.d7b0d0de087a9p-3
254=-0x1.ecfeb098e6721p-9
255=-0x1.1a652828a017fp-1
256=-0x1.bf5fae51f09c9p-4
257=0x1.3e3534584fbf6p-5
258=0x1.77083626610c4p-8
259=-0x1.34fd2b454f5dap-9
260=0x1.701a794683182p-5
261=-0x1.4dc195488263p-2
262=0x1.247777b466a73p-3
263=0x1.7a7dd2d2fc4dbp-9
264=-0x1.1b502ecf29504p-3
265=0x1.00fb7726f2d64p-12
266=0x1.381d61f5f7a8dp-2
267=0x1.2ca0ad95f569ap-11
268=-0x1.c14afd12eed44p-2
269=0x1.afbadff9c2f5ep-7
270=0x1.55126c2df459cp-4
271=-0x1.91dd145914277p-6
272=0x1.7a8fef97e1d8ep-11
273=0x1.17216cd6a8bc6p-8
274=-0x1.d4e4360ae2be8p-3
275=0x1.c79151fa1ec32p-2
276=0x1.05c05c958a4e1p-4
277=-0x1.0f3d28138ddfep-3
278=0x1.c7579ac7090bfp-3
279=-0x1.0e1d2e28d6a4ep+0
280=-0x1.deac6deab1751p-7
281=-0x1.9a7503b175c9ep-6
282=-0x1.39a3c684158cep-10
283=0x1.0fe8bcb924e2bp-2
284=-0x1.3916485ca8a88p-2
285=0x1.a3f5fc3a7df75p-5
286=0x1.8af0230d9bef5p-5
287=-0x1.216a3f5c8fc88p-1
288=-0x1.aa4d184f34059p-3
289=0x1.0800363845241p-1
293=-0x1.01f7d379e6972p-2
295=0x1.6983a965ca0b3p-2
300=-0x1.9acdbf9282c04p-11
301=0x1.d6363be3411f4p-4
302=-0x1.d19f9b84be011p-4
303=-0x1.e237055d1fedfp-3
304=0x1.24e062144f0c7p-4
305=-0x1.e89871806ecf6p-5
306=-0x1.56fa369ebb7fep-2
307=0x1.865af7e04f4ecp-3
308=0x1.329c77628a14dp-4
309=-0x1.8d68bfee3929p-3
310=0x1.407814207398fp-5
311=0x1.911aedaab9f65p-5
313=0x1.2438d51dd403fp-4
314=-0x1.aac840a9e4a24p-2
316=0x1.8875f3dbb9d2cp-7
317=-0x1.aa7bd09e74c9dp-3
318=0x1.0f81de79f6d0cp-2
319=-0x1.de6626df0f0ddp-7
320=0x1.754785da7711ap-2
321=0x1.3120705dd5ac8p-10
322=-0x1.f2b901a62aa46p-1
323=-0x1.2292514237a56p-6
325=0x1.4bdbb4b2ec302p-2
328=-0x1.543bb682c4f5p-4
329=0x1.1deb7f0cf0781p-9
330=-0x1.e6f9007ffb289p-10
331=0x1.ec83ee6ba8172p-2
332=-0x1.0901f8af057e4p+0
333=0x1.c2a618497620fp-4
334=0x1.2967abdf30e5ap-9
335=-0x1.f062455c012e2p+0
336=0x1.f60c0e66441a6p-7
337=-0x1.b55b2c259fc84p-10
340=0x1.fa91abb5be6cfp-2
341=-0x1.bc771e3200885p-1
342=0x1.9e55a5067329ap-2
344=0x1.3fb861ab81755p-1
345=-0x1.5c21d434ccfc8p+0
346=-0x1.d6d70f7801716p-5
347=0x1.d49507626eb6cp-1
348=0x1.4ee0729f0061ep-1
349=-0x1.51c7ca14840f4p-2
350=-0x1.339465855d9fap-7
351=0x1.96e82325bf021p-2
352=-0x1.892e2a7b2aacdp-1
354=0x1.d55b2d465b34dp-2
355=-0x1.5d845a2543f3ap-2
356=-0x1.905cbf04f992fp-3
357=0x1.2d71ad69ab364p-3
364=0x1.b7abe6bbe7ef9p-12
365=-0x1.41e3095362516p-11
373=0x1.0c0cf31ae4bffp-8
376=0x1.51070e70422a8p-1
377=0x1.423c4931a3c3ep-7
378=-0x1.1eb57fa42394cp-2
379=-0x1.82c2c1a1ef353p-6
380=-0x1.18607c57e48bdp+0
381=0x1.61564b7cb060fp-3
382=-0x1.fac372194f96p-14
383=0x1.167a275126161p-11
388=0x1.9f2ffa69369cap-5
389=-0x1.96428d86f185cp-1
390=-0x1.0e896e3bb52dep-5
391=0x1.f13e77f0f2fe1p-3
393=0x1.a108d7ecf5bcep-11
394=-0x1.a4048cc1b6953p-13
396=-0x1.0cf95a365609ap-1
397=0x1.563b34fae93a7p-3
398=0x1.58c43401d3b6ap-13
400=-0x1.645949c2d5fa7p-5
401=-0x1.786f3cd00f383p-4
402=0x1.8345cde98f773p-6
403=0x1.80017f4f4af0cp-4
404=-0x1.903a50b68b082p-6
405=0x1.3fa685356b41bp-4
406=0x1.0a0b800b0cc24p-6
407=0x1.07151975fe008p-8
408=0x1.0ed40b5b03a53p-5
409=-0x1.fc92fcfb153bap-9
412=-0x1.48af09c661c76p-3
413=0x1.e5027c6249d9cp-2
414=-0x1.7122233c300b1p-4
416=0x1.66cb0eee3e705p-3
417=-0x1.e5ae797f7328dp-7
418=0x1.ca0f362de14f8p-8
419=-0x1.3c560053b843ep-2
420=-0x1.f9046519b87f7p-8
421=0x1.56afd5a22216ep-4
422=-0x1.f2ae8af023026p-4
423=0x1.8fc05db11cdbbp-4
424=-0x1.bf192b4a918eep-8
425=0x1.d49edecb92b6bp-3
426=-0x1.8547131677e9fp-4
427=-0x1.fc5df96c24896p-8
428=0x1.335d94e002e04p-3
429=-0x1.13d0df78f20c7p-6
430=0x1.053c56769e808p-7
431=-0x1.6900ea5ae6aa6p-3
432=-0x1.1f39fbfdcd672p-2
433=0x1.5b8dd86e3b8fap-3
434=-0x1.51ea413539524p-5
435=0x1.99c8632ee291p-6
436=-0x1.d55bf14c6470cp-9
437=0x1.b82be79e29b0fp-7
438=0x1.09870c88ee926p-13
439=-0x1.9ea3650049e56p-1
440=0x1.d2ce439a30a58p-4
441=-0x1.ef92bd7b786e6p-5
442=0x1.7184e09fa6556p-7
443=-0x1.6a24a4fd3c5bp-4
445=0x1.0f7356f472c6bp-1
452=-0x1.aaaf579ec4168p-8
453=0x1.360793791ae46p-3
454=-0x1.a4a3e86e21b94p-2
458=-0x1.6d6294f3b1c37p-6
465=0x1.6f5234f6d873ap-8
468=-0x1.5b7aa42b3dbbap-1
469=0x1.17e8bf6658772p-2
470=-0x1.30005dece3dcep-6
477=0x1.a795006aa0134p-8
485=0x1.307f18ae22d8cp-7
486=-0x1.88ddc5e9681b9p-6
487=0x1.8d456d741319ep-6
488=-0x1.133bf7b03dae1p-4
489=0x1.468d9c70d32f4p-3
490=-0x1.cc7c1eb5f7e8p-7
491=0x1.f66f0e379730ep-15
493=-0x1.845df931e87dep-10
494=0x1.0b812ee75ca99p-9
500=0x1.64517565229a8p-5
501=-0x1.0e701091638c3p-2
502=0x1.09f995edcc939p-7
504=-0x1.317bcc8b9711p-7
506=0x1.8d3631d125042p-1
507=-0x1.4e502a7a8ab0ep-8
509=-0x1.cce1bf74dfc7cp-4
510=0x1.951f7a3bbab33p-5
511=0x1.e728f30bed0b4p-4
512=-0x1.c81381a19ecd4p-1
513=0x1.2ef894cfbb752p-4
514=0x1.318c070229cf4p-6
515=-0x1.1b81d828e84cp+1
516=0x1.180e87f3451fap+0
517=-0x1.0217fcd959e23p-1
518=0x1.8e79032886ba9p-7
519=-0x1.032eb02752ae3p-2
520=0x1.fb995bd0470edp-4
521=-0x1.348c69800af4bp-2
522=0x1.48889b53671cep-2
532=0x1.1c0ba660b120ep-1
533=-0x1.5ccf096bacaabp-3
534=0x1.3a36617a52241p-4
536=-0x1.3138377ea98dbp-5
537=0x1.d50bb2bb6b6efp-5
538=-0x1.3f3f293e53c17p-11
552=0x1.e2a6088ef5406p-9
553=0x1.10520803facf2p-5
554=-0x1.55490a666b40ap-1
556=0x1.baf4bfc49f583p-2
557=-0x1.50d6ac58ae9bcp+0
558=0x1.ad7ee28bce7dap-3
559=0x1.9074fa64d9a9ap-2
572=0x1.fc12b9e2b5f1bp-1
573=-0x1.750a341d907fap-2
574=0x1.51f7566fd3c6p-9
575=-0x1.f6a71833d6a01p-3
576=0x1.685da1838853ep-10
577=-0x1.7fcaf271077fp-5
578=0x1.334281cc897dfp-7
581=0x1.5c8de5afc5a95p-8
588=-0x1.0fc7427e59744p-1
589=0x1.5e865da331e77p-1
590=0x1.7140471f27452p-12
591=-0x1.c5f6c4582ee3dp-3
596=-0x1.a95657e5dba3cp-2
597=0x1.393bd2bf8014ep+0
601=-0x1.159fd25ed625p-1
602=0x1.d745cecce5c3p-4
603=0x1.85e9c18baea9fp-1
605=-0x1.434e32f823c2bp+0
607=0x1.04a63f5b90595p-3
608=0x1.bd7995d2af07ep-2
609=-0x1.9d9938dcf61afp-4
610=-0x1.c287e8d539032p-4
611=0x1.5c1d39959f9f1p-7
613=0x1.634a400423d02p-10
618=0x1.83d7e69751734p-7
620=-0x1.1aa38e0597dbep-6
621=0x1.5652c28246ccap-9
624=0x1.e1517111a8a0cp-11
625=-0x1.d44f3fcfa1c07p-4
626=0x1.629bd42a60988p-5
628=-0x1.1e620e2557dcap-2
629=0x1.25403543ddf04p-2
632=0x1.30c73fac1b8d5p-5
633=-0x1.f0e5351ed5ef4p-3
634=0x1.38db1eefac4aep-6
636=-0x1.1e00e5415303bp+0
638=0x1.22b0178ef9138p-2
640=0x1.78eed6990e3b6p-4
641=-0x1.ed399d17642a1p-1
642=0x1.7f8ddd4d644b4p-11
645=0x1.210b497068eb2p-1
654=0x1.7111c0be6fb92p-3
668=-0x1.db0fc70cc23cdp-4
669=0x1.d953b66e6e7f3p-3
670=-0x1.0925afecf5174p-1
671=0x1.8d95fc791b6a1p-8
672=0x1.d0b4e1ef18b36p-2
673=-0x1.b0eb2c0bd6cacp-2
674=0x1.07cc194748716p-4
677=0x1.1dd57b6052cadp+0
678=-0x1.b055f3da81608p-7
680=0x1.045065c2d139ep-2
681=-0x1.1fa4ea6f8d631p-1
682=0x1.7dcecf3053862p-2
688=0x1.605d7dd7e0088p-7
689=0x1.63c2d8ff35e1ep-6
690=-0x1.28cbe5f7b67c8p-1
693=0x1.589b8b31b0ac1p-4
694=-0x1.f14d51931fc7fp-11
696=-0x1.5611a52383228p-8
697=0x1.bac25d8f60d16p-5
700=0x1.1c4e1f04b6fc2p-2
701=-0x1.628de1169ac17p-2
702=-0x1.61ae533b075p-7
703=0x1.6223cb957ce85p-3
704=0x1.a43a836738814p-14
705=-0x1.e8eb83f8f054ap-4
706=0x1.fa8b8fa2f9768p-5
707=0x1.49e944135b82dp-3
712=0x1.c76309b6ee3f5p-1
713=-0x1.d04e9acee6bf2p-2
714=-0x1.584d61d430ee5p-12
715=-0x1.66b0f527af158p-7
716=0x1.35fcfac7a4553p-2
717=-0x1.82fb990d03b7ap-7
720=0x1.bc9018bc9418ep-2
721=-0x1.38237cde89391p-1
722=0x1.bbce5b0d15f8cp-3
725=0x1.1939d129b6512p-10
728=0x1.378753b007abcp-7
729=-0x1.367d2504c1d1cp-12
732=-0x1.2cc38778f8682p+0
733=0x1.cfd003532bf2bp-4
734=0x1.b748aa735029bp-3
735=-0x1.dc10a3d3af688p-2
740=0x1.a79445a36cd18p-1
741=-0x1.6495716f1cdd1p-2
742=0x1.9b08e25041f1ep-3
745=0x1.0a2ebb773c87bp-2
746=-0x1.d938c3748666cp-4
749=0x1.fb7312e2d83adp-4
753=0x1.23b279593a456p+0
754=-0x1.8638d1552d75p-3
756=-0x1.2ba0ddea56d73p-3
757=0x1.fc94bc4da0ca4p-4
760=0x1.efe836243cc6ap-1
761=-0x1.2f197b2d1443dp-1
762=-0x1.6cf0ae9d5d96fp-4
763=-0x1.a8004e3babaa1p-4
765=0x1.071c64e7e84b5p+0
766=-0x1.9d8165c6205cdp-3
772=0x1.b240909c9f8a4p-5
773=-0x1.bf3bf7b88b7efp-1
774=0x1.0ca67c26c9c2ap-2
776=0x1.27900e6934e78p-2
777=-0x1.d1367d99fc633p+0
778=0x1.8b19339a1cca3p-3
780=0x1.405cfbe1a1f24p-2
781=-0x1.bd1d48701f9b9p-21
782=-0x1.9d02532fa5545p-11
785=0x1.d88ec538e115bp-3
789=0x1.3071820007586p-1
790=-0x1.b4a50dff96e73p-2
793=0x1.2bfd725dade1p-4
796=0x1.28d1a11c79f3ap-4
797=-0x1.310f08caf0b8dp+0
799=0x1.b01c116522883p-1
800=-0x1.9f522db51586bp-1
801=0x1.5deffdab9478fp-8
802=0x1.f99cabc85e235p-4
804=0x1.615bdc45ae3d6p-7
805=0x1.2e656e0f78465p-2
806=-0x1.765e07cfa9fd1p-5
808=0x1.c43f20ac408a2p-10
809=-0x1.17fec384cea22p+0
810=0x1.02fa76240c176p-1
811=0x1.d61e2f8c7d3b1p-2
812=0x1.384e525cf4378p-1
813=-0x1.0d6cc987b9949p-1
814=0x1.2494c6488d824p-1
815=-0x1.bc686be0014adp-3
816=-0x1.8e2fdc93cf1ffp-5
817=0x1.41aed0e62958dp-3
818=-0x1.2d9d799d798fp-5
819=0x1.3a0103564ecf1p-4
820=0x1.b2e27d146e696p-4
821=-0x1.22500d2c11492p-10
822=-0x1.7f53ec6308b34p-2
824=0x1.114f4b2d5e669p-6
825=-0x1.6666e67c7035dp-4
826=0x1.19be73d3b0d27p-2
829=0x1.4751499fd2808p-1
830=-0x1.2710665bc6baap-4
832=0x1.15b2f91eaac49p-15
833=0x1.e0a8e13500d08p-8
834=-0x1.7b3ecc84c6311p-3
836=-0x1.3b8ff7a22fc39p-5
837=0x1.57873e9e4dcbcp-1
838=-0x1.48a7e935473c8p-11
840=-0x1.cb4a00373810fp-4
841=0x1.03c50d9e5b5bep+0
845=0x1.0afa891a7d9a5p-10
852=-0x1.80df5ca11e297p-7
853=-0x1.ef348e3fb2e81p-5
854=0x1.d9d8ba58f814dp-4
855=0x1.a7dba30dfdb42p-2
856=-0x1.81fbdc4fabeeep-8
858=0x1.58cd1179b07adp+0
861=0x1.482ae348c2112p-2
864=-0x1.1f716c777524fp-1
865=0x1.535792a586089p-5
867=0x1.27425a899fda9p-2
873=0x1.2ffba351b4a5ep+1
885=0x1.8e3b5086f3acdp-8
886=-0x1.4ce59f8da655fp-12
887=-0x1.04c0c15f0d9f5p-10
893=0x1.db2e691fa558p-2
894=-0x1.7a38dac8293a1p-5
897=0x1.2ca7a5709a53p-2
900=0x1.366ab89bf83ebp-3
901=-0x1.01919d7abfff3p-1
902=-0x1.3dccb23b721ebp-13
903=0x1.9e339c68053d7p-1
905=0x1.dc258e84c8fap-3
908=-0x1.fffc2f4e7b0cp-5
909=0x1.6c493a528b22dp-4
910=0x1.17c5bbf625035p-11
913=-0x1.ab8458b172e7ep-13
921=0x1.855b81b91e127p-6
924=-0x1.ac28f3a68ca3ep-3
925=0x1.23e2f4318f2aap-2
929=0x1.d5579cde9051ap-5
933=0x1.a91d386941378p-4
934=-0x1.9d50a8efde80cp-8
941=0x1.0211dbf1427adp+1
942=-0x1.06e6b8b7a840fp-1
945=0x1.2a28bca21c0bcp-5
948=0x1.6d32ebc0dc7c3p-20
949=-0x1.715c83dcaa349p-2
950=0x1.383fdb46ff135p-5
952=0x1.d5a57a8a9d476p-12
953=0x1.2d827589509c3p-6
954=-0x1.3d3aee8b0b108p-3
960=-0x1.c29869989437ep-10
961=-0x1.9f7815d9c377p-14
962=0x1.c0358b1403422p-3
981=0x1.60c3c425dc5d6p-7
982=-0x1.eb1ea1350e368p-12
989=-0x1.766eb05f947d6p-17
992=-0x1.618ff498f61e5p-6
993=-0x1.6b9d7a9676d13p-8
994=0x1.3ca52c0e60861p-5
995=0x1.0dda1e612ad19p-1
996=0x1.faf9e765aa926p-15
997=-0x1.7cff7f727ed71p-8
998=0x1.d66948a5b92a2p-15
1001=0x1.8c2a68e3f975cp-5
1005=0x1.ca96f1d3cf2b6p-5
1008=-0x1.a4afae2abe8fap+0
1009=0x1.5d9485969d7e8p-2
1010=0x1.696b2a98cec99p-9
1012=-0x1.95ed990850fc2p-12
1016=-0x1.61d988b713ep-3
1017=0x1.22b6a10288d4bp+0
1018=-0x1.ead90f0bf6634p-2
1019=-0x1.31a74e8abe362p-7
1020=0x1.86fdd8ebd316p-5
1021=-0x1.7048c03f26ef9p-2
1022=0x1.2f38c0e5c2c0ap-3
1024=0x1.b566408e9432fp-2
1025=-0x1.c3f94548a2415p-1
1026=0x1.ab769119b6329p-3
1027=0x1.2b6c66313111bp-1
1029=-0x1.2f70c7388834fp+0
1030=0x1.12f8ebe3b5c0fp-3
1033=0x1.645c6a5811298p-17
1037=0x1.5659273b73069p-6
1038=-0x1.0d3f852ea3d48p-1
1053=-0x1.8173973c08f71p-2
1055=0x1.9c30fc50a79dbp-2
1057=-0x1.1a88ee7e5334bp-2
1058=0x1.16c46f23ca614p-2
1061=-0x1.dacee08942634p-3
1062=-0x1.add4122a3f5ap-9
1063=0x1.47bf660a74fd5p+0
1065=0x1.23e60d5f19318p-13
1069=-0x1.f0e0ba4b8820fp-3
1073=-0x1.020a36507050dp+1
1075=0x1.87f7ef3a10552p-1
1084=-0x1.580aed5daf0b6p-12
1085=-0x1.b117a8bf1e3ddp-1
1086=0x1.088705de82b82p-2
1087=0x1.660dfa72f1dcdp-1
1089=-0x1.556d2ec3ea446p-9
1090=0x1.c7eddeeb06fd8p-6
1093=0x1.840d2e6ea0787p-8
1094=-0x1.ebb6ea8deabe2p-7
1100=-0x1.5ffeb7702d29ep-9
1101=0x1.6d89996e816d3p-5
1108=-0x1.974cdd345a94ep-1
1109=0x1.9eefad57963d8p-7
1110=0x1.a81d44e4c6af7p-3
1111=-0x1.6ec83a68b0937p-1
1112=-0x1.c8dc2ac6bc8f8p-4
1113=-0x1.2c9696805ad54p-3
1115=0x1.8ac040cb65e64p+0
1129=-0x1.a417182c2ba8bp-1
1131=0x1.2619c21a601bbp-5
1133=-0x1.3a0442d0ee5c2p+0
1134=0x1.9cfad103cecd6p-4
1135=0x1.5a830f04e867dp-3
1138=-0x1.3a4871f81581fp-1
1139=0x1.9a6e9dd4bfd2p-6
1141=-0x1.f69fc24ff0cf5p-4
1142=0x1.1ac534f5d14fdp+0
1146=0x1.6a60dc51397ap+0
1149=-0x1.6f8e2637b3e97p+0
1151=0x1.bd529e1ce94p-4
1153=0x1.45edcc2058e0bp-9
1154=-0x1.f8ae953f1df28p-11
1160=0x1.fef9c7e5f10b8p-1
1164=0x1.926061245d826p-4
1165=-0x1.3c41274d4431bp+0
1166=0x1.3993f6f4205b2p-4
1168=-0x1.ea5b3c668d39ap-9
1170=0x1.caca4a5f85cf2p+0
1172=-0x1.a6a99cb71c2c8p-8
1173=0x1.830baf6f69cf7p-4
1176=0x1.f96269fb21604p-2
1177=-0x1.b3d9e28906001p-11
1178=-0x1.5e134bc2fcf71p-2
1184=-0x1.a9c2f7c6ed30ep-1
1185=0x1.4fc559f9c7378p-4
1186=0x1.7ad4219e1c8ddp-10
1188=0x1.108ac3b12ca48p-10
1189=-0x1.0d7fab697ff49p-13
1200=0x1.ae307b2072ef3p-2
1201=-0x1.0ba1497c148c5p-8
1202=-0x1.5ae18d0359a43p-10
1203=-0x1.efa107936cd9ep-6
1204=-0x1.cc7ab5ea20f97p-4
1205=0x1.3fc30dfb0fcb1p-5
1206=-0x1.18217a9018e0cp-9
1207=0x1.7b4aadc29e5ccp-14
1208=0x1.9cb1b6761a3c8p-4
1209=-0x1.7b7cc2bbbc4f8p-2
1210=0x1.3393a0fbb4ff7p-4
1212=0x1.a601a07a29bbcp-4
1213=-0x1.50509b10e93b2p+0
1214=0x1.99d05ac4199cep-4
1217=-0x1.9c43ea85d5196p-8
1218=0x1.dcd21968f55e1p-10
1221=0x1.2fedac0821d09p-1
1222=-0x1.06e6997f4828cp-3
1228=-0x1.8dcfe7519b026p-2
1229=0x1.5ec7d853b55eap-1
1232=0x1.d3425fa631a87p-3
1233=-0x1.a8ba431941c62p-1
1234=0x1.0d95fb0e3ec7p-3
1237=-0x1.1d95e6d5922c9p+0
1239=0x1.fce29fcbe3d1ep-4
1245=-0x1.2753b112ce9f1p-9
1247=0x1.e333f4072d917p-7
1248=0x1.b7fe629e8657fp+0
1249=-0x1.711a3d71b0e2ap-3
1250=0x1.9207a0562d519p-3
1251=-0x1.a83d3ba7cd7b1p-8
1253=0x1.0e4e685a46c3ap-5
1260=-0x1.3c8345c838d33p-5
1261=0x1.2cb83a0a3578bp-9
1262=-0x1.a4dd150c4a166p-9
1263=0x1.3933b4835cd85p-3
1264=-0x1.b3a2665d1b1d3p-7
1266=0x1.8573021408e58p-4
1269=0x1.58571e2f27718p-4
1272=-0x1.6f4887a509aa1p-4
1273=0x1.2a6fe5b651978p+0
1274=-0x1.7dad28d445faap-5
1277=0x1.7007d98c25ee2p-5
1280=0x1.ac84dab4eef3ep-10
1281=-0x1.71498aa25f9dap-8
1290=0x1.95407e8ee3c72p-2
1293=0x1.cbd888d07e301p-2
1294=-0x1.a5ad5245bae4ap-6
1296=0x1.531402895ac1ep-5
1297=-0x1.87d1f50354ceep-1
1301=-0x1.3a9c292b29671p-2
1305=-0x1.0ec5c5c84eb7ap-12
1306=0x1.8be38a20446edp-1
1308=-0x1.cba44263a0f91p-1
1310=0x1.3fca665baff36p-8
1312=0x1.8892e8d0e5a33p-4
1313=-0x1.2d200effa4fedp+0
1314=0x1.10658fe96084ap-6
1320=-0x1.f828e259e0ec4p-11
1323=0x1.3616b4609b48bp+0
1324=0x1.41a217fe8bc03p-5
1325=-0x1.61dcf94835546p-3
1328=0x1.1218c16026f19p-6
1329=-0x1.1d74553b4e747p-1
1330=0x1.019b844d3b036p-6
1332=0x1.bdb0fec4d5064p-3
1333=-0x1.19189b2c7bcp-3
1337=0x1.33fc6286aa586p-1
1340=0x1.44b57c4eb0e15p-4
1341=-0x1.cb9a3fd10f923p-2
1342=0x1.989b289fc6662p-8
1344=0x1.401e641cd5f5cp-3
1345=-0x1.eda8ce82a04b9p-1
1346=0x1.460144c9d0cd7p-3
1348=0x1.7dce4c31bf4a4p+0
1349=-0x1.006873986702fp-7
1350=-0x1.5169a55890466p-13
1353=0x1.4f73c0e726ea4p-2
1354=-0x1.8606bb14091cbp-1
1360=-0x1.0d106bd6cb067p-11
1362=0x1.7b75d4f21f9c2p-1
1364=0x1.ec75a7c48ebbp-10
1365=-0x1.571e82572568cp-9
1366=0x1.3c382808a281dp-14
1369=0x1.0106f9c6f03cp-8
1370=-0x1.eb85d725d2328p-11
1373=0x1.31578af8c547p-4
1376=0x1.c1b73f7bac92ap-14
1377=-0x1.ac343026399d3p-1
1378=0x1.4e68a40493112p-4
1380=-0x1.15a0933896b3fp-9
1383=0x1.c317cfcd0aa25p-1
1384=-0x1.667d330aad28ap-1
1385=0x1.a2eafc84d7612p-3
1389=0x1.26489c16112d3p-4
1393=0x1.11a1fb7b9fabp-8
1412=-0x1.142298d2e1758p-10
1413=0x1.8698ce7c9602bp-5
1414=-0x1.6295276a93929p-5
1425=0x1.3557c31cf4819p-7
1428=0x1.4334a138aae24p+0
1429=-0x1.79ff5f82df74cp-4
1430=-0x1.7075af89c9858p-11
1433=0x1.437de81255eccp-7
1440=0x1.6885d929558fcp-11
1441=-0x1.9e5af8484db4cp-7
1445=0x1.5c01760743216p-1
1446=-0x1.1d35a0fc04f1cp-9
1452=0x1.0fddd72c17accp-3
1454=-0x1.284e1e4892e78p+1
1456=-0x1.4b55f23abefd1p-8
1457=0x1.6cb2c10fa6291p-7
1460=0x1.79ec057a764aap-5
1461=-0x1.3199bd9ccccd4p-2
1462=0x1.69d3aa7fe841ep-5
1465=0x1.568a6b30034b5p-8
1472=0x1.3226d20db3aaap-2
1473=-0x1.dad6550623afdp-1
1474=0x1.c73bb9ec91dd2p-4
1477=-0x1.aae58df0658ebp-11
1480=0x1.a48375bdf9b3ap-7
1481=-0x1.bdc6d26650594p-2
1482=0x1.1f4759d253d8bp-1
1484=0x1.78440acc67526p-4
1485=-0x1.eba1a405ef49ap-2
1486=0x1.be0206eda4128p-4
1488=-0x1.e880203f91196p-3
1489=0x1.6ba18c795566cp-2
1490=-0x1.5b18c321e1b7dp-9
1491=-0x1.f5a122ec632ap-8
1493=0x1.f638bfec03a56p-7
1496=-0x1.43281d0167fffp-6
1497=0x1.d690ba913ad72p-5
1500=0x1.367946f6990f1p-1
1501=-0x1.1aa994c41ea54p-9
1502=-0x1.8116dcf77e88bp-12
1504=0x1.b5fb354848f1cp-8
1505=-0x1.1f673911a6acp+0
1506=0x1.12379152964f3p-6
1509=0x1.8a6232e272765p-8
1512=-0x1.8e4fa993d524bp-6
1513=0x1.35bfe892dd1b3p+0
1514=-0x1.923fe4fca4b3cp-7
1520=-0x1.5d00049b5d55p-5
1521=0x1.529c402680ffp-2
1522=-0x1.0031411982d0fp-10
1524=-0x1.9a69ac835e0efp-5
1525=0x1.36d6ccabf1716p-1
1526=-0x1.3dfb64592d481p-2
1527=-0x1.a6e3528bb8903p-4
1529=0x1.4e74125b988b2p-6
1530=-0x1.2efc68f041ff2p-6
1532=0x1.fc5aeaec46abdp-2
1533=-0x1.fc9f329b14232p-2
1534=0x1.c13ff5c509f37p-3
1541=-0x1.e6a327a50081ep-1
1543=0x1.8d81e61a3f8e7p-3
1548=-0x1.9b45cbab8568bp-6
1549=0x1.e8760c232164p-3
1550=0x1.22ca0bfc07a6cp-2
1552=0x1.4090fb6d39605p-1
1553=-0x1.60bb751a0ed12p+0
1554=0x1.24edd087e9a07p-2
1555=0x1.1672f722bb048p-3
1556=0x1.02b87f5162b82p-12
1557=-0x1.4cdabe2ed7dd8p-6
1566=-0x1.92e9a0930771p-7
1569=0x1.221769d9a766dp-9
1572=0x1.9318739f5ec18p-10
1573=-0x1.cb3fbbb3dcec8p-5
1577=0x1.d401c6fd1ab88p-2
1584=0x1.6d00cd3048c75p-1
1586=-0x1.55d8fc1f3445ep-4
1589=0x1.0ce67acd5fa7bp-2
1597=0x1.1f9e23d086e66p-8
1600=-0x1.2ed08c1c1bec2p-3
1603=0x1.6b20f8e8d784ap+0
1605=0x1.55703a8d0a9fdp-12
1609=0x1.49b80f8ee1276p-2
1610=-0x1.d80cf7fd236eep-6
1613=0x1.bf8da1947bb7dp-3
1614=-0x1.3eb8125854854p-1
1616=0x1.39bd1efa0089ap+0
1617=-0x1.ac25d3ac7f1fdp-1
1618=0x1.6c1d2f1856d09p-7
1624=0x1.1a5369b6bd76ap-5
1625=-0x1.de135390ff3a2p-2
1626=0x1.6a84e35dddf9p-2
1632=-0x1.bc7e3162d55a4p-9
1633=0x1.3b8bf4f0e2033p-2
1645=-0x1.cb67d58505774p-2
1649=-0x1.959f184cdcb11p-10
1652=0x1.fdac39c07ebb6p-1
1654=-0x1.21f153c61513ap-13
1668=0x1.222f44560c642p-2
1669=-0x1.66352bfb8b123p-1
1670=0x1.4220ab57ce74cp-6
1673=0x1.a1ce8e479f2dbp-2
1676=0x1.4d7866c33811dp-1
1677=-0x1.22ba6727f9c97p-4
1680=-0x1.a1029fb1221fdp-5
1683=0x1.14b5d94379912p+0
1684=-0x1.1b2f1dac7d0dp-10
1685=-0x1.3ae1763a9e6e4p+0
1686=0x1.a3b77df31bef9p-3
1687=0x1.14210231fc2eap+0
1689=0x1.6e05c90c12f9ap-2
1690=-0x1.c38ca5419a14ap-11
1692=-0x1.2a7ca426ae5e1p-4
1693=0x1.4c617fb738006p-3
1701=-0x1.904165a63ca8ep-7
1702=0x1.e531d1fe2d8c2p-4
1705=-0x1.fb570b5e3f454p-3
1709=-0x1.4b4636c2b3333p+0
1711=0x1.c92bbcb2177bp-5
1713=0x1.0c75927060656p-3
1717=0x1.1e924b3e58da2p-2
1718=-0x1.77b719ffc4daep-3
1725=0x1.f94e685e82428p-7
1740=0x1.af26d91fb2ebap-1
1741=-0x1.e3b89fb35b14p-8
1744=0x1.dec02fe1b529ap-4
1747=-0x1.e81536ef03882p-13
1753=0x1.ee3ee97468669p-2
1761=0x1.bec5d7aae39f8p-6
1764=-0x1.02db5a9e6e211p-8
1765=0x1.2a93fef425574p+0
1766=-0x1.6da4a5bbec7acp-7
1774=-0x1.35a05dc942d63p-8
1777=0x1.6a6d3b21be635p-4
1780=-0x1.14658c54fe223p-6
1782=0x1.5746e42416674p-2
1784=0x1.4316c5b119266p-1
1785=-0x1.c27c93756b24fp-2
1789=0x1.89092f8b27dp-10
1796=0x1.c9a9080b959d6p-2
1797=-0x1.0eb606b3f3cf3p+0
1798=0x1.ae2b981dff679p-3
1799=0x1.eefd707a6e7a2p-3
1809=-0x1.82677c60f4d42p-7
1810=0x1.ae6e5e50d0a4dp-11
1811=0x1.ba8fdcaa1b47cp-8
1813=0x1.19f26f5ae7254p-10
1817=0x1.cfe4d9d7d62dp-6
1821=-0x1.2fa9be3f2585bp-2
1822=0x1.70d16ed53ef25p-2
1828=0x1.5c4cdc0d63a4p-1
1829=-0x1.6410160cb9486p-2
1833=-0x1.b73824f5589dap-4
1834=0x1.35e33abc5014bp-3
1836=-0x1.196c8ab6c5bc1p-8
1837=0x1.0680430594b14p+0
1838=-0x1.018124e5c0d79p-5
1840=0x1.55ca6bb9d6c9dp-5
1841=-0x1.b840d0433761dp-4
1842=0x1.53c11abe4adb2p-1
1844=-0x1.ca0d3cef52b24p-10
1845=0x1.0fb293fd8f1dcp-1
1846=-0x1.d3ea90e834ea4p-12
1864=-0x1.4822d15675ee9p-1
1865=0x1.77a2fe2fa572p-4
1866=0x1.725347038248dp-7
1868=0x1.9ad0d26ac1ce6p-5
1870=-0x1.d66ca9232c9e6p-5
1877=0x1.b72538d3be513p-1
1878=-0x1.537e8550b7fb9p-4
1881=0x1.63faa7a8d55c8p-2
1882=-0x1.a2448d9126102p-2
1889=0x1.f5d8a4ab507dfp-7
1890=-0x1.f7d270ac26248p-14
1892=0x1.f17f182215e9ep-6
1893=-0x1.40e83d6b8db99p-3
1894=0x1.9a84909e86f08p-7
1897=0x1.52b112848ca61p-6
1914=0x1.dbf6ddb5c5133p-13
1917=0x1.adfa1099507f1p-1
1918=-0x1.4837e62f8f4a3p-5
1921=-0x1.4ffd76d72a194p-8
1922=0x1.3ec2060a36fcfp-16
1924=-0x1.a8e2805002c4dp-12
1925=0x1.562affb4c01e3p-1
1926=-0x1.bf6ab85d25062p-9
1929=0x1.ddbbeaed6ae68p-8
1953=0x1.6c4bc8dcff551p-1
1954=-0x1.cdfd499054464p-6
1969=0x1.16ea3dd9f582ep-9
1973=-0x1.026a26b793bbdp-13
1993=0x1.9727dd7c85bc4p-10
1996=0x1.30ce22ef2f328p-8
1997=-0x1.ece03188bd898p-4
2001=0x1.811292a95193p-10
2004=0x1.143b834de49dp-5
2005=-0x1.351d1b4e91cb9p-4
2006=0x1.0199029dd1f34p-4
2009=0x1.363e29eaeafa6p-3
2041=0x1.c9f0ee66f21f6p-5
2044=-0x1.0c877e34d2cf6p-4
2045=0x1.b22eb080f1cf4p-2
2049=0x1.ab64c0128994ep-4
2056=-0x1.050c43e9d825p+1
2057=0x1.8453c905d32a4p-5
2058=0x1.6ed2832bb9a6ep-10
2060=0x1.bc4ab8691da9cp-12
2061=-0x1.f985c55d38996p-6
2073=-0x1.08bdc6f39d5d3p-2
2084=-0x1.09f5425f87534p-3
2085=-0x1.a37541c4c8e31p-1
2086=0x1.f871112983362p-6
2087=0x1.c8ab143e76ff8p+0
2089=-0x1.284fffcc9481bp-1
2091=0x1.5a8e3bd9cb74bp-1
2096=-0x1.55d926025244p-3
2097=0x1.00712877dfeb8p-5
2098=-0x1.68c41fd58c63fp-9
2099=0x1.9c2a161b29cf8p-9
2101=0x1.9de83d59b92bp-8
2106=0x1.3ad77efdc2528p-12
2117=0x1.7856d88b1539cp-9
2129=0x1.e1447278d4d7ep-4
2133=0x1.55b01f0cb23b4p-11
2137=0x1.b22b56656b50cp-3
2144=0x1.e9ed0b62270a2p-7
2145=-0x1.10a8b7cb0700ep-4
2146=0x1.5ab8a1c5b6961p-7
2148=-0x1.1a6fff8c5edddp-11
2149=0x1.1fc64c630b931p-1
2150=-0x1.a35edb3e48936p-7
2153=0x1.32b647a258d37p-5
2154=-0x1.a2a2a8b6f3d7cp-2
2160=-0x1.386a3b1402991p-5
2161=-0x1.525f1f4ce1a1ap-2
2162=0x1.0647a71fc207ep-4
2163=0x1.813f18f730ed7p+0
2177=-0x1.53e7477e79bc4p-7
2181=0x1.954ffe88775e8p-17
2185=-0x1.83ebb587e991ep-2
2186=0x1.fcd271fe5587ap-4
2193=0x1.559663a457bddp-3
2196=0x1.b0bdc1f078efap-2
2197=-0x1.3bc6a802ed003p-9
2205=-0x1.37420a6a8f7abp-5
2207=0x1.31fc91eba15fdp+0
2212=0x1.daa0b9523128dp-2
2213=-0x1.88630cb23a64cp-3
2216=0x1.c9c50930a587p+0
2217=-0x1.32b7b16b0df24p-3
2228=-0x1.cd91baac3ebe3p-13
2231=0x1.3e5d086cd8532p-6
2236=-0x1.37193cc56654fp-11
2239=0x1.3fd0aa902b887p-6
2249=-0x1.4e5c5d3457c4ap-1
2265=0x1.1df09c3e1fac6p-9
2269=0x1.c75cedec300bap-3
2273=0x1.d387ccf2b6064p-2
2274=-0x1.caf71fd725cb9p-4
2280=0x1.32fdb76b6813p-6
2281=-0x1.2a0c0ca3df6d9p-10
2289=-0x1.11a76267ccb7dp-4
2291=0x1.10c25202ba54cp+0
2296=-0x1.6c65039b045d1p-5
2297=-0x1.75928ae0cc5b3p-2
2299=0x1.0c65483ea97a6p+1
2300=-0x1.0af30168ad64p-1
2301=0x1.e0469fdd2ebdp-8
2303=-0x1.3ee324fde5fe2p-14
2305=-0x1.5b646395e618fp-5
2308=-0x1.36e3aa10d8d11p-5
2309=-0x1.490d7cfeb71e7p-1
2311=0x1.3a4c17d31f1b9p+1
2316=0x1.cb03b9592c316p-3
2317=-0x1.2a01e8eeeeaa6p+0
2320=0x1.8d8fdcd74dd19p-1
2321=-0x1.d34fee44d9904p-3
2325=0x1.cb79e25d24e47p-11
2326=-0x1.5afcd4b275c39p-8
2327=-0x1.0d97c41a8ee7fp-10
2332=0x1.51c8f45835213p-1
2333=-0x1.8cef28b0c393dp-2
2334=0x1.5b8a013784049p-3
2341=-0x1.24ff9ae4dd255p-2
2343=0x1.c74e46f1a8f01p-2
2344=0x1.fd287aed96214p-8
2345=-0x1.de98e1612374dp-2
2346=0x1.b76cca27a4becp-8
2348=-0x1.39e8a5a67c908p-2
2349=0x1.4021b72517514p-2
2353=-0x1.89cdb874ec1eap-6
2355=0x1.1267bd0f95257p+0
2357=0x1.3bfb6f8a9f12ep-8
2360=0x1.abcb484e03e06p-1
2361=-0x1.2def3cd668aedp-1
2362=0x1.63b2d0a2ffe21p-2
2363=-0x1.4ff1467ea8ep-22
2374=0x1.6525632ab0191p-21
2376=-0x1.4dd29681efbc2p-6
2380=0x1.0075d1617bfd5p-2
2381=-0x1.ff2234e47e439p-2
2384=0x1.3884bcf190a74p-26
2388=0x1.116d1fdd134b9p-1
2389=-0x1.78a29036b6298p-1
2400=0x1.7bafbc0dad178p+0
2401=-0x1.5eabf07e2f06bp-1
2405=-0x1.31d4deb1641a4p-2
2407=0x1.690e2163d0506p+0
2408=0x1.61736949292c8p-4
2409=-0x1.f6fc2a2ff1edp-1
2412=-0x1.8cbfa6e066188p-11
2413=-0x1.233e811d4568p-1
2414=0x1.fc69387e09c68p-3
2415=0x1.19bc8256cc1b2p+0
2416=0x1.2f26e13eeedeep-4
2417=-0x1.2e3706c4c247cp+0
2418=0x1.6e559f0e2f763p-3
2422=0x1.c00ea0e9601c6p-1
2424=0x1.819f589ad6a3fp-2
2425=-0x1.0c29b88c1e8fcp+1
2441=-0x1.73142965bd61fp-5
2443=0x1.655d954491616p+0
2445=0x1.848dfe15cc068p-6
2448=0x1.24afd1a40e264p-1
2449=-0x1.324e552cc3c0bp-1
2452=0x1.ffc9d393d0bb1p-2
2453=-0x1.5a4e3c88b38c9p+0
2457=0x1.948704fe22863p-3
2458=-0x1.baf26889cadbep-5
2460=-0x1.3fe8fc5913b31p-3
2461=0x1.6ea66500a5366p+0
2462=-0x1.c383abf18559ap-9
2465=0x1.b7532cdd62b4bp-5
2481=0x1.dfc2b06f637fbp-13
2496=0x1.458cc805c668cp+0
2497=-0x1.6ea0b139acc96p-3
2501=-0x1.f5a33f8f93a77p-1
2502=0x1.3583ed463d29dp-6
2504=-0x1.7d22f7c5b9505p-8
2506=0x1.fd774011cb0fdp-1
2516=0x1.9d5bcb4daa71dp-3
2517=-0x1.6bc4409b17a9fp-1
2524=0x1.46622bc23736fp-2
2525=-0x1.d91e0129228bcp+0
2526=0x1.dd4ce12d623ccp-3
2529=-0x1.60324ac5ef0b2p-1
2531=0x1.c77ac92ce4baap+0
2536=-0x1.09dc042355f77p-6
2537=0x1.af5af3504e452p-3
2545=0x1.6faaac0bdb8f2p-2
2553=0x1.6377463742241p-7
2558=0x1.8e4e80c5670a8p-9
2561=-0x1.d36e4e04bd28dp-1
2568=0x1.12f6e1899f74fp-1
2569=-0x1.e73f1caf811d1p+0
2570=0x1.0d40107f07abfp-1
2573=0x1.25e3b16c99887p+0
2577=0x1.49c24b91566bdp-7
2581=0x1.189c6bec63a1fp-6
2585=-0x1.6dd39a083aa7ep-4
2586=0x1.948fc2968be36p-1
2608=0x1.f08074196515fp-4
2609=-0x1.e52202021885cp-8
2613=-0x1.4dc35b14c4c3dp-15
2621=0x1.feada06a1f39cp-10
2628=0x1.569826ef2f166p-2
2629=-0x1.ee406191dcfc6p-1
2630=0x1.ad899d4c63ba2p-3
2664=0x1.060bd152c7afp-1
2665=-0x1.2896f083ccc62p+0
2666=0x1.2eb3d3ae547f1p-1
2681=0x1.26e7c7ba21a98p-14
2692=0x1.f9ff99c699cf6p-10
2693=-0x1.6ec35fb3b88cep-7
2698=-0x1.46a43effc3378p-6
2700=0x1.bb8f98700ba92p-10
2701=-0x1.4f02089dd6bfap-1
2702=0x1.4af048e582b7dp-6
2704=-0x1.6707c38d06ec8p-2
2705=0x1.813ee09b10881p-6
2708=0x1.3c47274c60d39p-4
2709=-0x1.746210aa8a6fdp+0
2710=0x1.2d56fc669b8acp-3
2713=0x1.3d5206b6a8b4dp-11
2716=0x1.b4237d117ea4cp-4
2717=-0x1.146c595ecb23ep+0
2718=0x1.7adb8b14655eap-4
2728=0x1.faa94182b1804p-5
2729=-0x1.0baedf560981ap-1
2730=0x1.ede49e41043eep-4
2733=-0x1.1bb15abfc3e82p+0
2734=0x1.08409f1c9dba6p+0
2737=-0x1.3e493cdff66d6p-1
2753=-0x1.1b092ff057fe7p-1
2754=0x1.a1c8a59ab6354p-1
2761=0x1.2f74ab30773adp-1
2768=0x1.0810e2d6aaf0fp-2
2769=-0x1.3f7615e3035cbp-1
2772=0x1.06ef14321242dp+1
2773=-0x1.1847433ba4b67p+1
2777=-0x1.6dd459083a117p-2
2778=0x1.fc8af426b3177p-1
2781=-0x1.36981fb56888cp+0
2809=0x1.033a0273c99a6p+0
2810=-0x1.2ad2ea1756b04p-8
2825=-0x1.b08d094d66255p-1
2826=0x1.5b64fcdd40e29p-4
2828=0x1.e200ac17a5b18p-20
2829=-0x1.e835fd7974266p-4
2837=0x1.a3d67c6f4e57cp-3
2838=-0x1.19ebf274577d8p-2
2844=0x1.4b2a55dccfb32p-6
2845=-0x1.4e4fbca751bf7p-1
2857=-0x1.682dd66fac3cp-10
2858=0x1.4e16824ae8e03p+1
2861=0x1.05ee85f908978p-13
2862=-0x1.9ec837b234156p-16
2864=0x1.3d6dc7865d1a8p-3
2865=-0x1.ea55ab760cdcbp+0
2866=0x1.84f553a5ca8f6p-3
2868=0x1.dd7b95e3ddbcfp-4
2869=-0x1.5ebcf862ef424p-5
2873=-0x1.b0979e3534473p-3
2874=0x1.6fef8080fe1d3p+0
2876=0x1.275e5c903006dp-3
2877=-0x1.69722738f80b5p-1
2879=0x1.afb5d023eab09p-6
2880=0x1.518f31f3a87fcp-3
2881=-0x1.cbbde195bed49p-3
2882=0x1.7d44e50cc85ap-11
2885=-0x1.70814d46b5468p-5
2886=0x1.040ca86d651c6p+0
2888=0x1.41b57b6d2ff7cp-1
2889=-0x1.8a4c69c32760dp-5
2897=0x1.7325a7d86df12p-5
2901=-0x1.0e44b33f1ea33p+0
2902=0x1.3ea932f506323p-7
2924=0x1.0d211b0a9e6e9p-4
2925=-0x1.d0cb0fa7dbdap-1
2933=0x1.ead369eb51f9dp-2
2936=0x1.aa6862420e69ap-5
2937=-0x1.8e2e4b37234aep-1
2938=0x1.44fab1c2e9609p-5
2940=0x1.187b3f734094ap-1
2941=-0x1.0f3e3f9f5099ep-1
2957=0x1.b6ffe6920fabp-4
2973=0x1.f9a60fcfc6aebp-4
2992=0x1.d807dd8f4e68ap-4
2993=-0x1.f33797b95ba84p-1
2994=0x1.06e98f0022395p-3
3000=0x1.ed2084e69f5d2p-3
3001=-0x1.a3c4d5661b594p+0
3002=0x1.fc0e50f120925p-4
3004=0x1.fdc625c6033efp-4
3017=-0x1.2942ef073abdep-8
3018=0x1.bb7c45a837aa2p-8
3020=0x1.2da599f8985d9p-2
3021=-0x1.4b76048b858edp-1
3022=0x1.1c0856872a428p-3
3023=-0x1.2178eb93e3f18p-14
3033=0x1.f8c757429ff48p-3
3040=-0x1.503f10923654ep-13
3042=0x1.14be66acd9d9ep-5
3044=0x1.c59eb6c0b05c6p-7
3045=-0x1.6b048af1cd262p+0
3046=0x1.148058672c55ap-3
3048=0x1.1b3bd30569746p-4
3049=-0x1.7b23d544eb08p-1
3050=0x1.83f1de05cffe4p-3
3053=-0x1.47e9f1eda4c29p-1
3054=0x1.4347092e223a8p+0
3057=0x1.68a56828c153cp-7
3058=-0x1.59abe5da9cffep-3
3068=-0x1.fff632bcfb52ep-7
3069=0x1.508d942bb464p-8
3072=0x1.361c2ee4535dfp-9
3073=-0x1.4d50d3620be17p-2
3074=0x1.1843bf24d82c6p-4
3080=0x1.86010025bb6e6p-3
3081=-0x1.a7db0f83a7f81p-1
3082=0x1.1c4f9ceb171edp-3
3088=0x1.12ddb976b66fcp-2
3089=-0x1.01b73f491ac77p+1
3090=0x1.0d49f6177311ep-2
3100=0x1.880b4f77fd96ap-2
3101=-0x1.b807fb54b760cp-1
3109=-0x1.3b0836b0c06cdp-3
3110=0x1.e79076d70d2e3p-3
3120=0x1.b3133e1529d3ep-4
3121=-0x1.f786587b2cc0ap-1
3122=0x1.ac378ebe75a88p-4
3129=0x1.6564eeea3e441p-7
3137=0x1.0751d9b59eb0dp-13
3145=0x1.65f9471456b76p-7
3149=0x1.b31d874bef9f8p-9
3152=0x1.5511e9ea320f1p-4
3153=-0x1.d9ac014a85196p-2
3154=0x1.80bce5754b30bp-13
3156=0x1.bfe34ac766b26p-13
3158=-0x1.206c9c88eacfp-4
3161=0x1.23222e70b556ep-10
3162=-0x1.afcef0cffbba3p-5
3164=0x1.60e0878869425p-2
3165=-0x1.5c4cc8da6dd5fp+0
3168=0x1.1635d4100565dp-2
3169=-0x1.d159add82c3bcp+0
3170=0x1.79547386e3a04p-3
3176=0x1.cf60ef5448686p-8
3181=0x1.86c3b148d43d2p-9
3184=0x1.21af8defb1ba7p-7
3185=-0x1.19f35cc7baba1p-3
3186=0x1.3699fc7c7a739p-7
3197=0x1.e9187efce2eap-3
3205=0x1.4ef15c7c2c042p-5
3206=-0x1.ed0e0ac487607p-7
3208=-0x1.c23ebcb5c7a7ep-6
3209=0x1.9ce5eeef3bd4bp-5
3229=-0x1.ce24438d27a06p-6
3230=0x1.4be54e1924f84p-1
3233=-0x1.1eca92cd84fafp-1
3234=0x1.687bfc6f3d9b9p-9
3235=0x1.2d951b9c66f2bp+0
3236=0x1.b9a4d67b882a2p-6
3237=-0x1.d51a158d32f94p-11
3244=0x1.c37c805fa0d16p-3
3245=-0x1.7ac0aac779e76p-2
3249=-0x1.8dbe3ab44e6d6p+0
3251=0x1.3c294eae278bap-2
3269=0x1.466d10bb7ec96p-4
3296=0x1.4a5965fff023p-6
3297=-0x1.3315519cec9d8p+0
3298=0x1.a492bb3972162p-9
3324=0x1.69d2810302ea1p-3
3325=-0x1.f5e7134a1a285p-1
3326=0x1.866db925591p-4
3328=0x1.148d3174e88d8p-3
3329=-0x1.d1af01d0b85d9p-1
3330=0x1.3c6554a839b38p-4
3340=0x1.0e5e4c42332bap+0
3341=-0x1.e24bc91de8454p-4
3344=0x1.29143448ebd8ap-1
3345=-0x1.aebff7347de4p+0
3346=0x1.276c934a2e97ap-1
3354=0x1.dbd74639c2effp-9
3364=0x1.22bbee1e084e7p-3
3365=-0x1.20e919615d356p+0
3366=0x1.21721c44f5e2fp-2
3377=-0x1.76c17d6790eefp-1
3379=0x1.de46041381098p-1
3384=0x1.5de344869747p-6
3385=-0x1.10a0e8f9c4232p-2
3389=-0x1.7b095a7261652p-7
3390=0x1.81cc3051f9888p-1
3392=0x1.f4b7bbad9025cp-3
3393=-0x1.62be797673c87p+0
3394=0x1.d55a2e4ee8597p-10
3396=-0x1.a0113857a3d04p-5
3397=0x1.1869238591b25p-4
3400=0x1.00aa55dffe508p+0
3404=-0x1.6fa17cb840f2dp-3
3407=0x1.c79e06613281cp-7
3420=0x1.4a687749ab1dp-8
3421=-0x1.aac080b136cdep-19
3440=0x1.28f72af145f5ap-11
3441=-0x1.43d9b498aa0cfp-3
3444=0x1.42319bbf41b3ap-1
3445=-0x1.0176090de8963p+1
3449=0x1.664c75b139bfcp-8
3469=0x1.85e4e6bfc886fp-8
3484=0x1.4259c4bfaad1bp-6
3485=-0x1.94b9f39f3101cp-7
3500=0x1.9b9efaea6c8ccp-3
3501=-0x1.0eef4142797ecp-1
3513=0x1.a82af0f0348e2p-3
3521=0x1.2ed63f0e35b21p-3
3525=0x1.3e5fadaa59c27p-8
3529=0x1.e04200d8cd8e1p-5
3537=0x1.11e0dc02e1e86p-13
3545=0x1.1963cb6e6792dp-6
3548=0x1.4a752f776f18dp-6
3549=-0x1.ad850d60bd4d5p-1
3550=0x1.5e7a39f519628p-6
3577=0x1.be905007459c2p-3
3578=-0x1.692c36a80091ap-7
3581=0x1.28ffb3827fa8p-2
3582=-0x1.f74bdb3fc9efp-5
3588=0x1.67eeeb0adfdd4p-3
3589=-0x1.428c484f5cc04p+0
3590=0x1.61e34307ff92ap-3
3596=-0x1.eeefd18739e8ep-6
3597=0x1.1ec8acc58eb85p-2
3598=-0x1.494dc4c2e6a9bp-9
3625=0x1.f44e476d97244p-13
3628=0x1.a01ab421d8ba8p-4
3629=-0x1.e327412293bfp-3
3630=0x1.73d931ff9c381p-4
3642=0x1.2e99da13f471ap-13
3669=0x1.3925a7137978p-6
3670=-0x1.7b886f992f9ep-17
3673=0x1.affc824f058dep-5
3677=0x1.f2b57a918cc38p-10
3705=0x1.0d9bf4a783b1ep-10
3708=-0x1.5c78ede3f2d5bp-8
3709=0x1.7ac9386c0f293p-8
3716=0x1.ca9592486acbcp-6
3717=-0x1.ffffc5b61f04bp-4
3718=0x1.e34e15e8ef3cap-4
3719=-0x1.68f3bff2ee783p-14
3733=0x1.f5e438dc7d5e4p-12
3744=-0x1.2a7b245139df6p-11
3745=0x1.f8831e6ecbabep-3
3749=0x1.196e3806bd33ep-3
3753=0x1.280c268d879d4p-4
3760=0x1.0f5102181ad66p-14
3761=-0x1.270ef4b3859f1p-3
3780=0x1.1845082a904e6p-1
3781=-0x1.668a779158ea5p+0
3782=0x1.7283021b9ca6fp-2
3797=-0x1.a803577635296p-2
3805=0x1.7339761f9ec43p-8
3820=-0x1.35b020a277ac7p-4
3821=0x1.7e809f5c5418ap-1
3822=-0x1.35569c44b8cf6p-4
3829=-0x1.b70fb2e697d58p-13
3833=0x1.206f70e937e7dp-2
3834=-0x1.90268d1bc317p-11
3836=0x1.dcb3c31ef624dp-2
3837=-0x1.9cdcd0015bd7ap+0
3838=0x1.df1647397ddbep-2
3876=-0x1.61ecdd2352b4cp-10
3877=0x1.40a4b13e9b884p-10
3889=0x1.fd64b7ddd31p-3
3901=0x1.0f8f6bd694cf7p-10
3913=0x1.544b55881dc19p-2
3914=-0x1.33ec474d7180ep-7
3917=0x1.c153478a96a55p-8
3921=0x1.aebce7813636fp-4
3925=0x1.c3db375df4344p-4
3928=0x1.3ed27ae01dff7p-4
3929=-0x1.7e8c61c5e68a4p+0
3930=0x1.3f05354a5e32fp-4
3933=0x1.2f2fac991efd3p-1
3934=-0x1.1a3e17a9507b4p-5
3961=0x1.3e99970804b5ap-1
3962=-0x1.4f0a7496cb4f2p-4
3973=0x1.20e7fe048665dp-2
3974=-0x1.b04fa3ba9e3d7p-6
3993=0x1.6f16a48c85fd2p-5
3994=-0x1.57b68fe82c10cp-13
3996=-0x1.ebc3bd3ee1f23p-5
3997=0x1.b4a86bf9720ccp-1
3998=-0x1.d826463e4ce32p-4
4005=0x1.bd16873e3f836p-7
4006=-0x1.249b220a44e07p-9
4008=0x1.0aab75e69fa2ap+0
4010=-0x1.ca481f531f78ap-10
4013=0x1.5dc350745ed04p-1
4014=-0x1.7c3d07f04eb6ap-9
4017=0x1.5ee363a53d22p-12
4049=0x1.30590dc54811ap-7
4088=-0x1.87723800bc6a3p-9
4089=-0x1.a34156349303ep-15
4090=0x1.2573e91c76f49p-9
4093=0x1.bdbe853062777p-9
4097=-0x1.abf5400e116ap-8
4099=0x1.8f33c04c473c1p-4
4100=0x1.10fbfe29becc8p+0
4101=-0x1.9eb3da923f2eap-2
4117=0x1.dfb910c026f56p-10
4125=0x1.69e5402f1aa66p-11
4128=0x1.9c2f8fdc4d60cp-2
4129=-0x1.2a74c9b5c2b3p-1
4130=0x1.24fe53c270c55p-2
4133=0x1.2713538e80a08p-7
4137=0x1.71495e26cfa83p-6
4158=0x1.2f2bf801f1594p-7
4160=0x1.ed363268944abp-2
4161=-0x1.73f0b448e1336p-8
4178=0x1.a4b860351dfb1p-6
4204=0x1.4863c1d40878ep-2
4205=-0x1.b177dbd3ad2e1p+0
4206=0x1.0b1e8fc49db2cp-1
4221=0x1.218dc987ad1afp-2
4222=-0x1.d07199c2fea39p-5
4225=0x1.5e191ca647635p-2
4257=0x1.0b532d61fce9ap-7
4258=-0x1.31470198e2cfap-16
4292=-0x1.0b80ee59e92dap-12
4293=0x1.0f0f45f214bfep-1
4300=-0x1.5e19c96d91d1dp-9
4302=0x1.4b29d91b24d64p-1
4337=0x1.0030cdf0b0862p-12
4345=0x1.9781013a11254p-3
4361=0x1.0a04dedab43e1p-10
4368=-0x1.4b33f95850d0fp-11
4369=0x1.32573cbc3376bp-1
4370=-0x1.c2ac1c1037b8p-5
4406=0x1.88174eace91f5p-4
4408=0x1.668345437619ap-3
4409=-0x1.2acee07012d9fp+0
4410=0x1.fa9e847667f78p-4
4428=0x1.6217b855619c8p-3
4429=-0x1.2f10569c5f891p+0
4430=0x1.f37ef41f1de1bp-6
4437=0x1.8138538ce75a5p-10
4441=0x1.aa93c597491f6p-9
4517=0x1.4502261928f4ap-1
4518=-0x1.5587b04c3badp-16
4521=0x1.ab21bdce65ddp-10
4533=0x1.f829d9b73d4a2p-2
4534=-0x1.06b419478844ep-8
4536=-0x1.1f01d081f9a96p-9
4537=0x1.a378335c0931ep-2
4565=0x1.e07cd62dd5998p-12
4617=0x1.57e1d92e156c4p-4
4685=0x1.0a85050c19dbap-6
4689=-0x1.a07d235984c76p-4
4691=0x1.7da790730c3afp-4
4701=0x1.a1f355167e1d7p-10
4705=0x1.271d566dbdfbap-5
4709=0x1.d46b0d44d5f1p-5
4710=-0x1.160416ff7c7f8p-8
4736=0x1.c15c3fbbb6817p-5
4737=-0x1.4a5391de1ed25p-1
4738=0x1.6c96bec9d2cb9p-3
4741=0x1.17d4477450bbap-7
4745=0x1.2fcd46f265f65p-7
4753=-0x1.88dea2105e63p-12
4754=0x1.a6faa06f75b74p-4
4772=0x1.97f185260ba77p-1
4773=-0x1.a5c2748e5359ep-1
4788=0x1.6c568108c1ae6p-4
4789=-0x1.530775aa1fdc2p-1
4793=-0x1.284443cf6606ap-1
4794=0x1.b48f84c467e2p-5
4796=0x1.8bb2039b0e085p-6
4809=0x1.e4718e8c4995ap-4
4813=0x1.572162a97d712p-3
4817=0x1.819c1d2601f59p-7
4821=0x1.49efd657ffc6ep-9
4824=-0x1.d159af3e80d14p-10
4825=0x1.2b12811fd5f07p-1
4826=-0x1.2b785acf021ccp-5
4837=0x1.3c21fef54ac7bp-4
4845=0x1.0f2dcb0b392f2p-4
4853=0x1.0c1e48d7e95bap-9
4857=0x1.d4b8732b1a84fp-6
4860=0x1.04043b36097fbp-2
4861=-0x1.488a8543821fap+0
4862=0x1.5da8a0d979d11p-3
4888=-0x1.5254b14e7312cp-10
4889=-0x1.b912a5a4e51d7p+0
4890=0x1.8634ff8aceeb2p+1
4891=0x1.23746b4f96f4cp+0
4901=0x1.8cc9423483098p-6
4912=0x1.198f6ec107dfp-11
4913=-0x1.729a62e48b5c7p-9
4921=0x1.7a2203709d348p-7
4929=0x1.a5bb35b2a2208p-3
4930=-0x1.58a6022824e31p-6
4933=0x1.7fc47c1fe9f45p-9
4944=0x1.9095ac71df286p-3
4945=-0x1.ae3433ae88428p+0
4946=0x1.c9cf5965534d3p-4
4961=0x1.cf70d1c2c5acap-13
4964=0x1.6e76e10fd4b3ep-4
4965=-0x1.3c39035bb09cep+0
4966=0x1.5c859b2680b7cp-4
5012=0x1.c2adeb065eb2ap-3
5013=-0x1.c1956ed7ea51bp-1
5014=0x1.baddeeb83557cp-3
5021=0x1.bfe9e4c18302ap-3
5022=-0x1.52839ce7eade8p-11
5025=0x1.a21f248aa9438p-13
5029=0x1.1eb8ae52878p-16
5052=-0x1.a528915e3f891p-3
5053=0x1.5329981800f5ep-9
5057=-0x1.273f3c455eecdp-2
5059=0x1.b8172c3a10f66p-1
5068=0x1.1958775da7348p-4
5069=-0x1.c294b1ced7d86p-1
5089=-0x1.73f0d24b74159p-3
5096=0x1.54f01db395494p-15
5128=0x1.220a1fa6c95a4p-3
5129=-0x1.cabea93ece03bp-1
5132=-0x1.fc636614e0eecp-9
5133=0x1.ce4d9729c691p-6
5160=0x1.dac77b152d305p-3
5161=-0x1.61b9a81d53e03p-2
5185=0x1.b1e41ec1bd2p-6
5186=-0x1.aed918e6cc089p-4
5233=0x1.a862a9ea36042p-4
5235=-0x1.aac02972e720ep-6
5236=0x1.c4dd96b49b2d5p+0
5237=-0x1.5c636f8db2574p-3
5238=-0x1.e83dfb35cbd8ap-4
5240=0x1.f8bd61ba7cc9p-2
5241=-0x1.1ff5f4e186285p-4
5242=0x1.bfc5b45a73ff8p-19
5244=0x1.a261cf7b34734p-1
5245=-0x1.096b39b2a49dp-1
5246=0x1.2684e3c020ef6p+0
5247=-0x1.c408de7b1a994p-2
5248=-0x1.8bfa4b4114f06p-5
5249=0x1.2beab532913b2p-2
5256=0x1.c8768408c1794p-2
5257=-0x1.103ae1c59e207p+0
5258=0x1.6f8bdc14c9ec5p-2
5266=0x1.ec15e522e2358p-11
5268=0x1.da0e59153a4ap-10
5269=-0x1.4a77fbee540d3p-1
5270=0x1.4f6e8692b1949p-10
5276=-0x1.5b509ac1dc064p+0
5277=0x1.37630e049103ap-5
5278=0x1.0f04fed601607p-4
5280=0x1.187e0318fd7aap-3
5281=-0x1.65184328e7e81p-2
5282=0x1.617a51053e1edp-20
5284=0x1.e7949358a502cp-1
5285=-0x1.6ab482c39f1c6p-2
5292=0x1.240a5b9f42abbp-9
5293=-0x1.34d10ba41d691p-2
5308=0x1.d2765daf37446p-1
5310=-0x1.27a5b707b6753p-13
5318=0x1.a4bda360f7af5p-14
5329=0x1.69e6882054376p-6
5330=-0x1.5ea3ebbd26d94p-3
5336=0x1.4cee5a683a7ebp-1
5337=-0x1.fb1f330cf0c9cp+0
5338=0x1.cf893759f6a0ap-2
5340=0x1.7fe29ce1a5fa3p-6
5356=0x1.099648439f536p-6
5357=-0x1.ff5b0677608e8p-2
5360=0x1.57bbe6dcad9a4p-3
5361=-0x1.be228ea6b67b5p+0
5362=0x1.54f3e507f9ddap-3
5364=0x1.4b996e73d9461p-4
5365=-0x1.012635c9cafdp-8
5433=0x1.a70f06cc54a8cp-2
5437=-0x1.9dd8ff8d7da0dp-8
5440=0x1.8e76ba5a1292p-2
5441=-0x1.25c8f8856613dp-1
5449=0x1.3ff1c37768006p-10
5460=-0x1.9fbb1ed3fb186p-10
5465=-0x1.2a99d5a949055p+0
5469=-0x1.6ee3aea98b75dp-9
5470=0x1.6050876a91907p-5
5472=0x1.dd26d51a7f063p+0
5473=-0x1.9de6f3fd3c393p-1
5476=0x1.ec337b3a9a51p+0
5478=-0x1.a7929dfcbeed8p-3
5500=-0x1.cb2e6cbcd14a2p-10
5501=0x1.3e2a0b84555fcp-7
5505=0x1.a787348d58d8p-4
5506=-0x1.b47cfd2540f8dp-6
5508=-0x1.5a02382144c24p-13
5509=0x1.4f54b8a144daap-5
5512=0x1.e418c99a98981p-6
5513=-0x1.20866b380c6a1p-1
5516=-0x1.83929c4dc2cd5p-10
5517=0x1.f9f4a2bae75d4p-3
5528=0x1.4023f5bd1593bp-2
5537=0x1.52e4c737932b9p-1
5538=-0x1.2e3048163247p-5
5540=0x1.c5022d0af5dep-3
5541=-0x1.d76c1baf98289p+0
5542=0x1.cc7f4572179dp-3
5545=0x1.02425cf892774p-5
5549=-0x1.a08562c235217p-2
5554=0x1.9a5ac3baf72e4p-12
5556=0x1.56408e636f309p-12
5557=-0x1.458e61a666936p-1
5558=0x1.f73da2578a4c6p-6
5576=0x1.8b131d4507a72p-4
5577=-0x1.46372068bcc1dp+0
5578=0x1.8bfb7af19b54cp-4
5580=0x1.4813964147dc6p-5
5581=-0x1.4d2eb57142bf4p-1
5586=0x1.60e1f02df3bafp-1
5588=-0x1.8fe6c93854e6cp-6
5589=0x1.9514b4981ee2p-2
5590=-0x1.94e47d7e20a97p-6
5593=-0x1.c8a6040fc84acp-10
5594=0x1.19fe7583a4b64p-3
5601=0x1.a01f8f721326ap-7
5604=0x1.3363196c694a8p-3
5605=-0x1.0b412e7f613ddp+0
5608=-0x1.685ee7bb9d9a9p-7
5612=0x1.e7c132c4132fdp-3
5613=-0x1.a8eee87a78a02p+0
5614=0x1.f18db7d5b757p-3
5616=0x1.bb02ad99cbaep-12
5617=-0x1.8db00f1fe1961p-2
5624=0x1.71203c6f4919bp+0
5625=-0x1.55c67b4be640cp-3
5626=-0x1.12e5fe78e2438p-9
5628=0x1.980f2e287db4dp-5
5629=-0x1.c50b786e3077cp-1
5633=-0x1.9ff99e44a9fe8p+1
5634=0x1.38315f43ce992p+1
5638=0x1.31e99b54a10ep-1
5646=0x1.1962638e55e89p-4
5647=-0x1.a1b5759e096c5p-15
5649=0x1.fa50833d00786p-7
5653=0x1.b15f6062b0a59p-8
5656=0x1.35db7b66e6bc4p-13
5660=0x1.52d76592af6f5p-3
5661=-0x1.6455b3bab405ep+0
5662=0x1.0b64f225eb036p-3
5664=-0x1.f9fc73dfffdb3p-15
5665=0x1.8b22fc2dbde22p-6
5669=0x1.181e7d6548136p-9
5680=-0x1.09008527914bdp-9
5681=0x1.dea972c60a91cp-3
5692=0x1.5673dedfdeae8p-2
5693=-0x1.9877b2161ef99p+0
5694=0x1.57ed5de86ecb2p-2
5697=0x1.2a47ae1568a62p-9
5708=0x1.120bcb8cacf6ep-1
5709=-0x1.3d2de9ccd7921p+1
5710=0x1.10be167e0622ep-1
5713=0x1.3cb2814e0cc8cp-2
5714=-0x1.d7468a70fc6adp-9
5717=0x1.396e4ade835f6p-4
5732=0x1.a06a825bbba08p-3
5733=-0x1.c5d20927e7255p+0
5734=0x1.0dfc4f0fa1f9dp-2
5738=0x1.64d21559fe6b5p-8
5741=0x1.b97a3166bb8a4p-7
5744=0x1.ef5a5a54aae09p-7
5745=-0x1.0e9f6259099ffp-4
5746=0x1.bc8786b93c416p-10
5749=0x1.0705b9fd774dcp-2
5750=-0x1.69e615ed1ec47p-7
5760=0x1.f98eb301a3465p-9
5761=-0x1.916ea2ed59988p-4
5762=0x1.c9883c7777184p-9
5764=0x1.c9eab680c1408p-7
5765=-0x1.09b8d530d27f1p-9
5769=0x1.526b76a22904cp-2
5772=0x1.bcb8441bc1324p-2
5773=-0x1.9c435244adfd7p+0
5774=0x1.160a6d82d9f4ep-3
5788=0x1.27f02be528685p-1
5789=-0x1.877555751c6acp-1
5790=0x1.60300aad41233p-4
5794=0x1.66a037a400ffbp-6
5800=-0x1.cbb98f188f91dp-4
5801=0x1.5c36b285a1bbap-2
5804=-0x1.c487b68628b84p-11
5805=0x1.5c8f9892674e9p-3
5808=0x1.fa96393178bbfp-3
5809=-0x1.b3f465878ffdfp+0
5810=0x1.f2a39f472eed8p-3
5812=0x1.c8c760b0fdc39p-3
5813=-0x1.1170b51858339p-7
5824=0x1.713caed3efcp-3
5825=-0x1.c14dced12a1f9p+0
5826=0x1.f84e1f8802412p-4
5837=0x1.8408d62a31f08p-7
5852=0x1.639cd4dde9fffp-2
5853=-0x1.08d052eb8a5b7p+1
5854=0x1.65c439faeea77p-2
5858=0x1.b5fcba5270b82p-3
5861=0x1.22b2ff69f628ap-8
5868=0x1.fb10a820c73a4p-3
5869=-0x1.c5e2e5031ba2ap+0
5870=0x1.0466186add99fp-2
5872=0x1.f3d2bc5a44c3fp-3
5873=-0x1.58989894cd7f9p-4
5878=0x1.926c4bf6377cp-3
5884=0x1.e15426e5fb134p-3
5885=-0x1.58a6531a0a819p+0
5886=0x1.7445a88b569eep-3
5889=0x1.c3a8861512a46p-4
5893=0x1.b8ddde09faf3ap-3
5896=0x1.864d438766c33p-2
5914=0x1.8efb2ad08a181p-5
5918=-0x1.839bb4ce41d6fp-6
5920=-0x1.6bd63ef2f534p-10
5922=0x1.398438c8a368fp-3
5925=-0x1.a41114c5d4645p-1
5926=0x1.cecf5478b9091p-3
5927=0x1.c030041e5db17p-1
5930=0x1.3183215e188cep-9
5932=0x1.3ef1ea583a7e1p-9
5933=-0x1.fec1bedfdd606p-6
5941=-0x1.d0b1754de2b5ep-5
5952=0x1.2320482330868p+0
5953=-0x1.bb6f57c1568p-12
5956=-0x1.09c2c072e0f54p-7
5957=0x1.a94a8624d4e26p-1
5960=-0x1.9d55a75f84ea8p-8
5961=0x1.161f5d9990766p-5
5985=-0x1.7fb5fa176c65p-1
6008=0x1.c1b97c10e7f3cp-3
6009=-0x1.41a0df7bb500ap+0
6010=0x1.d241a725871b6p-3
6012=-0x1.31d009af7438p-10
6013=0x1.4e74707491e52p+0
6014=-0x1.4830194404edcp-4
6024=0x1.1ad02a4329b57p-4
6025=-0x1.84c42fbea2926p-10
6044=0x1.f2b0958557621p-3
6045=-0x1.65cd890c8ed8p-1
6056=0x1.ac7af34c5fc81p-2
6057=-0x1.acb0a87695528p-6
6120=0x1.598edc38cffecp-3
6121=-0x1.42b6628a85045p-3
6122=0x1.24417ce31bcacp-13
6133=-0x1.29032bf7e2b0ap-6
6134=0x1.903222405f8e6p-4
6137=0x1.49adfe3c7142fp-9
6141=0x1.a7e97517839c4p-9
6181=0x1.f2ad16e8599bcp-14
6200=-0x1.fbaab6cfc1dc8p-6
6201=0x1.240518f823e6ap-3
6205=0x1.f4919072cd892p-13
6244=0x1.26861e5aa5513p-5
6245=-0x1.7f7bc4a771802p-1
6246=0x1.036d64eb834cfp-5
6249=0x1.1bbd690d23b41p-7
6264=0x1.3d5adfe6b247bp-1
6265=-0x1.623f0ea68bdacp+1
6266=0x1.4377e1bf44dd5p-1
6305=-0x1.22ee7ef9cd084p-2
6306=0x1.2094c21e5311bp-1
6364=0x1.a23ff2a15834dp-3
6365=-0x1.302ff01ed6f25p-1
6366=0x1.0723049b92fc7p-4
6429=0x1.eeaa033e65acep-7
6445=0x1.1e823ce2436dcp-10
6525=0x1.5b3eb38c302cep-5
6526=-0x1.d7771bbeb22f6p-13
6528=-0x1.567ae4738fb13p-10
6529=0x1.dde965f869373p-1
6530=-0x1.19fa6c93823d4p-4
6549=0x1.8fb07aaa26746p-13
6553=0x1.86483494554ccp-10
6556=0x1.81478e3a4f9b2p-5
6557=-0x1.9ca5603f61452p-3
6558=0x1.06ec13e89fe8fp-5
6596=-0x1.12d1f856ca786p-11
6597=0x1.1e28358e7718cp-15
6601=-0x1.27e4997fcbe05p-2
6604=-0x1.805a8c6abef19p-13
6605=-0x1.fc9d769ebf94dp-7
6607=0x1.6defc8327402ap+0
6617=0x1.a6d7db4a83373p-11
6641=-0x1.7f8a9572b7b0fp-1
6665=0x1.4548d108cd99p-8
6669=0x1.5b531d99bb641p-9
6673=0x1.42471b3add741p-6
6674=-0x1.688b5c5c5c458p-11
6716=0x1.b87715ebf4731p-2
6717=-0x1.42ff3e6f6d372p+0
6718=0x1.7985e0165b2e8p-4
6760=0x1.080168ab884eep-3
6761=-0x1.8ba2df5909d2dp+0
6762=0x1.072df632d0c8cp-3
6764=0x1.ff97eaccb4368p-4
6765=-0x1.f3da8894fd528p-5
6780=0x1.6ef5473f4852fp-1
6781=-0x1.e8ae422f8d364p+0
6782=0x1.4f5bca58ee406p-1
6800=-0x1.8f8915e5f26a2p-10
6803=0x1.2eb3d9fa4441p+0
6852=0x1.5fbc3577a62d4p-3
6853=-0x1.ae9b2035be6c2p-2
6860=0x1.209c9292a0224p-1
6861=-0x1.11d0d1d9734f4p+1
6862=0x1.15c02f1c254dap-2
6864=0x1.0655b5afcbc5ep-3
6865=-0x1.3564836d9d1d1p+0
6866=0x1.7ded1e7ae4d62p-3
6877=0x1.1620fa2fb8b78p-1
6878=-0x1.df11cf88d1bb3p-4
6889=0x1.1c6683d731e05p-4
6896=-0x1.b74fe4609ecfp-5
6897=0x1.197e7d05e5b06p+0
6937=0x1.73586d0e51cbep-6
6964=0x1.2e36f6df4bee5p-4
6965=-0x1.6c88fe50172cfp-1
6966=0x1.251078e90e552p-4
6980=0x1.e4477b632698ap-4
6981=-0x1.2a6a69103dbc6p+0
6982=0x1.12e00e2ccc52cp-3
6989=0x1.573aa52f4d5c1p-11
6993=0x1.632c387070b98p-9
7001=0x1.2db0d33816d94p-15
7004=0x1.9abbaa447de09p-20
7005=-0x1.c0efec42ff2d4p-12
7006=0x1.b1436d4da94d7p-18
7037=0x1.5444aa3c0de29p-12
7041=0x1.043b5a403cc12p-3
7052=0x1.02b393e76d393p-16
7061=0x1.9e9d68bec0907p-11
7101=0x1.f545d730700acp-13
7105=0x1.5160c31809f9ap-7
7137=0x1.6083518b969bp-8
7141=0x1.3509974ae0018p-5
7205=0x1.722246f8dd602p-9
7216=0x1.2c171fff1ba58p-2
7217=-0x1.ea25414c64656p+0
7218=0x1.2a6f655e6cd68p-2
7221=-0x1.33f90d83ce83p-1
7222=0x1.4f57b503e2f9p+0
7236=0x1.4ba46c7f21332p-3
7237=-0x1.c44d9d9223ccp-1
7244=0x1.4803a428fc6d9p-1
7245=-0x1.7b6dfdfcf4e33p+0
7246=0x1.88c45aee10a62p-2
7264=0x1.b7d19b14da448p-5
7265=-0x1.3950372b3bf8ep+0
7266=0x1.a3f02247f6057p-1
7268=0x1.170e433ef2846p-5
7276=0x1.2edf85b53b255p-2
7277=-0x1.ee2fe38a00a4p+0
7278=0x1.2e7df46c3696cp-2
7280=0x1.18a3d0140c983p-5
7281=-0x1.ee6b9984ef184p-1
7286=0x1.61b12ed7e2eeap-1
7317=-0x1.a9a73cd0400bep-2
7324=0x1.233a16fe25121p-2
7325=-0x1.0d59c47dd7f72p+1
7326=0x1.2117b9e7cda48p-2
7337=0x1.c1cbd3f941cafp-6
7346=0x1.2a41570723c89p-6
7348=-0x1.6561050af01d6p-6
7349=-0x1.93feb99953ff5p-7
7351=0x1.fd395c69feb7ep-6
7353=-0x1.17122c96899f6p+0
7355=0x1.4dc39be370417p-1
7357=-0x1.0cb5706026c1p+0
7359=0x1.3913a4ac6fd88p-5
7365=0x1.f1d994f8a8f75p-1
7396=0x1.549092d298a45p-6
7397=-0x1.4871528e92149p+0
7398=0x1.98f3b088088b4p-4
7409=0x1.4a4644beb76d1p-6
7432=-0x1.1961b5c780d23p-8
7433=0x1.85a4c29aa1224p-2
7437=0x1.19f5d7d2fa88fp-3
7438=-0x1.b03c8ee82a888p-10
7453=0x1.409b121461d17p-13
7473=-0x1.60a9b86f8a3f7p-1
7477=0x1.0b5a77771d99ap-5
7481=0x1.81fe67e9178c5p-9
7530=0x1.ee89b3606e1e9p-2
