#mdl#2#3110
#rdr#25/7/0
9:u:%x[0,0],
10:u:%x[-1,0],
9:u:%x[1,0],
9:u:%x[0,1],
10:u:%x[-1,1],
9:u:%x[1,1],
9:u:%x[0,2],
10:u:%x[-1,2],
9:u:%x[1,2],
9:u:%x[0,3],
10:u:%x[-1,3],
9:u:%x[1,3],
9:u:%x[0,4],
10:u:%x[-1,4],
9:u:%x[1,4],
9:u:%x[0,5],
10:u:%x[-1,5],
9:u:%x[1,5],
9:u:%x[0,6],
10:u:%x[-1,6],
9:u:%x[1,6],
9:u:%x[0,7],
10:u:%x[-1,7],
9:u:%x[1,7],
2:b:,
#qrk#4
4:pA_B,
4:pA_I,
4:pA_L,
4:pA_U,
#qrk#1880
9:u:all\\o^,
6:u:_x-1,
5:u:"c",
4:u:10,
4:u:15,
4:u:12,
3:u:7,
3:u:8,
4:u:83,
4:u:81,
4:u:43,
4:u:42,
4:u:44,
4:u:40,
2:b:,
5:u:est,
5:u:oui,
3:u:6,
4:u:82,
4:u:38,
4:u:41,
4:u:37,
6:u:\\ca,
3:u:9,
4:u:39,
4:u:va,
4:u:17,
4:u:11,
4:u:26,
4:u:et,
5:u:toi,
5:u:dis,
4:u:14,
4:u:je,
4:u:13,
9:u:voulais,
4:u:te,
4:u:80,
10:u:demander,
4:u:86,
8:u:demain,
4:u:84,
4:u:vu,
5:u:que,
4:u:on,
3:u:a,
6:u:"qu",
5:u:une,
7:u:heure,
6:u:pour,
8:u:manger,
4:u:85,
5:u:euh,
5:u:dit,
3:u:5,
7:u:aille,
8:u:dehors,
4:u:31,
4:u:hm,
3:u:4,
4:u:88,
4:u:NA,
6:u:sais,
5:u:pas,
4:u:en,
6:u:fait,
7:u:parce,
4:u:28,
4:u:le,
6:u:truc,
4:u:21,
4:u:35,
4:u:19,
4:u:20,
4:u:18,
4:u:29,
5:u:"j",
4:u:ai,
8:u:encore,
4:u:33,
4:u:de,
9:u:monnaie,
4:u:ah,
7:u:ouais,
6:u:donc,
4:u:du,
6:u:coup,
10:u:voudrait,
6:u:dire,
11:u:mangerait,
7:u:genre,
4:u:25,
4:u:un,
10:u:sandwich,
5:u:non,
6:u:vrai,
6:u:trop,
4:u:87,
3:u:1,
5:u:top,
4:u:27,
7:u:enfin,
3:u:2,
4:u:24,
4:u:32,
4:u:22,
7:u:comme,
4:u:23,
4:u:m-,
4:u:f-,
4:u:me,
4:u:34,
8:u:saoule,
5:u:peu,
5:u:des,
12:u:sandwiches,
10:u:voil\\a`,
12:u:"d\\epend",
4:u:si,
4:u:il,
6:u:nous,
10:u:l\\a^che,
7:u:avant,
4:u:ou,
4:u:30,
5:u:"d",
8:u:accord,
4:u:tu,
8:u:retard,
6:u:voit,
3:u:y,
4:u:la,
7:u:queue,
6:u:\\a`,
8:u:limite,
6:u:veux,
4:u:ok,
8:u:"\\e-",
11:u:"\\etait",
13:u:"pr\\evoir",
5:u:moi,
7:u:aussi,
6:u:faut,
8:u:prenne,
5:u:"l",
8:u:argent,
5:u:sur,
6:u:vois,
11:u:"daccord",
6:u:mais,
7:u:mange,
8:u:salade,
8:u:laisse,
6:u:peut,
7:u:aller,
9:u:cantine,
7:u:toute,
9:u:fa\\con,
8:u:pareil,
9:u:appeler,
5:u:vas,
8:u:donner,
9:u:petites,
6:u:news,
9:u:comment,
5:u:ça,
8:u:allait,
4:u:91,
7:u:avais,
4:u:se,
6:u:voie,
7:u:même,
6:u:elle,
5:u:là,
10:u:faudrait,
7:u:alors,
4:u:ce,
6:u:mois,
4:u:ci,
8:u:passé,
4:u:à,
8:u:allure,
6:u:quoi,
7:u:été,
7:u:super,
5:u:ric,
5:u:rac,
5:u:ben,
8:u:façon,
11:u:attendais,
8:u:retour,
10:u:réunion,
5:u:"m",
8:u:étais,
8:u:aurait,
4:u:pu,
6:u:voir,
7:u:quand,
7:u:faire,
8:u:voilà,
5:u:bon,
3:u:3,
6:u:puis,
8:u:après,
7:u:temps,
7:u:passe,
12:u:finalement,
8:u:arrive,
10:u:bientôt,
5:u:fin,
4:u:16,
7:u:très,
6:u:vite,
12:u:exactement,
4:u:j-,
7:u:être,
8:u:essaie,
7:u:caler,
6:u:vous,
8:u:dirait,
9:u:semaine,
11:u:prochaine,
6:u:bien,
6:u:pris,
10:u:vendredi,
8:u:samedi,
8:u:"cest",
10:u:possible,
17:u:éventuellement,
10:u:gérable,
6:u:soir,
6:u:cool,
12:u:clairement,
9:u:reparle,
12:u:carrément,
6:u:vais,
12:u:rapidement,
4:u:au,
7:u:moins,
9:u:envoyer,
6:u:mail,
5:u:pis,
10:u:toujours,
12:u:compliqué,
11:u:plusieurs,
4:u:as,
8:u:raison,
9:u:propose,
9:u:instant,
5:u:"t",
7:u:irait,
9:u:parfait,
5:u:où,
6:u:hein,
5:u:nan,
8:u:disais,
8:u:petite,
8:u:bouffe,
6:u:mai-,
8:u:maison,
9:u:bonjour,
4:u:89,
7:u:salut,
9:u:entendu,
7:u:bruit,
7:u:merde,
8:u:entend,
9:u:arriver,
6:u:loin,
7:u:chaud,
5:u:ici,
7:u:aviez,
10:u:chouette,
11:u:installer,
5:u:les,
8:u:filles,
6:u:pose,
5:u:nos,
10:u:affaires,
6:u:waou,
4:u:90,
8:u:faites,
6:u:chez,
5:u:tes,
12:u:chaussures,
9:u:enlève,
5:u:mes,
9:u:obligé,
7:u:garde,
8:u:mettre,
6:u:joli,
6:u:suis,
10:u:craquée,
7:u:cette,
8:u:année,
10:u:rondelle,
8:u:citron,
6:u:tout,
6:u:plus,
8:u:grands,
6:u:2.02,
5:u:ils,
6:u:sont,
11:u:chouettes,
5:u:ces,
8:u:verres,
7:u:beaux,
10:u:achetés,
9:u:exprès,
5:u:ouh,
5:u:mis,
11:u:chauffage,
7:u:crois,
6:u:tour,
10:u:obligée,
6:u:fond,
11:u:autrement,
8:u:marche,
6:u:c“,
7:u:loose,
6:u:soit,
7:u:zéro,
9:u:éteint,
8:u:chiant,
6:u:fais,
11:u:engueuler,
10:u:consomme,
6:u:sers,
7:u:sûre,
4:u:oh,
8:u:partir,
8:u:moment,
8:u:rigolo,
5:u:ch-,
8:u:savais,
7:u:avait,
7:u:aimé,
7:u:avoir,
8:u:autres,
8:u:graals,
8:u:prévu,
11:u:inquiète,
8:u:paille,
7:u:allez,
10:u:habitude,
9:u:cuisine,
8:u:êtres,
7:u:miser,
15:u:présentation,
10:u:croirait,
6:u:dans,
8:u:dîner,
9:u:presque,
10:u:chercher,
7:u:autre,
7:u:mince,
13:u:commençais,
7:u:boire,
5:u:cas,
9:u:plaisir,
5:u:"n",
10:u:empêche,
7:u:clair,
11:u:longtemps,
4:u:d-,
5:u:vue,
8:u:depuis,
5:u:cet,
14:u:anniversaire,
5:u:"s",
6:u:vues,
9:u:remonte,
5:u:par,
11:u:croisées,
8:u:métro,
7:u:trois,
9:u:arrêts,
8:u:était,
5:u:qui,
10:u:vraiment,
6:u:aïe,
8:u:vôtre,
8:u:santé,
8:u:mignon,
4:u:ma,
7:u:mère,
8:u:gardes,
8:u:cognac,
6:u:gros,
6:u:mets,
10:u:beaucoup,
13:u:normalement,
8:u:classe,
4:u:ne,
7:u:juste,
10:u:histoire,
7:u:petit,
6:u:sûr,
4:u:a-,
9:u:passée,
4:u:es,
7:u:seule,
9:u:souvent,
7:u:cours,
7:u:lundi,
13:u:interaction,
9:u:verbale,
6:u:lun-,
6:u:midi,
7:u:mardi,
10:u:mercredi,
9:u:syntaxe,
9:u:oublier,
6:u:neuf,
8:u:heures,
7:u:matin,
7:u:jeudi,
8:u:psycho,
6:u:demi,
6:u:fois,
6:u:deux,
6:u:int-,
9:u:analyse,
19:u:conversationnelle,
7:u:exact,
7:u:reste,
11:u:formation,
8:u:rester,
8:u:prends,
6:u:pire,
7:u:train,
9:u:revenir,
7:u:vient,
9:u:voiture,
9:u:crevée,
9:u:rentrer,
8:u:chaque,
10:u:aimerais,
8:u:restes,
9:u:ramène,
6:u:sait,
8:u:jamais,
9:u:quelque,
7:u:chose,
7:u:faute,
8:u:tomber,
10:u:pourquoi,
13:u:franchement,
14:u:gestionnaire,
7:u:paies,
9:u:croyais,
9:u:reprend,
8:u:début,
7:u:soeur,
9:u:galère,
5:u:son,
8:u:master,
4:u:sa,
11:u:première,
8:u:loupé,
13:u:recommencé,
11:u:deuxième,
10:u:reloupé,
5:u:ont,
6:u:rien,
8:u:savait,
4:u:s-,
9:u:voulait,
10:u:retenter,
12:u:troisième,
7:u:idée,
7:u:monde,
9:u:travail,
7:u:marre,
10:u:arrivée,
7:u:vingt,
8:u:quatre,
5:u:ans,
15:u:compréhensif,
8:u:partie,
9:u:essayer,
10:u:cherché,
9:u:trouvé,
5:u:ad-,
9:u:adultes,
9:u:appelle,
6:u:sai-,
14:u:considérée,
12:u:étudiante,
12:u:intégrée,
8:u:dedans,
5:u:ami,
7:u:style,
5:u:de-,
10:u:semaines,
12:u:entreprise,
9:u:bizarre,
9:u:passait,
8:u:déjà,
5:u:mal,
9:u:compris,
13:u:réellement,
7:u:cadre,
9:u:choisie,
7:u:prise,
10:u:logiciel,
8:u:permet,
9:u:censés,
5:u:eux,
11:u:expliquer,
16:u:fonctionnement,
5:u:aux,
13:u:entreprises,
9:u:doivent,
6:u:bons,
8:u:calée,
9:u:déçue,
7:u:cause,
7:u:allô,
8:u:coucou,
10:u:appelais,
6:u:avec,
8:u:parlé,
11:u:septembre,
8:u:veniez,
7:u:fête,
11:u:lumières,
12:u:invitation,
7:u:tient,
7:u:fasse,
6:u:cher,
8:u:savoir,
8:u:disait,
7:u:venir,
8:u:priori,
5:u:lui,
13:u:particulier,
9:u:regarde,
9:u:surtout,
6:u:prix,
9:u:billets,
7:u:jouer,
8:u:boulot,
6:u:peux,
10:u:regarder,
12:u:maintenant,
10:u:rappelle,
10:u:regardé,
6:u:coca,
9:u:attaque,
8:u:pizzas,
9:u:attends,
6:u:sors,
8:u:occupe,
6:u:1.10,
4:u:ta,
9:u:chèvre,
13:u:champignons,
8:u:jambon,
8:u:dessus,
10:u:pourrait,
7:u:sympa,
6:u:rire,
8:u:viande,
9:u:hachée,
9:u:chorizo,
10:u:poivrons,
12:u:allumettes,
9:u:lardons,
8:u:besoin,
9:u:occuper,
7:u:pâte,
5:u:ton,
5:u:job,
5:u:yes,
10:u:claquée,
5:u:dur,
6:u:week,
5:u:end,
11:u:émotions,
7:u:maman,
11:u:ressortir,
7:u:pense,
7:u:droit,
7:u:pète,
8:u:putain,
8:u:péter,
5:u:hé,
6:u:fous,
9:u:partout,
7:u:celle,
7:u:assez,
7:u:tiré,
9:u:arrives,
9:u:content,
7:u:jeté,
10:u:poubelle,
10:u:pratique,
8:u:bordel,
12:u:chicouille,
7:u:mieux,
12:u:dépêches,
8:u:chiche,
10:u:commande,
9:u:branche,
6:u:fils,
10:u:trancher,
7:u:gorge,
6:u:hier,
8:u:abusé,
6:u:dise,
10:u:balancer,
6:u:ayé,
6:u:vont,
10:u:emmerder,
4:u:t-,
12:u:vêtements,
6:u:êt-,
10:u:choquée,
9:u:acheté,
8:u:esprit,
9:u:laisses,
6:u:ceux,
7:u:hiver,
10:u:énervé,
5:u:don,
10:u:énerver,
9:u:rouleau,
13:u:pâtisserie,
6:u:oula,
8:u:aurais,
12:u:préféré,
9:u:trouver,
6:u:sans,
8:u:manche,
6:u:aime,
11:u:préfère,
9:u:manches,
10:u:échappe,
7:u:mains,
6:u:sera,
10:u:présent,
14:u:physiquement,
6:u:sept,
8:u:rentre,
9:u:pratico,
7:u:delà,
5:u:ait,
13:u:billetterie,
7:u:salle,
11:u:spectacle,
10:u:"quelqu",
9:u:entrée,
9:u:décide,
5:u:pot,
9:u:souhait,
6:u:pots,
5:u:so-,
14:u:conférences,
9:u:débats,
8:u:budget,
10:u:organise,
4:u:l-,
14:u:installation,
11:u:matériel,
5:u:mai,
6:u:main,
7:u:place,
8:u:tables,
9:u:chaises,
9:u:caetera,
6:u:okay,
8:u:compte,
5:u:mon,
8:u:agenda,
11:u:organiser,
7:u:serai,
6:u:mer-,
9:u:"jusqu",
7:u:aider,
11:u:théâtre,
7:u:souci,
7:u:point,
15:u:interrogation,
10:u:partiras,
10:u:viendrai,
11:u:resterais,
8:u:serait,
8:u:quelle,
4:u:96,
6:u:acc-,
6:u:tous,
11:u:mercredis,
8:u:fermé,
6:u:fini,
11:u:sûrement,
5:u:au-,
6:u:aura,
13:u:sollicitera,
7:u:votre,
9:u:atelier,
9:u:combien,
7:u:durer,
9:u:sachant,
9:u:numéro,
12:u:disponible,
5:u:dix,
6:u:huit,
13:u:conférence,
6:u:lieu,
8:u:rapide,
12:u:tranquille,
8:u:plaît,
9:u:horaire,
7:u:coût,
10:u:soixante,
7:u:euros,
8:u:blague,
10:u:comprise,
9:u:parlait,
9:u:fautive,
8:u:parlez,
8:u:fautif,
11:u:problème,
12:u:organisera,
9:u:acheter,
13:u:cacahuètes,
10:u:boissons,
8:u:suffit,
7:u:voyez,
8:u:choses,
8:u:débat,
11:u:organisez,
4:u:v-,
12:u:rencontrez,
6:u:plan,
7:u:suite,
9:u:contenu,
5:u:doc,
12:u:distribuer,
10:u:vacances,
8:u:quinze,
7:u:jours,
5:u:va-,
9:u:pendant,
7:u:avril,
12:u:travailler,
5:u:com,
9:u:diffuse,
9:u:affaire,
7:u:roule,
7:u:poser,
10:u:question,
15:u:communication,
9:u:support,
8:u:facile,
9:u:plutôt,
10:u:diffuser,
9:u:ensuite,
10:u:imaginer,
9:u:journal,
6:u:veut,
9:u:toucher,
12:u:population,
7:u:voter,
12:u:absolument,
10:u:sensible,
9:u:départ,
12:u:communique,
12:u:brouillard,
9:u:connais,
11:u:travaille,
8:u:Europe,
7:u:lieux,
15:u:prédilection,
7:u:doute,
8:u:public,
8:u:trouve,
9:u:verrais,
4:u:92,
9:u:espèce,
7:u:tract,
11:u:immeubles,
9:u:boîtes,
9:u:lettres,
10:u:quartier,
7:u:abord,
8:u:toutes,
12:u:activités,
15:u:systématique,
7:u:coupe,
12:u:aléatoire,
9:u:voisins,
6:u:cent,
12:u:locataires,
11:u:viendront,
7:u:elles,
13:u:condamnées,
9:u:motivé,
9:u:sportif,
13:u:parenthèse,
6:u:avez,
8:u:idées,
14:u:illuminantes,
10:u:hésitez,
8:u:membre,
7:u:verra,
13:u:facturation,
9:u:facture,
14:u:"aujourdhui",
8:u:pardon,
10:u:terminé,
10:u:rentrée,
11:u:nutrition,
6:u:gens,
10:u:viennent,
5:u:MJC,
6:u:Oul-,
9:u:Oullins,
11:u:personnes,
10:u:seraient,
9:u:octobre,
7:u:dates,
4:u:i-,
11:u:envisager,
8:u:saison,
9:u:courant,
6:u:juin,
9:u:juillet,
11:u:réserver,
7:u:trucs,
10:u:prépare,
6:u:fixe,
10:u:dérange,
5:u:air,
11:u:derrière,
6:u:pote,
10:u:Bastille,
9:u:écoute,
7:u:diras,
9:u:répond,
13:u:téléphone,
10:u:réponds,
9:u:paraît,
6:u:part,
10:u:appelée,
9:u:demande,
10:u:regardes,
9:u:entends,
7:u:reçu,
10:u:messages,
9:u:appelé,
10:u:dimanche,
8:u:excuse,
15:u:crémaillère,
11:u:présente,
9:u:essayé,
13:u:rencontrée,
5:u:ja-,
9:u:pouvait,
8:u:passer,
8:u:venait,
11:u:repartait,
8:u:rendus,
9:u:pouvoir,
11:u:descendre,
8:u:penses,
9:u:suivant,
10:u:faisable,
9:u:bonsoir,
7:u:merci,
9:u:restés,
10:u:nombreux,
8:u:soucis,
8:u:emploi,
11:u:cinquante,
9:u:minutes,
10:u:exprimer,
7:u:court,
6:u:bref,
14:u:synthétique,
13:u:géographie,
9:u:science,
11:u:synthèse,
10:u:quarante,
6:u:cinq,
11:u:comprenez,
12:u:véritable,
7:u:défi,
8:u:lancé,
11:u:excuserez,
10:u:certains,
9:u:aspects,
9:u:pourrai,
11:u:évidence,
6:u:tard,
10:u:ailleurs,
5:u:lie,
7:u:utile,
11:u:agréable,
10:u:"lorsqu",
12:u:géographe,
11:u:ruraliste,
7:u:vigne,
5:u:vin,
16:u:généralement,
9:u:termine,
9:u:chanson,
7:u:caves,
7:u:force,
14:u:dégustation,
8:u:ferons,
10:u:heureuse,
12:u:accueillir,
9:u:travaux,
11:u:pratiques,
9:u:reconnu,
9:u:panneau,
8:u:UNESCO,
5:u:Val,
7:u:Loire,
11:u:essentiel,
10:u:discours,
8:u:porter,
10:u:quelques,
14:u:définitions,
16:u:mondialisation,
11:u:reprendre,
10:u:définit,
13:u:représente,
11:u:notamment,
9:u:Laurent,
10:u:Carroué,
14:u:actuellement,
12:u:président,
9:u:respon-,
7:u:CAPES,
12:u:territoire,
9:u:inscrit,
13:u:géographes,
9:u:discute,
10:u:juristes,
12:u:également,
14:u:économistes,
10:u:manière,
12:u:présenter,
13:u:territoires,
11:u:simplifie,
11:u:Alexandre,
7:u:Moine,
7:u:mille,
14:u:interactions,
7:u:entre,
9:u:acteurs,
8:u:espace,
15:u:géographique,
6:u:cela,
10:u:reprends,
4:u:p-,
10:u:anglaise,
8:u:Jancis,
10:u:Robinson,
9:u:assiste,
11:u:mouvement,
11:u:diffusion,
9:u:passion,
14:u:consommation,
12:u:incroyable,
9:u:limites,
8:u:dirais,
12:u:oekoumène,
10:u:planète,
9:u:extrait,
11:u:contraire,
13:u:rétraction,
6:u:pays,
20:u:traditionnellement,
15:u:consommateurs,
13:u:producteurs,
14:u:exportateurs,
7:u:sorte,
15:u:contradiction,
6:u:ceci,
6:u:lié,
7:u:voulu,
9:u:montrer,
6:u:quel,
6:u:sens,
10:u:sérieux,
7:u:cirer,
7:u:tirer,
10:u:citation,
9:u:écrite,
14:u:circonstance,
8:u:écris,
10:u:articles,
12:u:simplement,
12:u:retiendrai,
9:u:dernier,
11:u:élément,
12:u:comprendre,
15:u:effectivement,
13:u:référence,
8:u:essaye,
13:u:présentent,
14:u:vitivinicole,
6:u:1.00,
11:u:société,
16:u:intermédiaire,
9:u:actions,
14:u:informations,
11:u:remontent,
12:u:éléments,
12:u:permettent,
9:u:paysage,
16:u:véritablement,
7:u:image,
9:u:visible,
9:u:renvoie,
6:u:leur,
9:u:surface,
11:u:terrestre,
8:u:niveau,
13:u:négociants,
14:u:commerçants,
20:u:interprofessionnel,
15:u:professionnel,
11:u:gravitent,
8:u:autour,
13:u:fondamental,
11:u:important,
13:u:exportation,
13:u:importation,
12:u:production,
9:u:gestion,
5:u:AOC,
5:u:AOP,
7:u:rôle,
13:u:grandissant,
9:u:veulent,
9:u:prendre,
7:u:poids,
9:u:excusez,
13:u:directement,
16:u:problématique,
7:u:quels,
9:u:moteurs,
8:u:freins,
11:u:expansion,
8:u:mesure,
13:u:considérer,
8:u:France,
8:u:remise,
11:u:approches,
11:u:proposent,
9:u:optique,
14:u:territoriale,
9:u:insiste,
9:u:traiter,
6:u:cel-,
11:u:certaines,
10:u:prévues,
9:u:thèmes,
14:u:événements,
12:u:fondateurs,
8:u:parler,
7:u:mythe,
11:u:fondateur,
12:u:archétype,
12:u:historique,
9:u:puisque,
10:u:suggère,
11:u:fortement,
12:u:rechercher,
13:u:différents,
8:u:seuils,
16:u:chronologiques,
8:u:amené,
13:u:évolutions,
7:u:près,
9:u:produit,
11:u:seulement,
10:u:agricole,
10:u:culturel,
11:u:religieux,
8:u:relier,
10:u:religion,
13:u:chrétienne,
9:u:assuré,
4:u:eu,
8:u:série,
8:u:crises,
15:u:fondamentales,
11:u:neuvième,
9:u:siècle,
12:u:entraîné,
11:u:création,
14:u:appellations,
9:u:origine,
13:u:contrôlée,
15:u:rapprochement,
8:u:points,
6:u:vins,
9:u:terroir,
9:u:cépage,
9:u:banquet,
8:u:Platon,
14:u:fondamentaux,
8:u:quête,
10:u:vérité,
11:u:évoquent,
11:u:symposium,
6:u:grec,
10:u:convives,
9:u:passent,
10:u:cratère,
8:u:lequel,
5:u:eau,
6:u:font,
8:u:éloge,
7:u:amour,
6:u:lors,
10:u:banquets,
9:u:lancent,
8:u:défis,
10:u:essayent,
12:u:apprécié,
7:u:ainsi,
5:u:né,
12:u:guillemets,
17:u:interprétation,
13:u:personnelle,
9:u:permets,
13:u:philosophie,
8:u:Grèce,
7:u:verre,
5:u:re-,
11:u:retrouver,
7:u:tiens,
11:u:préciser,
9:u:vivante,
8:u:notée,
8:u:propos,
10:u:Arménie,
12:u:Françoise,
11:u:Ardillier,
10:u:chansons,
11:u:réponses,
5:u:sud,
7:u:ouest,
11:u:français,
9:u:exemple,
10:u:revenant,
10:u:Bidarray,
12:u:connaissez,
8:u:voulez,
8:u:mangé,
4:u:bu,
10:u:ensemble,
10:u:commence,
9:u:strophe,
6:u:doit,
10:u:terminer,
5:u:mot,
10:u:internet,
8:u:verrez,
12:u:insisterai,
10:u:oreilles,
12:u:pourraient,
11:u:supporter,
10:u:origines,
14:u:caucasiennes,
14:u:fondamenteur,
7:u:noces,
6:u:Cana,
9:u:travers,
9:u:tableau,
12:u:Véronèse,
14:u:interpréter,
4:u:lu,
11:u:Évangile,
6:u:Jean,
13:u:personnages,
7:u:clés,
8:u:jeunes,
9:u:mariés,
8:u:marié,
7:u:femme,
9:u:mariée,
6:u:coin,
8:u:contre,
8:u:donné,
8:u:durant,
6:u:vint,
9:u:manquer,
7:u:grave,
8:u:erreur,
9:u:parents,
7:u:rater,
7:u:leurs,
7:u:Marie,
12:u:intervient,
17:u:personnellement,
8:u:Jésus,
10:u:signifie,
11:u:implicite,
8:u:oeuvre,
10:u:réclame,
7:u:venue,
11:u:attention,
10:u:réponse,
11:u:serviteur,
6:u:dira,
9:u:remplir,
8:u:jarres,
10:u:apporter,
9:u:maître,
13:u:cérémonie,
10:u:changée,
16:u:extraordinaire,
14:u:fondamentale,
16:u:transformation,
12:u:exégètes,
8:u:disent,
15:u:premièrement,
6:u:agit,
13:u:institution,
13:u:eucharistie,
11:u:sacrifice,
7:u:croix,
6:u:dont,
8:u:verser,
6:u:sang,
11:u:humanité,
6:u:pain,
12:u:considère,
7:u:vraie,
12:u:nourriture,
9:u:boisson,
7:u:envie,
9:u:rapport,
13:u:thématique,
11:u:proposée,
8:u:sommes,
6:u:ange,
9:u:ressort,
10:u:extraits,
8:u:sortir,
19:u:caractéristiques,
9:u:aliment,
8:u:festif,
7:u:objet,
14:u:civilisation,
19:u:méditerranéenne,
8:u:certes,
8:u:judéo,
10:u:tendance,
8:u:perdre,
11:u:influence,
7:u:perdu,
8:u:aspect,
10:u:continue,
8:u:garder,
7:u:modes,
9:u:changé,
12:u:auparavant,
10:u:buvaient,
17:u:régulièrement,
11:u:coupaient,
15:u:particulière,
14:u:disparaître,
8:u:grande,
9:u:vitesse,
9:u:plupart,
9:u:disparu,
12:u:bataillons,
9:u:paysans,
11:u:autrefois,
10:u:ouvriers,
10:u:courante,
15:u:complètement,
14:u:transmission,
7:u:inch-,
24:u:intergénérationnelle,
11:u:quasiment,
6:u:rite,
9:u:faisait,
9:u:famille,
7:u:père,
11:u:tellement,
7:u:pater,
10:u:familial,
11:u:apprenait,
5:u:ses,
9:u:enfants,
8:u:buvait,
6:u:âge,
6:u:clé,
13:u:commençait,
11:u:commencer,
10:u:explique,
11:u:Bourgogne,
7:u:rouge,
12:u:forcément,
10:u:approche,
12:u:intronisé,
6:u:fée,
11:u:sorcière,
8:u:Marine,
8:u:vivait,
6:u:haut,
7:u:nuage,
10:u:château,
7:u:tours,
9:u:dorées,
8:u:reçut,
10:u:baguette,
9:u:magique,
7:u:bête,
8:u:patins,
11:u:roulettes,
7:u:magi-,
8:u:simple,
9:u:rollers,
10:u:pourrais,
8:u:casser,
5:u:nez,
9:u:tombant,
7:u:digne,
8:u:cadeau,
10:u:recevoir,
8:u:bateau,
9:u:exclama,
10:u:basculer,
6:u:robe,
13:u:dégoutante,
9:u:chapeau,
7:u:jeter,
7:u:fées,
10:u:devaient,
11:u:gentilles,
9:u:propres,
8:u:tartes,
9:u:miettes,
6:u:thé,
11:u:renverser,
7:u:tache,
10:u:raconter,
6:u:voix,
12:u:mielleuses,
11:u:histoires,
8:u:douces,
9:u:tendres,
8:u:agiter,
5:u:ca-,
9:u:gâteau,
6:u:beau,
8:u:cerise,
10:u:trouvait,
14:u:terriblement,
12:u:ennuyeuses,
17:u:malheureusement,
10:u:bouillo-,
9:u:bouill-,
11:u:bouillote,
11:u:théière,
12:u:sorcières,
9:u:avaient,
7:u:salir,
7:u:crier,
9:u:patiner,
10:u:naviguer,
6:u:bord,
6:u:jour,
10:u:sursauta,
9:u:horreur,
8:u:écria,
9:u:devrais,
7:u:honte,
8:u:frappa,
6:u:pied,
7:u:hurla,
10:u:certaine,
15:u:approchèrent,
8:u:dirent,
11:u:horribles,
12:u:crâneuses,
12:u:concoctent,
9:u:potions,
13:u:dangereuses,
13:u:transformer,
9:u:crapaud,
5:u:fit,
9:u:devenir,
8:u:existe,
8:u:règle,
8:u:gronda,
8:u:docile,
10:u:soignée,
9:u:insista,
11:u:répliqua,
10:u:furieuse,
9:u:endroit,
6:u:bois,
9:u:soupira,
10:u:envolant,
9:u:regarda,
9:u:tardera,
8:u:envole,
9:u:cliques,
9:u:claques,
7:u:vivre,
10:u:trompait,
11:u:convenait,
14:u:parfaitement,
13:u:construisit,
12:u:magnifique,
8:u:cabane,
8:u:duquel,
9:u:navigua,
10:u:rivière,
9:u:nourrir,
10:u:cueillit,
7:u:baies,
11:u:noisettes,
10:u:étaient,
11:u:adorables,
8:u:prêta,
5:u:mit,
12:u:serpentant,
8:u:arbres,
7:u:belle,
7:u:patin,
7:u:tête,
7:u:longs,
8:u:noeuds,
6:u:cro-,
9:u:crochus,
11:u:justement,
8:u:crochu,
9:u:marrant,
8:u:offrit,
7:u:jeune,
7:u:fille,
7:u:balai,
10:u:flambant,
11:u:aussitôt,
8:u:voulut,
11:u:apprendre,
7:u:voler,
10:u:empoigna,
7:u:engin,
8:u:grimpa,
7:u:arbre,
16:u:encouragèrent,
7:u:sauta,
7:u:resta,
11:u:suspendue,
6:u:airs,
9:u:écrasa,
5:u:sol,
7:u:pensa,
10:u:redressa,
8:u:essaya,
9:u:nouveau,
6:u:bout,
9:u:parvint,
14:u:applaudirent,
8:u:rompre,
8:u:volant,
10:u:effleura,
10:u:renversa,
6:u:seau,
5:u:jus,
11:u:groseille,
14:u:soupirèrent,
9:u:trouves,
10:u:chapeaux,
9:u:pointus,
6:u:noir,
7:u:moche,
13:u:cuisinière,
10:u:marrante,
8:u:fonça,
11:u:direction,
6:u:ciel,
6:u:cria,
7:u:viens,
8:u:tenait,
8:u:debout,
5:u:eut,
9:u:souffle,
8:u:coupé,
11:u:effrayée,
9:u:devenue,
7:u:folle,
10:u:atterrit,
9:u:douceur,
7:u:riant,
8:u:appris,
11:u:construit,
10:u:navigué,
12:u:formidable,
11:u:élection,
5:u:Lot,
9:u:Garonne,
17:u:circonscription,
14:u:législative,
11:u:partielle,
11:u:siègeait,
8:u:jusque,
10:u:Jérôme,
9:u:Cahuzac,
8:u:ancien,
10:u:ministre,
12:u:désormais,
8:u:fraude,
9:u:fiscale,
8:u:Suisse,
11:u:déclaré,
6:u:fisc,
9:u:dirigé,
15:u:démissionné,
8:u:siège,
10:u:député,
9:u:fallait,
10:u:pourvoir,
5:u:UMP,
10:u:emporté,
6:u:face,
10:u:candidat,
7:u:Front,
10:u:National,
5:u:six,
7:u:score,
7:u:large,
6:u:tant,
15:u:participation,
8:u:faible,
7:u:cents,
8:u:écart,
8:u:hommes,
14:u:relativement,
8:u:serré,
6:u:duel,
9:u:leçons,
12:u:politiques,
10:u:Bertrand,
9:u:Lacoste,
4:u:FN,
11:u:présence,
8:u:second,
7:u:terre,
9:u:certain,
10:u:diverses,
13:u:réflexions,
7:u:surgi,
10:u:occasion,
8:u:côté,
4:u:PS,
10:u:laissent,
10:u:perplexe,
7:u:quant,
6:u:tire,
9:u:entend-,
13:u:évidemment,
10:u:réjouir,
11:u:candidats,
12:u:dirigeants,
8:u:tenter,
9:u:quelles,
9:u:raisons,
12:u:éliminés,
9:u:premier,
7:u:effet,
14:u:candidatures,
6:u:pea-,
14:u:parasitaires,
8:u:isoler,
12:u:Villeneuve,
12:u:partielles,
11:u:dérouler,
12:u:desquelles,
11:u:symptôme,
9:u:malaise,
15:u:considérable,
8:u:droite,
6:u:taux,
12:u:abstention,
11:u:démontre,
14:u:intéressent,
6:u:type,
8:u:joutes,
12:u:désespoir,
5:u:tel,
11:u:anxiété,
7:u:telle,
16:u:découragement,
10:u:proposé,
7:u:offre,
11:u:politique,
11:u:déplacer,
8:u:soient,
8:u:enjeux,
9:u:époque,
10:u:venaient,
7:u:untel,
11:u:"aujourd",
5:u:hui,
15:u:tétanisation,
11:u:situation,
12:u:totalement,
15:u:désespérés,
14:u:extrêmement,
13:u:inquiétant,
10:u:dirigent,
10:u:prennent,
5:u:ts-,
10:u:tsunamis,
13:u:progressifs,
12:u:retombées,
12:u:répliques,
10:u:secouent,
5:u:kl-,
4:u:r-,
8:u:pourra,
14:u:explications,
10:u:allusion,
7:u:front,
14:u:républicain,
8:u:posais,
14:u:introduction,
6:u:mort,
17:u:définitivement,
8:u:Gauche,
11:u:Écologie,
11:u:général,
11:u:classique,
11:u:députés,
9:u:remette,
7:u:notre,
12:u:stratégie,
7:u:appel,
6:u:sein,
7:u:parti,
12:u:socialiste,
7:u:Louis,
9:u:Bernard,
11:u:agonisant,
8:u:amener,
5:u:soi,
12:u:électeurs,
13:u:électrices,
14:u:propositions,
6:u:mode,
5:u:vie,
8:u:morale,
10:u:regardez,
10:u:souvenez,
9:u:traité,
11:u:européen,
9:u:médias,
9:u:élites,
11:u:pensantes,
7:u:voté,
12:u:importante,
18:u:circonscriptions,
8:u:Loiret,
9:u:circon-,
7:u:ordre,
9:u:absten-,
12:u:élections,
7:u:route,
6:u:fort,
8:u:claque,
8:u:aucune,
10:u:triomphe,
7:u:grand,
9:u:gagnant,
14:u:reconnaître,
6:u:dieu,
11:u:positions,
6:u:anti,
9:u:radical,
9:u:succès,
11:u:engrangé,
8:u:nombre,
10:u:victoire,
12:u:symbolique,
7:u:voire,
13:u:médiatique,
6:u:avis,
13:u:municipales,
11:u:capacité,
10:u:nuisance,
4:u:b-,
4:u:z-,
14:u:européennes,
13:u:socialistes,
8:u:risque,
7:u:Modem,
5:u:UDI,
8:u:change,
8:u:crains,
10:u:marchait,
9:u:Jacques,
8:u:Chirac,
9:u:réélu,
5:u:Pen,
8:u:Hassan,
7:u:Kerim,
11:u:résultat,
5:u:rue,
6:u:faux,
11:u:persuadé,
8:u:gauche,
11:u:questions,
8:u:posent,
16:u:compatibilité,
9:u:unités,
8:u:statut,
13:u:sémantique,
14:u:morphologues,
12:u:défendent,
7:u:signe,
12:u:saussurien,
9:u:affixes,
12:u:polysémie,
8:u:traite,
12:u:générale,
9:u:simples,
14:u:linguistique,
6:u:syn-,
11:u:expliqué,
5:u:en-,
13:u:pragmatique,
8:u:morpho,
9:u:claires,
12:u:explicites,
8:u:trois-,
8:u:puisse,
12:u:consacrée,
10:u:méthode,
12:u:synchronie,
12:u:diachronie,
8:u:aborde,
11:u:intuition,
12:u:intuitives,
13:u:morphologie,
10:u:énoncé,
9:u:globale,
4:u:u-,
13:u:plurisémie,
15:u:multiplicité,
9:u:strates,
18:u:interprétatives,
11:u:morphème,
12:u:flexionnel,
13:u:unisémique,
16:u:pluristratique,
10:u:évitant,
11:u:théories,
14:u:différentes,
12:u:décrivent,
9:u:chacune,
8:u:strate,
13:u:différente,
10:u:opposent,
6:u:unes,
9:u:malheur,
11:u:consacrer,
9:u:séance,
12:u:difficiles,
11:u:résolues,
10:u:apparait,
8:u:étant,
14:u:compliquées,
8:u:celles,
21:u:polycatégorialité,
12:u:traitement,
20:u:polycatégorielles,
9:u:lexique,
13:u:catégoriel,
10:u:matière,
11:u:confiance,
13:u:imagination,
8:u:servir,
8:u:sortes,
12:u:problèmes,
10:u:aimerait,
8:u:semble,
13:u:expérience,
14:u:sémanticien,
13:u:morphologue,
11:u:évidente,
11:u:sentiment,
12:u:prospectif,
10:u:chantier,
13:u:modérateur,
11:u:François,
8:u:carré,
12:u:immodéré,
11:u:agitateur,
12:u:commencent,
8:u:fermer,
6:u:oeil,
12:u:intervenir,
14:u:flexionnelle,
6:u:mots,
12:u:différent,
13:u:traitements,
11:u:méthodes,
9:u:relève,
10:u:principe,
8:u:Claude,
10:u:position,
14:u:dégueulasse,
13:u:réfléchir,
10:u:bêtises,
11:u:procédé,
7:u:banal,
10:u:consiste,
14:u:apparaissent,
12:u:virtuelles,
13:u:quelquefois,
11:u:énoncés,
10:u:virtuels,
7:u:gêne,
15:u:sémanticiens,
10:u:évoqué,
10:u:rotation,
13:u:indéniable,
7:u:rotor,
9:u:rotatif,
11:u:rotatoire,
9:u:rotonde,
7:u:rôti,
9:u:postule,
6:u:base,
17:u:matériellement,
5:u:ose,
7:u:verbe,
7:u:roter,
12:u:imaginaire,
5:u:se-,
6:u:sert,
14:u:archimodèle,
8:u:machin,
9:u:modèle,
14:u:lexématique,
11:u:reconnait,
7:u:rotat,
11:u:associée,
9:u:lexème,
11:u:réaliser,
10:u:autonome,
10:u:lexicale,
11:u:locuteurs,
13:u:permettrait,
8:u:former,
10:u:nouveaux,
6:u:ét-,
13:u:appartenant,
8:u:proche,
11:u:filiation,
9:u:directe,
12:u:hypothèse,
11:u:paradigme,
7:u:parle,
12:u:structures,
17:u:intériorisées,
12:u:prédateur,
12:u:prédation,
12:u:construits,
14:u:fonctionnent,
8:u:parent,
8:u:direct,
9:u:existé,
14:u:contemporain,
6:u:_x+1,
0=0x1.55989137b2984p-13
4=0x1.d66b4a7f2b2cep-9
5=-0x1.518052f78e502p-9
6=-0x1.4cedff7eda66ap-12
7=-0x1.e149b42e6089fp-16
8=0x1.5156b987302e6p-9
9=-0x1.b056b1a333059p-9
11=-0x1.8398d646acb72p-9
12=0x1.b41680211f6c8p-10
13=-0x1.b54d3a4e3c39ep-8
14=0x1.7163303f82962p-9
15=-0x1.6f9b1d71b337ep-7
16=0x1.3be91ad079517p-11
17=-0x1.8ab64067b2f32p-9
18=0x1.8bf9f725345acp-10
19=-0x1.17648e3ff694bp-9
20=0x1.803db440e28c3p-10
21=-0x1.d40698ef2d95p-9
22=0x1.17ad967d0ef86p-10
23=-0x1.143c6c6b040a1p-8
24=0x1.65a1573ba897bp-8
25=-0x1.e7cb9c340ba34p-7
27=-0x1.45e558412c244p-5
28=0x1.3a35ebbc47eap-12
29=-0x1.a2d3e9de60ffbp-8
30=0x1.dc0800ec83918p-11
31=-0x1.1f830862d8ce4p-5
32=0x1.1e5ed201b76e2p-7
33=-0x1.b505bc2f15291p-6
34=0x1.5ec86efb93051p-7
35=-0x1.24d9ee3754e22p-6
36=-0x1.7911547ff95c9p-8
37=0x1.45fb8e749e7fap-3
38=-0x1.18715d937f58dp-8
39=-0x1.574b252cd8674p-4
40=0x1.adc508780e75bp-5
41=0x1.06d93150ec4c1p-2
42=0x1.776e7fdbf261bp-7
43=-0x1.097148128328cp-3
44=0x1.6db9d8ab73861p-5
45=0x1.11fadfd758815p-2
46=0x1.713f641bb95a3p-5
47=-0x1.545b921253a97p-3
48=0x1.d06d7081f7098p-9
49=0x1.9c28faf3e40f6p-6
50=0x1.016e6b54a863ep-7
51=-0x1.cfad5e79ea7afp-7
53=0x1.285f1298b9fb6p-4
54=0x1.f10b93bc78eaap-9
55=-0x1.707bc0d0abf9bp-4
56=-0x1.cbbf021fee72dp-5
57=0x1.403065b445432p-3
58=-0x1.b183b3d2da50bp-7
59=-0x1.a9a69e00ac1c3p-5
60=-0x1.328acafed6175p-3
61=0x1.d88c1c098a24p-4
62=0x1.42cce90cbd22p-3
63=-0x1.51500dca9009fp-4
64=0x1.e132369c6d5c4p-3
65=-0x1.2faa0a287a376p-3
66=-0x1.6e61f168d6624p-6
67=-0x1.78bc65b398583p-8
68=-0x1.797bd8678ac2cp-8
69=-0x1.5151107a859p-4
70=-0x1.a99ededcb8691p-5
71=-0x1.c85e27e8bc32cp-7
72=0x1.288c1bc0154d6p-11
73=0x1.c9243ab01c646p-7
74=-0x1.aff950c6c4202p-8
75=-0x1.55a181837e958p-6
76=0x1.1650a5255f564p-6
77=-0x1.b4aa70aa975e6p-6
78=0x1.1cbb7b6017024p-7
79=0x1.dffb74b032417p-11
80=0x1.14e664e43c8e5p-7
81=0x1.2407cd7170176p-8
82=0x1.58e0532b09036p-8
83=-0x1.e7d5caa5dc4e4p-5
84=0x1.2ca6d485b7df9p-7
85=-0x1.1fe760b788d2cp-8
86=0x1.0da568d1b013p-7
87=-0x1.fedf34c008475p-6
88=0x1.585176eed0e3ep-8
89=-0x1.a09f1fb3edd09p-7
90=0x1.75c66f69a31aap-8
91=0x1.5a82c0eecff79p-12
92=0x1.afd695f95f672p-6
93=0x1.011c9781c9531p-2
94=0x1.e76a1d088a729p-6
95=-0x1.2fb65aedcaa16p-3
96=0x1.be9056d983bc5p-13
97=-0x1.7762e29ec0d6ap-10
98=0x1.a7f4b1a6ce4efp-11
99=0x1.c466d3e12cb7ep-18
100=-0x1.83da8d737ce37p-16
101=-0x1.176d93354f75bp-15
102=0x1.e8cc1e21bde7cp-12
103=0x1.7469f8c919e52p-18
105=0x1.54b57c112d36dp-7
107=-0x1.98d5b9721e494p-6
108=0x1.871a9ce8beb08p-8
109=-0x1.201231cccc63fp-6
110=0x1.cb74da910c3bep-8
111=-0x1.55fd7702c8949p-7
112=0x1.a855695a42948p-8
113=-0x1.203db9a5b7d3ap-9
114=0x1.85d12d0a50e7p-11
115=-0x1.52452f5556b74p-11
116=0x1.0aee7633c2b02p-10
117=-0x1.399e0032c7b03p-9
118=0x1.000ea337a7e72p-12
119=-0x1.27562cefba217p-10
120=0x1.3cf9469df91dbp-10
121=-0x1.9986779126f3dp-9
122=0x1.e9078ed6a267p-15
123=-0x1.b39fdb86f08ap-8
124=0x1.1f693bb82a2c8p-12
125=-0x1.13da49299bb5fp-11
126=0x1.8abf03d8d30b4p-13
127=-0x1.01092bb5e4afp-11
128=0x1.41b6ffd521aebp-11
129=0x1.0a532dd25e952p-8
130=0x1.7f469e323a05ep-10
131=-0x1.016f0e517dae6p-8
132=0x1.d56116b2ffaf8p-10
133=-0x1.2d62d8726d3ep-8
134=0x1.21e0599ecacfp-9
136=0x1.69ff756bd518cp-10
137=-0x1.4db4256eed1c2p-11
138=0x1.6abfbd2623452p-10
139=0x1.f94a48c7f52d3p-16
140=0x1.34c272c69dcbcp-14
141=-0x1.ddd5ceb3c8722p-10
142=0x1.af5dc40c04786p-11
143=-0x1.50b7898608498p-9
144=0x1.c1025ccc66564p-9
145=-0x1.6807c39ebabeap-8
146=0x1.8f6d1f4a6951p-11
147=-0x1.83d1929354d6fp-9
148=0x1.08807cd9955ccp-8
149=-0x1.1a2a651ddd48ep-7
150=0x1.c06bf16698fcap-9
151=-0x1.fad7dda59f624p-9
152=-0x1.8f14c6ace6a38p-17
153=0x1.95fd4085a307fp-14
155=-0x1.feb170ef80a26p-15
156=-0x1.9663322f5743ep-12
157=0x1.25dff9e7ecffdp-14
158=0x1.a60e4b8a1f0fp-13
159=-0x1.79a66018aa189p-12
160=-0x1.078f6efd99584p-5
161=0x1.a8c464d674a0ep-4
162=-0x1.1cc66d6858c67p-5
163=-0x1.a87c712aa1d15p-4
164=0x1.42e3cc63ec1cep-13
165=-0x1.0a3d83c55c663p-11
166=0x1.438f9735f620dp-13
168=0x1.2d93e1a2e107dp-9
169=-0x1.6aae0bad84963p-8
170=0x1.0b4956e3820d9p-9
171=-0x1.be19419b8422ep-9
172=0x1.0f92bf7606b5ap-13
173=-0x1.d5fc52744ed89p-12
174=0x1.11da54d7f14d7p-13
176=0x1.719bfa10cc00ep-8
177=-0x1.23b0ecccbed9p-6
178=0x1.1625da6892d36p-7
179=-0x1.797b42a64ca2ap-7
180=0x1.32182c9d3ca83p-13
181=-0x1.fdcc0c63b337ep-13
182=-0x1.7afbbc378ca45p-15
183=0x1.1289ba22d066p-13
184=-0x1.6e38d16de2162p-8
185=0x1.092772f3bca16p-6
186=-0x1.93c3ec1bb76ddp-8
187=-0x1.9424c6254c3d4p-7
188=0x1.5a707f4651012p-11
189=0x1.b32824a9898f4p-8
190=-0x1.1c6ba8cf5eaadp-10
191=-0x1.567b5434e1121p-9
192=-0x1.657c7b35f8d08p-9
193=0x1.313013b38e75cp-7
194=-0x1.df211dd761fbdp-9
195=-0x1.02c74d69c3e67p-7
196=-0x1.3ea91397f3e52p-9
197=0x1.e33be005410dap-8
198=-0x1.7c5d06e6591d7p-9
199=-0x1.6204df919dda3p-8
200=-0x1.26e459389681dp-9
201=0x1.0769c68e0c814p-8
202=0x1.5752135e98d2fp-11
203=-0x1.06ed514e556b2p-9
204=-0x1.b9364133c748ep-12
205=0x1.14a12123acd34p-10
206=-0x1.0b6abc641d348p-12
207=-0x1.8f6b590a59a13p-13
208=-0x1.0ba8bbbae030cp-9
209=0x1.351dcc5d09b72p-8
210=-0x1.03b317a9b3fb6p-14
211=-0x1.2bd36e2d70cb8p-8
212=-0x1.af67fa7eea43p-13
213=-0x1.1370d44a7221bp-14
214=0x1.8ade020941581p-11
215=0x1.2d32e40bed69ap-15
216=0x1.ea9631e015476p-9
217=-0x1.7996f46f335aap-7
218=0x1.39d325edb8cefp-8
219=-0x1.af07c2de5a15ap-8
220=0x1.3327f7af28ba9p-10
221=0x1.e1ac24ee17bep-7
222=-0x1.35c1ad8073f52p-8
223=-0x1.632aa211fd4f2p-8
224=-0x1.44deac9d1bc3ep-10
225=0x1.5ee10461b55d6p-9
227=-0x1.bb60739feb35bp-11
228=0x1.2c10efc0d52fdp-7
229=0x1.dc69cb9219c7cp-4
230=0x1.64e8385a31aabp-7
231=-0x1.19aa1b12355c2p-4
233=0x1.c8018209dccb6p-18
236=0x1.f6cfe475b1e9p-12
237=-0x1.dd60321819318p-10
238=0x1.0fa73ba2e14f4p-10
239=0x1.68e2dfa7c205ep-14
240=0x1.bd7ae89f04ce7p-8
241=-0x1.5dec36691694ap-9
242=0x1.c02b9702931b8p-8
243=-0x1.42ba299b1400fp-11
244=0x1.5c178ee4048f5p-7
245=-0x1.72d3c7dd0db2ep-6
246=0x1.5bfbc508847d1p-7
247=0x1.88fa351032856p-12
248=-0x1.118c55fa0d5e7p-6
249=0x1.fd359b0412d8fp-4
250=0x1.20cb6c246217bp-9
251=-0x1.05dd3a84b4e98p-4
252=-0x1.fd0f2736a204cp-13
253=0x1.3db77db8b7c4p-9
254=-0x1.d8da3ae887fdap-13
255=-0x1.caedf9403a4a6p-9
256=-0x1.051d02642a86p-7
257=0x1.78947a38734c6p-6
258=-0x1.03f33ca212a4cp-8
259=-0x1.c63c509105a51p-6
260=0x1.eba61d52f7d3ap-12
261=-0x1.0c28ef154423bp-10
262=0x1.126a460f248dap-12
263=-0x1.24275267a59d2p-11
264=-0x1.3e48b766849fap-8
265=0x1.7d9d0f6813298p-7
266=-0x1.41fefeb4e3bfap-13
267=-0x1.0167f9915de2ep-8
268=-0x1.b767c66cc3399p-9
269=0x1.1476e4cfb6f74p-7
270=-0x1.6ab62c195f3d8p-13
271=-0x1.197995f500a21p-7
272=-0x1.7f870ad5e065fp-12
273=0x1.837004f10bc6fp-9
274=-0x1.2d32544631bf5p-10
275=-0x1.729d15250de5fp-11
276=0x1.5ab3b53f5b006p-13
277=0x1.7e69f147d6baep-11
278=-0x1.df3470aded446p-13
279=-0x1.aff2d5073e685p-9
280=0x1.3e780e744a4e6p-11
281=-0x1.b750f74e98908p-10
282=0x1.1fbc0b48e67fcp-11
283=-0x1.22e2a5a2e211dp-12
284=-0x1.390e0938c0ae9p-8
285=0x1.b068387088f7fp-7
286=-0x1.5583acd033684p-9
287=-0x1.cabae348d5711p-7
288=-0x1.6f1c820bb4082p-12
289=0x1.b912ab5953dfap-11
290=-0x1.5ac7d5f383a9ep-14
291=-0x1.0967e7a542702p-13
292=0x1.79b6f76f2adbep-11
293=-0x1.0c5e2cfcd4ffp-9
294=0x1.8912c11bcc1cp-11
295=-0x1.111c6d4a52759p-13
296=0x1.634d22336160dp-14
297=-0x1.0b81cf6a8d3aep-14
298=0x1.641b82d3e055cp-14
300=0x1.7abb6262f44abp-12
301=0x1.63e37ff80d8cdp-12
302=0x1.8cd3141f27ba8p-17
303=-0x1.b6346b7bf3512p-10
304=0x1.315e443e0963ep-10
305=-0x1.0e4ef678bfe42p-9
306=0x1.6b65c922de607p-12
307=-0x1.1a1d3e3f2fbd2p-11
308=0x1.8b9ce84bb627dp-10
309=-0x1.d22bd101d7afep-9
310=0x1.818774a5e9697p-10
311=-0x1.5513d9ba1b3d2p-10
312=0x1.f51ef229873d1p-15
313=0x1.580fb714ee6fdp-11
315=-0x1.27111ed76d509p-11
316=0x1.6ccadf37e478fp-11
317=-0x1.6b249b80035eap-13
318=0x1.2d9a9a17a1d27p-12
319=-0x1.7ec1e44456504p-10
320=0x1.5a9f2cc473b53p-13
321=0x1.012c5a0c8b7d6p-8
322=-0x1.eb680edfafbcdp-10
323=-0x1.55db9dfabaa96p-10
324=-0x1.6c46a24fd169p-13
325=0x1.2968052a70764p-11
326=-0x1.6414065358d38p-13
327=-0x1.004528eb3e28p-14
329=0x1.4dcdf3997c8a9p-12
330=0x1.db2c3ba22b92bp-13
331=-0x1.053c81fdc845dp-10
332=-0x1.1e55fbd62983fp-7
333=0x1.5ab849567b7dap-6
334=-0x1.7b35ad4abe996p-8
335=-0x1.325f5fb5e8086p-6
336=0x1.fc901e7c8389fp-14
337=-0x1.ef704c22d04ccp-12
338=0x1.2492ea16d2aeep-13
340=0x1.2944841cf32c3p-7
341=-0x1.1df3ca4637bc1p-6
342=0x1.4e76f92c1c28bp-7
343=0x1.b122c4efdf9aep-14
344=0x1.1b27a379620fap-5
345=-0x1.0893067155922p-4
346=0x1.ac69ecd1f4af6p-6
347=0x1.c7699b25452c2p-9
348=0x1.62e234962941dp-7
349=-0x1.da6d1997405a6p-9
350=0x1.6eea31e325f52p-11
351=-0x1.5e683bb1bbc2cp-12
352=-0x1.52cdde29643bdp-9
353=0x1.85a691b849831p-8
354=0x1.94b28b8b29ec6p-13
355=-0x1.802652bc6d7cap-8
356=-0x1.c265ad0d36cf2p-11
357=0x1.3f12d7d368d02p-9
358=-0x1.bfaa4c4c6f011p-11
359=-0x1.24f2b00fbf4fep-11
361=0x1.b480220a277f2p-18
364=-0x1.9ff5be56e5c38p-12
365=0x1.527153e8f1a2cp-10
367=-0x1.f08e3d66ed27ap-12
372=-0x1.263d8d00a3b81p-14
373=0x1.6de8d479a477ap-12
374=-0x1.22cace48f8b5cp-14
375=-0x1.de25627c9494p-16
376=0x1.ced8eb43b89c8p-9
377=-0x1.c57813808e18dp-12
378=-0x1.21d162cbe3d24p-14
379=-0x1.3c1d2c283ec62p-11
380=-0x1.f37ed22237499p-9
381=0x1.2be5138c673bp-7
382=-0x1.5c35f4d3e2cfp-9
383=-0x1.4a8d59c273456p-9
386=0x1.38c4a7a8bbd38p-13
388=0x1.6a08f130ba929p-7
389=-0x1.92fdf015106a6p-6
390=0x1.18533c90887f9p-7
391=0x1.3dc381fe7476fp-10
392=-0x1.81b6685ea1729p-17
393=0x1.d720467a32854p-12
394=-0x1.5a22a1f905b2bp-17
395=-0x1.23f863675f28bp-13
396=-0x1.b799ad9da79f9p-11
397=0x1.ac98a1112e1e2p-10
398=-0x1.0f32a82f1bc5bp-14
399=-0x1.d75930f6c6ddcp-12
400=0x1.50c2424aef67p-11
401=-0x1.039d805a00adcp-8
402=0x1.e5671a2f1fa74p-10
403=-0x1.2f956fb0a2fbp-9
404=0x1.29b3452245fffp-6
405=0x1.1084dad604855p-4
406=0x1.7dfb8a00e5b6ap-6
407=-0x1.4b31bafcea97p-5
408=0x1.57bdfbb9bc346p-13
409=-0x1.181abef4ffe3p-11
410=0x1.5a7c7143f3bb3p-13
412=-0x1.cd82a003c2f7ep-12
413=0x1.8e1288386aa52p-10
414=-0x1.b02c2c5638f98p-12
415=-0x1.6583370ed0044p-12
416=0x1.285f755ffa2f2p-12
417=-0x1.23843b491b1bfp-11
418=0x1.90895982b1268p-13
419=-0x1.3790e80fdcd19p-11
420=-0x1.9c85f6d78c4e6p-7
421=0x1.5494ac89ec463p-3
422=-0x1.cbcfd24fef392p-7
423=-0x1.125034b26ca84p-4
424=-0x1.552910fb8a0dp-14
425=0x1.fc0aaa7f205fdp-11
427=-0x1.e656f2013d66ap-10
428=0x1.a16d8f3bcf21bp-11
429=-0x1.90a69f4ee963fp-10
430=0x1.4aa4cbf87fca7p-11
431=-0x1.df3785fe5a1b9p-9
433=-0x1.02715bb29b529p-11
434=0x1.bf924390bb0c3p-13
435=-0x1.7a3092a811453p-11
436=-0x1.f28945943dd2fp-14
437=0x1.6d78f6e2945bep-10
438=0x1.7d49360096f4ap-16
439=-0x1.bd5ae69044205p-11
440=0x1.1727f901b297p-11
441=-0x1.25c7b2f082d82p-10
442=0x1.e46b6262532ffp-12
443=-0x1.4fba5bae9dc8ap-11
444=-0x1.bdfe9a38d3b75p-14
445=0x1.aae89e9095a04p-12
446=-0x1.b6ceb9d9983eep-14
447=-0x1.191eee1bf2f5fp-15
449=0x1.65d5c44b3158p-22
452=-0x1.d9bcc5e5dcd26p-13
453=0x1.dee043d24fae1p-10
454=-0x1.81603fab0d863p-11
455=-0x1.0e3ab1a515a63p-11
456=-0x1.8e3fa59af03ap-17
457=0x1.db53217876bd4p-12
458=-0x1.89f5aeaff7ccfp-13
459=-0x1.1e1d93471ced4p-14
461=0x1.c2420c6693098p-17
464=-0x1.3d67b743a5e78p-11
465=0x1.b21cbaee4ba92p-10
466=-0x1.d16f6e2b63482p-12
467=-0x1.76eeef26d514ep-12
468=-0x1.9853e022e2958p-9
469=0x1.009852367f0a2p-7
470=-0x1.2b8ef3d6c667p-9
471=-0x1.a2a81abbfbab2p-8
473=0x1.3305d0b069c64p-18
476=-0x1.398276d83cfc4p-16
477=0x1.c1f090ad59262p-13
478=-0x1.c2d0ec35a2d55p-17
481=0x1.14daee1d0a1ddp-14
485=0x1.8a1aa07bdc834p-10
486=-0x1.19936307d0353p-13
487=-0x1.6404131659d0fp-11
488=-0x1.06eb6388477c4p-9
489=0x1.ae4cf972558dep-8
490=-0x1.40437b77b29bbp-9
491=-0x1.0018e66ba178cp-9
492=-0x1.e2b26aecec75ap-14
493=0x1.bc38e1694a193p-11
494=-0x1.cdb990f6b57f2p-14
495=-0x1.2fba8d582a939p-12
496=-0x1.8559527ca6824p-18
497=0x1.3d95342a335ebp-13
498=-0x1.27e1a79b12f4dp-18
500=0x1.983542c10da46p-16
501=-0x1.1633ac5a2b916p-13
502=0x1.07ae3ba59f743p-15
503=-0x1.65defa7f27dap-14
504=-0x1.7f1b1e5f82701p-12
505=0x1.14e7be02e3fe9p-11
506=0x1.dda10f26167f2p-12
507=-0x1.79898c986f4fep-11
508=0x1.b03d76c38e8dep-11
509=-0x1.3c934cc2a2b0ep-9
510=0x1.370bb0454db48p-10
511=-0x1.724be2f0a5daap-11
512=-0x1.13e6df7881c53p-10
513=0x1.f36d3670ed37cp-9
514=0x1.e5e2fc88e10fap-11
515=-0x1.8e2d63c60f8e2p-8
516=0x1.5f0cb679dfa9p-9
517=-0x1.f9341df56a87ep-11
518=0x1.e473c80e1e2ecp-10
519=-0x1.7461ca3791f6ep-13
520=0x1.daeebef6b4ecfp-11
521=-0x1.332d9379eea08p-9
522=0x1.2f3f3aba938c4p-10
523=-0x1.1e0bd182d00aep-9
525=0x1.9b557484f4e91p-14
528=-0x1.f610025f196c6p-19
529=0x1.e84d07f4ccc8p-13
530=-0x1.746687ee67185p-19
532=0x1.5abc7c2c61fep-11
533=0x1.e64c949719147p-9
534=-0x1.48402fbe221b1p-10
535=-0x1.674530bb509d3p-8
536=-0x1.a187a7ac1a004p-9
537=0x1.0af07b60f767ep-7
538=-0x1.89c7adcc2e8dep-10
539=-0x1.6b109401cd485p-9
544=-0x1.34dda40913d75p-14
545=0x1.3cba2377dc31bp-12
546=-0x1.0f562621357e1p-14
549=0x1.419c0396ad1fp-18
553=0x1.46a28a2cf5102p-10
554=-0x1.36138700a9daep-11
555=-0x1.8a2cc138663f3p-12
556=0x1.72fbfabbff4d7p-9
557=-0x1.aa420c555b008p-8
558=0x1.298785ab9b7adp-9
559=0x1.c241c9961f428p-11
561=0x1.ad717a9357cfp-18
565=0x1.15097e6d181edp-17
569=0x1.de387b3b49babp-17
572=0x1.e4346948eecep-8
573=-0x1.5ec901f0f777p-9
574=0x1.1a60fa8b0c087p-10
575=-0x1.04d5b075e8319p-10
576=-0x1.417b7c953fc8fp-13
577=0x1.7039eb5121c2dp-10
578=-0x1.34d3925bdc025p-13
579=-0x1.56f6fd99969adp-11
580=-0x1.0751440986c98p-13
581=0x1.3cefe3d571a32p-10
582=-0x1.cd475f35afe6bp-12
583=-0x1.4c49a762672ddp-12
585=0x1.f10a0b66c5666p-18
588=-0x1.8462574798f31p-9
589=0x1.f032f65fa8717p-8
590=-0x1.2d2b2fc4f356bp-9
591=-0x1.8d761593747ddp-8
593=0x1.34e107013451dp-17
596=-0x1.b725658ee063p-9
597=0x1.05226fb20f3bp-8
598=-0x1.66dc36515d59fp-10
599=-0x1.e1b60b3af5b78p-11
600=0x1.1de775d696451p-9
601=-0x1.0f5b09d579c14p-10
602=0x1.1e64995734b8dp-9
603=0x1.393a7e31b2866p-13
604=0x1.51a26dc4e26bep-13
605=-0x1.1d11deb67de24p-10
606=0x1.50adddd313ac4p-13
607=0x1.b4a5f29e2b636p-13
608=0x1.ee53f8d2f0ddep-10
609=-0x1.86070fa04bb56p-9
610=0x1.1e0b49c362ceep-11
611=-0x1.456292a533abfp-10
612=-0x1.59214696e748dp-18
613=0x1.97231fbfdccb9p-13
614=-0x1.f5fc741b4d7fp-19
616=-0x1.ab99a5841d7f5p-19
618=0x1.b0fe058cc2fe8p-14
620=-0x1.799648227973ap-13
621=0x1.a5799806bad26p-12
622=-0x1.aa9098cf2292dp-17
623=-0x1.5c4d549a1224bp-15
624=-0x1.24d2a5b25e1bp-11
625=0x1.0eb67dfaf6a8ap-9
626=-0x1.8476f80f2fc58p-11
627=-0x1.2b23f0efe1f2fp-11
628=-0x1.a0e266386d0dep-12
629=0x1.0c40748bf9fcbp-10
630=-0x1.9abff227611c1p-13
631=-0x1.aff3acaf568dbp-13
634=0x1.2dd7cad3273dcp-18
636=-0x1.2b48fc4533055p-11
637=0x1.e13ef8e932141p-11
638=0x1.fbba439e34a3dp-16
639=-0x1.16bfe0961942cp-12
640=0x1.7d7e69673825ep-13
641=-0x1.2f96956e62f47p-11
642=0x1.7d4d0d81d2129p-13
644=-0x1.4f3f91ed705bbp-16
645=0x1.2e428a4d8265ep-12
646=-0x1.69d9e1c262a7ep-16
649=0x1.9ff8765263005p-13
652=0x1.a0aa839529cccp-12
653=-0x1.130760f2be87fp-12
654=0x1.ae1ecc860bbaep-11
655=-0x1.50757e533cbbep-15
656=-0x1.118fe3c3d6f49p-18
657=0x1.3334bbe16856ep-13
658=-0x1.2d879b13ef6d1p-18
660=-0x1.b5ebe063faf7ep-18
661=0x1.8bcbb4254a852p-13
662=-0x1.a922ac78b2361p-18
664=-0x1.47d7638ad2885p-19
665=0x1.6dade9f608c58p-14
666=-0x1.604d59fe84151p-19
668=-0x1.ecea1d402fd03p-16
669=0x1.51dc04b68fcdfp-11
670=-0x1.72266064e23eap-12
671=-0x1.cd338b2d23abfp-14
672=0x1.7fd5a176fe18ep-9
673=-0x1.924b7f730ea4cp-8
674=0x1.237887d6b0a5ap-9
675=-0x1.e93e61de92122p-10
676=-0x1.987526a8223bbp-18
677=0x1.6d19d51aa68e6p-13
678=-0x1.a9cfd0cba020bp-18
680=0x1.b0c112cdbb34p-11
681=-0x1.a6a612acdee32p-12
682=0x1.b4fe471bae6d6p-11
683=-0x1.4b927b0da6ad8p-15
685=0x1.513652bede0f5p-13
687=-0x1.4a634e72f7612p-13
689=0x1.71164bbb89c63p-9
690=-0x1.3737a01630e31p-10
691=-0x1.e491806b68928p-11
692=-0x1.c47a14af835f9p-16
693=0x1.2f6e53c4bb202p-12
694=-0x1.bad2f6016ac2p-16
696=-0x1.4a2f94ff39742p-11
697=0x1.fcfb8a407aac7p-10
698=-0x1.4885426153191p-11
699=-0x1.11f9873c2aaap-11
700=0x1.64448da2215c8p-10
701=-0x1.0b654c07ec95cp-9
702=0x1.c6f9035a9a0c2p-13
703=-0x1.6dae85227b8cdp-10
704=0x1.756d69ae9c646p-12
705=-0x1.72d32142c2fap-10
706=0x1.33d2c084656b8p-11
707=-0x1.88a8291ae5077p-11
708=-0x1.b7ab9b5b3f795p-18
709=0x1.6777ddf266cdep-13
710=-0x1.da72d1b05e193p-18
712=0x1.0b85d4cf546d7p-7
713=-0x1.afc7365151a9ap-9
714=0x1.57271f92ee2p-8
715=-0x1.f4a4754e4ac82p-13
716=-0x1.55d42ab472633p-10
717=0x1.00bac3bf4acc6p-7
718=-0x1.87b1a790bbfb7p-9
719=-0x1.f854aec307893p-8
720=0x1.a5fc1199cb206p-12
721=-0x1.60f724b651ac2p-13
722=0x1.a7323b1fe656cp-12
723=-0x1.3fe7850beefap-17
724=-0x1.39a1a94f081a5p-19
725=0x1.b4608156e77e4p-14
726=-0x1.552b8b7580efcp-19
731=-0x1.204b463bbac8p-17
732=-0x1.50d3eb7bfa86ep-8
733=0x1.8b88497c81b7dp-7
734=-0x1.9cb6d6454ebbcp-9
735=-0x1.56bbc4f9dab02p-7
737=0x1.15ccfa03b2093p-18
740=0x1.5d30feba4cb19p-8
741=-0x1.c5057d5470cdfp-10
742=0x1.5cdb6ea3cf61cp-8
743=-0x1.11456c7cdad63p-11
744=-0x1.132fae2db94ccp-12
745=0x1.def2d3e45cfcp-11
746=-0x1.13437e5bc9da5p-12
747=-0x1.91aff1f0539cap-13
748=-0x1.f305f9d5c90cep-14
749=0x1.afb74199e57bdp-12
750=-0x1.f74ff5002b45bp-14
752=-0x1.78445176a5b7dp-19
753=0x1.46dd124a1fdcp-14
754=-0x1.5ea8352230045p-19
757=-0x1.944feb9cc2e18p-19
758=0x1.4bd8aebf7e2bap-13
760=0x1.8c9a4e67f6c28p-6
761=-0x1.39ea1b269dd7ap-5
762=0x1.f9193446353aep-7
763=-0x1.a670da6cc9f2dp-11
764=-0x1.483e4854e54b2p-13
765=0x1.0be9fc55ca4dap-11
766=-0x1.4b56673b41769p-13
767=-0x1.1bc1a8d827aecp-15
769=0x1.181f9c58a1816p-16
772=0x1.b75a9cfd5d3c4p-14
773=-0x1.55384414e05d6p-14
774=0x1.bd9bf2f1aa452p-14
776=0x1.7ef01f46dfba2p-13
777=-0x1.302b5d3d1896dp-11
778=0x1.7f8767fe6c7e6p-13
780=0x1.478d47275fdbp-13
781=0x1.642e6edd13549p-11
782=-0x1.247a95258000ep-13
783=-0x1.302af9b9a2fdcp-12
784=-0x1.60f8e4d3ccb9cp-17
785=0x1.0f3826f071fb5p-12
786=-0x1.61b75172aacb5p-17
788=0x1.275fd21f763d8p-18
789=0x1.6bee48d296221p-12
790=-0x1.ffea58df73b75p-13
791=-0x1.c3321680c1768p-14
792=-0x1.b249e857b3465p-14
793=0x1.947573da45602p-12
794=-0x1.b167d2f9f7953p-14
796=0x1.6a24e13daa168p-13
797=-0x1.822ae4b54a8fep-11
798=0x1.842d52d6ee28ap-10
799=0x1.31d08a9645368p-13
800=-0x1.0884cc38ce8cap-11
801=0x1.3662e10a5b29bp-10
802=-0x1.1143b11312202p-15
803=-0x1.66e8b2e1caad4p-12
804=-0x1.b1b7b6b964d13p-11
805=0x1.3f420ed67d536p-9
806=-0x1.ad89c40d90b48p-11
807=-0x1.487e0aaec1a6dp-11
808=0x1.4cc6e1fae95b7p-7
809=-0x1.baf6c8aeb093ep-6
810=0x1.6810233a3dd46p-7
811=0x1.74d4761c6323p-10
812=0x1.f68222e08d11ep-8
813=-0x1.b228fec0ecc49p-9
814=0x1.098ec214d2503p-7
815=-0x1.27f4a99c0738bp-11
816=-0x1.933cd6316f4e1p-5
817=0x1.50739608f522ap-3
818=-0x1.67bdaa1f449bdp-5
819=-0x1.0185a063cf981p-4
821=0x1.aa7dcc216cfb5p-11
822=-0x1.79df06e570ab9p-12
823=-0x1.b8a1c6d91c693p-13
824=0x1.4009a1ddd27e7p-14
825=-0x1.8d234d27b62f6p-12
826=0x1.ad4edc2c68b77p-13
827=-0x1.b8f9986fbbe7cp-12
828=-0x1.7f6e0ac23073fp-12
829=0x1.1d5772cfaf231p-10
830=-0x1.7d24981c73362p-12
831=-0x1.6c958d4915d24p-13
832=0x1.cd6920df79fe5p-15
833=0x1.d627a99db768cp-12
834=-0x1.09168b11a9306p-12
835=-0x1.71894f108b6d7p-13
836=-0x1.49b4a41c7c894p-13
837=0x1.22ba2fb1d8e27p-11
838=-0x1.4ecee3c646ff5p-13
839=-0x1.3a84bea74ef22p-14
840=-0x1.6d38319cf6e8ep-13
841=0x1.2de3e1434b826p-11
842=-0x1.6f8fabad6f352p-13
843=-0x1.0b49a0639ec6bp-14
845=0x1.fdc85a0bc7f92p-14
848=-0x1.a45adac18ff37p-18
849=0x1.b467dc92aac4fp-13
850=-0x1.83dca485b4a48p-18
852=0x1.728a30a8a2ccp-11
853=-0x1.687f896f7cae2p-9
854=0x1.56bc6ee8c13cp-10
855=-0x1.816fdb42863b2p-10
856=0x1.5d605237ef736p-16
857=-0x1.d2786ea1df48p-12
858=0x1.a1f25b0232148p-10
859=-0x1.48bfb1464a775p-13
860=-0x1.9b59fc830f3fp-13
861=0x1.f4d2ef529806cp-12
863=-0x1.65bd65b4a74c5p-14
864=-0x1.42227f124d00ap-17
865=-0x1.86d548e45b774p-17
866=0x1.a5f545dd12171p-15
867=0x1.136bba29cddf2p-13
869=0x1.136ad3dfd04a4p-18
872=-0x1.5d278786f1abap-9
873=0x1.00dff4cab641cp-7
874=-0x1.5b048d33da022p-9
875=-0x1.5f4b9517d0c87p-11
877=0x1.a9f4435d5c368p-18
881=0x1.1c0a951deab84p-17
884=-0x1.82f49e064db84p-12
885=0x1.4233ce7cb9dd4p-9
886=-0x1.95fe35e5f9933p-11
887=-0x1.3879c059f3f2p-10
888=0x1.e77f748bab3b1p-16
889=0x1.58254729dabfbp-16
890=-0x1.d52e127fe72fbp-17
892=-0x1.5bc5bd57af977p-13
893=0x1.157012597a048p-11
894=-0x1.63ac9aca035p-13
895=-0x1.a7b43cdcbcbddp-16
896=-0x1.2da63a710f55ep-16
897=0x1.c5066f13c1f62p-13
898=-0x1.3224ac11e01f5p-16
900=0x1.4d2dd21b5c15cp-10
901=-0x1.bd435205fcdfep-9
902=0x1.f180e431369ap-11
903=0x1.10f35cdbe92b8p-10
904=-0x1.d8b580d6f2bc6p-15
905=0x1.4c5f69be4d7f4p-12
906=-0x1.cfd9ffb1bfb54p-15
908=-0x1.768d330c7e6f4p-13
909=0x1.4fc13519ad2b8p-11
910=-0x1.c92d73266e0bfp-16
911=-0x1.0ecad2c0f0b48p-13
913=0x1.90b1ed9f97878p-20
915=-0x1.64f1257cdccb6p-15
917=0x1.99a9d5458e248p-18
921=0x1.ace1b29d90eacp-15
924=-0x1.680c502553c7ap-16
925=0x1.0d2f2e9f007bp-18
926=0x1.1896739ad65e6p-15
928=-0x1.5da2e500b6c64p-16
929=0x1.cdacb8753d2bp-13
930=-0x1.3d4c81f788fbbp-16
932=-0x1.a4f8283debfaep-16
933=0x1.267d722b98c25p-12
934=-0x1.827c16228bbcep-16
935=-0x1.2fee9f167e564p-13
936=0x1.e8030d4cb2aap-18
938=0x1.547c9986941f8p-18
940=-0x1.85aa976390ec2p-18
941=0x1.ddfe3ac550541p-13
942=-0x1.57ada660f5ef7p-18
944=-0x1.1494cfdd1dac6p-15
945=0x1.3b0924747820bp-12
946=-0x1.d873bd1bec552p-16
948=0x1.35b4d4fcc1bafp-11
949=-0x1.58031aeb9175p-10
950=0x1.367b96df39dddp-11
952=0x1.30c20eec6387ap-16
953=0x1.054fd9a0976e6p-10
954=-0x1.036da93ba0904p-11
955=-0x1.e59d2d2d071f3p-12
957=0x1.588026d884b7dp-17
960=-0x1.49fff851041f6p-14
961=0x1.8bf0616f4cf72p-10
962=0x1.5f502fc7f21fdp-12
963=-0x1.a793e7d93ebc3p-11
965=0x1.8833d85687568p-18
967=-0x1.cdc8c3d838baap-15
969=0x1.1d71a25ab965fp-18
973=0x1.91917332b82f4p-18
977=0x1.14ef159028b84p-17
980=-0x1.4c1690c66db99p-14
981=0x1.607b79d2c215cp-11
982=-0x1.44725e53655dcp-14
983=-0x1.48a2c440078f6p-13
984=-0x1.753274f9a83e8p-18
985=0x1.003f0a0ab484ap-12
986=-0x1.4df71d759a8b8p-18
988=0x1.650443613c351p-15
989=-0x1.4ac3af34630bdp-16
990=0x1.71c82cc30fb6ep-15
992=-0x1.15738b5d1de86p-13
993=0x1.3ad3abe73efedp-14
994=0x1.bed1b00f52a4cp-15
995=-0x1.4d378bd7c156ep-13
997=0x1.156422b407cf8p-15
999=-0x1.dce378a4f033cp-15
1000=-0x1.21d0228f55c86p-18
1001=0x1.b8535858546dcp-13
1002=-0x1.2d585df369542p-18
1004=-0x1.28f0325ede785p-17
1005=0x1.9f37f41db0271p-13
1006=-0x1.27b46336bdbd1p-17
1008=-0x1.bc1c36d1b29e3p-12
1009=0x1.c1ceda824aa06p-11
1010=-0x1.b086c7edf387ap-16
1011=-0x1.2fb1fb46642e2p-13
1012=-0x1.57a531767db84p-16
1013=0x1.13be01eb144c9p-16
1014=0x1.61f9c6a045e8fp-15
1017=-0x1.7f4e601720ad1p-16
1019=0x1.e7dac2c881bc5p-16
1020=0x1.f8fbd2291f1a6p-15
1021=-0x1.5dd98692f6457p-13
1022=0x1.073a6c9ebd26cp-14
1023=-0x1.fe0bd585a6217p-13
1024=0x1.5655886eaf4e6p-7
1025=-0x1.86f5e78fc3b1fp-6
1026=0x1.566b5896af419p-7
1027=0x1.70de0b0879f78p-11
1028=0x1.5765219a58ae6p-13
1029=-0x1.18e752c24cc01p-11
1030=0x1.5da31602813cdp-13
1033=0x1.34c2906491dbdp-18
1037=0x1.bf42818d22198p-12
1038=-0x1.7627601211294p-13
1039=-0x1.1df732c02abc2p-14
1041=0x1.eb36308502824p-18
1045=0x1.98b824950cdap-18
1049=0x1.e4af65bfd4ab4p-18
1053=-0x1.188eac8d6cc3dp-10
1054=0x1.43d20133ef329p-13
1055=0x1.90f9e8d9f15f3p-11
1056=0x1.32694836dbfep-13
1057=-0x1.9c6b7ea072f5dp-11
1058=0x1.1812341af2de1p-9
1059=0x1.323aaa09e2765p-13
1060=0x1.36ddb300427ecp-14
1061=-0x1.a32f9a367eb91p-11
1062=-0x1.3925f9bdc5fadp-18
1063=0x1.6eab87cc3641fp-11
1064=0x1.d4b9c66f73dcdp-16
1065=0x1.b8776e1a40c5ap-12
1066=-0x1.9b6cb294ef23fp-15
1067=-0x1.4748c38e27d6p-13
1068=0x1.9682b22fe16acp-13
1069=-0x1.3defee8ed0c2fp-11
1070=0x1.958655cf120fbp-13
1072=0x1.6143ae9e28a12p-11
1073=-0x1.0e8c864264897p-9
1074=0x1.6159edcbbf2cep-11
1075=0x1.5138ec04f11b4p-13
1085=-0x1.019eb7d05daa7p-12
1086=0x1.efdaf0e7319ffp-12
1087=0x1.783dc3e661218p-15
1089=-0x1.fb1779a62d787p-14
1090=0x1.019ff37b763a7p-10
1091=-0x1.0d471328d0bd8p-19
1092=0x1.8e845c79f999ep-15
1093=-0x1.e0d3156a04462p-15
1095=-0x1.50dfc3eeff44fp-14
1102=0x1.2a2cf0c0a873fp-13
1105=0x1.f02d5b09f723p-14
1108=-0x1.2a35a280b7f8ap-9
1109=0x1.3872235bc639bp-8
1110=0x1.d76b582b986a4p-11
1111=-0x1.cab0e204e6b45p-8
1112=-0x1.36fc68278237p-16
1113=-0x1.9d97bdb15b8c7p-10
1114=0x1.22148a54fe472p-10
1115=0x1.5052d9dd85e0bp-11
1116=0x1.7a738839e0d05p-13
1117=-0x1.f4c293fa618dp-15
1121=0x1.0f4b86de8b77bp-17
1125=-0x1.8d555a79b53f9p-15
1126=0x1.6f92fb71c480cp-13
1128=0x1.49eeeb5d02df4p-13
1129=-0x1.19c14a83a8f79p-10
1130=0x1.4a47323f7543p-13
1131=0x1.a83b7f030203ep-13
1132=0x1.5305580feac5bp-9
1133=-0x1.9acdb21b84038p-8
1134=0x1.9c673a5e2f7b3p-9
1135=0x1.efc56ab6f913p-13
1136=0x1.87dad0260a5f8p-16
1138=-0x1.015659f480dfcp-15
1139=0x1.f77276a626a72p-14
1141=-0x1.caca5bc262046p-14
1142=0x1.953aeacb85587p-11
1143=-0x1.224882b906213p-14
1144=0x1.2a718a9e41bcp-21
1145=-0x1.3c4d756dc91ep-10
1146=0x1.24da51dfcd2f2p-10
1148=0x1.1715d81c1764dp-11
1149=-0x1.c1331a2c82482p-10
1150=0x1.167be6543ba4p-11
1151=0x1.8c71a2521bb59p-14
1153=0x1.26d126da2fc96p-18
1156=0x1.20a0749c211p-14
1157=-0x1.22b932c586de6p-14
1158=0x1.24438cfe01eedp-14
1160=0x1.93f90b237db9ep-13
1161=-0x1.5163bae1bf525p-14
1164=0x1.0fce72cce7206p-13
1165=-0x1.cfb887d6df3a1p-12
1166=0x1.065fe2db49dc2p-13
1168=-0x1.0479816582d91p-16
1169=-0x1.3369ff76c1578p-12
1170=0x1.9fae5e812ccf1p-10
1171=-0x1.c423c011e9687p-14
1173=-0x1.5162b7a916a94p-15
1174=0x1.6ca6249962d3fp-13
1176=0x1.3e0142dd31fa9p-14
1177=0x1.8eda5d4559acp-11
1178=-0x1.ceac5d5586257p-12
1179=-0x1.1fc39a27a054dp-12
1181=0x1.5fee6e8c40b76p-18
1184=-0x1.a9afef7854f35p-11
1185=0x1.f25eda874c01ep-10
1186=-0x1.aa6787202c828p-21
1187=-0x1.3a2d929e5cbbcp-11
1191=-0x1.1be8673264c4ap-15
1193=0x1.4fc816e610ed6p-14
1197=0x1.6317798ec196dp-14
1200=0x1.3ab8d6dbad76dp-13
1201=0x1.f2f8b2d1b86eep-10
1202=-0x1.051ceb6ce4318p-12
1203=-0x1.8c8ebfd0bb5bp-9
1204=-0x1.d3d14745285bap-11
1205=0x1.2e87a03126459p-9
1207=-0x1.2e76fabfec401p-11
1208=0x1.ec958d11c141p-14
1209=-0x1.7e3eecfffa3edp-14
1210=0x1.e49e80b8c90c3p-14
1212=0x1.884f6009ee7c2p-13
1213=-0x1.342957825488cp-11
1214=0x1.85b58ccc18e5bp-13
1216=0x1.3e2f620a58016p-15
1217=0x1.d0c87e2e4515dp-11
1218=-0x1.c1437b3af53c8p-12
1219=-0x1.b7565554065e8p-12
1220=-0x1.75471d5a0ecd4p-11
1221=0x1.0e6b1325bb79dp-9
1222=-0x1.78d9484f28b6cp-11
1223=-0x1.ec866212f0813p-12
1225=0x1.175789215673p-17
1228=-0x1.0bf89169b541ap-11
1229=0x1.5738135174389p-10
1230=-0x1.70d851d1e5304p-12
1231=-0x1.f830b9c2f88ddp-13
1232=0x1.f771c5fff2904p-12
1233=-0x1.05a7e4de90a8ep-12
1234=0x1.f67605e36bfc6p-12
1237=-0x1.21e3c5a8358e6p-10
1238=0x1.0adfdc717cf75p-11
1239=0x1.5e41d23f67e77p-14
1241=-0x1.faa1d92c781edp-17
1242=0x1.53882f1cf67eep-13
1245=-0x1.041c21e634443p-11
1246=0x1.35500e04dec09p-13
1247=0x1.a48d056227c4ep-13
1248=0x1.101df2dd090a5p-9
1249=-0x1.d3027c7105fd7p-9
1250=0x1.8d25760c787c2p-10
1251=-0x1.b7786d426c9e1p-16
1252=-0x1.6a1274a1e68bfp-15
1253=0x1.3ef2dd64e4604p-12
1254=-0x1.68accbf222d6bp-15
1257=0x1.0feb6fe415543p-18
1260=-0x1.cf47eb89cb92dp-17
1261=0x1.a14dc8b4b9363p-13
1262=-0x1.d1ee5731a0fb7p-17
1263=0x1.113ca2b75c566p-15
1264=-0x1.28a41034f2dcfp-14
1265=-0x1.6441776edf1p-14
1266=0x1.0425293e06affp-11
1267=-0x1.d95b1a810b34p-16
1268=-0x1.0d0d3e30f971ap-15
1269=0x1.3ba470ba1d3bdp-12
1270=-0x1.0da1ebb4574c4p-15
1272=-0x1.a1fff7c30df98p-12
1273=0x1.085d1734041c3p-10
1274=-0x1.e51782164eeb8p-13
1275=-0x1.6f22dd5e21dbcp-13
1276=-0x1.640fb675ebbd1p-18
1277=0x1.40fa50d217f8cp-13
1278=-0x1.65d97c5f14091p-18
1280=0x1.ab9789e184bep-14
1281=-0x1.90d7d31b806e5p-14
1282=0x1.af1ce76bddc8dp-14
1289=-0x1.f37c4ddc903d4p-16
1290=0x1.687802db95fc2p-13
1292=-0x1.91ae05744a4a8p-13
1293=0x1.40e4d8943b6efp-11
1294=-0x1.9300442e8f7ep-13
1295=-0x1.1384823a36d56p-14
1296=0x1.6c0e07f192e8p-13
1297=-0x1.25a78e8e0f2c9p-11
1298=0x1.6bdcd6ceb1621p-13
1300=0x1.41c99754d0dbp-13
1301=-0x1.0afeb6d1122f6p-11
1302=0x1.3ff40ab93566fp-13
1305=-0x1.27e43880d0d7ap-14
1306=0x1.8707d74008e52p-13
1308=-0x1.17406290721fep-12
1309=0x1.007dfa66e8711p-11
1311=-0x1.c5d5ba06dc4cap-14
1312=0x1.20e57c6aad275p-13
1313=-0x1.efb903f3c1899p-12
1314=0x1.1fc65181b3a8p-13
1317=0x1.fffd980f87acap-18
1320=-0x1.3f6ee7d723faep-19
1321=-0x1.e695e3cdb5b4fp-12
1322=0x1.f32939e75288p-14
1323=0x1.96f00c215e1fp-13
1324=0x1.03fd6558f5654p-14
1325=-0x1.a91adbbaaa03fp-16
1326=0x1.023cfb78625ep-14
1328=0x1.8b2865cf17d57p-12
1329=-0x1.c6b2ec2beb634p-14
1330=0x1.871ea3acc73fdp-12
1331=-0x1.3dfbae4ecc16p-17
1332=0x1.0f34d7139d662p-16
1334=-0x1.d4750c59106a7p-17
1335=-0x1.67af57c8b2e63p-14
1336=-0x1.dd7ee68ad3dap-14
1337=0x1.accc8826ff156p-12
1338=-0x1.f24019d642891p-14
1340=0x1.a0ecf5545539ep-15
1341=-0x1.f9402725cdc2p-18
1342=0x1.0f72d8075ce51p-14
1344=0x1.ea6a3dee90e4dp-14
1345=-0x1.689e42a096fefp-14
1346=0x1.ec396ef4d5ae3p-14
1348=0x1.32adf47088d62p-11
1349=-0x1.c57c6142ca724p-15
1350=-0x1.8d76a55036486p-18
1352=-0x1.3b697dbb4d9acp-12
1353=0x1.b1146a7a9c0d9p-10
1354=-0x1.6e2e082cecbfbp-11
1355=-0x1.5491eccccb2a2p-12
1357=-0x1.faf0a607a411dp-15
1358=0x1.7a948a46b6b8p-13
1360=-0x1.e397970522747p-13
1361=0x1.4c4d675a28195p-11
1362=0x1.0cb09d47688e4p-13
1363=-0x1.f468d9859c5ddp-13
1367=-0x1.08df628c9efebp-13
1372=-0x1.de95d1b4c809ap-14
1373=0x1.bf00b55304dap-12
1374=-0x1.e351d743c810dp-14
1375=-0x1.1faafa632474ep-15
1376=0x1.2d23f5463e3cdp-13
1377=-0x1.fdfd7394eb45p-12
1378=0x1.2cdf2edb03242p-13
1381=-0x1.2c8120b162f1ep-11
1382=0x1.77d46fb75b628p-13
1383=0x1.c031c407ecd6ep-13
1384=-0x1.b82a0b623149ep-14
1386=0x1.b75daab2218b4p-12
1389=0x1.7b005e49463f6p-14
1393=0x1.2366454ac0321p-18
1397=0x1.2abd730d3645ep-18
1401=0x1.de722363180b6p-18
1405=-0x1.16b88f5cb9186p-14
1406=0x1.85bb2ba7d8b11p-13
1412=-0x1.f54e11022d1cep-11
1413=0x1.1f8705794ebfcp-8
1414=-0x1.aaedc71b17973p-10
1415=-0x1.7b14dac6f969cp-10
1417=0x1.54bced9de7716p-18
1420=-0x1.e7192ba278c61p-16
1421=0x1.1e78a53f30897p-12
1422=-0x1.e5b25f1980e56p-16
1424=-0x1.e418ec3e51a1fp-18
1425=0x1.68e974bd1906ap-13
1426=-0x1.09c7ec7cb56bbp-17
1428=0x1.258e5a82470b8p-10
1429=-0x1.b66cd4f2d8ac1p-13
1431=-0x1.291f9d900f022p-13
1433=0x1.5b5954857e536p-14
1434=-0x1.5ca4723a33051p-19
1437=0x1.3989073c75877p-15
1441=0x1.8b514e4219e97p-13
1443=-0x1.43896d89f392fp-14
1444=-0x1.845e02c8023ccp-14
1445=0x1.791f3f39b1f5ep-12
1446=-0x1.7954cce026fe8p-14
1449=0x1.d9a9453258d4p-18
1452=-0x1.4c1da07020a6ep-11
1453=0x1.1c4961d520497p-8
1454=-0x1.2c4404aeddfebp-8
1455=-0x1.49e40b491e95ap-10
1456=-0x1.25576cd7db1abp-17
1457=0x1.5c3b865c80d9ap-17
1458=0x1.3c1fa391ba404p-14
1460=0x1.6369a7ade0679p-15
1461=-0x1.80f16b3be5e1cp-19
1462=0x1.647c8f4a504f4p-15
1464=-0x1.2e6cfaad36883p-17
1465=0x1.aad5896ad6b87p-13
1466=-0x1.d58464c69e0fap-17
1468=-0x1.6336df1d0eecfp-16
1469=0x1.d82dcdb7cab4ap-13
1470=-0x1.6c84bd3c2ca46p-16
1472=0x1.b93c91a0f74c4p-15
1473=-0x1.78c7bdff2c5ccp-13
1474=0x1.aef600dca3b52p-15
1475=-0x1.eafa5bfe8336fp-15
1479=-0x1.48c447f6e2c3cp-15
1480=0x1.d092a483f5b1ep-15
1481=-0x1.30d36a7fb7f3p-12
1482=0x1.b4251fe668cbcp-11
1483=-0x1.f9d701da8fd7cp-15
1484=0x1.09e448cd75a19p-14
1485=-0x1.0b773e09e9d7cp-16
1486=0x1.0e5824c6caa94p-14
1488=-0x1.047596a98f672p-11
1489=0x1.e7031d2e05213p-10
1491=-0x1.6e44ee97cc27fp-11
1493=0x1.4646a283905b8p-13
1494=-0x1.c9c75527444ap-19
1498=0x1.f068843c9e826p-14
1500=0x1.3a94389c31edcp-12
1501=-0x1.1b57b38ea9b03p-13
1502=0x1.14a290db1b7fbp-14
1503=-0x1.4063912a778a2p-12
1504=0x1.db64d3196091p-15
1505=-0x1.3e0c27902e5cep-12
1506=0x1.cfa0a1183ea47p-15
1508=-0x1.0883179547bb4p-18
1510=0x1.dfd753554f658p-14
1512=-0x1.c368a07b83724p-13
1513=0x1.5f95ad740652ap-11
1514=-0x1.b7a8f71e2c742p-13
1515=-0x1.5c448d4ae1b58p-14
1517=0x1.fddd8769478c6p-18
1520=-0x1.3c9105f423b92p-11
1521=0x1.8cde6ab5fbac3p-10
1522=-0x1.f9012f8d9536p-15
1523=-0x1.e9b38884afc02p-12
1524=-0x1.bb09b29a95d24p-9
1525=0x1.3e646104b15c6p-7
1526=-0x1.e502850865ccp-9
1527=-0x1.d2be177b187f8p-8
1529=0x1.769d0b55bf3b6p-12
1531=-0x1.6dc3774c439c4p-13
1532=0x1.9ded7d456ef9ap-10
1533=-0x1.6b84974cfdd94p-9
1534=0x1.9dfb3497ad41ap-10
1540=0x1.6c23c815859f5p-13
1541=-0x1.248c46f48668fp-10
1542=0x1.6e0b940e6949fp-13
1543=0x1.b89a240276c84p-13
1544=0x1.e69d1e080876ep-14
1545=-0x1.d2ee74ba0b5eep-12
1546=0x1.e6b0ecbe3160bp-14
1548=-0x1.25535f3dd44eep-18
1549=-0x1.85361443d6705p-12
1550=0x1.aee263dd17958p-10
1551=-0x1.2309e0a5e3c5bp-13
1552=0x1.0a3a88d59a984p-9
1553=-0x1.0ae321d3d2f4cp-8
1554=0x1.0a7b5377c917p-9
1555=0x1.9b93dfd5ecde3p-15
1556=0x1.4e4f1cedbc2b6p-13
1557=-0x1.11c6530db0167p-11
1558=0x1.4cdf3b31dd061p-13
1560=-0x1.2d903bf2ce70fp-18
1562=0x1.47440fe2bd306p-14
1565=0x1.838e410ac42d3p-12
1566=-0x1.51216f846492ep-13
1567=-0x1.953f688b77d73p-15
1568=-0x1.44c644bf8339cp-15
1569=0x1.3a714e1baba16p-12
1570=-0x1.4428e44095a5ep-15
1572=-0x1.b8405b184f1bep-17
1573=0x1.967488f21a604p-12
1574=-0x1.cb3c1bcbea198p-17
1575=-0x1.01728470939a7p-13
1576=0x1.cb9b9425accc3p-15
1577=0x1.4283c4da979dfp-16
1578=-0x1.c58cd0b3aa2e7p-17
1581=0x1.218eff4a7e8c7p-17
1584=0x1.06f28c4335f29p-12
1585=0x1.cef66b9b5b48ap-11
1586=-0x1.0559b6fddf505p-11
1587=-0x1.647af616dd302p-12
1588=-0x1.5a24d09c3de28p-13
1589=0x1.211cf2b3c1106p-11
1590=-0x1.58658bbe1c795p-13
1591=-0x1.f31a5b8ec5728p-15
1592=-0x1.ef5f2627f73d6p-14
1593=0x1.cb3b82fe54185p-12
1594=-0x1.f9934142b9accp-14
1595=-0x1.336bead95ccb7p-15
1596=-0x1.e760c0b2ad2fp-13
1597=0x1.c80455eaa5278p-11
1598=-0x1.ed81ac5ba3cccp-13
1599=-0x1.6e7220443860ep-13
1600=-0x1.36a468b43ef3fp-13
1601=-0x1.239db81f51365p-15
1603=0x1.19cde0a749ecep-11
1604=-0x1.0548ce4fb3cccp-18
1605=0x1.c3049fca1332cp-13
1606=-0x1.c619999bcb07p-19
1609=0x1.d9c7552dde7e4p-18
1612=-0x1.c37365cfa4f54p-15
1613=0x1.3c7907f35a61ep-11
1614=-0x1.0d19954a6f8e4p-12
1615=-0x1.0dd4ae5aee3e8p-14
1616=0x1.0abe2461cf3e3p-11
1617=-0x1.1f3c0624152ddp-10
1618=0x1.099e2736449a6p-11
1621=0x1.2b52c8b1b5c42p-18
1625=-0x1.68bef4159cebcp-13
1626=0x1.894f0b7156197p-11
1627=-0x1.7c2db101c28c2p-14
1628=0x1.e86827263c45ep-16
1629=-0x1.441f253b6d84ap-16
1630=0x1.4386811a30ae1p-15
1632=-0x1.26c0da92a7186p-17
1633=0x1.06ba01627e2a5p-12
1634=-0x1.3c9c4195725f5p-17
1637=0x1.573366677fb45p-16
1641=0x1.95788ff02452ep-18
1644=0x1.5d63ff2cde996p-13
1645=-0x1.1c6e9f632cebbp-11
1646=0x1.5bce3d2ca2afdp-13
1648=0x1.3c35b067748c2p-14
1649=-0x1.72a0a26de31e2p-15
1650=0x1.41ab992b01e41p-14
1652=0x1.376207475027ep-11
1653=-0x1.5ac6277499503p-13
1654=0x1.33f5de0e541fap-14
1661=0x1.a0128ea5ecb78p-17
1665=-0x1.c4bb0e06336fbp-16
1667=-0x1.16812b81fc67fp-15
1668=0x1.8bbab15b05da9p-14
1669=-0x1.1e4ac15d82746p-12
1670=0x1.941ac093c6c47p-14
1671=-0x1.49a89ac76fd33p-13
1672=-0x1.088f5bf32bd8fp-13
1673=0x1.d6eae934386eap-12
1674=-0x1.011222da9bfe2p-13
1675=-0x1.3c45f026c1f84p-15
1676=0x1.8bd1bb22e4382p-13
1677=-0x1.369c965149401p-14
1680=-0x1.cfc367eaa4003p-18
1681=-0x1.f08704c6bb581p-16
1682=0x1.3bcbf63e75dbep-14
1683=0x1.393115073e47ap-13
1684=0x1.5051d1ebff978p-14
1685=-0x1.510946663cd5p-10
1686=0x1.3cce72c92317cp-11
1687=0x1.30c300591c5eep-13
1688=-0x1.7a3229db6d749p-13
1689=0x1.3ae715f0e5605p-11
1690=-0x1.7a92e2cecd7a4p-13
1691=-0x1.4368e710c412cp-14
1692=-0x1.5dd7457223725p-11
1693=0x1.dd98f04e34526p-10
1694=-0x1.0637d328f0febp-11
1695=-0x1.9ac9f5a1afeefp-12
1698=0x1.eadfd77d7a3cfp-14
1701=-0x1.e0b352c296267p-15
1702=0x1.dc556bc683ed7p-12
1704=0x1.0682118c936f6p-15
1705=-0x1.8790bc7c0222ap-11
1706=0x1.09fcfcef2bffap-15
1707=0x1.088082c41ff78p-13
1708=0x1.2669a8b4d0d4dp-14
1709=-0x1.c27919e4ee3bfp-11
1710=0x1.2aebff0860226p-14
1711=0x1.3d45aa63f93c9p-13
1712=-0x1.ee26a1dcae71p-18
1713=0x1.f4bf206ce0aadp-13
1714=-0x1.fef416c758be8p-18
1716=-0x1.6bb51ee46f2cdp-16
1717=0x1.7c20d92f11cedp-12
1718=-0x1.a003db008d7bfp-16
1719=-0x1.400812ba5966bp-14
1721=0x1.2d1dd62f3fd6p-14
1724=-0x1.b5d43c7741e4ap-17
1725=0x1.1cb3177f6ad7fp-12
1726=-0x1.bcc3ac6576742p-17
1732=-0x1.4da6383522bd7p-14
1733=0x1.60d23a7f8c782p-12
1734=-0x1.49e594140a632p-14
1737=0x1.017fa94dc2114p-13
1740=0x1.39c23b70867eep-13
1744=0x1.44982604b633fp-13
1745=-0x1.0c8f15f0543c3p-11
1746=0x1.45476352974ap-13
1748=-0x1.a0acd0786fc7cp-18
1749=0x1.70ca43405f26fp-13
1750=-0x1.bed9c5e8ab2ebp-18
1752=-0x1.bc945d8408486p-14
1753=0x1.a25d7687cf0b3p-12
1754=-0x1.c7bb63192bb04p-14
1757=0x1.a8027e27bc27ep-13
1760=-0x1.7de012bc94e76p-16
1761=0x1.e3b45021c9e8ap-13
1762=-0x1.9146715f35fe2p-16
1764=-0x1.d0d3fefa7d22cp-17
1765=0x1.37004321db4b3p-13
1766=-0x1.26ba1209ceaf3p-18
1769=0x1.62bfd91203005p-18
1773=0x1.78f2743d86024p-12
1774=-0x1.3934c012ba72fp-13
1775=-0x1.e62014d6c179cp-15
1776=-0x1.e954174ec4b36p-14
1777=0x1.c13700b6fb184p-12
1778=-0x1.e2efa30b27bebp-14
1779=-0x1.1ca532c01dbacp-15
1780=-0x1.d256b83df705cp-14
1781=-0x1.69cc89263a9fcp-13
1782=0x1.aaffd60199a16p-13
1783=-0x1.4c25bb96133ccp-13
1784=0x1.bc72dae3f794ap-11
1785=-0x1.496ec7d72076fp-12
1786=0x1.06ee8a26485f6p-14
1787=-0x1.491a3146b8793p-14
1789=0x1.77e92593aec97p-14
1796=0x1.afb7fcc8e2552p-9
1797=-0x1.7ac12ec4d5372p-8
1798=0x1.fc8cfa8349064p-10
1799=0x1.3a2d6ef806548p-13
1800=0x1.0646459784b06p-14
1802=-0x1.579dc58380cbap-18
1804=-0x1.6fdf1585fdbbep-17
1805=0x1.1a611b8725ae7p-12
1806=-0x1.c7fd410a77a44p-17
1808=-0x1.4a7063fb2e1bfp-15
1809=-0x1.5e111a611c8b9p-15
1810=0x1.56bb3f35b1066p-11
1811=0x1.65bf73d125bb2p-16
1812=-0x1.8384790788de5p-18
1813=0x1.6749cddf780aep-13
1814=-0x1.a7f8125ee06c9p-18
1817=0x1.26c947d733816p-13
1820=0x1.a2cabec81557p-12
1821=-0x1.15f22e7714becp-12
1822=0x1.ad34d3da149c6p-11
1823=-0x1.5eeb4c4b5612ep-15
1825=0x1.e73f6dd7be29p-19
1828=0x1.6b492ee7f632p-13
1829=-0x1.2319901222c5dp-11
1830=0x1.671e176337e6p-13
1833=-0x1.16df281fe9eaap-12
1834=0x1.9807c4011a70dp-13
1835=-0x1.8f025879a423dp-13
1836=-0x1.b60476ffc3ebdp-16
1837=0x1.33f76c20cb0fap-12
1838=-0x1.04674c182eb28p-15
1840=0x1.c54d3a10c1fe6p-13
1841=-0x1.bd27be3f7751ep-11
1842=0x1.3f05d8709d9a6p-9
1843=-0x1.8c8c98ee62a05p-13
1845=0x1.15ebfd14add36p-13
1857=-0x1.02095390edf75p-15
1859=-0x1.177ae52ca3d02p-15
1861=0x1.9acfb5fa9eb19p-16
1864=-0x1.bbea2298b09c7p-11
1865=0x1.05cd6af338187p-9
1866=-0x1.09f96612da896p-11
1867=-0x1.f812da7a2e34ep-12
1868=0x1.09b519f77f5e4p-15
1869=0x1.1fd0c4c1a415bp-12
1870=-0x1.a758d134c3303p-13
1871=-0x1.7dc8a73535b41p-14
1876=-0x1.3b5d3a37d66ffp-13
1877=0x1.0c6dd669e335p-11
1878=-0x1.417529f7e29e3p-13
1879=-0x1.7f08779b6cf25p-15
1881=0x1.338e715fddfd6p-12
1882=-0x1.0dfd130642bdp-13
1883=-0x1.370a9bc1a6839p-15
1885=0x1.2152efa36c914p-18
1889=0x1.916171ca1990dp-13
1892=0x1.2734a8f545638p-15
1893=-0x1.ad612f461e94p-17
1894=0x1.23fb40680a515p-15
1896=-0x1.f0e7fdfd2a771p-14
1897=0x1.d92c81d5ebe77p-12
1898=-0x1.ecd9d9a1e2441p-14
1899=-0x1.b955012d63a06p-15
1901=0x1.3185847dfd58bp-16
1905=0x1.50342b2832bb5p-14
1909=0x1.10ef8b038a14ep-13
1910=-0x1.9caa8aae9caf2p-19
1912=-0x1.ae35231d3b567p-14
1913=0x1.ad49a400ecdf1p-12
1915=-0x1.2d0843d185676p-13
1916=-0x1.626206ee2a5e8p-13
1917=0x1.5dc4c902ed768p-10
1918=-0x1.620b54b0d7ba8p-13
1919=-0x1.fac4d39bc33eep-15
1923=-0x1.2256547828bf3p-15
1924=-0x1.0385586024304p-15
1925=0x1.086a42292fe3cp-11
1926=-0x1.01cdb9a9eca3ep-15
1928=-0x1.1940342d35dd2p-17
1929=0x1.0ea4ae4b3f3e8p-12
1930=-0x1.303ad7aa43e2ep-17
1932=-0x1.8389950a69b93p-15
1933=0x1.4055c939a5ba9p-12
1934=-0x1.84de34e77fcaep-15
1941=0x1.1725a5372df56p-17
1944=-0x1.0977fe2739b95p-18
1946=0x1.bcfd21d875172p-14
1948=0x1.723201ec5edd2p-16
1950=0x1.688177e01f632p-16
1952=-0x1.742c2c84faef9p-14
1953=0x1.7b798a0b40941p-12
1954=-0x1.8533ef699b9d8p-14
1957=0x1.a87b0ff3d13d6p-15
1961=0x1.6b796e80e409ep-15
1966=0x1.d72dcb83d2c74p-14
1968=-0x1.1ab9b424eb27fp-17
1969=0x1.88dfbc8907239p-13
1970=-0x1.1f98c11f9931p-17
1977=0x1.6e8c6093f62fcp-15
1981=0x1.166d5b725d35fp-14
1985=0x1.b75d727cbe51cp-15
1989=0x1.18fc73e12a207p-16
1992=-0x1.3953ce8c8f2d1p-17
1993=0x1.a0853f08d3ccdp-13
1994=-0x1.45e3b05e32a22p-17
1996=0x1.3f55ffe7e68d5p-13
1997=-0x1.0881dfb38b531p-11
1998=0x1.3bd3e7d8c2da5p-13
2000=-0x1.c25a143748504p-20
2001=0x1.16ff0504a6cf7p-13
2002=-0x1.7f1253e4e78fdp-19
2004=0x1.d1fa68e684eb4p-14
2005=-0x1.335ac40f306fcp-12
2006=0x1.d105edb8d03fp-14
2007=-0x1.05d81f1ddafcp-13
2008=-0x1.97ee7b43d6afcp-15
2009=0x1.4a5604b5d597ap-12
2010=-0x1.93b8678f69ee4p-15
2012=-0x1.5a8f8df6788bep-15
2013=0x1.2c82cc987dabep-12
2014=-0x1.5e85329b5f1b3p-15
2020=-0x1.456a82395c2cdp-17
2021=0x1.0a43d50e83a84p-12
2022=-0x1.5fba81368dee2p-17
2029=0x1.9610e44a2ff8p-15
2032=-0x1.f8f215a76f119p-17
2033=0x1.b90e73f950b01p-13
2034=-0x1.161041b558fcp-16
2036=-0x1.c1802620fe47ep-17
2037=0x1.04a9e1ab1e185p-12
2038=-0x1.8b2c7c5ef7de6p-17
2040=-0x1.5b8d424c434a9p-16
2041=0x1.e16d7187b0dd1p-13
2042=-0x1.99d9a2aa53f8p-16
2044=-0x1.f88881be48f84p-14
2045=0x1.cba5c45c41dbcp-12
2046=-0x1.ec0b40d10ce9bp-14
2047=-0x1.3f7b3f7f80f67p-15
2048=-0x1.6387b7b94ec71p-18
2049=0x1.7e98cdbda6e5ap-13
2050=-0x1.5ccfc2dc3fed1p-18
2053=0x1.7db2f370968dep-14
2056=-0x1.b8f93c4252985p-12
2057=0x1.3fde7e7596814p-11
2058=0x1.ae12705097cd4p-14
2059=-0x1.b0eb7db0187e1p-13
2060=0x1.50e70db5a5e46p-13
2061=-0x1.1326fc8b7509fp-11
2062=0x1.4f9338fce73edp-13
2069=0x1.09d18bb7e0cc2p-17
2072=0x1.6ce0ae1f13995p-13
2073=-0x1.24ea9123ad4cep-11
2074=0x1.69c1679838d5cp-13
2077=0x1.c827ad028c0d2p-16
2080=-0x1.3d698672eeb91p-18
2081=0x1.d08245d90c04fp-13
2082=-0x1.348c430615efp-18
2084=0x1.34cdf7d369826p-16
2085=-0x1.0277c0c0ff50fp-8
2086=0x1.1fd12763bfcbfp-10
2087=0x1.2f7f526f76119p-9
2088=0x1.36b0630dff5ccp-13
2089=-0x1.13c365688a196p-10
2091=0x1.8d4a49994c37ep-11
2093=0x1.464512a00576p-14
2096=-0x1.756930626ad31p-15
2097=0x1.31e73baca8c67p-10
2098=-0x1.3a434bdae4dc9p-15
2099=-0x1.a56c0f181c5a1p-12
2100=-0x1.d82220527ebfbp-18
2102=0x1.5c4adc1861da4p-14
2104=-0x1.0fdd3e61a8087p-18
2106=0x1.96bbc1e154d68p-14
2109=0x1.df7d58c4c8e08p-18
2114=0x1.f063afcb8bcc3p-14
2117=0x1.a1bf61cbe3a55p-16
2121=0x1.9751eee15af16p-18
2125=0x1.0901255d2e1e4p-18
2128=-0x1.08ef77777aabap-17
2129=0x1.de371e37dfeb3p-13
2130=-0x1.12ccc4adfa042p-17
2133=0x1.5b2650f058446p-15
2136=-0x1.5b12aa4857c12p-17
2137=0x1.08ed880eac759p-12
2138=-0x1.47426b40282e6p-17
2141=0x1.14c026b671e6ap-17
2144=0x1.900df299050fep-14
2145=-0x1.1f16f0d3dc137p-14
2146=0x1.915ce98df4c72p-14
2148=-0x1.bf1ae6ffad283p-18
2149=0x1.4760805e6413cp-13
2150=-0x1.6292fed391d4bp-18
2152=-0x1.13eb5d155f7ccp-13
2153=0x1.cd97cb795b4d4p-11
2154=-0x1.68a7d165ab38fp-12
2155=-0x1.6a034b9bfeb5ep-13
2157=0x1.01ff8498fdeecp-17
2161=-0x1.89c895ffda3dep-12
2162=0x1.889053de9518dp-11
2163=0x1.3406804f87b7cp-13
2164=-0x1.ebc9813a9ef0ap-19
2165=0x1.bc5defa40f7b7p-13
2166=-0x1.ea78284e97a9ap-19
2173=0x1.c44f9fbccbe57p-16
2176=0x1.7168c3fc0c0d4p-13
2177=-0x1.27ee3bcfc215ep-11
2178=0x1.75aae82ce897ep-13
2181=0x1.7d5905584e513p-18
2184=0x1.bbeb4ad91bd6cp-15
2185=-0x1.9197e36fee47p-13
2186=0x1.ca61fbd5c4c4cp-15
2187=-0x1.a0bea1ac75fe6p-14
2193=0x1.01e63e9e61bp-13
2196=0x1.ff613363b206ap-14
2205=-0x1.dedcb3f566834p-14
2206=0x1.1fd8e87723a88p-13
2207=0x1.5d19cf9a5b6c4p-13
2212=0x1.3cacf34677194p-13
2213=-0x1.1914c6220f0ccp-13
2214=0x1.3cf49861d5ffap-13
2216=0x1.66f9c6264dc48p-11
2217=-0x1.baf642d29084p-14
2228=0x1.57529b5a3f90cp-14
2229=-0x1.b19b7727b1e5cp-11
2230=0x1.5940f1cc1ffbep-14
2231=0x1.3abf9bd1dd358p-13
2233=-0x1.35eb37b95acfep-15
2237=-0x1.0177dd579737ap-13
2238=0x1.23f39380c8534p-13
2239=0x1.597fe5084d3fap-13
2248=0x1.97af3673ec7ccp-17
2249=-0x1.b7b947313585p-14
2250=0x1.d846df2c919b8p-17
2252=-0x1.193e221d39d9p-14
2253=0x1.57c096f6cab64p-12
2254=-0x1.17555b458bea8p-14
2257=0x1.3dae7c2602fep-18
2265=0x1.2727b8db250e1p-17
2269=0x1.2c9226727e6dap-17
2273=0x1.56619c15d1fbap-17
2277=0x1.dcc98479c5fa4p-18
2280=0x1.c5b8bf1021116p-13
2281=-0x1.2479a3d3dc28p-13
2288=-0x1.850bb7fae1332p-18
2289=-0x1.28d8ea0bf55a4p-14
2290=0x1.493a109cd6a42p-14
2291=0x1.2ddf3b476dbbap-13
2293=0x1.65c887855b73ap-14
2297=-0x1.8eaf5269c2dd7p-10
2298=0x1.64bc0595bca4fp-11
2299=0x1.784ebffc3d312p-11
2300=-0x1.a3484980c92dp-13
2301=0x1.589dac66bd4e2p-13
2302=0x1.2d1c4bff4a22fp-16
2303=-0x1.0d17f3a841eb8p-14
2305=-0x1.3ccec0ba7717ep-11
2306=0x1.9516d3f106666p-13
2307=0x1.cb3272cbbfc18p-13
2309=-0x1.30833e80dfdb8p-10
2310=0x1.94a9e0b51d6cdp-13
2311=0x1.994d142d030c2p-11
2313=-0x1.43ac0f5e4569p-11
2314=0x1.a2c23eda2cb1bp-13
2315=0x1.cbf4f6a502c3fp-13
2316=0x1.5c075da9d4399p-11
2317=-0x1.84946abd5a1d2p-10
2318=0x1.bfc97c3859586p-14
2319=0x1.47881aad9b13cp-13
2320=0x1.588d6e4cc993bp-13
2321=-0x1.432d1e2fdd371p-12
2322=0x1.099b36b69460bp-14
2323=-0x1.b194252cae31bp-14
2324=0x1.3cfeee5851757p-15
2325=-0x1.4b135018ff76cp-13
2326=0x1.71ba5d2bab122p-15
2327=-0x1.c13fc77435407p-14
2332=0x1.3d55ab5479da9p-9
2333=-0x1.e92bc13a30c6cp-11
2334=0x1.9f8aaf5bcc88ap-10
2335=-0x1.48c7cb5c0ee16p-13
2341=-0x1.6d19c21fbb887p-14
2343=0x1.4214483333c08p-15
2344=0x1.9b1337881884dp-14
2345=-0x1.80d58cf8a2792p-14
2346=0x1.9fa08d3c02296p-14
2348=-0x1.9acf1f686e0ffp-15
2349=0x1.beb66295ddf4cp-14
2352=0x1.54a793d67514ep-15
2353=-0x1.5e0c7b6d940b2p-10
2354=0x1.46a4da68b7b9ep-15
2355=0x1.67bc387dcc11fp-11
2360=0x1.b2503bd210776p-9
2361=-0x1.8671d14d607dcp-8
2362=0x1.b2b69740abcc1p-9
2363=-0x1.4851de4ea7f8dp-13
2365=0x1.7989c8fe1a584p-18
2369=-0x1.fef1ab1127397p-16
2370=0x1.6787852a94253p-13
2373=-0x1.3fef1f5ea5a7ep-14
2374=0x1.92effdec675b3p-13
2376=-0x1.813c11a2eb576p-13
2377=0x1.d8c29f64351cdp-12
2379=-0x1.58c353f895f93p-14
2380=0x1.afff89e71b04bp-13
2381=-0x1.4cb7c56f2a11cp-11
2382=0x1.b19def074048p-13
2384=0x1.f14c127ea5ef2p-14
2385=-0x1.8a8a9e2329387p-14
2386=0x1.000576820aa36p-13
2388=0x1.065d99eb94613p-13
2389=-0x1.b5fa5cbc5fdebp-14
2390=0x1.073b7febc05a9p-13
2400=0x1.2aa68509c3301p-10
2401=-0x1.afe1a3e1292e1p-10
2402=0x1.308c906c17a89p-11
2405=-0x1.4bee3aad7242p-11
2406=0x1.ae663695b07efp-13
2407=0x1.d3b0f3bac9b66p-13
2408=0x1.ab561eeb75641p-13
2409=-0x1.4a8d54a8f0b12p-11
2410=0x1.ad9d5a7bddd46p-13
2412=0x1.de8151fc86dcp-14
2413=-0x1.cec5ca3f15f26p-10
2414=0x1.381756e27d676p-10
2415=0x1.3aed1a26e42f6p-13
2416=0x1.b59fa6eb8f7dep-13
2417=-0x1.4fde2d0c25c21p-11
2418=0x1.b5ad1be888d93p-13
2421=-0x1.27a56eb31ea94p-13
2422=0x1.c743973140ac1p-13
2424=0x1.b22836ef3849bp-13
2425=-0x1.4e46cd5df7e32p-11
2426=0x1.b34ae8ed01662p-13
2433=0x1.53a7acab54898p-14
2441=-0x1.495c8c873a7dcp-11
2442=0x1.aa1c0b651666bp-13
2443=0x1.d06d9f9cd2852p-13
2444=-0x1.96c18dd2fff48p-16
2445=0x1.060f92add3c54p-12
2446=-0x1.55ea602ce12ebp-16
2448=0x1.bb4ae406fe27p-13
2449=-0x1.5246895187344p-11
2450=0x1.b96362eb7cf82p-13
2452=0x1.517133e20373dp-11
2453=-0x1.7903e1f9cf79ep-10
2454=0x1.51dfd7c5447f8p-11
2457=0x1.82bea8d6c4bf8p-18
2460=-0x1.d1eaff1d3fe36p-19
2461=0x1.39dabf26d0419p-13
2464=-0x1.8874ca20baf68p-17
2465=0x1.00a16f4ccd714p-12
2466=-0x1.73d6a71e8c1eap-17
2489=0x1.e0db2b6ea996cp-18
2493=0x1.5b08e9b41ae9dp-18
2496=0x1.b9d8692242374p-13
2497=-0x1.09e1ba4c6ff5bp-13
2500=0x1.e63d04f883925p-14
2501=-0x1.01625ff278b04p-13
2502=0x1.ee7a97120c7fap-14
2505=-0x1.dd1509afc3befp-14
2506=0x1.6b33bd9098e65p-11
2513=0x1.11d4992485921p-14
2516=0x1.c30e3723aba83p-13
2517=-0x1.57413cd9b9014p-11
2518=0x1.c41e977cf8aebp-13
2521=0x1.ca0f0ff781c9p-18
2524=0x1.94ebfd77565c9p-13
2525=-0x1.3d751f7d0c1b7p-11
2526=0x1.9634a19ca2bc2p-13
2529=-0x1.365ba8d11cccp-10
2530=0x1.a98e1797173b5p-13
2531=0x1.9a030c2ae3534p-11
2532=0x1.025ca185724b1p-13
2536=-0x1.aeec2988ffaa5p-18
2537=0x1.cd3f093d5bcbep-13
2538=-0x1.49f0d83945156p-18
2544=-0x1.43dff7c102d32p-13
2545=0x1.12b79b5641f8fp-11
2546=-0x1.3c8bf00c3936cp-13
2547=-0x1.d53eb7eb4d452p-15
2553=0x1.612b6d6219483p-14
2558=0x1.b12b4a7cbacdbp-14
2560=0x1.8a3dd5c31e99bp-13
2561=-0x1.371e922675e72p-11
2562=0x1.8fc51aba890bcp-13
2564=-0x1.f953b795aeac4p-19
2565=0x1.205f1e3a5520cp-13
2566=-0x1.e8834846992e6p-19
2568=0x1.5118ea9335bb3p-11
2569=-0x1.78c544cb04ea2p-10
2570=0x1.51c022e95cffdp-11
2572=-0x1.7cb5bba36d91ap-12
2573=0x1.16406ac1795f7p-10
2574=-0x1.778d26bde44acp-12
2575=-0x1.4ae30a583f873p-13
2577=0x1.f2ee9c577feeep-15
2581=0x1.2968ece31742dp-16
2585=-0x1.b6e7a189184d6p-13
2586=0x1.c4040f30e744fp-11
2587=-0x1.ca6a5e3a4ebacp-15
2589=0x1.81e425e38f70cp-18
2593=-0x1.8ed7c6faf62b8p-14
2594=0x1.9d1a9f89010b6p-13
2597=0x1.016a31573385ep-13
2608=0x1.483b5e4d834ep-14
2610=-0x1.8e2804f2d0b46p-18
2612=0x1.07392aba01b33p-13
2613=-0x1.92d5ddac1c09p-14
2614=0x1.05ffebfbd2f9dp-13
2616=-0x1.7a324fb27fd91p-15
2617=0x1.4a58769a2aafcp-12
2618=-0x1.88d787d0a5c64p-15
2628=0x1.2ed2aabdca8f7p-11
2629=-0x1.41bf694d0ec4fp-10
2630=0x1.301ababc6330ap-11
2633=0x1.5338f968cd89ep-18
2653=0x1.678e7223a2e71p-14
2661=0x1.20f4562ef7ec3p-13
2664=0x1.9f1281ae0247p-10
2665=-0x1.6c3b9de3d88fcp-9
2666=0x1.9ec58ccdf2ecbp-10
2672=0x1.4e31e8f21c8c6p-14
2673=-0x1.2e3aa2c4f118ap-14
2674=0x1.4e3013e5fcc06p-14
2677=0x1.2c706dd992696p-18
2681=0x1.00518f3705adep-14
2682=-0x1.6034ff6aa2fa8p-15
2692=0x1.047c33ee1432ep-13
2693=-0x1.aa63128debb7cp-14
2694=0x1.0542a3852512bp-13
2696=0x1.a065da28fc96p-13
2697=-0x1.a07b2d23447a3p-14
2700=0x1.1e4d3640fb11ap-14
2701=-0x1.337da8592b7ecp-14
2702=0x1.24272e3b01c5ap-14
2704=-0x1.5dd2cab2b7bdfp-13
2705=0x1.7789f5496019p-12
2707=-0x1.8878096e3234bp-14
2708=0x1.6afed763366dap-11
2709=-0x1.96c352f091c68p-10
2710=0x1.6b348b157c02p-11
2716=0x1.9c5b0b21148ccp-13
2717=-0x1.41a5e1e5296fap-11
2718=0x1.9f361b516db81p-13
2728=0x1.419b42f0560ddp-13
2729=-0x1.2ce22718d97d4p-13
2730=0x1.447311008715bp-13
2732=0x1.f67f6c89b9b6ap-12
2733=-0x1.b0e7c937ae5dep-10
2734=0x1.1a9617ec7359ap-10
2736=0x1.a3c1764b9adep-14
2737=-0x1.6f3257dcac4a1p-14
2738=0x1.b50f009ed7dcep-14
2741=0x1.1244eae063173p-13
2749=0x1.c99280776347ap-18
2752=0x1.fefaecd83bc8p-14
2753=-0x1.df5716a9ec964p-13
2754=0x1.4f3b8a07101eep-11
2760=-0x1.1c4b5a27723d1p-12
2761=0x1.ad855bd74274dp-11
2762=-0x1.1d23ba5665e7dp-12
2763=-0x1.c5895af49f7aap-14
2765=0x1.612d40619bbf4p-14
2768=0x1.8b81043ce91a1p-11
2769=-0x1.2fb726f1ab92bp-10
2770=0x1.91b141617f98p-13
2772=0x1.767e5cfb96922p-11
2773=-0x1.160eaac2e4577p-10
2774=0x1.3e244a5e349a6p-13
2776=0x1.d3bbe4d307ee5p-12
2777=-0x1.5fee530fefbc8p-12
2778=0x1.c700b2d706b92p-11
2779=-0x1.24bc18e1fb139p-15
2780=0x1.a9352dbf7c088p-13
2781=-0x1.47bf6255af36bp-11
2782=0x1.a884e6c0afe79p-13
2792=0x1.ba88afe63965cp-13
2793=-0x1.52e2e8d5a9355p-11
2794=0x1.bc1be524b2d6p-13
2808=-0x1.4b77500294fb5p-18
2809=0x1.45a715694ce1ap-13
2810=-0x1.5d2d1b53f385dp-18
2813=-0x1.d591565a97019p-15
2814=0x1.76bed23ee8877p-13
2824=0x1.8f429e5dc4722p-13
2825=-0x1.3b03d606eafbep-11
2826=0x1.9563e000268bbp-13
2829=-0x1.ea425910659dap-15
2837=0x1.4809b49871b38p-12
2838=-0x1.3fe4c6710dec2p-13
2839=-0x1.327eab4532dfcp-14
2841=0x1.99fb4e0a7a75bp-13
2843=-0x1.41de2d84e39acp-14
2844=0x1.0b85f6c365314p-13
2845=-0x1.a124453f6ebcap-14
2846=0x1.08fa59767d002p-13
2849=0x1.1f65ccfde148dp-13
2853=-0x1.a04e6f2eddd61p-14
2854=0x1.9fe2dad080355p-13
2856=0x1.8833879eb6008p-13
2857=-0x1.2c9d6f2c5cc14p-10
2858=0x1.889b5792bdf4p-11
2861=0x1.d773063f9dd44p-18
2864=0x1.a17a32bea5cccp-13
2865=-0x1.4541eaaea7364p-11
2866=0x1.a34c59543ef8cp-13
2868=0x1.4638eed82b80cp-14
2870=-0x1.63bb9492c0676p-18
2873=-0x1.f7a089dd19bbdp-13
2874=0x1.170e3950f8b62p-10
2876=0x1.2977a38ef5ba6p-11
2877=-0x1.a8e90216d426cp-10
2878=0x1.2affbe80f137bp-11
2879=0x1.137d9ff504f0fp-13
2880=0x1.c45e7977c064fp-12
2881=-0x1.c0c510a357d66p-13
2882=0x1.ce43aa686a1ffp-12
2885=-0x1.91dd57fe393aap-15
2886=0x1.7786890b8079fp-13
2888=0x1.54ee180b5333ap-13
2889=-0x1.03abde14c7592p-16
2897=0x1.564b1f6a39dcbp-14
2900=0x1.09d573f4f73afp-13
2901=-0x1.d30ceadc2805ep-12
2902=0x1.1789cad45a028p-13
2905=0x1.8805222f65241p-14
2907=-0x1.01c5a4cc34bacp-14
2909=0x1.3258553664822p-18
2924=0x1.93027df8a584fp-13
2925=-0x1.3b8de57d9deafp-11
2926=0x1.93e0d0e538e67p-13
2932=-0x1.718a20c50c7bdp-12
2933=0x1.1365ac9ad5ab8p-10
2934=-0x1.76c1ec29e5683p-12
2935=-0x1.4a864399aa54p-13
2936=0x1.0ea2d95957162p-17
2937=-0x1.9f8f5aa155513p-14
2938=0x1.139dbe69d2811p-17
2939=-0x1.7899498b449fcp-16
2940=0x1.2b6e9a7003e2cp-13
2941=-0x1.f9772cc37d486p-14
2942=0x1.2ab738c7cd1fcp-13
2945=0x1.5d61494c9a936p-14
2956=-0x1.25264986fa8e4p-15
2957=0x1.31f34f8720e85p-12
2958=-0x1.1f8eb00a00344p-15
2969=0x1.722faf5d90589p-18
2972=-0x1.0f4e76383974fp-17
2973=0x1.cd14213cfae16p-13
2974=-0x1.09e660944ef07p-17
2977=0x1.091449472669cp-13
2980=-0x1.094d8f136da9bp-18
2981=0x1.2eb4ad2304a17p-13
2982=-0x1.cab723fe6b85p-19
2989=0x1.69cc0dbdfaf78p-14
2992=0x1.041d17fb4ed7ap-13
2993=-0x1.88db097cf526ep-14
2994=0x1.01f7fe9b3ddafp-13
3000=0x1.9a997634480cdp-13
3001=-0x1.3f26518b7e66ep-11
3002=0x1.9862aaf6e11a2p-13
3004=0x1.a01a110530f12p-13
3005=-0x1.9fb07be242829p-14
3013=-0x1.52987c094d706p-14
3014=0x1.94f6616dcd242p-13
3017=-0x1.3ea21a6ed010ep-13
3018=0x1.4bb70679b7043p-15
3019=0x1.60f6847dd3f3ep-15
3020=0x1.6e32959ec05cep-12
3021=-0x1.a13e4f5bfb5e4p-11
3022=0x1.6d541c907e17ep-12
3023=-0x1.1f8c95e50b132p-12
3025=0x1.0cdc99fc2edc7p-17
3029=0x1.64fd91f490f96p-18
3033=0x1.1cc6fc68a63cap-13
3036=-0x1.4482a32968f54p-18
3037=0x1.2c6fb3b18e7e8p-13
3041=-0x1.82d248a62fe3p-15
3042=0x1.719adf571fc81p-13
3044=0x1.72090c190f871p-13
3045=-0x1.2a26d50d0971p-11
3046=0x1.767537d8fe642p-13
3048=0x1.5fa3930ec4086p-14
3049=-0x1.7c753ed271d26p-15
3050=0x1.5e05c7630e6a1p-14
3053=-0x1.f68c211835a9ep-14
3054=0x1.b49e0cb4a09ddp-13
3056=0x1.e261e3282f6d8p-15
3057=0x1.a043893c51f05p-13
3058=-0x1.73a410d00a7f8p-13
3059=-0x1.43daff0551556p-14
3061=0x1.d4fa3261931fcp-18
3065=0x1.393fbebf67872p-17
3068=-0x1.e0963be6fc024p-15
3069=-0x1.17d208bd8dfa5p-15
3070=0x1.e9db593733f72p-12
3072=0x1.fccde987b04e2p-15
3073=-0x1.a9613717d72cep-13
3074=0x1.12030df4d5d0ap-14
3075=-0x1.e17accdcde04ep-15
3077=0x1.13daac97945c8p-18
3080=0x1.5c583cccff30ap-11
3081=-0x1.85b5ccc018311p-10
3082=0x1.5c93d60b9a87ep-11
3085=0x1.44ef2e72e618p-18
3088=0x1.ab737a694ccdap-13
3089=-0x1.48ba89d9d2aa9p-11
3090=0x1.a9966597f9e65p-13
3093=0x1.5598975ff3d9ap-14
3097=0x1.180f5d8073a27p-13
3100=0x1.3f9b6173252d4p-11
3101=-0x1.53332bce60a9ap-10
3102=0x1.3fbf7492a5edp-11
3105=0x1.92aad516942cap-18
3108=0x1.efefa85dc726ap-14
3109=-0x1.d32fa56b16ea1p-11
3110=0x1.639808f2910a6p-11
3120=0x1.08874b7d2d4ecp-13
3121=-0x1.872db59de732dp-14
3122=0x1.08c985b565154p-13
3128=-0x1.0b10580abeab8p-18
3129=0x1.bf04d3b04904dp-13
3130=-0x1.2881f7f6934bep-18
3133=0x1.225654c3b8d8dp-13
3141=0x1.372c90247811ep-14
3145=0x1.9ffed132b83c1p-13
3149=0x1.a20ec9aedb82p-13
3152=0x1.1b0876fc2cb1fp-13
3153=-0x1.e34a9ea0f066ap-14
3154=0x1.1df98efe09e1fp-13
3157=0x1.75231df619acfp-12
3158=-0x1.552d5ae46a86ap-13
3159=-0x1.86bdf5f60c286p-14
3161=0x1.0b9f1b6ca85bdp-12
3162=-0x1.03fd04fe658dap-13
3163=-0x1.c13ed2183690ep-15
3164=0x1.66ec53a82fcfcp-11
3165=-0x1.91f00394a56dap-10
3166=0x1.6723aa4329916p-11
3168=0x1.b84ebb98272ep-13
3169=-0x1.51390da847a2bp-11
3170=0x1.b9f5eb471a807p-13
3176=0x1.a93f4a1980cecp-13
3177=-0x1.4890b3f95873cp-11
3178=0x1.a9b50b0f6e7b5p-13
3185=0x1.39e57185784aap-12
3186=0x1.9847d403033b8p-18
3187=-0x1.d4289717f997cp-14
3196=-0x1.6dcb1f33a18acp-12
3197=0x1.17b32600ab9ddp-10
3198=-0x1.63470a7dd2e4ep-12
3199=-0x1.74b50d9aeec9fp-13
3209=-0x1.5007b0e97c3ccp-14
3210=0x1.9605774508035p-13
3213=0x1.547c9958dc842p-18
3216=-0x1.90bd976258088p-13
3217=0x1.586141e5dc902p-11
3218=-0x1.8d31ab240118ep-13
3219=-0x1.dce5db00412e8p-14
3221=0x1.284ac4260f9efp-17
3225=0x1.e10dcc3362c1ep-17
3229=-0x1.15be07b9f7045p-14
3230=0x1.86b2fed10ba14p-13
3233=-0x1.3ca26a4d17d69p-14
3234=0x1.ddedb8aa38708p-14
3235=0x1.547795635a13ep-13
3236=0x1.a02463bf190c8p-13
3237=-0x1.7595c1d81802ep-14
3244=0x1.b7f643ec7bb08p-13
3245=-0x1.503185188efefp-11
3246=0x1.b66624b0b60ffp-13
3248=0x1.23669795c9742p-13
3249=-0x1.eaa287d433cfp-11
3250=0x1.26ff87709189ep-13
3251=0x1.5aa4d8c6e9ca9p-13
3252=0x1.8e6dccb479676p-14
3253=-0x1.78e2eeb1ea66ap-14
3254=0x1.876bb733c9db6p-14
3268=-0x1.b860cc4c491f7p-14
3269=0x1.f632b3470bfd8p-12
3270=-0x1.aeeb4ee4a1ecbp-14
3271=-0x1.233caf4161e12p-14
3273=0x1.1e65deccb3c2cp-13
3289=0x1.667bc05910d0ep-14
3296=0x1.99ff9e611ffa6p-13
3297=-0x1.3f99fc8316ce8p-11
3298=0x1.987488b347c3p-13
3300=0x1.b291b3ce69e45p-14
3301=-0x1.29ea8c0b564c8p-14
3302=0x1.afd0799747055p-14
3321=0x1.3095e784ede4cp-19
3324=0x1.aeea2b59046cp-13
3325=-0x1.4b6ddda2130c3p-11
3326=0x1.aece93ae822d4p-13
3328=0x1.ad9a15279139ep-13
3329=-0x1.4ac8fcd8d3de8p-11
3330=0x1.ad4d1c34051eep-13
3337=0x1.a7886860fa2dap-19
3340=0x1.8f9dda64e2d8p-13
3341=-0x1.383cca9cd4042p-11
3342=0x1.90a62472cd044p-13
3344=0x1.629077afa8fa3p-11
3345=-0x1.8c30d30770c0fp-10
3346=0x1.63444bde94b54p-11
3349=0x1.0c11c1ade92f9p-14
3353=-0x1.0b1205318879bp-13
3354=0x1.bcdf2586b2f6p-13
3357=0x1.6749dd5e06f1bp-14
3364=0x1.1a5bb507edd3cp-13
3365=-0x1.0d3efd25bfe32p-13
3366=0x1.1eecd91e6a16bp-13
3373=0x1.574876906d7f6p-14
3376=0x1.5b23f8161b4bcp-15
3377=-0x1.33edfd264e2fp-10
3378=0x1.2697810cfe8cap-11
3379=0x1.fb1e97bee6be8p-14
3387=-0x1.cda4f7dafd74ep-15
3389=-0x1.d8bd40ec57322p-15
3390=0x1.94f2f9e4611bap-12
3391=-0x1.77161388cc693p-15
3392=0x1.8cc2d53ce26bp-13
3393=-0x1.38729b76ec67fp-11
3394=0x1.921530049175dp-13
3398=0x1.8d778752efc55p-14
3400=0x1.7b801025c3aeap-13
3401=-0x1.ddbee06a06795p-15
3405=-0x1.bb1c1c84d27bcp-11
3406=0x1.58e80457aadd2p-11
3407=0x1.3b63b1a99a6e2p-13
3417=-0x1.d2a531824f606p-17
3418=0x1.0f534d9f39a18p-13
3420=0x1.c53dd7aa9f16p-14
3421=-0x1.8e923ca364582p-14
3422=0x1.c805f3b662cdap-14
3432=0x1.62d910cbc84e7p-14
3434=-0x1.0fbb05693c1d3p-18
3436=-0x1.93d52a0c09b46p-16
3437=0x1.077496e8bc88fp-12
3438=-0x1.5ec2114edbd23p-16
3440=0x1.7f30eed88f81ap-14
3441=-0x1.6e87bf4c3ac2cp-14
3442=0x1.8cc2b8ea52c12p-14
3444=0x1.9e418b8cfe653p-13
3445=-0x1.414b74bd093fap-11
3446=0x1.a1652ecae5ea2p-13
3449=0x1.0211ec51db4eap-13
3453=0x1.67860c44d16e9p-14
3457=0x1.65edd7be77a7dp-14
3473=-0x1.5c2dce229d292p-14
3474=0x1.94c446efa4103p-13
3481=0x1.0328aa030f37ep-13
3484=0x1.b9a3d8eedfdfep-14
3485=-0x1.80925e63beccfp-14
3486=0x1.bf880df738d7ep-14
3493=0x1.3b58635c18d76p-18
3500=0x1.8573e68dbe014p-13
3501=-0x1.3474c40cfa2e7p-11
3502=0x1.88249209f9806p-13
3512=-0x1.21e497dfa3a4ep-14
3513=0x1.6b3acf63a86c2p-12
3514=-0x1.1edb46d4160dap-14
3515=-0x1.e9781923daeabp-16
3517=0x1.771b6a8bf0316p-14
3521=0x1.2019fd44a6757p-13
3524=-0x1.3deef4aadc27cp-15
3525=0x1.277ae94c69dacp-12
3526=-0x1.412aa6252ba49p-15
3529=0x1.65536b7b91f5ep-14
3536=-0x1.e9d21bb311eep-15
3537=0x1.402c3ad9250efp-12
3538=-0x1.f0b2010bb7c3fp-15
3539=-0x1.5bf45dd9a5332p-16
3548=0x1.035f3438bb25ap-17
3549=-0x1.a0c3168ff391bp-14
3550=0x1.3cb7512a2cf32p-17
3551=-0x1.c6ee8789eaa3ep-16
3553=0x1.1f39741542859p-13
3561=0x1.1e3a33327f2f2p-13
3577=0x1.1feabb06cb308p-13
3588=0x1.a8eefc703724cp-13
3589=-0x1.46e262b00020ep-11
3590=0x1.a86949b141032p-13
3596=-0x1.2b40771574de7p-13
3597=0x1.10af5bcd1155cp-11
3598=-0x1.27d4b9e5f5f5ap-13
3599=-0x1.350acd4fc3f4ep-14
3617=0x1.546a873e9b225p-14
3624=-0x1.5c52316a1ee22p-14
3625=0x1.9171da76e9a57p-12
3626=-0x1.5faff8a078fbap-14
3627=-0x1.824fb3144806bp-15
3628=-0x1.ea5802981013fp-13
3629=0x1.7f268a74658e4p-10
3630=0x1.9a81d26478a0ap-14
3631=-0x1.71a4a402a694ap-11
3640=-0x1.a1073c2c9adfcp-16
3641=0x1.0cd5f3f5ba973p-16
3642=0x1.78a7babe4e32p-18
3674=0x1.9726de03de1a4p-14
3677=0x1.edd1d66e5591ep-14
3705=0x1.0a2834a480149p-13
3708=-0x1.67495e804160ep-15
3709=0x1.0278a000afec8p-14
3710=0x1.5cefdf89ecc9ep-18
3716=0x1.4e4647a21346ep-17
3717=-0x1.b046bddeae326p-13
3718=0x1.0a1357030a922p-11
3719=-0x1.d6738e84c6096p-16
3721=0x1.4db22cadbb421p-14
3729=0x1.563992da5d188p-14
3732=-0x1.13499c839bb3p-15
3733=0x1.1d0da51506f25p-12
3734=-0x1.1d1ce1e74b2a5p-15
3745=0x1.8905c3339f764p-13
3749=0x1.7ed286b634018p-13
3761=-0x1.2f69b720bc2fcp-14
3763=-0x1.fe4d87df824ap-16
3780=0x1.482b9c28758a3p-13
3781=-0x1.2bf69bb427e1dp-13
3782=0x1.475752b823b04p-13
3788=-0x1.6b20ce5207f3ap-14
3789=0x1.00796dda7dd5bp-12
3790=0x1.a8c026bd921b4p-20
3791=-0x1.a35b286d083e2p-15
3796=0x1.22e45325b3a94p-13
3797=-0x1.fddad0b9bf9ap-14
3798=0x1.21759382d9c48p-13
3805=0x1.559b62eb8673cp-14
3809=0x1.4177aed1b58bep-14
3812=-0x1.f85be219199e4p-15
3813=0x1.403c8e692fb13p-12
3814=-0x1.de52f36093ec7p-15
3815=-0x1.ad547f17dbb88p-16
3820=-0x1.aeb8e37d2eb06p-12
3821=0x1.43f7e53f42fc9p-10
3822=-0x1.adb890941c543p-12
3823=-0x1.d1ef396be0fd1p-13
3824=-0x1.4a58fb4847dacp-16
3825=0x1.0b56130380a61p-12
3826=-0x1.563366744a1bp-16
3829=-0x1.63f0e4ef81cb9p-15
3831=-0x1.09c9030688ed6p-15
3833=0x1.5d45099966f18p-14
3836=0x1.2497d6b8cad18p-10
3837=-0x1.1a514d342f83ap-9
3838=0x1.24f858df243a3p-10
3860=0x1.be7e1ab47979bp-14
3865=0x1.222bc81a6d35bp-13
3876=-0x1.2b4c1dd155769p-14
3877=0x1.a2cf3f71931eap-13
3879=-0x1.12c6ac9f0c424p-15
3889=0x1.24bb3c77bd077p-13
3905=0x1.789ef40d0eaf4p-14
3906=-0x1.94bcefc8a135ap-15
3912=-0x1.9e5e1f9ccbad2p-16
3913=0x1.0c22b1a9fe5d8p-12
3914=-0x1.6cea9bd62233p-16
3921=0x1.5d92a1a144956p-14
3925=0x1.5b4ec27d38f72p-14
3928=0x1.b719295b1332p-13
3929=-0x1.4f72ce45f132fp-11
3930=0x1.b6ad5bb82c728p-13
3932=-0x1.9eb894e4de25ap-14
3933=0x1.a2720f7262191p-12
3934=-0x1.af1194dd102fp-14
3935=-0x1.2370c9cb51fb5p-15
3960=-0x1.ec96be6451012p-13
3961=0x1.93b87b06c112ep-11
3962=-0x1.ed2ec2f7f600ap-13
3963=-0x1.1ff9932dc4c16p-13
3973=0x1.1db94ad2a1602p-13
3996=-0x1.d6bfe1e89fdf1p-14
3997=0x1.ad3a3925b07eep-12
3998=-0x1.df5db152bb586p-14
3999=-0x1.9780811ac2cf8p-19
4008=0x1.d6eb14c2a5784p-11
4009=-0x1.261c2b3b60e7cp-12
4011=-0x1.04b95d56b8d94p-15
4012=-0x1.9b0fe2ff17954p-18
4013=0x1.ec8a1957e1732p-13
4014=-0x1.d8bd293c4ee68p-18
4017=0x1.69da30a2f0141p-14
4041=0x1.7b4747d0e775ap-13
4049=0x1.70d3affd4d89p-14
4053=0x1.6407347ad24f8p-14
4060=-0x1.419d0d8973432p-15
4061=0x1.28bf21e5632d6p-12
4062=-0x1.41246a6888a4p-15
4068=-0x1.611dc271c0e67p-18
4069=0x1.4870297ce7ffap-13
4070=-0x1.3e3e86d5e54fdp-18
4085=0x1.ad82bc8612fcbp-13
4088=-0x1.80b68923b545dp-15
4089=0x1.971c9c9fa96a1p-12
4090=0x1.a32c9b9139213p-16
4091=-0x1.265cf31820d03p-13
4094=0x1.1793b17a47697p-14
4097=-0x1.41401692e1ce4p-11
4098=0x1.9ec040076061ep-13
4099=0x1.c68e530673b06p-13
4100=0x1.4abcebd42d286p-13
4101=-0x1.4a9e70167997ap-15
4105=0x1.55cdedb09326ep-14
4128=0x1.cf0d93b1eb153p-11
4129=-0x1.e348993a1da24p-12
4130=0x1.cd2aa54491428p-11
4131=-0x1.1aa64a58721e6p-15
4157=-0x1.c0e456a0661aep-14
4158=0x1.a8e990c3162d8p-13
4160=0x1.25aeebc11219p-13
4161=-0x1.a760afd8773d9p-17
4177=-0x1.f9519781285ebp-14
4178=0x1.b494d1cd11b33p-13
4185=0x1.1c036f5b30a51p-13
4192=-0x1.b2ece062213eap-16
4193=0x1.1a310d41fe6f2p-12
4194=-0x1.a218e96df9e0dp-16
4204=0x1.0e1c778a6e4p-13
4205=-0x1.c74c3e2b2ac84p-14
4206=0x1.0cac84212ff83p-13
4217=0x1.4097b45ef0da8p-14
4221=0x1.5b274ef84a2fap-14
4225=0x1.7d25d1f1c7c2ep-13
4261=0x1.1da4a79e3096ap-18
4272=-0x1.227c5951504fdp-14
4273=0x1.64c65c5203e57p-12
4274=-0x1.22a193ec014a8p-14
4275=-0x1.b23aab20f4973p-16
4285=0x1.69be63f96329fp-14
4293=0x1.a44ca86a24c6p-13
4301=-0x1.a36c3f625d0abp-14
4302=0x1.4168d92b1d19cp-11
4309=0x1.682f1a90461p-14
4333=0x1.5362a03f5ab89p-14
4336=-0x1.da59bd3b0202ep-17
4337=0x1.fb9f32b471ca6p-13
4338=-0x1.b611739084ab2p-17
4345=0x1.668412fa41103p-14
4353=0x1.4c08607358378p-14
4361=0x1.fff2b73058a8fp-14
4368=-0x1.8ac32e0eb0683p-13
4369=0x1.4ff0d79bd5698p-11
4370=-0x1.2101e5f728e1ap-13
4371=-0x1.def81f31dee51p-14
4373=0x1.a3932ba74340cp-13
4405=-0x1.f6bdba73e5e2ap-14
4406=0x1.b39688f1cdc72p-13
4408=0x1.b1d0cdf716fc5p-13
4409=-0x1.4c909f8601c3ep-11
4410=0x1.b0cc913232564p-13
4421=0x1.19823557575b1p-14
4428=0x1.a4fcf23354c3bp-13
4429=-0x1.446151322e007p-11
4430=0x1.a352e928f7ddcp-13
4437=0x1.5ffdece3db2f6p-14
4441=0x1.89ce25df2e3b1p-13
4449=-0x1.6a81a135909eep-16
4450=0x1.2d1283d35f708p-13
4477=0x1.16682343796d6p-13
4480=-0x1.3a43d73ab35c4p-13
4481=0x1.1a263a2001a74p-11
4482=-0x1.3c5d7b05c4ea9p-13
4483=-0x1.39a97d5d2b988p-14
4489=0x1.7605094c350f4p-14
4497=0x1.6301ea5a6132cp-14
4516=-0x1.f067437b07612p-19
4517=0x1.29da9d35f072bp-13
4520=-0x1.1eb22a263da5bp-17
4521=0x1.11f1c389efd82p-12
4522=-0x1.4f982e840e50ap-17
4529=0x1.b670dc1df766bp-13
4533=0x1.b184999c7e544p-13
4537=0x1.b943806719beep-13
4538=-0x1.c0998b6e21d3cp-19
4565=0x1.f58ebc5b52a16p-14
4581=0x1.a1ee11ae20538p-13
4585=0x1.6174eba4da371p-14
4605=0x1.3aab5a1d059b1p-14
4609=0x1.524b644d125e6p-14
4612=-0x1.53ef640f71149p-14
4613=0x1.46180c949f997p-13
4615=-0x1.2e3c836b6e32p-21
4616=-0x1.62d9ae6b8157cp-14
4617=0x1.a13892800bb9cp-12
4618=-0x1.5fc9312163b6dp-14
4619=-0x1.9598547672d67p-15
4633=0x1.11b1dec559483p-14
4649=0x1.41125e3cd6b4ep-14
4656=0x1.2692f2be12c7ap-13
4657=-0x1.8a51707bb9fcp-16
4665=-0x1.7282fb7a1e90cp-16
4666=0x1.2ec0db3ce0a1ap-13
4685=0x1.566c585283d99p-13
4686=-0x1.d09a02f1ad522p-19
4689=-0x1.4c5b8d553da3ep-11
4690=0x1.b0f121529c116p-13
4691=0x1.ce80761cec4a3p-13
4704=-0x1.f5bac9ad4ec32p-14
4705=0x1.ddf16373192fcp-12
4706=-0x1.00c9e79da2575p-13
4707=-0x1.ac628b83c0732p-15
4708=-0x1.0645be0f143cp-18
4709=0x1.b16f680b0b614p-13
4710=-0x1.4a708e63b6f8cp-18
4717=0x1.68396d387d913p-14
4733=0x1.55d4ab4aa9ffp-14
4736=0x1.4d513f7a6a394p-14
4737=-0x1.fc71c4f66f0e2p-13
4738=0x1.516d9f02d96f4p-14
4739=-0x1.4027d229e24e5p-14
4741=0x1.aa929ea470be2p-13
4742=-0x1.df65d0716008cp-19
4744=-0x1.d2cae911a3504p-19
4745=0x1.af28ffb222e7fp-13
4746=-0x1.f3e5ad0401dep-19
4752=-0x1.d95b05eb5dcecp-19
4754=0x1.3f04ae7cf5064p-16
4761=0x1.4c0fdcf2715c9p-14
4772=0x1.8d642f55e19c4p-10
4773=-0x1.33f6f61e2e956p-9
4774=0x1.bbd0b12b26ad6p-11
4775=-0x1.3d72c4800859p-15
4788=0x1.9d90add2e9988p-13
4789=-0x1.413885b26b94cp-11
4790=0x1.9ccb955bb39ddp-13
4792=0x1.a6d88f547d916p-13
4793=-0x1.466fa7f8edbbp-11
4794=0x1.a6a75289a97ap-13
4796=0x1.b5a4e59985bdap-13
4797=-0x1.fd56af882fdd7p-14
4805=0x1.bb4057453fc5cp-19
4808=-0x1.05b76120ae81ap-17
4809=0x1.e929d43175cdcp-13
4810=-0x1.e6de306044df8p-18
4813=0x1.862c55ffbeb1dp-13
4821=0x1.371700f91e4dp-18
4824=-0x1.7d6bbd6e019b7p-15
4825=0x1.3a8eed12c658ep-12
4826=-0x1.87df4e618f945p-15
4837=0x1.0923f17d26e74p-13
4844=-0x1.f9cc1e0e7cc5p-19
4845=0x1.2c1cb6c989d32p-13
4846=-0x1.0c75971960728p-18
4853=0x1.79cbb1017ffdp-13
4857=0x1.71276b01e61c8p-14
4860=0x1.a610149708d39p-13
4861=-0x1.45e2b096a9ae5p-11
4862=0x1.a4a4c2cb9c6e4p-13
4889=-0x1.35bda52f45bp-10
4890=0x1.9091f70ca0664p-11
4891=0x1.cbf8d235d0d94p-13
4897=0x1.64066673feb84p-14
4905=0x1.0b25e888e0ap-13
4909=0x1.13e542da3b1d5p-16
4912=0x1.1e917c8b1080cp-14
4913=-0x1.eeae49978bab8p-15
4914=0x1.18990bc1c7bf3p-14
4917=0x1.71363638d1276p-14
4921=0x1.7750fd1b91839p-14
4933=0x1.1a4226ad15759p-13
4944=0x1.a7af23152b896p-13
4945=-0x1.45bc705d858dcp-11
4946=0x1.a55c70d05ec8p-13
4956=-0x1.66bb65d127f3ep-15
4957=0x1.010138cfd2e03p-14
4958=0x1.d8a49ae5de294p-20
4961=0x1.6b39e5bb492e8p-14
4964=0x1.abe112d7ff7b2p-13
4965=-0x1.48197532ca84cp-11
4966=0x1.a8dd9c7739d48p-13
4973=0x1.1a258b79c21c6p-13
4989=0x1.05771e93dc731p-16
4993=0x1.f172f25192fa8p-18
4997=0x1.fa21fe49dd6d4p-19
5005=0x1.202cd8f406a4fp-17
5012=0x1.12d91b56cbe98p-13
5013=-0x1.c549ab557b6c7p-14
5014=0x1.0fb7f2d6310bfp-13
5020=-0x1.4031730ebe9c8p-18
5021=0x1.cfbad90e127fbp-13
5022=-0x1.72964965ce25fp-18
5052=-0x1.84264ce4bce54p-15
5053=0x1.67f509eefdf55p-14
5056=0x1.40730865504e6p-14
5057=-0x1.a424f9dc925f5p-11
5058=0x1.404b231ef871p-14
5059=0x1.37c8ddd2d24p-13
5068=0x1.a2e157860fbccp-13
5069=-0x1.433a8e8875aa4p-11
5070=0x1.a03ffe0aa1a6cp-13
5073=0x1.3ce7293ce5dc7p-18
5077=0x1.66176ee831473p-14
5081=0x1.6385605b026a8p-14
5088=0x1.a5dd44914f4ccp-13
5089=-0x1.45066a9d89b87p-11
5090=0x1.a33c2e76c3866p-13
5096=0x1.7305860850aacp-15
5097=-0x1.8a9dc0b1bbd4dp-16
5098=0x1.81c1268d2bb5dp-15
5111=-0x1.3c6668fa26758p-15
5121=0x1.5d3b6ef1d6fa8p-14
5128=0x1.7d59047ecb7a6p-13
5129=-0x1.2b15bc75e00fcp-11
5130=0x1.79066a083b6aep-13
5132=-0x1.f6fab44a92bcap-19
5134=0x1.66510ff778591p-14
5141=0x1.c36b711379968p-19
5145=0x1.d93a7ba260ap-19
5149=0x1.1da20287f9beap-18
5160=0x1.c670cf04255dcp-15
5161=-0x1.74f6163c5cdacp-13
5162=0x1.a50a72b4b57bp-15
5163=-0x1.fe1ccb572c5cap-15
5169=0x1.2ae1654be2ab6p-13
5170=-0x1.f2e229833fd6ep-19
5184=-0x1.d63b53b8eb949p-17
5185=0x1.0d7317a5b6f22p-11
5186=-0x1.c39dcc6eb8dfep-13
5187=-0x1.60946442ade7dp-14
5193=0x1.5c9fb1d7b72f7p-14
5205=0x1.605b0818582fcp-14
5233=-0x1.0a0fd8a1e59a8p-14
5234=0x1.81f857f909f5cp-13
5236=0x1.ff70dfd2209abp-10
5237=-0x1.59317a02470edp-9
5238=0x1.9a2eb7d93aa5cp-11
5239=-0x1.1411b6a6d13e6p-14
5240=0x1.74db459e9cac5p-10
5241=-0x1.15af31823e1d8p-11
5242=0x1.7764168e9fecbp-10
5243=-0x1.4ffc9e1e88fdep-13
5244=0x1.27d5e36d1dc19p-7
5245=-0x1.e70d13149c974p-7
5246=0x1.1676a4d03b6f4p-7
5247=-0x1.1ada9c1cba2ep-11
5249=0x1.7f50f2d14fe04p-18
5253=0x1.f7d458ef8d3p-14
5256=0x1.eaa064d9a16cbp-14
5257=-0x1.74e8be5d2c4f7p-14
5258=0x1.f432838ee1a38p-14
5260=-0x1.1e25c7e756825p-18
5261=0x1.3194737842154p-13
5264=-0x1.9ee41c9b03f91p-18
5266=0x1.167232babb26ap-14
5268=0x1.ac0cf07716d72p-14
5269=-0x1.3ee7f09279a68p-14
5270=0x1.b9ac5ad47ab44p-14
5273=0x1.456ac06c565dap-18
5276=-0x1.23bd36d6f5bbep-13
5277=-0x1.9a664da8b4e76p-15
5278=0x1.b2923c3da58bcp-11
5279=-0x1.48f74a37502aep-15
5280=0x1.0c4e65099bd58p-10
5281=-0x1.fd749c3d202e6p-10
5282=0x1.0ca74caeb6901p-10
5284=0x1.2009127de35dcp-11
5285=-0x1.d9145b120b248p-14
5286=0x1.bb3e9fe59f73fp-16
5289=0x1.fde7badb5998ap-14
5292=0x1.d87446037527ap-14
5293=-0x1.638592a848396p-14
5294=0x1.d9fd542801071p-14
5300=-0x1.29b3a1943e647p-15
5301=0x1.2188a03d25871p-12
5302=-0x1.0d69e8ab2c685p-15
5308=0x1.5a13ebee730dap-11
5309=-0x1.554823eb2b62dp-14
5313=0x1.c894b30f5415p-19
5316=-0x1.096b87926e818p-15
5317=0x1.0ff7ab3f1fccp-24
5318=0x1.088a0548db2edp-15
5328=0x1.498c7adc0a11ep-13
5329=-0x1.9b427f914b34p-20
5333=0x1.04ffe3f604328p-18
5336=0x1.935db09676afep-10
5337=-0x1.7315df58c6618p-9
5338=0x1.93ffb2fe2df66p-10
5339=-0x1.1a920d67f383ap-15
5340=0x1.97754069a5989p-13
5341=-0x1.716cb87cd7191p-14
5348=-0x1.8c892e2f7cf9bp-18
5349=0x1.5073984052636p-13
5350=-0x1.1d46101eea293p-18
5353=0x1.c9e66a9251dc1p-17
5356=0x1.679f000bfb6b9p-14
5357=-0x1.1352ff187f60ep-14
5358=0x1.6cca21001e516p-14
5360=0x1.77d2fcb595b3ep-13
5361=-0x1.2b5989ed9193bp-11
5362=0x1.7babc710c30f4p-13
5366=-0x1.1e36923449a25p-16
5367=-0x1.24c036ae14e6bp-14
5369=0x1.5b4ae4da4b944p-18
5373=0x1.eb26982db2ec6p-18
5377=0x1.0e759c5682c9fp-17
5381=0x1.882f33238e3d6p-18
5389=0x1.9e67077a36628p-18
5393=0x1.596693f4d4654p-18
5397=0x1.35067d95d46b9p-17
5401=0x1.dcb8936123ad2p-19
5405=0x1.14fb57e822ea5p-13
5421=0x1.d88de0894737cp-19
5425=0x1.307a6fe04e4a2p-17
5429=0x1.8bde71d9ffd58p-19
5432=-0x1.044a6c45a8af6p-17
5433=0x1.7452130c648d1p-13
5434=-0x1.d748c1e895a03p-18
5436=0x1.14865712945adp-14
5437=-0x1.b65187d2622c5p-15
5438=0x1.1a2eb5dd12f52p-14
5440=0x1.553afb7ecb03bp-11
5441=-0x1.7dba93acf1c6cp-10
5442=0x1.5528df6d68818p-11
5444=0x1.720023af1199fp-13
5445=-0x1.a33d45a017aabp-15
5449=0x1.791c9c6212298p-16
5453=0x1.52dce93017bfep-16
5461=-0x1.ed1d211125f72p-16
5462=0x1.6a75652ca2c3p-13
5464=0x1.6be5b69ea9485p-13
5465=-0x1.2433d659a274ap-11
5466=0x1.6b8898b9324b2p-13
5469=-0x1.cd2de4ab3fc6cp-15
5470=0x1.76ce1906e94f2p-13
5472=0x1.82760d32685ecp-11
5473=-0x1.25e2de62f0c34p-10
5474=0x1.71eed4f2b0ecfp-13
5476=0x1.1ca3a71a1dbdbp-9
5477=-0x1.1a29cc6a451dap-11
5478=0x1.6404846226f3ap-14
5479=-0x1.7618629952326p-13
5481=0x1.6fe5170e13b22p-14
5489=0x1.1364b963dc603p-18
5493=0x1.ffb08a465d922p-14
5500=-0x1.65cc49a8e2172p-15
5501=0x1.356105ea5e9b2p-12
5502=-0x1.44d338b328ecep-15
5512=0x1.8f1c8deb71b42p-13
5513=-0x1.38640f9c547fap-11
5514=0x1.8fbda3dfaec5cp-13
5517=0x1.54b4481907c6ap-16
5520=0x1.78772282722b4p-13
5521=-0x1.d62ced0d3ccfap-15
5524=0x1.ca45c6bd1555p-15
5525=-0x1.4ad78c0fc4a5dp-15
5526=0x1.d935727143354p-15
5528=0x1.8aaa2fd1be7ap-13
5529=-0x1.26de85210e1f6p-14
5536=-0x1.42fccaf2cba93p-18
5537=0x1.3c1fa35d5fd33p-13
5538=-0x1.0d676854e1591p-18
5540=0x1.8a9a6643c9b26p-13
5541=-0x1.36b089cada6d5p-11
5542=0x1.8c8c4fb6c47cap-13
5545=0x1.ddcb49157f788p-19
5548=0x1.9a27513d0b815p-13
5549=-0x1.3f00782ffa4adp-11
5550=0x1.9854c06ce1ea4p-13
5552=-0x1.fed21dbf2ee44p-19
5554=0x1.770e9c7efd5e1p-14
5556=0x1.652f775933602p-14
5557=-0x1.0c37374182abbp-14
5558=0x1.674a5c5d479cbp-14
5576=0x1.8524b363b2622p-13
5577=-0x1.33d9778143465p-11
5578=0x1.85d03bfe7f0e6p-13
5580=0x1.8a47889e64532p-13
5581=-0x1.378e1f23ab02cp-11
5582=0x1.8b461b3f1bc9p-13
5585=-0x1.66791227d44bdp-14
5586=0x1.954d85eb75f9p-13
5588=-0x1.99e8ed54ca1acp-13
5589=0x1.4677f39f1a2ccp-11
5590=-0x1.99d5fb5f09f2cp-13
5591=-0x1.21fc1c6f38396p-14
5593=-0x1.d35fb93e5f7f9p-14
5594=0x1.ab9e0a9e053eep-13
5601=0x1.c2a1372dc94dcp-19
5604=0x1.8a96523aba7c9p-13
5605=-0x1.36e7b99094dc4p-11
5606=0x1.8e934d5c3ae78p-13
5609=-0x1.17e2742d6505fp-14
5610=0x1.87d70b363e772p-13
5612=0x1.9fea4c49b8f29p-13
5613=-0x1.433eaa588a26ep-11
5614=0x1.a0d8d63f45f1ap-13
5616=0x1.97dd741c964fp-13
5617=-0x1.3ddab5dbeb5f5p-11
5618=0x1.98a97fa6f2dacp-13
5620=0x1.c49a54e848186p-15
5622=-0x1.12fc511ec6c46p-18
5624=0x1.182fa02b5929dp-10
5625=-0x1.3789f8a89fc14p-13
5626=-0x1.a2aebbd59d44cp-15
5628=0x1.a077969ff0edfp-13
5629=-0x1.435881e45c988p-11
5630=0x1.9e7c2687fb7bbp-13
5632=0x1.bab800ee7dcc1p-13
5633=-0x1.3b4698b8aebacp-10
5634=0x1.94f9986b8510ep-11
5637=-0x1.eb4b6e4e3c877p-14
5638=0x1.b0aa6b82ca375p-13
5644=0x1.74a8165cd052dp-14
5645=-0x1.bc2110ce0dacbp-11
5646=0x1.5772798effb6ep-11
5648=-0x1.2ad52a21c66d5p-18
5649=0x1.361b223626d27p-13
5650=-0x1.2f1fc92a31c4dp-18
5652=-0x1.40a5f6ddb7e02p-17
5653=0x1.a024d5b44e4c6p-13
5654=-0x1.4fe170bb27107p-17
5656=0x1.81fdb176d51c9p-14
5657=-0x1.db3bae8c635f8p-15
5658=0x1.81c4889ce2191p-14
5660=0x1.a6e25c46004fep-13
5661=-0x1.471090e4f3cc9p-11
5662=0x1.a65f172370b7fp-13
5665=0x1.e0213db8d3d0ep-17
5669=0x1.9fa9af843fc32p-18
5673=0x1.d834674171f9p-18
5677=0x1.c5d062400d738p-22
5680=-0x1.220f40cab50afp-18
5681=0x1.3ff50346de9a4p-13
5682=-0x1.c3bc52618cc0ep-19
5692=0x1.099cf3140509cp-13
5693=-0x1.b7f94114b5284p-14
5694=0x1.0d6a1ad8c7c32p-13
5697=0x1.545ca896b6b88p-18
5701=0x1.00fafcd9a43cp-18
5708=0x1.9fcbe56123c8ep-13
5709=-0x1.4326213cacc64p-11
5710=0x1.a1208f2c785cdp-13
5712=-0x1.e8dc54d8eeb6p-17
5713=0x1.11296f9947c4cp-12
5714=-0x1.38cfbfec40a0cp-17
5717=0x1.9ac3935c8dcbap-18
5721=0x1.11b75b44d61ebp-17
5732=0x1.b443e35881d7cp-13
5733=-0x1.4f15e70c1c818p-11
5734=0x1.b503b0fe82f76p-13
5737=-0x1.2f26f74408099p-14
5738=0x1.8fb4021ed35b4p-13
5741=0x1.5aafb88d2e39fp-17
5744=0x1.550f3211956b2p-16
5745=-0x1.f16bfb4b8ca24p-19
5746=0x1.6805d653e657ap-16
5748=-0x1.b44ac6dc6f51ap-15
5749=0x1.2c8878f764f05p-12
5750=-0x1.64673f4b9ef36p-15
5753=0x1.94b77e67c4398p-16
5757=0x1.dfe24d1ece7d2p-16
5760=0x1.67805ba37793ep-13
5761=-0x1.2254f7446184dp-11
5762=0x1.713669ed4451ap-13
5764=0x1.01d6dba3842fcp-13
5765=-0x1.350fa045cbc72p-19
5768=-0x1.10fb153a92a14p-17
5769=0x1.73c1a2977b7acp-13
5770=-0x1.1256327e82b89p-17
5772=0x1.7581d12d352d9p-13
5773=-0x1.2c28b093b03cap-11
5774=0x1.7915bbfa8e922p-13
5777=0x1.465143a9e269fp-18
5788=0x1.b7f4d55c1e496p-11
5789=-0x1.997d0adb54522p-12
5790=0x1.b9b535d2a4d8cp-11
5791=-0x1.32f423ebcb1eap-15
5793=-0x1.0e3de94e8e19dp-14
5794=0x1.854d380e9fb6cp-13
5796=0x1.63796a6957ee2p-13
5797=-0x1.1fde01331c72dp-11
5798=0x1.66221d53fd666p-13
5801=0x1.25802551939dep-17
5804=-0x1.a8fe49a38a35dp-18
5805=0x1.3c8a061e9cc7fp-13
5806=-0x1.3d329eb0c4f3dp-18
5808=0x1.a650a4793cfc8p-13
5809=-0x1.473d5da69f7acp-11
5810=0x1.a5b664b1d92d3p-13
5812=0x1.88aee71cd0dfp-13
5813=-0x1.1295a8847b1bbp-14
5824=0x1.b05e2b25b364cp-13
5825=-0x1.4c088880280bap-11
5826=0x1.af61cae951b9ep-13
5829=0x1.3eb6de3f5dc9ep-18
5832=0x1.6372d7be97e54p-13
5833=-0x1.12b0696a0b0a2p-15
5837=0x1.38e56b405c432p-16
5845=0x1.1b160b9027734p-18
5849=0x1.63f133cced2efp-16
5852=0x1.a5b9b8bbc206dp-13
5853=-0x1.46d2deceea6ddp-11
5854=0x1.a67c80334728ap-13
5857=-0x1.c2ecd33151043p-15
5858=0x1.7836742a5407p-13
5868=0x1.9e13c61e05e5ep-13
5869=-0x1.42869975e2856p-11
5870=0x1.a24b92f3c8546p-13
5872=0x1.99e540d3ad8b3p-13
5873=-0x1.88dbd88e9fe9ep-14
5877=-0x1.1c92150450755p-14
5878=0x1.8b0722d01b16fp-13
5881=0x1.5464b5251a49fp-18
5884=0x1.97a461aea0cb3p-13
5885=-0x1.3df4564a76566p-11
5886=0x1.97cff521430cp-13
5889=0x1.1da007fce19cdp-18
5893=0x1.745b653fa148ap-18
5896=0x1.96ac9d91098f6p-13
5897=-0x1.502a58d7fd537p-14
5909=0x1.0d4295f495e64p-18
5913=-0x1.13ce3bdd238b7p-17
5914=0x1.52a39a8dd3a9fp-13
5916=0x1.67ba061274cb3p-13
5917=-0x1.3b141b7af1078p-15
5920=-0x1.130983ca1b07bp-13
5921=0x1.b9e6ff73d6874p-16
5922=0x1.97ac92aaa112ep-12
5923=-0x1.b2dd2312d6e84p-18
5925=-0x1.1b99c4ac194aep-10
5926=0x1.0f1a8317842bep-11
5927=0x1.ed849d43554c8p-14
5929=-0x1.196b642698bbfp-14
5930=0x1.86538e1d0ccf3p-13
5932=0x1.5ada6c1ad812ap-13
5933=-0x1.1a6ae3f0b257bp-11
5934=0x1.5e98842f5f8e2p-13
5940=0x1.9ef29c133d01bp-13
5941=-0x1.428eb3ae84532p-11
5942=0x1.a004f6bbdc34p-13
5944=0x1.80c5003d57cb2p-13
5945=-0x1.fe6469636a01bp-15
5952=0x1.9e42565c4c14ap-13
5953=-0x1.4122e3c3926fp-11
5954=0x1.9f3feb88081e2p-13
5957=0x1.73705117f8b6ep-15
