#mdl#2#1529
#rdr#31/9/0
9:u:%x[0,0],
10:u:%x[-1,0],
9:u:%x[1,0],
9:u:%x[0,1],
10:u:%x[-1,1],
9:u:%x[1,1],
9:u:%x[0,2],
10:u:%x[-1,2],
9:u:%x[1,2],
9:u:%x[0,3],
10:u:%x[-1,3],
9:u:%x[1,3],
9:u:%x[0,4],
10:u:%x[-1,4],
9:u:%x[1,4],
9:u:%x[0,5],
10:u:%x[-1,5],
9:u:%x[1,5],
9:u:%x[0,6],
10:u:%x[-1,6],
9:u:%x[1,6],
9:u:%x[0,7],
10:u:%x[-1,7],
9:u:%x[1,7],
9:u:%x[0,8],
10:u:%x[-1,8],
9:u:%x[1,8],
9:u:%x[0,9],
10:u:%x[-1,9],
9:u:%x[1,9],
2:b:,
#qrk#4
4:pA_B,
4:pA_I,
4:pA_L,
4:pA_U,
#qrk#1932
8:u:all\o^,
6:u:_x-1,
4:u:c',
5:u:INT,
9:u:PRO:DEM,
9:u:ARTIC_U,
6:u:VP_B,
4:u:10,
4:u:15,
4:u:12,
3:u:7,
3:u:8,
4:u:83,
4:u:81,
4:u:43,
4:u:42,
4:u:44,
4:u:40,
2:b:,
5:u:est,
10:u:VER:pres,
6:u:VP_L,
6:u:_x+1,
5:u:oui,
3:u:6,
4:u:82,
4:u:38,
4:u:41,
4:u:37,
6:u:\c,a,
4:u:va,
3:u:9,
4:u:17,
4:u:39,
4:u:et,
5:u:KON,
4:u:11,
4:u:26,
5:u:toi,
9:u:PRO:PER,
6:u:NP_U,
5:u:dis,
6:u:VP_U,
4:u:14,
4:u:je,
4:u:13,
9:u:voulais,
10:u:VER:impf,
4:u:te,
4:u:80,
10:u:demander,
10:u:VER:infi,
4:u:86,
8:u:demain,
5:u:ADV,
7:u:AdP_U,
4:u:84,
4:u:vu,
10:u:VER:cond,
5:u:que,
4:u:on,
3:u:a,
5:u:qu',
5:u:une,
9:u:DET:ART,
6:u:NP_B,
7:u:heure,
5:u:NOM,
6:u:NP_L,
6:u:pour,
5:u:PRP,
6:u:PP_B,
8:u:manger,
6:u:PP_L,
4:u:85,
5:u:euh,
6:u:VP_I,
5:u:dit,
3:u:5,
7:u:aille,
8:u:dehors,
4:u:hm,
4:u:31,
3:u:4,
4:u:88,
4:u:NA,
6:u:sais,
5:u:pas,
4:u:en,
5:u:ADJ,
6:u:fait,
7:u:parce,
4:u:28,
4:u:le,
6:u:truc,
4:u:21,
4:u:35,
4:u:19,
4:u:20,
4:u:18,
4:u:29,
4:u:j',
4:u:ai,
8:u:encore,
4:u:33,
4:u:de,
9:u:monnaie,
4:u:ah,
7:u:ouais,
6:u:donc,
4:u:du,
6:u:coup,
10:u:voudrait,
6:u:dire,
11:u:mangerait,
7:u:genre,
4:u:25,
4:u:un,
10:u:sandwich,
5:u:non,
6:u:vrai,
6:u:AP_U,
7:u:AdP_B,
6:u:trop,
7:u:AdP_L,
4:u:87,
3:u:1,
5:u:top,
7:u:enfin,
4:u:27,
10:u:VER:pper,
3:u:2,
4:u:24,
4:u:32,
4:u:22,
7:u:comme,
4:u:23,
4:u:m-,
4:u:f-,
10:u:VER:simp,
12:u:ARTIC_U200,
4:u:me,
4:u:34,
8:u:saoule,
5:u:peu,
5:u:des,
9:u:PRP:det,
12:u:sandwiches,
9:u:voil\a`,
10:u:d\e'pend,
4:u:si,
4:u:il,
6:u:nous,
9:u:l\a^che,
7:u:avant,
4:u:ou,
4:u:30,
7:u:FNO_U,
4:u:d',
8:u:accord,
4:u:tu,
8:u:retard,
9:u:PRO:REL,
6:u:voit,
3:u:y,
4:u:la,
6:u:NP_I,
7:u:queue,
5:u:\a`,
6:u:PP_I,
8:u:limite,
6:u:veux,
4:u:ok,
10:u:VER:subp,
6:u:\e'-,
10:u:VER:futu,
9:u:\e'tait,
11:u:pr\e'voir,
5:u:moi,
7:u:aussi,
6:u:faut,
8:u:prenne,
4:u:l',
8:u:argent,
5:u:sur,
6:u:vois,
10:u:d'accord,
6:u:mais,
7:u:mange,
8:u:salade,
8:u:laisse,
6:u:peut,
7:u:aller,
9:u:cantine,
7:u:toute,
9:u:fa\c,on,
8:u:pareil,
9:u:appeler,
5:u:vas,
8:u:donner,
9:u:petites,
6:u:news,
9:u:comment,
5:u:ça,
8:u:allait,
4:u:91,
7:u:avais,
4:u:se,
6:u:voie,
7:u:même,
6:u:elle,
5:u:là,
10:u:faudrait,
7:u:alors,
4:u:ce,
6:u:mois,
4:u:ci,
8:u:passé,
4:u:à,
9:u:PRO:IND,
8:u:allure,
6:u:quoi,
7:u:été,
7:u:super,
5:u:ric,
5:u:rac,
5:u:ben,
8:u:façon,
11:u:attendais,
8:u:retour,
10:u:réunion,
4:u:m',
8:u:étais,
8:u:aurait,
4:u:pu,
6:u:voir,
7:u:quand,
7:u:faire,
8:u:voilà,
5:u:bon,
3:u:3,
6:u:puis,
8:u:après,
7:u:temps,
7:u:passe,
12:u:finalement,
8:u:arrive,
10:u:bientôt,
5:u:fin,
4:u:16,
7:u:très,
6:u:vite,
12:u:exactement,
4:u:j-,
7:u:être,
8:u:essaie,
7:u:caler,
6:u:vous,
8:u:dirait,
9:u:semaine,
11:u:prochaine,
6:u:bien,
6:u:pris,
10:u:vendredi,
8:u:samedi,
7:u:c'est,
10:u:possible,
17:u:éventuellement,
10:u:gérable,
6:u:soir,
6:u:cool,
12:u:clairement,
9:u:reparle,
12:u:carrément,
6:u:vais,
12:u:rapidement,
4:u:au,
7:u:moins,
9:u:envoyer,
6:u:mail,
6:u:PP_U,
5:u:pis,
10:u:toujours,
12:u:compliqué,
11:u:plusieurs,
4:u:as,
8:u:raison,
9:u:propose,
9:u:instant,
4:u:t',
7:u:irait,
9:u:parfait,
5:u:où,
6:u:hein,
5:u:nan,
8:u:disais,
8:u:petite,
8:u:bouffe,
6:u:mai-,
8:u:maison,
9:u:bonjour,
4:u:89,
7:u:salut,
9:u:entendu,
7:u:bruit,
7:u:merde,
8:u:entend,
9:u:arriver,
6:u:loin,
7:u:chaud,
5:u:ici,
7:u:aviez,
10:u:chouette,
11:u:installer,
5:u:les,
8:u:filles,
6:u:pose,
5:u:nos,
9:u:DET:POS,
10:u:affaires,
6:u:waou,
4:u:90,
8:u:faites,
6:u:chez,
5:u:tes,
12:u:chaussures,
9:u:enlève,
5:u:mes,
9:u:obligé,
6:u:AP_B,
6:u:AP_L,
7:u:garde,
8:u:mettre,
6:u:joli,
6:u:suis,
10:u:craquée,
7:u:cette,
8:u:année,
10:u:rondelle,
8:u:citron,
6:u:tout,
6:u:plus,
8:u:grands,
6:u:2.02,
5:u:ils,
6:u:sont,
11:u:chouettes,
5:u:ces,
8:u:verres,
7:u:beaux,
10:u:achetés,
9:u:exprès,
5:u:ouh,
5:u:mis,
11:u:chauffage,
7:u:crois,
6:u:tour,
10:u:obligée,
6:u:fond,
11:u:autrement,
8:u:marche,
6:u:c“,
7:u:loose,
5:u:PRO,
6:u:soit,
7:u:zéro,
9:u:éteint,
8:u:chiant,
10:u:VER:ppre,
6:u:fais,
11:u:engueuler,
10:u:consomme,
6:u:sers,
7:u:sûre,
4:u:oh,
8:u:partir,
8:u:moment,
8:u:rigolo,
5:u:ch-,
8:u:savais,
7:u:avait,
7:u:aimé,
7:u:avoir,
8:u:autres,
8:u:graals,
8:u:prévu,
11:u:inquiète,
8:u:paille,
7:u:allez,
10:u:habitude,
9:u:cuisine,
8:u:êtres,
7:u:miser,
15:u:présentation,
10:u:croirait,
6:u:dans,
8:u:dîner,
9:u:presque,
10:u:chercher,
7:u:autre,
7:u:mince,
13:u:commençais,
7:u:boire,
5:u:cas,
9:u:plaisir,
4:u:n',
10:u:empêche,
7:u:clair,
11:u:longtemps,
4:u:d-,
5:u:vue,
8:u:depuis,
5:u:cet,
14:u:anniversaire,
4:u:s',
6:u:vues,
9:u:remonte,
5:u:par,
11:u:croisées,
8:u:métro,
7:u:trois,
5:u:NUM,
9:u:arrêts,
8:u:était,
5:u:qui,
10:u:vraiment,
6:u:aïe,
8:u:vôtre,
8:u:santé,
8:u:mignon,
4:u:ma,
7:u:mère,
8:u:gardes,
8:u:cognac,
6:u:gros,
6:u:mets,
10:u:beaucoup,
13:u:normalement,
8:u:classe,
4:u:ne,
7:u:juste,
10:u:histoire,
7:u:petit,
6:u:sûr,
4:u:a-,
9:u:passée,
4:u:es,
7:u:seule,
9:u:souvent,
7:u:cours,
7:u:lundi,
13:u:interaction,
9:u:verbale,
6:u:lun-,
6:u:midi,
7:u:mardi,
10:u:mercredi,
9:u:syntaxe,
9:u:oublier,
6:u:neuf,
8:u:heures,
7:u:matin,
7:u:jeudi,
8:u:psycho,
6:u:demi,
6:u:fois,
6:u:deux,
6:u:int-,
9:u:analyse,
19:u:conversationnelle,
7:u:exact,
7:u:reste,
11:u:formation,
8:u:rester,
8:u:prends,
11:u:UNKNOWN_U,
6:u:pire,
7:u:train,
9:u:revenir,
7:u:vient,
9:u:voiture,
9:u:crevée,
9:u:rentrer,
8:u:chaque,
10:u:aimerais,
8:u:restes,
9:u:ramène,
6:u:sait,
8:u:jamais,
9:u:quelque,
7:u:chose,
7:u:faute,
8:u:tomber,
10:u:pourquoi,
13:u:franchement,
14:u:gestionnaire,
7:u:paies,
9:u:croyais,
9:u:reprend,
8:u:début,
7:u:soeur,
9:u:galère,
5:u:son,
8:u:master,
4:u:sa,
11:u:première,
8:u:loupé,
13:u:recommencé,
11:u:deuxième,
10:u:reloupé,
5:u:ont,
6:u:rien,
8:u:savait,
4:u:s-,
9:u:voulait,
10:u:retenter,
12:u:troisième,
7:u:idée,
7:u:monde,
9:u:travail,
7:u:marre,
10:u:arrivée,
7:u:vingt,
8:u:quatre,
5:u:ans,
15:u:compréhensif,
8:u:partie,
9:u:essayer,
10:u:cherché,
9:u:trouvé,
5:u:ad-,
9:u:adultes,
9:u:appelle,
6:u:sai-,
14:u:considérée,
12:u:étudiante,
12:u:intégrée,
8:u:dedans,
5:u:ami,
7:u:style,
5:u:de-,
10:u:semaines,
12:u:entreprise,
9:u:bizarre,
9:u:passait,
8:u:déjà,
5:u:mal,
9:u:compris,
13:u:réellement,
7:u:cadre,
9:u:choisie,
7:u:prise,
10:u:logiciel,
8:u:permet,
9:u:censés,
5:u:eux,
11:u:expliquer,
16:u:fonctionnement,
5:u:aux,
13:u:entreprises,
9:u:doivent,
6:u:bons,
8:u:calée,
9:u:déçue,
7:u:cause,
7:u:allô,
8:u:coucou,
10:u:appelais,
6:u:avec,
8:u:parlé,
11:u:septembre,
8:u:veniez,
7:u:fête,
11:u:lumières,
12:u:invitation,
7:u:tient,
7:u:fasse,
6:u:cher,
8:u:savoir,
8:u:disait,
7:u:venir,
8:u:priori,
5:u:lui,
13:u:particulier,
9:u:regarde,
9:u:surtout,
6:u:prix,
9:u:billets,
7:u:jouer,
8:u:boulot,
6:u:peux,
10:u:regarder,
12:u:maintenant,
10:u:rappelle,
10:u:regardé,
6:u:coca,
9:u:attaque,
8:u:pizzas,
9:u:attends,
6:u:sors,
8:u:occupe,
6:u:1.10,
4:u:ta,
9:u:chèvre,
13:u:champignons,
8:u:jambon,
8:u:dessus,
10:u:pourrait,
7:u:sympa,
6:u:rire,
8:u:viande,
9:u:hachée,
9:u:chorizo,
10:u:poivrons,
12:u:allumettes,
9:u:lardons,
8:u:besoin,
9:u:occuper,
7:u:pâte,
5:u:ton,
5:u:job,
5:u:yes,
10:u:claquée,
5:u:dur,
6:u:week,
5:u:end,
11:u:émotions,
7:u:maman,
11:u:ressortir,
7:u:pense,
7:u:droit,
7:u:pète,
8:u:putain,
8:u:péter,
5:u:hé,
6:u:fous,
9:u:partout,
7:u:celle,
7:u:assez,
7:u:tiré,
9:u:arrives,
9:u:content,
7:u:jeté,
10:u:poubelle,
10:u:pratique,
8:u:bordel,
12:u:chicouille,
7:u:mieux,
12:u:dépêches,
9:u:ARTIC_B,
9:u:ARTIC_L,
8:u:chiche,
10:u:commande,
9:u:branche,
6:u:fils,
10:u:VER:subi,
10:u:trancher,
7:u:gorge,
6:u:hier,
8:u:abusé,
6:u:dise,
10:u:balancer,
6:u:ayé,
6:u:vont,
10:u:emmerder,
4:u:t-,
12:u:vêtements,
6:u:êt-,
10:u:choquée,
9:u:acheté,
8:u:esprit,
9:u:laisses,
6:u:ceux,
7:u:hiver,
10:u:énervé,
5:u:don,
10:u:énerver,
9:u:rouleau,
13:u:pâtisserie,
6:u:oula,
8:u:aurais,
12:u:préféré,
9:u:trouver,
6:u:sans,
8:u:manche,
6:u:aime,
11:u:préfère,
9:u:manches,
10:u:échappe,
7:u:mains,
6:u:sera,
10:u:présent,
14:u:physiquement,
6:u:sept,
8:u:rentre,
9:u:pratico,
7:u:delà,
5:u:ait,
13:u:billetterie,
7:u:salle,
11:u:spectacle,
9:u:quelqu',
9:u:entrée,
9:u:décide,
5:u:pot,
9:u:souhait,
6:u:pots,
5:u:so-,
14:u:conférences,
9:u:débats,
8:u:budget,
10:u:organise,
4:u:l-,
14:u:installation,
11:u:matériel,
5:u:mai,
6:u:main,
7:u:place,
8:u:tables,
9:u:chaises,
9:u:caetera,
6:u:okay,
8:u:compte,
5:u:mon,
8:u:agenda,
11:u:organiser,
7:u:serai,
6:u:mer-,
8:u:jusqu',
7:u:aider,
11:u:théâtre,
7:u:souci,
7:u:point,
15:u:interrogation,
10:u:partiras,
10:u:viendrai,
11:u:resterais,
8:u:serait,
8:u:quelle,
4:u:96,
6:u:acc-,
6:u:tous,
11:u:mercredis,
8:u:fermé,
6:u:fini,
11:u:sûrement,
5:u:au-,
6:u:aura,
13:u:sollicitera,
7:u:votre,
9:u:atelier,
9:u:combien,
7:u:durer,
9:u:sachant,
9:u:numéro,
12:u:disponible,
5:u:dix,
6:u:huit,
13:u:conférence,
6:u:lieu,
8:u:rapide,
12:u:tranquille,
8:u:plaît,
9:u:horaire,
7:u:coût,
10:u:soixante,
7:u:euros,
8:u:blague,
10:u:comprise,
9:u:parlait,
9:u:fautive,
8:u:parlez,
8:u:fautif,
11:u:problème,
12:u:organisera,
9:u:acheter,
13:u:cacahuètes,
10:u:boissons,
8:u:suffit,
7:u:voyez,
8:u:choses,
8:u:débat,
11:u:organisez,
4:u:v-,
12:u:rencontrez,
6:u:plan,
7:u:suite,
9:u:contenu,
5:u:doc,
12:u:distribuer,
10:u:vacances,
8:u:quinze,
7:u:jours,
5:u:va-,
9:u:pendant,
7:u:avril,
12:u:travailler,
5:u:com,
9:u:diffuse,
9:u:affaire,
7:u:roule,
7:u:poser,
10:u:question,
15:u:communication,
9:u:support,
8:u:facile,
9:u:plutôt,
10:u:diffuser,
9:u:ensuite,
10:u:imaginer,
9:u:journal,
6:u:veut,
9:u:toucher,
12:u:population,
7:u:voter,
12:u:absolument,
10:u:sensible,
9:u:départ,
12:u:communique,
12:u:brouillard,
9:u:connais,
11:u:travaille,
8:u:Europe,
5:u:NAM,
7:u:lieux,
15:u:prédilection,
7:u:doute,
8:u:public,
8:u:trouve,
9:u:verrais,
4:u:92,
9:u:espèce,
7:u:tract,
11:u:immeubles,
9:u:boîtes,
9:u:lettres,
10:u:quartier,
7:u:abord,
8:u:toutes,
12:u:activités,
15:u:systématique,
7:u:coupe,
12:u:aléatoire,
9:u:voisins,
6:u:cent,
12:u:locataires,
11:u:viendront,
7:u:elles,
13:u:condamnées,
9:u:motivé,
9:u:sportif,
13:u:parenthèse,
6:u:avez,
8:u:idées,
14:u:illuminantes,
10:u:hésitez,
8:u:membre,
7:u:verra,
13:u:facturation,
9:u:facture,
13:u:aujourd'hui,
8:u:pardon,
10:u:terminé,
10:u:rentrée,
11:u:nutrition,
6:u:gens,
10:u:viennent,
5:u:MJC,
6:u:Oul-,
9:u:Oullins,
11:u:personnes,
10:u:seraient,
9:u:octobre,
7:u:dates,
4:u:i-,
11:u:envisager,
8:u:saison,
9:u:courant,
6:u:juin,
9:u:juillet,
11:u:réserver,
7:u:trucs,
10:u:prépare,
6:u:fixe,
10:u:dérange,
5:u:air,
11:u:derrière,
6:u:pote,
10:u:Bastille,
9:u:écoute,
7:u:diras,
9:u:répond,
13:u:téléphone,
10:u:réponds,
9:u:paraît,
6:u:part,
10:u:appelée,
9:u:demande,
10:u:regardes,
9:u:entends,
7:u:reçu,
10:u:messages,
9:u:appelé,
10:u:dimanche,
8:u:excuse,
15:u:crémaillère,
11:u:présente,
6:u:pA_I,
9:u:essayé,
13:u:rencontrée,
5:u:ja-,
9:u:pouvait,
8:u:passer,
8:u:venait,
11:u:repartait,
8:u:rendus,
9:u:pouvoir,
11:u:descendre,
8:u:penses,
9:u:suivant,
10:u:faisable,
9:u:bonsoir,
7:u:merci,
9:u:restés,
10:u:nombreux,
8:u:soucis,
8:u:emploi,
11:u:cinquante,
9:u:minutes,
10:u:exprimer,
7:u:court,
6:u:bref,
14:u:synthétique,
13:u:géographie,
9:u:science,
11:u:synthèse,
10:u:quarante,
6:u:cinq,
11:u:comprenez,
12:u:véritable,
7:u:défi,
8:u:lancé,
11:u:excuserez,
10:u:certains,
9:u:aspects,
9:u:pourrai,
11:u:évidence,
6:u:tard,
10:u:ailleurs,
5:u:lie,
7:u:utile,
11:u:agréable,
9:u:lorsqu',
12:u:géographe,
11:u:ruraliste,
7:u:vigne,
5:u:vin,
16:u:généralement,
9:u:termine,
9:u:chanson,
7:u:caves,
7:u:force,
14:u:dégustation,
8:u:ferons,
10:u:heureuse,
12:u:accueillir,
9:u:travaux,
11:u:pratiques,
9:u:reconnu,
9:u:panneau,
8:u:UNESCO,
5:u:Val,
7:u:Loire,
11:u:essentiel,
10:u:discours,
8:u:porter,
10:u:quelques,
14:u:définitions,
16:u:mondialisation,
11:u:reprendre,
10:u:définit,
13:u:représente,
11:u:notamment,
9:u:Laurent,
10:u:Carroué,
5:u:ABR,
14:u:actuellement,
12:u:président,
9:u:respon-,
7:u:CAPES,
12:u:territoire,
9:u:inscrit,
13:u:géographes,
9:u:discute,
10:u:juristes,
12:u:également,
14:u:économistes,
10:u:manière,
12:u:présenter,
13:u:territoires,
11:u:simplifie,
11:u:Alexandre,
7:u:Moine,
7:u:mille,
14:u:interactions,
7:u:entre,
9:u:acteurs,
8:u:espace,
15:u:géographique,
6:u:cela,
10:u:reprends,
4:u:p-,
10:u:anglaise,
8:u:Jancis,
10:u:Robinson,
9:u:assiste,
11:u:mouvement,
11:u:diffusion,
9:u:passion,
14:u:consommation,
12:u:incroyable,
9:u:limites,
8:u:dirais,
12:u:oekoumène,
10:u:planète,
9:u:extrait,
11:u:contraire,
13:u:rétraction,
6:u:pays,
20:u:traditionnellement,
15:u:consommateurs,
13:u:producteurs,
14:u:exportateurs,
7:u:sorte,
15:u:contradiction,
6:u:ceci,
6:u:lié,
7:u:voulu,
9:u:montrer,
6:u:quel,
6:u:sens,
10:u:sérieux,
7:u:cirer,
7:u:tirer,
10:u:citation,
9:u:écrite,
14:u:circonstance,
8:u:écris,
10:u:articles,
12:u:simplement,
12:u:retiendrai,
9:u:dernier,
11:u:élément,
12:u:comprendre,
15:u:effectivement,
13:u:référence,
8:u:essaye,
13:u:présentent,
14:u:vitivinicole,
6:u:1.00,
11:u:société,
16:u:intermédiaire,
9:u:actions,
14:u:informations,
11:u:remontent,
12:u:éléments,
12:u:permettent,
9:u:paysage,
16:u:véritablement,
7:u:image,
9:u:visible,
9:u:renvoie,
6:u:leur,
9:u:surface,
11:u:terrestre,
8:u:niveau,
13:u:négociants,
14:u:commerçants,
20:u:interprofessionnel,
15:u:professionnel,
11:u:gravitent,
8:u:autour,
13:u:fondamental,
11:u:important,
13:u:exportation,
13:u:importation,
12:u:production,
9:u:gestion,
5:u:AOC,
5:u:AOP,
7:u:rôle,
13:u:grandissant,
9:u:veulent,
9:u:prendre,
7:u:poids,
9:u:excusez,
13:u:directement,
16:u:problématique,
7:u:quels,
9:u:moteurs,
8:u:freins,
11:u:expansion,
8:u:mesure,
13:u:considérer,
8:u:France,
8:u:remise,
11:u:approches,
11:u:proposent,
9:u:optique,
14:u:territoriale,
9:u:insiste,
9:u:traiter,
6:u:cel-,
11:u:certaines,
10:u:prévues,
9:u:thèmes,
14:u:événements,
12:u:fondateurs,
8:u:parler,
7:u:mythe,
11:u:fondateur,
12:u:archétype,
12:u:historique,
9:u:puisque,
10:u:suggère,
11:u:fortement,
12:u:rechercher,
13:u:différents,
8:u:seuils,
16:u:chronologiques,
8:u:amené,
13:u:évolutions,
7:u:près,
9:u:produit,
11:u:seulement,
10:u:agricole,
10:u:culturel,
11:u:religieux,
8:u:relier,
10:u:religion,
13:u:chrétienne,
9:u:assuré,
4:u:eu,
8:u:série,
8:u:crises,
15:u:fondamentales,
11:u:neuvième,
9:u:siècle,
12:u:entraîné,
11:u:création,
14:u:appellations,
9:u:origine,
13:u:contrôlée,
15:u:rapprochement,
8:u:points,
6:u:vins,
9:u:terroir,
9:u:cépage,
9:u:banquet,
8:u:Platon,
14:u:fondamentaux,
8:u:quête,
10:u:vérité,
11:u:évoquent,
11:u:symposium,
6:u:grec,
10:u:convives,
9:u:passent,
10:u:cratère,
8:u:lequel,
5:u:eau,
6:u:font,
8:u:éloge,
7:u:amour,
6:u:lors,
10:u:banquets,
9:u:lancent,
8:u:défis,
10:u:essayent,
12:u:apprécié,
7:u:ainsi,
5:u:né,
12:u:guillemets,
17:u:interprétation,
13:u:personnelle,
9:u:permets,
13:u:philosophie,
8:u:Grèce,
7:u:verre,
5:u:re-,
11:u:retrouver,
7:u:tiens,
11:u:préciser,
9:u:vivante,
8:u:notée,
8:u:propos,
10:u:Arménie,
12:u:Françoise,
11:u:Ardillier,
10:u:chansons,
11:u:réponses,
5:u:sud,
7:u:ouest,
11:u:français,
9:u:exemple,
10:u:revenant,
10:u:Bidarray,
12:u:connaissez,
8:u:voulez,
8:u:mangé,
4:u:bu,
10:u:ensemble,
10:u:commence,
9:u:strophe,
6:u:doit,
10:u:terminer,
5:u:mot,
10:u:internet,
8:u:verrez,
12:u:insisterai,
10:u:oreilles,
12:u:pourraient,
11:u:supporter,
10:u:origines,
14:u:caucasiennes,
14:u:fondamenteur,
7:u:noces,
6:u:Cana,
9:u:travers,
9:u:tableau,
12:u:Véronèse,
14:u:interpréter,
4:u:lu,
11:u:Évangile,
6:u:Jean,
13:u:personnages,
7:u:clés,
8:u:jeunes,
9:u:mariés,
8:u:marié,
7:u:femme,
9:u:mariée,
6:u:coin,
8:u:contre,
8:u:donné,
8:u:durant,
6:u:vint,
9:u:manquer,
7:u:grave,
8:u:erreur,
9:u:parents,
7:u:rater,
7:u:leurs,
7:u:Marie,
12:u:intervient,
17:u:personnellement,
8:u:Jésus,
10:u:signifie,
11:u:implicite,
8:u:oeuvre,
10:u:réclame,
7:u:venue,
11:u:attention,
10:u:réponse,
11:u:serviteur,
6:u:dira,
9:u:remplir,
8:u:jarres,
10:u:apporter,
9:u:maître,
13:u:cérémonie,
10:u:changée,
16:u:extraordinaire,
14:u:fondamentale,
16:u:transformation,
12:u:exégètes,
8:u:disent,
15:u:premièrement,
6:u:agit,
13:u:institution,
13:u:eucharistie,
11:u:sacrifice,
7:u:croix,
6:u:dont,
8:u:verser,
6:u:sang,
11:u:humanité,
6:u:pain,
12:u:considère,
7:u:vraie,
12:u:nourriture,
9:u:boisson,
7:u:envie,
9:u:rapport,
13:u:thématique,
11:u:proposée,
8:u:sommes,
6:u:ange,
9:u:ressort,
10:u:extraits,
8:u:sortir,
19:u:caractéristiques,
9:u:aliment,
8:u:festif,
7:u:objet,
14:u:civilisation,
19:u:méditerranéenne,
8:u:certes,
8:u:judéo,
10:u:tendance,
8:u:perdre,
11:u:influence,
7:u:perdu,
8:u:aspect,
10:u:continue,
8:u:garder,
7:u:modes,
9:u:changé,
12:u:auparavant,
10:u:buvaient,
17:u:régulièrement,
11:u:coupaient,
15:u:particulière,
14:u:disparaître,
8:u:grande,
9:u:vitesse,
9:u:plupart,
9:u:disparu,
12:u:bataillons,
9:u:paysans,
11:u:autrefois,
10:u:ouvriers,
10:u:courante,
15:u:complètement,
14:u:transmission,
7:u:inch-,
24:u:intergénérationnelle,
11:u:quasiment,
6:u:rite,
9:u:faisait,
9:u:famille,
7:u:père,
11:u:tellement,
7:u:pater,
10:u:familial,
11:u:apprenait,
5:u:ses,
9:u:enfants,
8:u:buvait,
6:u:âge,
6:u:clé,
13:u:commençait,
11:u:commencer,
10:u:explique,
11:u:Bourgogne,
7:u:rouge,
12:u:forcément,
10:u:approche,
12:u:intronisé,
6:u:fée,
11:u:sorcière,
8:u:Marine,
8:u:vivait,
6:u:haut,
7:u:nuage,
10:u:château,
7:u:tours,
9:u:dorées,
8:u:reçut,
10:u:baguette,
9:u:magique,
7:u:bête,
8:u:patins,
11:u:roulettes,
7:u:magi-,
8:u:simple,
9:u:rollers,
10:u:pourrais,
8:u:casser,
5:u:nez,
9:u:tombant,
7:u:digne,
8:u:cadeau,
10:u:recevoir,
8:u:bateau,
9:u:exclama,
10:u:basculer,
6:u:robe,
13:u:dégoutante,
9:u:chapeau,
7:u:jeter,
7:u:fées,
10:u:devaient,
11:u:gentilles,
9:u:propres,
8:u:tartes,
9:u:miettes,
6:u:thé,
11:u:renverser,
7:u:tache,
10:u:raconter,
6:u:voix,
12:u:mielleuses,
11:u:histoires,
8:u:douces,
9:u:tendres,
8:u:agiter,
5:u:ca-,
9:u:gâteau,
6:u:beau,
8:u:cerise,
10:u:trouvait,
14:u:terriblement,
12:u:ennuyeuses,
17:u:malheureusement,
10:u:bouillo-,
9:u:bouill-,
11:u:bouillote,
11:u:théière,
12:u:sorcières,
9:u:avaient,
7:u:salir,
7:u:crier,
9:u:patiner,
10:u:naviguer,
6:u:bord,
6:u:jour,
10:u:sursauta,
9:u:horreur,
8:u:écria,
9:u:devrais,
7:u:honte,
8:u:frappa,
6:u:pied,
7:u:hurla,
10:u:certaine,
15:u:approchèrent,
8:u:dirent,
11:u:horribles,
12:u:crâneuses,
12:u:concoctent,
9:u:potions,
13:u:dangereuses,
13:u:transformer,
9:u:crapaud,
5:u:fit,
9:u:devenir,
8:u:existe,
8:u:règle,
8:u:gronda,
8:u:docile,
10:u:soignée,
9:u:insista,
11:u:répliqua,
10:u:furieuse,
9:u:endroit,
6:u:bois,
9:u:soupira,
10:u:envolant,
9:u:regarda,
9:u:tardera,
8:u:envole,
9:u:cliques,
9:u:claques,
7:u:vivre,
10:u:trompait,
11:u:convenait,
14:u:parfaitement,
13:u:construisit,
12:u:magnifique,
8:u:cabane,
8:u:duquel,
9:u:navigua,
10:u:rivière,
9:u:nourrir,
10:u:cueillit,
7:u:baies,
11:u:noisettes,
10:u:étaient,
11:u:adorables,
8:u:prêta,
5:u:mit,
12:u:serpentant,
8:u:arbres,
7:u:belle,
7:u:patin,
7:u:tête,
7:u:longs,
8:u:noeuds,
6:u:cro-,
9:u:crochus,
11:u:justement,
8:u:crochu,
9:u:marrant,
8:u:offrit,
7:u:jeune,
7:u:fille,
7:u:balai,
10:u:flambant,
11:u:aussitôt,
8:u:voulut,
11:u:apprendre,
7:u:voler,
10:u:empoigna,
7:u:engin,
8:u:grimpa,
7:u:arbre,
16:u:encouragèrent,
7:u:sauta,
7:u:resta,
11:u:suspendue,
6:u:airs,
9:u:écrasa,
5:u:sol,
7:u:pensa,
10:u:redressa,
8:u:essaya,
9:u:nouveau,
6:u:bout,
9:u:parvint,
14:u:applaudirent,
8:u:rompre,
8:u:volant,
10:u:effleura,
10:u:renversa,
6:u:seau,
5:u:jus,
11:u:groseille,
14:u:soupirèrent,
9:u:trouves,
10:u:chapeaux,
9:u:pointus,
6:u:noir,
7:u:moche,
13:u:cuisinière,
10:u:marrante,
8:u:fonça,
11:u:direction,
6:u:ciel,
6:u:cria,
7:u:viens,
8:u:tenait,
8:u:debout,
5:u:eut,
9:u:souffle,
8:u:coupé,
11:u:effrayée,
9:u:devenue,
7:u:folle,
10:u:atterrit,
9:u:douceur,
7:u:riant,
8:u:appris,
11:u:construit,
10:u:navigué,
12:u:formidable,
11:u:élection,
5:u:Lot,
9:u:Garonne,
17:u:circonscription,
14:u:législative,
11:u:partielle,
11:u:siègeait,
8:u:jusque,
10:u:Jérôme,
9:u:Cahuzac,
8:u:ancien,
10:u:ministre,
12:u:désormais,
8:u:fraude,
9:u:fiscale,
8:u:Suisse,
11:u:déclaré,
6:u:fisc,
9:u:dirigé,
15:u:démissionné,
8:u:siège,
10:u:député,
9:u:fallait,
10:u:pourvoir,
5:u:UMP,
10:u:emporté,
6:u:face,
10:u:candidat,
7:u:Front,
10:u:National,
5:u:six,
7:u:score,
7:u:large,
6:u:tant,
15:u:participation,
8:u:faible,
7:u:cents,
8:u:écart,
8:u:hommes,
14:u:relativement,
8:u:serré,
6:u:duel,
9:u:leçons,
12:u:politiques,
10:u:Bertrand,
9:u:Lacoste,
4:u:FN,
11:u:présence,
8:u:second,
7:u:terre,
9:u:certain,
10:u:diverses,
13:u:réflexions,
7:u:surgi,
10:u:occasion,
8:u:côté,
4:u:PS,
10:u:laissent,
10:u:perplexe,
7:u:quant,
6:u:tire,
9:u:entend-,
13:u:évidemment,
10:u:réjouir,
11:u:candidats,
12:u:dirigeants,
8:u:tenter,
9:u:quelles,
9:u:raisons,
12:u:éliminés,
9:u:premier,
7:u:effet,
14:u:candidatures,
6:u:pea-,
14:u:parasitaires,
8:u:isoler,
12:u:Villeneuve,
12:u:partielles,
11:u:dérouler,
12:u:desquelles,
11:u:symptôme,
9:u:malaise,
15:u:considérable,
8:u:droite,
6:u:taux,
12:u:abstention,
11:u:démontre,
14:u:intéressent,
6:u:type,
8:u:joutes,
12:u:désespoir,
5:u:tel,
11:u:anxiété,
7:u:telle,
16:u:découragement,
10:u:proposé,
7:u:offre,
11:u:politique,
11:u:déplacer,
8:u:soient,
8:u:enjeux,
9:u:époque,
10:u:venaient,
7:u:untel,
10:u:aujourd',
5:u:hui,
15:u:tétanisation,
11:u:situation,
12:u:totalement,
15:u:désespérés,
14:u:extrêmement,
13:u:inquiétant,
10:u:dirigent,
10:u:prennent,
5:u:ts-,
10:u:tsunamis,
13:u:progressifs,
12:u:retombées,
12:u:répliques,
10:u:secouent,
5:u:kl-,
4:u:r-,
8:u:pourra,
14:u:explications,
10:u:allusion,
7:u:front,
14:u:républicain,
8:u:posais,
14:u:introduction,
6:u:mort,
17:u:définitivement,
8:u:Gauche,
11:u:Écologie,
11:u:général,
11:u:classique,
11:u:députés,
9:u:remette,
7:u:notre,
12:u:stratégie,
7:u:appel,
6:u:sein,
7:u:parti,
12:u:socialiste,
7:u:Louis,
9:u:Bernard,
11:u:agonisant,
8:u:amener,
5:u:soi,
12:u:électeurs,
13:u:électrices,
14:u:propositions,
6:u:mode,
5:u:vie,
8:u:morale,
10:u:regardez,
10:u:souvenez,
9:u:traité,
11:u:européen,
9:u:médias,
9:u:élites,
11:u:pensantes,
7:u:voté,
12:u:importante,
18:u:circonscriptions,
8:u:Loiret,
9:u:circon-,
7:u:ordre,
9:u:absten-,
12:u:élections,
7:u:route,
6:u:fort,
8:u:claque,
8:u:aucune,
10:u:triomphe,
7:u:grand,
9:u:gagnant,
14:u:reconnaître,
6:u:dieu,
11:u:positions,
6:u:anti,
9:u:radical,
9:u:succès,
11:u:engrangé,
8:u:nombre,
10:u:victoire,
12:u:symbolique,
7:u:voire,
13:u:médiatique,
6:u:avis,
13:u:municipales,
11:u:capacité,
10:u:nuisance,
4:u:b-,
4:u:z-,
14:u:européennes,
13:u:socialistes,
8:u:risque,
7:u:Modem,
5:u:UDI,
8:u:change,
8:u:crains,
10:u:marchait,
9:u:Jacques,
8:u:Chirac,
9:u:réélu,
5:u:Pen,
8:u:Hassan,
7:u:Kerim,
11:u:résultat,
5:u:rue,
6:u:faux,
11:u:persuadé,
8:u:gauche,
11:u:questions,
8:u:posent,
16:u:compatibilité,
9:u:unités,
8:u:statut,
13:u:sémantique,
14:u:morphologues,
12:u:défendent,
7:u:signe,
12:u:saussurien,
9:u:affixes,
12:u:polysémie,
8:u:traite,
12:u:générale,
9:u:simples,
14:u:linguistique,
6:u:syn-,
11:u:expliqué,
5:u:en-,
13:u:pragmatique,
8:u:morpho,
9:u:claires,
12:u:explicites,
8:u:trois-,
8:u:puisse,
12:u:consacrée,
10:u:méthode,
12:u:synchronie,
12:u:diachronie,
8:u:aborde,
11:u:intuition,
12:u:intuitives,
13:u:morphologie,
10:u:énoncé,
9:u:globale,
4:u:u-,
13:u:plurisémie,
15:u:multiplicité,
9:u:strates,
18:u:interprétatives,
11:u:morphème,
12:u:flexionnel,
13:u:unisémique,
16:u:pluristratique,
10:u:évitant,
11:u:théories,
14:u:différentes,
12:u:décrivent,
9:u:chacune,
8:u:strate,
13:u:différente,
10:u:opposent,
6:u:unes,
9:u:malheur,
11:u:consacrer,
9:u:séance,
12:u:difficiles,
11:u:résolues,
10:u:apparait,
8:u:étant,
14:u:compliquées,
8:u:celles,
21:u:polycatégorialité,
12:u:traitement,
20:u:polycatégorielles,
9:u:lexique,
13:u:catégoriel,
10:u:matière,
11:u:confiance,
13:u:imagination,
8:u:servir,
8:u:sortes,
12:u:problèmes,
10:u:aimerait,
8:u:semble,
13:u:expérience,
14:u:sémanticien,
13:u:morphologue,
11:u:évidente,
11:u:sentiment,
12:u:prospectif,
10:u:chantier,
13:u:modérateur,
11:u:François,
8:u:carré,
12:u:immodéré,
11:u:agitateur,
12:u:commencent,
8:u:fermer,
6:u:oeil,
12:u:intervenir,
14:u:flexionnelle,
6:u:mots,
12:u:différent,
13:u:traitements,
11:u:méthodes,
9:u:relève,
10:u:principe,
8:u:Claude,
10:u:position,
14:u:dégueulasse,
13:u:réfléchir,
10:u:bêtises,
11:u:procédé,
7:u:banal,
10:u:consiste,
14:u:apparaissent,
12:u:virtuelles,
13:u:quelquefois,
11:u:énoncés,
10:u:virtuels,
7:u:gêne,
15:u:sémanticiens,
10:u:évoqué,
10:u:rotation,
13:u:indéniable,
7:u:rotor,
9:u:rotatif,
11:u:rotatoire,
9:u:rotonde,
7:u:rôti,
9:u:postule,
6:u:base,
17:u:matériellement,
5:u:ose,
7:u:verbe,
7:u:roter,
12:u:imaginaire,
5:u:se-,
6:u:sert,
14:u:archimodèle,
8:u:machin,
9:u:modèle,
14:u:lexématique,
11:u:reconnait,
7:u:rotat,
11:u:associée,
9:u:lexème,
11:u:réaliser,
10:u:autonome,
10:u:lexicale,
11:u:locuteurs,
13:u:permettrait,
8:u:former,
10:u:nouveaux,
6:u:ét-,
13:u:appartenant,
8:u:proche,
11:u:filiation,
9:u:directe,
12:u:hypothèse,
11:u:paradigme,
7:u:parle,
12:u:structures,
17:u:intériorisées,
12:u:prédateur,
12:u:prédation,
12:u:construits,
14:u:fonctionnent,
8:u:parent,
8:u:direct,
9:u:existé,
14:u:contemporain,
4=0x1.aecea8a5e9fc9p-2
5=-0x1.86da0d92a819p-2
6=-0x1.454d6dd83f54bp-1
7=0x1.59475f7e68b86p-2
8=0x1.53924bc893006p-6
9=0x1.b96c333f999b8p-14
10=-0x1.1176c5a3f23e7p-8
11=-0x1.aaabd2f9dd4dcp-8
12=0x1.76df0060e1642p-6
13=-0x1.363f2ed3af29p-4
14=0x1.b41c5fad132acp-7
15=0x1.f1550fc83a274p-7
16=0x1.02ff2ee61f159p-5
17=0x1.7b91322d35878p-13
18=0x1.110b4bfced91p-7
19=-0x1.d625d6ee3b0e4p-7
20=0x1.fd94ae77edf45p-5
21=0x1.1dd76b4526a59p-8
23=-0x1.04a2991f84ccdp-5
24=0x1.3773abe7264d9p-4
25=-0x1.475530b54433ep-7
26=-0x1.0ac90ee72e6f9p-10
27=-0x1.446ee25c4ffecp-4
28=0x1.106c1644234b6p-9
29=0x1.26dab8f433e88p-5
30=-0x1.3962bc42d2dbep-8
31=-0x1.95f71bf901cc9p-6
32=0x1.65842d7174788p-8
33=0x1.114fb62a09226p-10
34=0x1.385a0181a4399p-8
35=-0x1.6b2d555458a61p-8
36=-0x1.2aefd51ebfd5ap-8
37=0x1.618b3fa8348e5p-6
38=-0x1.ae2e280cc4d52p-9
39=-0x1.7ec4c7923e345p-7
40=0x1.1f3502471c6e3p-6
41=0x1.f7fdb229fc692p-5
42=-0x1.8adb0d8950938p-7
43=-0x1.d66ae90eaa0d6p-5
44=0x1.fbef5886062bfp-8
45=0x1.2ebc0d9b99a1ap-4
46=-0x1.4a433c776195cp-7
47=-0x1.43450d9c46cdp-5
48=0x1.829ad57e65145p-6
49=0x1.84c5cbdf6463cp-11
50=0x1.52f1a0711a815p-5
51=-0x1.b409e6d37b68fp-6
52=-0x1.1536ba1a37116p-6
53=0x1.95c01028e9b0fp-3
54=-0x1.2f4b9e4903d36p-5
55=-0x1.ffe2443238bb8p-3
56=-0x1.6baca60578165p-7
57=0x1.b62b556d172f3p-3
59=-0x1.da022ad4f375p-3
60=0x1.91347adb85b56p-4
61=0x1.59bc13e5c630ep-2
62=-0x1.15797a42a3f25p-7
63=-0x1.00d60b4108c09p-2
64=-0x1.5d9125cb42325p-8
65=0x1.4c12848ebac3ap-5
66=-0x1.bfad039e13dbdp-10
67=-0x1.176bd73d74859p-5
68=-0x1.407fbbd0c12dp-12
69=0x1.3f589354e5b1fp-3
70=0x1.3bed42901b1d8p-5
71=-0x1.cc9796c2a9eecp-4
72=-0x1.1c535b90ce57p-4
73=0x1.54afb89dfcad1p-3
74=-0x1.a7704c3a2f958p-7
75=-0x1.71480e2bb4ac6p-5
76=-0x1.5d4f9d47f64ffp-2
77=0x1.45b9f41fdf09p-2
78=0x1.36ec825d0e70fp-3
79=-0x1.d376d05d02aecp-4
80=0x1.810e4c5901be2p-2
81=-0x1.527cfbca2a65p-2
82=-0x1.d59566aa3cfd8p-5
84=0x1.75dc4e07c45e2p-7
85=-0x1.0e9871ac94d5p-3
86=-0x1.7f7b1a41a0e05p-5
87=-0x1.db03880e37dfp-7
88=-0x1.906ca4df948eap-11
89=0x1.0edd5cbb5d9fbp-5
90=-0x1.e30be28b44775p-7
91=-0x1.a0f4c5d9ff6bap-6
92=0x1.12892b70217f6p-6
93=0x1.de9342c0551abp-5
94=-0x1.7e4680f15cdb5p-6
95=-0x1.2d75cf76c6172p-4
96=-0x1.1cb1136813d87p-6
97=0x1.8195e377f0a4p-4
98=-0x1.bec01d5611e59p-6
99=-0x1.6739d038667cep-4
100=-0x1.3e5d928dd56c3p-1
101=-0x1.8dc644122b7a3p-2
102=0x1.0ccb355f8aa9p-1
103=0x1.397b9733e48fap-2
104=0x1.3025ab94671a3p-7
105=-0x1.e91a875434924p-7
106=0x1.641d9768e5bc2p-11
107=0x1.fadb67e5e547ap-9
108=0x1.0b1b563c971cfp-4
109=0x1.8ad0cf234725ep-6
110=0x1.0147a4ba2e6d8p-5
111=-0x1.03496a12702fep-4
112=0x1.da3fe2599f425p-6
113=0x1.b44dad36531f1p-6
114=0x1.81df7c21a8802p-6
115=-0x1.8436fa44e9f28p-5
116=0x1.a93fbbea0327ap-9
117=-0x1.a80778ca1fa42p-7
118=0x1.2a9d7f4804f1ep-8
119=0x1.b0c136cb0b71p-10
120=-0x1.4de1e89374b28p-10
121=0x1.4169780d866b9p-2
122=0x1.add2374ee9befp-4
123=-0x1.dd8a0a476f19p-3
126=0x1.2eab70530e5cfp-15
128=-0x1.2c70766ac4adcp-14
129=0x1.8ed6285a3eec6p-15
130=0x1.09e664beaf27bp-14
132=0x1.4fa125caf74c8p-8
133=-0x1.74417ec61893bp-8
134=0x1.452c493990bb6p-8
135=-0x1.346a3a701a066p-9
136=0x1.d838c80e56a08p-7
137=0x1.b453513a4e922p-8
138=0x1.b965a570e4842p-7
139=-0x1.745aa6214ec1p-5
140=-0x1.ac22a504f8966p-8
141=0x1.a2357773f49e7p-7
142=-0x1.3bcc9da595695p-9
143=-0x1.2c64e284e8beap-9
144=0x1.dbaa86433b4aap-7
145=-0x1.2bffda1151784p-5
146=0x1.93535f86b77ecp-6
147=-0x1.1c8db6f0bb977p-6
148=-0x1.165788d58dd2p-9
149=0x1.9dcdfe701c87p-7
150=-0x1.4c200893f5e2ap-11
151=-0x1.cb6dc36a2a7b5p-7
152=-0x1.b642585eb0562p-8
153=0x1.a795da37571f1p-6
154=-0x1.c323096ee0c5p-12
155=-0x1.8638c40d27129p-6
156=0x1.738956d0b3fd6p-9
157=0x1.71395e95f475p-6
158=-0x1.847fe3e9bbd7ep-8
159=-0x1.7f38f16ee1c68p-7
160=0x1.e1c98dfa75baep-8
161=-0x1.9f3457dccba75p-7
162=0x1.4fff9846fd131p-8
163=-0x1.8d837c7f9184ap-12
164=0x1.c263cc48d427cp-17
165=-0x1.58073ae47b04ap-11
166=0x1.1ac622acac1fep-10
168=0x1.773a0d7fb18bp-5
169=0x1.101bc33a5b58p-6
171=-0x1.3ecfc54f244d3p-4
172=0x1.07a2e7f64dc66p-6
173=0x1.7450a585158ap-11
174=0x1.71952e6cef544p-9
175=-0x1.5d0c7e9c03337p-8
176=0x1.6bb431ffe6259p-9
177=-0x1.f55fd38116e71p-8
178=0x1.2d420d57ef392p-9
179=0x1.b669091985d85p-12
180=-0x1.8cd591df20c03p-7
181=0x1.181e072677365p-6
182=-0x1.5fee991aed031p-11
183=-0x1.b17659119f152p-9
184=-0x1.174429ecabb3ap-11
185=0x1.4328ed30992ddp-11
186=0x1.ac9de0ebc65acp-13
187=-0x1.0d6c1af89445fp-8
188=0x1.9fb6ee04ddbb7p-6
189=-0x1.6031506eb9ecbp-6
190=0x1.6db99937a0b02p-8
191=-0x1.2b2ac2009e256p-7
192=0x1.81a8e19af056dp-7
193=-0x1.ec072f305f2e3p-7
194=0x1.2a76ba7a7f1cfp-6
195=-0x1.3819b231f5d26p-7
196=-0x1.4e4832bc90bc8p-16
197=0x1.fe53f176de5c4p-12
200=-0x1.79b43972b369ap-8
201=0x1.817d560c4ac3fp-6
202=-0x1.4cb5c177fa3d2p-7
203=-0x1.fa5d2a05eb52bp-8
204=-0x1.324761298989bp-10
205=0x1.be8f97433e8a8p-10
207=-0x1.2cd455619658cp-13
208=-0x1.b7577d85b8d8fp-6
209=0x1.0436fc6c9dd82p-3
210=-0x1.6e98ec194a716p-5
211=-0x1.b56a834d04e37p-4
212=0x1.e1079603d1f58p-11
213=-0x1.93966a15d5ed3p-9
214=0x1.fdb7560601d7dp-11
216=-0x1.06ccf35ece8e7p-6
217=0x1.8bc5248ea185p-6
218=-0x1.29efd77db5414p-10
219=-0x1.d92e859de2f56p-8
220=0x1.b8f304f5e503dp-8
221=-0x1.cb2e35bacd89ep-8
222=0x1.cd50315cb906p-8
223=-0x1.96bc9026b9d3cp-12
224=0x1.a96fc5145c91fp-11
225=-0x1.74ca46698290ap-9
226=0x1.c916a7a179191p-11
228=0x1.9dd363f902d77p-5
229=0x1.71afd9adc451p-9
230=0x1.5ba6e43b71ddbp-6
231=-0x1.dbd5afd553542p-6
232=-0x1.01cac3df491a3p-11
233=0x1.9c536071d9282p-7
234=-0x1.04aa7a6ead71p-10
235=-0x1.9ffdd1d8d8976p-8
236=0x1.5a340ca2c2f38p-6
237=-0x1.8e1602e722694p-6
238=0x1.79f950474b8b1p-5
239=-0x1.f93dddbdfd536p-7
240=0x1.250ae0aa700dep-8
241=-0x1.997ffe6423327p-8
243=0x1.1370de8cea6ddp-10
244=0x1.1a3d57026e2d1p-7
246=-0x1.846b22d6dd641p-8
247=-0x1.3526a4dbd8d36p-13
248=-0x1.cf51aa2e84db9p-7
249=0x1.74c766a0f4e8ap-5
250=-0x1.1c38891215db7p-6
251=-0x1.76398eb17fc1cp-7
252=0x1.3317387cad26cp-9
253=0x1.8ce2e1b248ec8p-9
255=-0x1.1ab5ec132e357p-8
256=-0x1.0fe13634f5bc6p-9
257=0x1.28a691abcd079p-6
258=-0x1.939347d927f6bp-7
259=-0x1.3bf4ffe0ca31fp-8
260=-0x1.61f8802971934p-8
261=0x1.9932331da840bp-6
262=-0x1.9f85f4b9c6a67p-7
263=-0x1.9d76826b4c6bep-9
264=-0x1.305a5b84b38fbp-9
266=0x1.712d2376e0fa4p-8
267=-0x1.3b3060cdc1a2ep-10
268=-0x1.08262bdf4733dp-6
269=0x1.7485a5b96b6b5p-6
270=0x1.17234010afab8p-6
271=-0x1.16c05dbd9a25ep-5
272=-0x1.595fdbe9a6f4cp-7
273=0x1.d57c2116154d3p-6
274=0x1.0a7cc8de05d1fp-6
275=-0x1.734644df76c8ep-5
276=-0x1.9817b1c5386ap-12
277=0x1.1b9744f8995aap-9
278=-0x1.6fa561a694701p-13
281=0x1.68c2638184419p-4
282=0x1.3475d28e3674ep-6
283=-0x1.e1c71ebe1fdafp-4
284=0x1.6e524ff62ca08p-6
286=0x1.dafecf885004ap-7
287=-0x1.7910f9ef69f9fp-5
288=-0x1.a137e7d0cc415p-11
289=0x1.9a33b86c90052p-10
290=0x1.be582b81bc607p-9
291=-0x1.d3e12d8d7c30ep-10
292=-0x1.0d75cba12cb9p-5
293=0x1.11552ff95544p-4
294=-0x1.4737c4d15787cp-7
295=-0x1.516ae27a72a09p-5
296=-0x1.294f7826e95f5p-5
297=0x1.0dd1fef5be08bp-4
298=-0x1.748a6a8dc7c25p-7
299=-0x1.9a3761ffdb3e6p-5
300=-0x1.96c2be5714c4ap-16
301=0x1.371f38627629dp-11
304=0x1.165c379457c62p-6
305=-0x1.7232e37145aa2p-5
306=0x1.298b2f3b19f23p-4
307=-0x1.7b65316211c12p-5
308=0x1.ba8c4257d31f5p-7
310=0x1.7c4f4fa44f9c4p-7
311=-0x1.21ed7344c83dbp-7
312=-0x1.1db9e9fcda622p-10
313=0x1.9ec0df0fa826ap-7
314=-0x1.4852ebe447305p-9
315=-0x1.67dc22e7cdeb9p-8
316=-0x1.c78b8597fd852p-11
317=0x1.973799825efb9p-5
318=-0x1.50237ba49ce96p-5
319=-0x1.5b143d2aa3e33p-5
320=-0x1.70917a501fda7p-10
321=0x1.3a9698dcd85cap-9
323=-0x1.206378cbe799bp-11
324=0x1.bb2f77392403cp-6
325=0x1.d719fd41ccef8p-4
326=0x1.1fe145a32031p-5
327=-0x1.0bfb26807821bp-3
336=0x1.536dddaa91ef8p-10
337=-0x1.3e41bfe5bb33p-8
338=0x1.fa91f43507f43p-11
339=0x1.1fe6cddce03bcp-10
340=0x1.eac459f906816p-8
341=-0x1.ce2994760a66p-6
342=0x1.1997fde8fb853p-6
343=0x1.533372013a649p-11
344=-0x1.c6ce3bc24928fp-6
345=0x1.f69b8fddfc5afp-4
346=-0x1.195860e0a5eb4p-10
347=-0x1.e3fe2a5e0d9bfp-4
348=-0x1.439edf439ddcp-10
349=0x1.886ff4283070bp-8
350=-0x1.66e140a517971p-10
351=-0x1.bd6d78517b0a1p-10
352=-0x1.48c91a787aad3p-7
353=0x1.2d4843d5c37c3p-4
354=-0x1.3a52c02793f98p-6
355=-0x1.98a19103fe1ecp-4
356=0x1.854f8329428e8p-8
357=-0x1.386317047e702p-7
358=0x1.193942b9ce6dfp-7
359=-0x1.2c9c6c175e5bcp-10
360=-0x1.8bb73489f705bp-8
361=0x1.64c847f4a2edcp-7
362=0x1.4ac458158d582p-9
363=-0x1.832934391904cp-7
364=-0x1.70944f2f9c857p-8
365=0x1.5d0156cdf1828p-7
366=-0x1.ebc4a36a84f26p-12
367=-0x1.c5418fd6486f4p-9
368=0x1.d36869b6e95d2p-7
370=0x1.c8ae249466b48p-7
371=-0x1.9828b80f0fda8p-6
372=-0x1.8c5838f3e7f6dp-14
373=0x1.c8a4bc57dc023p-10
374=-0x1.be9cb259ee9e5p-11
375=0x1.50380b099dc9fp-12
376=0x1.51d5291f63cc8p-9
377=-0x1.358857b008ca5p-9
378=0x1.81a2e77ef7ca3p-10
379=-0x1.2ce0e7639fb17p-9
380=-0x1.508b99ac2221bp-9
381=0x1.5bc7b71d73432p-7
382=-0x1.fbdd4a226b006p-10
383=-0x1.2951d9688df23p-9
384=-0x1.f8193a1cd716ep-8
385=0x1.0fb5fc846adb6p-6
386=-0x1.0808a163d1fe2p-9
387=-0x1.abce75f80ce4ap-7
388=-0x1.7a45ceffd3679p-12
389=0x1.523a15198b108p-9
390=-0x1.099855be7b7f7p-12
392=0x1.408009e374861p-8
393=-0x1.f2d8624a3abc8p-8
394=0x1.37f618a88bc16p-10
395=0x1.c777bf408256fp-11
400=0x1.38537c74dbc9bp-9
401=0x1.7b5eb5e0ec3b9p-12
402=0x1.db5e9af03e8f8p-11
403=-0x1.826cfd4d53794p-8
404=-0x1.18376ac036484p-15
405=0x1.cee5c5d90eaddp-8
406=-0x1.51b14c6969b8p-8
407=-0x1.41d1a8adac0d2p-9
408=-0x1.4d9c1d16d5787p-9
409=0x1.566a5ab1ea4c2p-7
410=-0x1.c35c2434c43fep-9
411=-0x1.2e6838c53d4bcp-9
412=-0x1.30d6b44760bb9p-8
413=0x1.3108b15a2f414p-7
414=-0x1.6d49623b90462p-10
415=-0x1.1e293f7e3e68dp-11
416=0x1.cd6576a69466p-10
418=-0x1.a647c2bdf329ap-13
419=-0x1.190589379f12ap-10
420=-0x1.09a82205d00d5p-12
421=0x1.2d75b15fd41aep-7
422=-0x1.812b09b0a0719p-8
423=-0x1.b7058695181dcp-10
424=-0x1.e575d757dc3c8p-16
425=0x1.d77f4d5558d98p-11
426=-0x1.cce5d97f34ecp-16
428=0x1.ba4ff7ef51253p-10
429=0x1.0f2c81f3d3abdp-11
430=0x1.b86790336a1cp-9
431=-0x1.0689065e2aab8p-9
432=-0x1.7a953ec372b1fp-6
433=0x1.e7855c64c0f0ap-6
434=-0x1.11fdb18582a14p-8
435=-0x1.144377d582db6p-6
440=0x1.a5697dcd4c1acp-9
441=-0x1.7386955cb51ap-8
442=0x1.d19d02a5c310bp-9
443=-0x1.7ffd438fb6662p-10
444=0x1.78c29fb868f65p-8
445=-0x1.69b08952593bap-5
447=0x1.9489f93dcc709p-5
448=0x1.a2435c654a77cp-7
449=-0x1.253c9b97eb2c4p-6
450=0x1.6a1e010598b42p-8
451=-0x1.9a5033cfb3557p-10
452=-0x1.46cd56e76e3ccp-7
453=0x1.79360f654aaacp-7
454=-0x1.34bc5c697c064p-12
455=-0x1.526ab94be2e3ep-8
456=-0x1.972bd51269cc6p-9
457=0x1.2780498d024dfp-7
458=-0x1.86cdf3ddbb737p-9
459=-0x1.974a3d434d3d7p-12
464=-0x1.c9cc49a8bdc47p-10
465=0x1.702c2a0ce6cb1p-9
466=-0x1.32e4f2a3153a8p-17
467=-0x1.447fd322ce0dp-13
473=0x1.761634f21438ep-14
476=0x1.bc93a9a9fe4bp-8
477=-0x1.75a90fc322586p-8
478=0x1.8ff0dc5fc5b8ep-10
479=-0x1.1881a07fd2942p-10
480=-0x1.5adae8719877p-7
481=0x1.1b7267b74b334p-7
482=0x1.7482715aaaad2p-10
483=-0x1.29303de270d7bp-8
488=0x1.484344401f164p-9
489=-0x1.40258a01f40bp-7
490=-0x1.41fcf8da5356ep-11
491=0x1.dba3b8e259537p-8
492=0x1.513e13706814ap-15
493=-0x1.a28ae33097eb6p-10
494=0x1.038a37657a608p-13
496=-0x1.bd38ef97a68fbp-10
497=0x1.d8cb8f54581dcp-9
499=-0x1.e048f657f803bp-10
500=0x1.128e7b92eb45ep-12
501=-0x1.eaab6970ada72p-11
502=0x1.cfadc88610044p-10
503=-0x1.139f976fc0af8p-11
504=-0x1.7f4154e9730a4p-9
505=0x1.7eb8211a02c56p-8
506=-0x1.ff8b2ed35d89cp-13
507=-0x1.74f1fdac60462p-12
508=0x1.3dad83a4b6bc6p-9
509=-0x1.b155b86b72398p-10
510=0x1.deee456c2b096p-12
511=-0x1.a88210ce4d2aep-11
512=-0x1.bf1f8b180f0c5p-9
513=0x1.f4fb2b026234p-15
514=0x1.05da506f00f6cp-7
515=-0x1.325676d398448p-8
516=0x1.8f87348c511ebp-8
517=0x1.b4112b07e77cap-5
518=-0x1.2e73c2100aebcp-8
519=-0x1.e167ae4707bbap-5
524=0x1.df0dc3f1660bep-10
525=-0x1.5ba5cec1f9d5p-9
526=0x1.5587229e01418p-9
527=-0x1.18ff062ba2ee5p-11
528=-0x1.6bc15a173e4adp-9
529=0x1.372271235e3dp-8
530=-0x1.3bbff142ebc4ap-9
531=0x1.faf32afaae41p-11
532=-0x1.16307d95b112fp-6
533=0x1.739afcff327bcp-5
534=-0x1.ae49657c0d2bep-7
535=-0x1.1c671a6a21a26p-6
536=-0x1.f83562d67962ep-8
537=0x1.28e4aaaca8d38p-3
538=-0x1.4eb895205745ep-6
539=-0x1.7bed42ed30a49p-4
540=0x1.b99b39279ab46p-11
541=0x1.8b84639430b1ap-10
542=-0x1.a41b742a4f722p-11
543=-0x1.6f414616a937bp-11
544=0x1.8f78e1e29ffb6p-7
545=-0x1.02cc7c0425e04p-6
546=0x1.16516bc8ec11bp-7
547=-0x1.e44bb86de87a2p-10
548=-0x1.61b8087679738p-13
549=0x1.ddecd2713c5bap-8
550=-0x1.474fabc2b27f6p-8
551=-0x1.e40f9d04e59e9p-10
552=0x1.b3cd2289326dcp-11
553=-0x1.6632e6cf83a14p-9
554=0x1.6e5b601c8fbf8p-9
555=-0x1.004e2f5c91b8p-10
556=0x1.b342fd905c1ep-9
557=-0x1.3aa02f552a188p-10
558=-0x1.f833959d21796p-16
559=-0x1.0fbea7adf4284p-9
561=0x1.2bfa441f64d9cp-12
568=0x1.13b900efdaa4bp-8
570=-0x1.a61bba3aa30b3p-12
571=-0x1.2ad289db47608p-8
576=-0x1.d61d333cfed8p-18
577=0x1.54e9ea144ef08p-9
578=-0x1.4702bf8bd1bafp-10
579=-0x1.582356634cadap-13
581=0x1.30415d15e017p-18
582=-0x1.e0e58da2b75f4p-16
589=0x1.15c41a5bf496cp-11
592=-0x1.a7ac23fa1149ap-8
593=0x1.02b6daa027a08p-6
594=-0x1.f4d992695adb2p-9
595=-0x1.a7511905e2724p-9
596=-0x1.2e7aa20f5a85dp-6
597=0x1.4a25e139a5ec7p-6
598=-0x1.5e553da1f66eap-12
599=-0x1.7fc4e5616738dp-7
605=0x1.d6c113a87ebedp-14
612=-0x1.16d53bce96cafp-9
613=0x1.ae4d3d4fd7af4p-8
614=-0x1.5517712c47e5p-9
615=-0x1.3163a791b57p-20
616=-0x1.ffdd221a393cp-13
617=0x1.d12f4341819f8p-9
619=-0x1.5bf553094db3p-9
621=0x1.d83ffb8d92962p-11
622=-0x1.1c2013a0fb8aep-12
625=0x1.1b01f50b5df9p-17
629=0x1.33c78ae653bbcp-11
632=0x1.5b9a6331446bcp-11
633=-0x1.1d8890a0be57cp-10
634=0x1.74575d3e8e601p-9
635=-0x1.35f95e90d6357p-11
636=0x1.04d620be64d54p-7
637=-0x1.36bf33fc92a1fp-6
638=0x1.689f4bbeaffe4p-7
639=-0x1.a074fb722389cp-10
640=0x1.4690e3f11f9bcp-6
641=-0x1.192adc1417953p-5
642=0x1.063ebe2573607p-7
643=0x1.4cc0f8a0b682ep-12
644=-0x1.d497f1c4d43ap-11
645=0x1.23059c929f65cp-8
646=0x1.7e5fce6e5908fp-10
647=-0x1.88e0d8b93b72dp-8
648=0x1.3d4db6a9c871ap-11
651=-0x1.7bb614263768dp-12
652=-0x1.a04caa6da709p-12
653=0x1.6e05fdd68b5b9p-9
654=0x1.568284cebc14p-10
655=-0x1.36209bde464f1p-8
657=0x1.cd465515f2ddap-16
660=-0x1.2ea9ffc355bebp-7
661=0x1.ad810c783c632p-6
662=-0x1.50aa3e2dd219ep-7
663=-0x1.90566c730d71ap-7
665=0x1.a9564af3a14fcp-14
668=0x1.f2e0ad2bd9d3bp-11
669=0x1.a1205e26906eep-9
670=-0x1.377f7fd1ee11ap-11
671=-0x1.706df6e918302p-9
672=-0x1.43cf600f4feep-10
673=0x1.d1e93b2c904cp-13
674=0x1.9110f77619104p-8
675=-0x1.b222bfb540dfdp-10
676=-0x1.94213d7d0db1p-6
677=0x1.eb14f329d01aap-5
678=-0x1.180e6ebbba2eap-6
679=-0x1.8554bc39a318dp-6
685=0x1.e43c869b3b483p-12
688=-0x1.86362eeac4354p-5
689=0x1.0fa96ef16088dp-5
690=0x1.0e6920b1ce8bfp-6
691=-0x1.3a721ed178d6ep-5
696=0x1.a510d4437ffep-11
697=0x1.a9f4ee0b64397p-11
698=-0x1.65375ac0c1424p-10
699=-0x1.bc4404e806c7cp-14
701=-0x1.280b8215d0d98p-8
703=0x1.59b4e75beca34p-8
704=-0x1.62d4a85157d28p-9
705=0x1.de77732616068p-7
706=-0x1.8eba5093be7dcp-8
707=-0x1.c45d6e9ca494ap-10
712=-0x1.456490d517558p-11
713=0x1.85c3310e5880ap-8
714=-0x1.0a94e450d5742p-9
715=-0x1.79872d8f8c205p-11
724=0x1.bcae14fe8234p-7
725=-0x1.22e9d76a458e4p-6
726=0x1.c561df337455cp-8
727=-0x1.95b8065fa04cep-10
728=0x1.69a9d8e95aa4ap-11
729=0x1.812a6ecda0983p-11
730=-0x1.6313902e38a95p-14
731=-0x1.d6b75d893c25ep-13
732=-0x1.2b64bdd16fcd9p-11
733=0x1.16fcec941e646p-8
734=-0x1.8da0a24a34babp-11
740=-0x1.22cd07a85dad9p-8
741=0x1.6033fddb25c79p-7
742=-0x1.4cf939e1c0792p-9
743=-0x1.dcc96dc906ae1p-9
748=-0x1.0578c30ad110ap-8
749=0x1.775f02f648557p-7
750=-0x1.07b7216cc2c2bp-8
751=-0x1.73fd0f9141096p-12
752=0x1.6b1334e3f2f32p-9
753=-0x1.4a90a20ea313cp-8
754=0x1.9017f95ae0df2p-9
755=-0x1.d71bb384f5936p-13
760=0x1.57238c23ed707p-8
761=-0x1.8bb49c5b3e1dfp-9
762=-0x1.73bc5dfc94daap-13
763=-0x1.3a2b77620a6d3p-9
765=0x1.4136df2e21c44p-13
772=-0x1.5e0a593f53da6p-18
773=0x1.02ff22f5a630cp-10
776=-0x1.64193f68fbaacp-13
777=0x1.36ff246f71812p-8
778=-0x1.56688a7bf5004p-9
779=-0x1.0fbe3d3c16f6cp-12
780=-0x1.3d0d475604891p-12
781=0x1.15cde9496e128p-9
782=-0x1.86fe3bc0a05f5p-13
788=-0x1.088c1f6ab1549p-10
789=0x1.22a59193400c9p-10
792=0x1.16b78edf3ce55p-10
793=-0x1.b89b4c9eef336p-9
794=0x1.178d223505559p-10
804=0x1.91859926dbd38p-11
805=-0x1.5e093d6731026p-16
813=0x1.7a19ea9f0dc1cp-17
821=-0x1.37c2651c1149cp-12
822=-0x1.4ebfc9d65f107p-11
823=0x1.272ae88d94651p-10
824=0x1.dca714f510c2ep-7
825=-0x1.2be66d52186acp-6
826=0x1.e1150e8712f96p-8
827=-0x1.7be94bf01e5dp-9
829=0x1.9981e6b47f81ep-16
832=0x1.8ccbd4590f6d7p-9
833=-0x1.bbbe592012feap-8
834=0x1.b26c61638bc1bp-9
836=0x1.a82e7756fa83cp-14
838=-0x1.d77050adbc3eep-16
840=0x1.6afdb2becaaf3p-8
841=-0x1.b5f4679d312d2p-10
843=-0x1.2fe6cf922eba7p-11
845=0x1.096196447325p-17
848=-0x1.83302bb571eaap-10
849=0x1.b1cf0e4aacd4ep-8
850=-0x1.7bc4611ff6c2ap-10
851=-0x1.1623246939962p-14
852=0x1.7cb80afc4aa86p-7
853=-0x1.929ab6e1ea55dp-7
854=0x1.ddd9a04f95fa6p-9
855=-0x1.c8b6dfe9754ap-10
856=0x1.c13557d492bdap-10
857=-0x1.acaad62786024p-10
858=0x1.26a3c9bcfc056p-10
864=0x1.5af1ff4a9f0edp-8
865=-0x1.bb7321166be3ep-8
866=0x1.3684872ef4081p-9
867=-0x1.4ad6fa5e862b8p-10
868=-0x1.78f1bf6fdd798p-10
869=0x1.35f8df7601e27p-7
870=-0x1.b8c1dcae50e59p-9
871=-0x1.ceb635bbb119ap-8
872=0x1.4c8709d016498p-11
873=-0x1.3899132b6e6ccp-9
874=0x1.ab9b48d400403p-11
881=0x1.13cbd04979db6p-14
884=-0x1.c379bbbb0c578p-7
885=0x1.0377543360dap-6
886=-0x1.8f9e3c3b77388p-15
887=-0x1.32187cb48725ep-7
888=-0x1.006f13da3a288p-10
889=0x1.b8600789efac9p-9
890=-0x1.bbe1231299938p-14
891=-0x1.5390989b56816p-10
896=0x1.3295a8a5eb70ep-8
897=-0x1.5e912abb1013p-7
898=0x1.acfb43dd02708p-8
899=-0x1.20bb0dc31081ap-11
900=0x1.8c22890e7d86dp-13
901=-0x1.e4ac37f26eeabp-12
904=-0x1.c8c9d144f0c48p-17
905=0x1.06eef7db284f2p-10
906=-0x1.d493d2db0317bp-17
916=0x1.1b11b5264494bp-6
917=-0x1.101a5e4e6c397p-8
918=0x1.2ce3bbdfd015ap-10
919=-0x1.21cc7978eb673p-7
921=0x1.7a026becb68dfp-11
922=-0x1.10fd960bdcf54p-16
928=0x1.f672eb0422c08p-11
929=-0x1.7e5ebbfe5beep-9
930=0x1.02ec5f2ba4e12p-10
932=0x1.205bd8b6033a4p-10
933=-0x1.c4359c3c3888cp-9
934=0x1.2562ef773b733p-10
936=0x1.e6e27495a32b4p-10
937=-0x1.ef55d658d5c3fp-12
938=-0x1.18ca160ce1f6bp-12
939=-0x1.ee4b5d127c2eap-15
944=0x1.2eb3234f60be3p-9
945=-0x1.db2f8e4da570ap-11
946=-0x1.6a1398d7df4bdp-15
949=0x1.0487079de5599p-12
952=0x1.28d600ca1e6b6p-9
953=-0x1.00de0c04d2e27p-7
954=0x1.7d6e064b47da8p-9
955=0x1.9948f52bc20eap-11
957=0x1.20a0d36fbd3ffp-12
960=-0x1.70cd0f80738f6p-9
961=0x1.14d7eb248e0f5p-7
962=-0x1.37dd61712dd9ap-9
963=-0x1.1cc6448fbcb2dp-13
964=0x1.e632cb3550a4p-7
965=-0x1.7d1e997270762p-5
966=0x1.113bc2d346f34p-6
967=0x1.0fae13a93fabdp-7
968=0x1.1e8737868e305p-6
969=-0x1.000a1c5dd7d7ap-5
970=0x1.231e3a8c4fcd4p-6
971=-0x1.8a0aad271073fp-10
972=-0x1.a445592f067d2p-5
973=0x1.6f3459a7a0f2p-3
974=-0x1.25b04e0e722b7p-5
975=-0x1.005d3fcc9a298p-3
976=-0x1.beb282d63fb7p-12
977=0x1.933bbde56050ep-11
980=0x1.a1199f49fcaep-9
981=-0x1.d5b39ba05edebp-8
982=0x1.6db63e115636dp-8
983=-0x1.f9cda302f90eep-15
984=-0x1.1bfa74b494933p-12
985=0x1.023e72ff5cd4cp-9
986=-0x1.06ff7f9be6b92p-12
988=-0x1.90d898d23ecacp-16
989=0x1.042fa36c65df3p-9
990=-0x1.9b5ec8e0fe692p-13
991=-0x1.8c0a07d0c1cb8p-16
993=0x1.e2935b6a9692fp-12
996=-0x1.24620d695186ep-16
997=0x1.a053c4102047cp-11
998=-0x1.7ae378401b97ap-16
1008=0x1.02e5cd9113a6ep-10
1009=0x1.fc9cd324e2f6bp-10
1010=-0x1.cc6e3bfbe761ep-10
1011=-0x1.801b650b5fe79p-10
1013=-0x1.3a8bef23d373ep-10
1014=0x1.4550c3762f3p-9
1016=-0x1.6f369bd52c457p-17
1017=0x1.b706094674c14p-11
1028=-0x1.08d6a62122e25p-8
1029=0x1.87d3122c1eecap-7
1030=-0x1.ff2288116e423p-9
1031=-0x1.2c87dc1bb9bb1p-13
1041=0x1.6d2d636d9edc8p-8
1042=-0x1.8e204b4a70068p-9
1043=-0x1.1a0c10fd3aacap-10
1045=0x1.a0ce60e3fbfd8p-16
1049=0x1.4db447ad1d67fp-11
1050=-0x1.14ce2a034b3edp-17
1053=0x1.6f77fad30008p-18
1056=-0x1.caab64fd7ef7p-11
1061=0x1.d81f790096b8bp-14
1064=-0x1.39dbff27955c3p-11
1065=0x1.9585f3a054208p-9
1066=-0x1.fa078484dd06cp-12
1069=0x1.1756c5b69ca45p-11
1081=0x1.853b967a96527p-16
1085=0x1.137d03b9e5196p-12
1088=-0x1.19395be463a65p-11
1089=0x1.821789e540992p-9
1090=-0x1.ba72bfa3892b6p-12
1097=0x1.a6cf76ad5df9p-15
1101=0x1.bcb12bddc561dp-14
1104=0x1.b067aad355d26p-11
1105=-0x1.65d4ba094c85p-9
1106=0x1.022bb14b65773p-10
1108=0x1.58516e93dd308p-11
1109=-0x1.9724d12c18d9bp-11
1116=0x1.13694fc4b8fbbp-8
1117=-0x1.fa5d1075a0698p-8
1118=0x1.c653cb4d4f054p-9
1119=-0x1.66d446c19d05p-12
1120=0x1.87f66ec684e9ap-12
1121=-0x1.a889b3b164bc8p-13
1132=-0x1.d65206b42a4b4p-10
1133=0x1.07f3a6c86f842p-9
1134=0x1.5a34a928917p-12
1135=-0x1.0bbf57d82e886p-13
1141=-0x1.fbd0abaf0bb68p-11
1142=0x1.43d1ce101376fp-12
1152=-0x1.00201caa674efp-11
1153=0x1.a6da4b8a9bd34p-11
1155=-0x1.a6a54698bf993p-14
1157=0x1.1f7a22c68c683p-12
1165=0x1.ac352ff99f0ccp-16
1168=-0x1.8c5277359873bp-11
1169=0x1.edb9178cd3d43p-11
1173=-0x1.80da328da76c4p-14
1174=0x1.860678cb988b6p-11
1177=0x1.0f80cf921ff63p-12
1181=-0x1.a43d6f4e34309p-12
1184=0x1.3c2ba8feb7ef2p-9
1185=-0x1.b2a797cac41acp-7
1186=0x1.4fc7bc4a8f2afp-8
1187=0x1.fe332ce254d6ep-9
1197=0x1.575e051c11d19p-11
1198=-0x1.1ad5e398fd163p-17
1216=0x1.725f3c58689adp-10
1217=-0x1.6429311b4e23ap-9
1218=0x1.51cb289275226p-10
1225=0x1.0cc23cbdae6aep-10
1226=-0x1.ea9d7d1731b51p-17
1249=0x1.686b18f19c4fp-22
1253=0x1.e9b695d168f8cp-12
1268=-0x1.1ca66ce5c5d4cp-9
1269=0x1.c1eed0dfce45dp-9
1270=0x1.5de0bed30ceb6p-8
1271=-0x1.a40601188ff37p-8
1284=0x1.cbda840b636fp-10
1285=-0x1.401965d74186ep-7
1286=0x1.9be7bc0043b5cp-7
1287=-0x1.516702094d028p-8
1297=-0x1.05cb7a6b1c016p-10
1298=-0x1.87344ae007517p-12
1299=0x1.5b26591523ca9p-9
1301=0x1.36bff49dbaa28p-19
1305=0x1.0fed3ad8d6ae6p-13
1328=-0x1.003606890cf7dp-8
1329=0x1.18c425b57c3cbp-8
1330=0x1.94595054fb54fp-11
1331=-0x1.3b1c4a2c6a4d7p-9
1332=0x1.418a4e0060778p-10
1333=0x1.66327a792660ep-14
1335=-0x1.952e088e3f9bap-9
1342=0x1.deea3f4c1a273p-11
1349=0x1.858eb5363e698p-11
1350=-0x1.6fb50ef048abcp-12
1351=-0x1.462f0b8053879p-14
1356=-0x1.bb866daad8002p-10
1357=0x1.7f8abb86fdf75p-10
1358=0x1.9bff5cf9cc1b2p-11
1359=-0x1.51bf7b4bef5aap-13
1361=0x1.cb4ef12c65a23p-14
1372=0x1.004c6b008dfdcp-9
1373=-0x1.af7a4dc0102bp-10
1374=0x1.67df92d66498ap-9
1375=-0x1.351396ef46b4fp-10
1376=0x1.0e7e10cde11cep-10
1377=0x1.f61f8dcf59c2p-17
1378=-0x1.9fe857ddf3ca9p-14
1379=-0x1.593e1f599ce6cp-11
1380=0x1.09c3f0da7cda1p-10
1381=-0x1.883e84e6a09a1p-9
1382=0x1.0724fb411d5e9p-10
1384=0x1.2353245efdbf6p-10
1385=-0x1.c4933a17bb7dep-9
1386=0x1.234f9d375a854p-10
1388=0x1.01cde9707d51ep-10
1389=-0x1.f167edbab287ep-10
1390=0x1.1c7a525370cc6p-10
1391=-0x1.daa2cab9101acp-15
1392=-0x1.af255b0d8a1fp-19
1393=0x1.82f62e2b0d4b6p-9
1394=-0x1.c88eee74a1f2p-10
1400=-0x1.c683f67028822p-12
1401=0x1.563923b543845p-9
1402=-0x1.9d69501019e86p-12
1420=0x1.8479e203baf62p-8
1421=-0x1.9083a0ad4f7e6p-7
1422=0x1.6ce8c9c8f154ap-8
1432=0x1.c4db02c75adbep-13
1437=-0x1.2a25afc5e2462p-12
1438=0x1.fccb4b4c0cb93p-11
1441=0x1.abd054632988dp-15
1444=-0x1.0881c38e6992ap-12
1445=0x1.0f2bcdbc67024p-9
1446=-0x1.15e7a144dd578p-12
1452=0x1.04fa89608a58cp-10
1453=-0x1.83d56c1661dcp-9
1454=0x1.09b45e3a6373dp-10
1464=0x1.9c441f66e0d4fp-13
1465=-0x1.01dd3f3c86b0fp-10
1466=0x1.17fd3bef6a779p-11
1468=-0x1.ac2b7a9c89c0ep-16
1469=0x1.e32744c22498ep-11
1470=-0x1.11f43d5ba7fecp-15
1485=-0x1.1ec5ae71e151p-10
1486=0x1.d2487ec4cfa41p-10
1489=0x1.311652d6e5fcp-10
1490=-0x1.e20c576eb91p-17
1504=0x1.9cc56cbf4f77cp-11
1505=-0x1.4662ebe354a72p-9
1506=0x1.9259fb619a1bfp-11
1508=0x1.51ca844acff85p-11
1509=-0x1.06916714644b7p-9
1510=0x1.8795326962088p-12
1513=0x1.1140e4b96e458p-11
1517=0x1.9554c57ca19d9p-12
1532=-0x1.a637dddc67ffcp-11
1533=0x1.522e3479c5d97p-8
1534=-0x1.0fb09e51277aap-10
1540=-0x1.46a51973bfa74p-12
1541=0x1.0faa031e6a68ap-9
1542=-0x1.4b2fe72fe88fbp-16
1544=-0x1.1905790cc8e0cp-14
1545=0x1.1c0a9b0ab6677p-14
1553=0x1.1e1f6291150d8p-12
1556=0x1.def7da746006ap-11
1557=-0x1.897959c6d16ddp-9
1558=0x1.d3dd2e5fb3484p-11
1565=0x1.9607117ca3fcbp-14
1585=-0x1.defac03583777p-11
1586=0x1.24d40a6797c36p-10
1592=0x1.f50431d1fa8ep-11
1593=0x1.95f45256fbf2p-8
1594=-0x1.bcc3d2ced8ef5p-8
1595=-0x1.34923fd21c6bdp-10
1609=0x1.f9f66fccfd41bp-11
1610=-0x1.9077cc54cacaep-17
1621=0x1.76f293159b8d2p-12
1625=0x1.fb74d88e3d608p-13
1632=-0x1.c730f6ab0735ep-12
1633=0x1.29370d381b45bp-7
1634=-0x1.9eed3e33a62edp-8
1635=-0x1.1bb7b66136dfap-10
1645=0x1.8dc14f88eb9edp-16
1649=0x1.ad163cba4853fp-16
1653=0x1.0e53f262d3b46p-17
1657=0x1.003cb13f00be6p-12
1661=-0x1.5d6b5fdb5119ep-20
1662=0x1.bc9269c146cfdp-11
1664=0x1.c47e5b2a6cb34p-11
1665=-0x1.5fc3a1ec1b8e2p-9
1666=0x1.c29776534049p-11
1668=-0x1.25d16b38bedfbp-11
1669=0x1.df2394e4f3f2ap-9
1670=-0x1.3882190253bbep-11
1671=-0x1.2c78ce73d68aap-11
1680=0x1.1fe4923235bbdp-8
1681=-0x1.eb7ff8db2442ep-9
1682=0x1.8c438972e648cp-13
1692=-0x1.a961912454f5dp-16
1693=0x1.c8cd8237f32bdp-11
1694=-0x1.8ae5baba3a573p-16
1696=-0x1.9f3f6d71b6822p-10
1697=0x1.97702bb6d14cep-9
1698=0x1.3c471cd451803p-10
1699=-0x1.4f3b52ed9d437p-10
1704=-0x1.303a1a3750abcp-14
1705=0x1.c7bb82c42c543p-10
1706=-0x1.afe891c25efaap-14
1707=-0x1.8a16fa65708b2p-13
1708=-0x1.62867a6ab28b2p-7
1709=0x1.e31e0bd333b44p-6
1710=-0x1.7001ccbc77c3bp-7
1711=-0x1.2220765f4d1a7p-8
1712=-0x1.468a6ec742488p-12
1713=0x1.f8a8b3058dc0dp-10
1714=-0x1.b81fb80d38da2p-15
1716=0x1.25774eb1eec8ap-10
1717=-0x1.4a52a16743a6ap-8
1718=0x1.bf89f612e1deep-9
1733=-0x1.a9444bc6f718ap-10
1734=0x1.9594d57f30b24p-9
1736=0x1.b6f38303cf71p-9
1737=-0x1.0118d617a107ap-7
1738=0x1.f594973f5521cp-9
1748=0x1.2960dc5234aabp-12
1750=-0x1.76679fdba5ebdp-18
1757=0x1.63e9fb32e372dp-11
1761=0x1.95d0713af7b25p-17
1768=0x1.fac5e5318ac85p-9
1769=-0x1.7abf6cf16c78fp-11
1770=-0x1.c9adda878dd22p-11
1773=0x1.1fab48ae469cap-11
1777=0x1.ee61b422271c7p-13
1780=0x1.b3349254872dp-17
1781=-0x1.ad6871e072c69p-11
1785=-0x1.f05ec24a31ca8p-17
1787=0x1.eccdad3059877p-11
1796=0x1.4b6229b5b2f37p-18
1797=0x1.a26723002ad23p-13
1798=-0x1.8d28ea0ff41fap-12
1808=0x1.56d4aeeacb8d1p-12
1809=-0x1.e045bfcdee418p-10
1810=0x1.2c1f33faa885fp-11
1828=0x1.14a3a517e040ep-10
1829=-0x1.b0fc0c6a7f6c7p-9
1830=0x1.0c7acec1894b4p-10
1832=0x1.bb4c7f95ff322p-11
1833=-0x1.5f452edf82a06p-9
1834=0x1.c88ef0edb5a26p-11
1836=0x1.e78d4cb65d62p-11
1837=-0x1.11b212f46eaa1p-11
1840=0x1.535efb9156cc4p-11
1841=-0x1.156a6b308e0eap-9
1842=0x1.2ef7f3310149ep-11
1848=0x1.23614e53b493fp-11
1849=-0x1.272874f216577p-9
1850=0x1.3b7a26d159c9fp-11
1852=0x1.6a93edcbced6dp-12
1853=-0x1.a28f443a1d56ep-10
1854=0x1.29243da35ff63p-12
1857=0x1.902e54a437effp-12
1860=0x1.270428fd5c01p-10
1861=-0x1.ee9f75d027559p-11
1868=0x1.0bde70cc06e9dp-10
1869=-0x1.bf0ad872501e3p-9
1870=0x1.44eb94b099b0bp-10
1873=0x1.1b1808fa703fcp-11
1874=-0x1.5003ec24b695ap-17
1876=-0x1.a1588bd3e3b6ep-10
1877=0x1.8c58c4f32b74ap-8
1878=-0x1.2f1caa7708c14p-10
1893=-0x1.1108be3ae143p-10
1895=0x1.2682b190d469ap-10
1900=-0x1.a0861c09d072dp-16
1901=0x1.27bb1fd6ce5f3p-10
1902=-0x1.f3dc28898a3f5p-14
1912=-0x1.f6f3c8c0b80d8p-12
1913=0x1.b298737193ad2p-9
1914=-0x1.c7e8111002977p-12
1921=0x1.849d53614fec6p-14
1937=0x1.d0f3f8a952bccp-19
1941=0x1.8e445951dff74p-12
1949=0x1.d99fa7eef927p-19
1953=0x1.81297f2fbb1bbp-16
1961=0x1.5f511a6bb6772p-12
1965=0x1.438d5457a328ep-12
1969=0x1.2acd02e0e70fcp-10
1970=-0x1.d3cc7fa78011cp-17
1973=0x1.b4c1e66397a8cp-14
1981=0x1.e3372ed7a03bp-13
1985=-0x1.4cb7a55ab8896p-9
1986=0x1.7cb15d0544ff8p-11
1987=0x1.9dcef8975f553p-14
1996=0x1.d4fc06675a581p-14
1997=-0x1.cbcb1df98458bp-9
1998=0x1.6166a56aee3c6p-9
2001=0x1.1e755cd18ba3p-21
2008=0x1.33abfacdb11b4p-11
2009=-0x1.29644dc1ccb2p-9
2010=0x1.08f0b424473ecp-10
2016=0x1.1112d62c787a1p-10
2017=-0x1.acda6bd039806p-9
2018=0x1.08481e190b01ap-10
2020=0x1.24aef8d2b90ep-9
2021=-0x1.ec7e659f4a196p-9
2022=0x1.2bc920a2ed1b8p-9
2025=0x1.2907769ce911cp-13
2028=0x1.4bca994ec968fp-9
2029=-0x1.0b97739c6809bp-7
2030=0x1.67038f9f91d7cp-8
2044=0x1.4769e9f8646fap-11
2045=-0x1.2bdb521b534c4p-9
2046=0x1.27202995172cbp-11
2052=-0x1.c774f4e023184p-10
2053=0x1.01f1d71eb1633p-10
2054=0x1.1a679f4b2213dp-10
2057=0x1.4ab932890232ap-11
2065=0x1.d4c724135a0f9p-12
2068=0x1.8b4f67e77cc4p-12
2069=-0x1.938d8ea457d1dp-13
2070=-0x1.a1342252ae0ebp-17
2085=0x1.ea7abfae8604fp-13
2100=-0x1.7e2b1fc581cc8p-17
2105=0x1.7070eea36dafdp-10
2106=-0x1.0a5f31c071c1bp-16
2109=0x1.2e9f598ae0399p-12
2113=0x1.9d09b97b2a30fp-12
2121=0x1.dd1762ceb02b3p-15
2133=-0x1.057c70e4ba414p-12
2134=0x1.942316f2627b9p-11
2136=0x1.58b129b61fcc2p-11
2137=-0x1.18b642fd6de95p-9
2138=0x1.f3f905e8251b4p-12
2141=0x1.458074156b1b8p-13
2153=-0x1.712e58e723c5ap-12
2154=0x1.c43b17636fe36p-11
2157=0x1.4a84a38378f98p-17
2160=0x1.421c570b5ddb9p-11
2161=-0x1.0e3e8d80b879ep-9
2162=0x1.f0b92caa7a1dp-12
2181=0x1.0285c816d344dp-17
2184=0x1.ee4c2dbe5adb5p-11
2185=-0x1.948dce7d38e0fp-9
2186=0x1.f0f7353e49b73p-11
2192=0x1.91ad1133a7d32p-13
2193=-0x1.1f2efd4c3a9f6p-10
2194=0x1.b4d030254a2f6p-13
2197=0x1.6081a9ffec444p-15
2221=0x1.5ecd31330624p-18
2229=0x1.d2b8dc391e23p-13
2233=0x1.a3a1c950ffdf4p-12
2237=0x1.e91c35bb2d1d2p-17
2244=-0x1.887fbcbbbd6b6p-12
2245=-0x1.dd3a4806035d8p-12
2246=0x1.1ad9dffb9ca4p-9
2248=0x1.0f9b7420b0fe8p-10
2249=-0x1.aa96b700cdc0ep-9
2250=0x1.084edec7d9d36p-10
2260=0x1.1ed7e0bbe3e8p-10
2261=-0x1.bbaf4c3a8bc47p-9
2262=0x1.176046ab175bbp-10
2275=0x1.43de0dab971f2p-13
2277=-0x1.2cffa53054b3cp-10
2279=0x1.2d09e69f19b58p-10
2284=-0x1.6e8e35fb053aap-9
2285=0x1.b6805cd57f8e6p-9
2286=-0x1.e5fdb755db766p-13
2340=-0x1.d077ac553ead3p-14
2341=0x1.993774004a765p-10
2342=-0x1.8e2c0b83a6d55p-13
2348=0x1.5f3ab283bd711p-13
2349=-0x1.1189c5f9b9515p-7
2350=0x1.4fba847b640fbp-9
2351=0x1.a496ffcb63416p-9
2364=0x1.0f44d27f92829p-10
2365=-0x1.b104e424bd7b3p-9
2366=0x1.13726ec10aa2cp-10
2373=0x1.18c72ae2c0ce6p-13
2384=0x1.068201f2275c3p-10
2385=-0x1.559264ddb8d5bp-11
2416=0x1.f29886b0b52b6p-11
2417=-0x1.9813347efe5f6p-9
2419=0x1.1e2d4021dd6f5p-10
2441=0x1.ce98f4e45a848p-14
2468=0x1.3c0aebe460eb4p-10
2469=-0x1.24607e1c9688dp-10
2488=-0x1.3421261ab59p-15
2490=0x1.0d03633133493p-12
2504=0x1.5bc948acb78cep-10
2505=-0x1.89331fccdc26bp-8
2506=0x1.0406af1ca9e36p-10
2507=0x1.1fbedbeaf71f8p-10
2508=0x1.95e46fda3aa48p-9
2509=-0x1.bd6abbe5c9a4fp-10
2513=0x1.b53426631b898p-11
2520=0x1.5e781e56f353cp-8
2521=-0x1.0b8228abe264p-7
2522=0x1.979cf5d16c6bp-9
2528=0x1.2391efe876da9p-13
2529=-0x1.7c90c4dcd4275p-10
2530=0x1.515dc39eb92bap-13
2548=0x1.e6b75b6093558p-15
2549=0x1.61387d5794902p-13
2551=-0x1.2c7dc374c2f6ap-15
2565=0x1.1d4c4324913c8p-11
2588=0x1.e05e018866652p-9
2589=-0x1.02b42befb4d99p-7
2590=0x1.bfdfc691f6696p-9
2609=0x1.b7f5fad69787ep-15
2613=0x1.b98c5fba895d4p-13
2632=-0x1.058c6027f6158p-18
2634=0x1.377bbca7f966cp-17
2661=0x1.1904d883794cp-17
2724=0x1.2984830e93599p-10
2725=-0x1.cc896dca5fae6p-9
2726=0x1.2acd89063fabap-10
2729=-0x1.53fdb7b5acdc9p-10
2731=0x1.3bdcf5ed16d3ap-10
2732=0x1.0f43f1f2f0fdp-10
2733=-0x1.6b3fee5416af1p-11
2745=0x1.867770fe97044p-12
2760=0x1.2156ea621c03cp-10
2761=-0x1.c5f1cf52df06ap-9
2762=0x1.272e011020c36p-10
2768=0x1.0ec666006926bp-10
2769=-0x1.afae0fb2c9bcbp-9
2770=0x1.4bc7add9dec92p-10
2772=-0x1.8072bc7538038p-12
2773=0x1.5dfe305cd0ddfp-9
2774=-0x1.72a84e1597b24p-12
2784=0x1.26b37a2a3a645p-11
2785=-0x1.217d83cd390c8p-9
2786=0x1.c1d443c55b0c8p-11
2793=-0x1.fce50ca2166a8p-11
2794=0x1.2bb4dc60f7594p-10
2808=0x1.c5ad773bda6ccp-11
2809=-0x1.5224a1f082e23p-12
2817=0x1.e69bc620f5fb8p-15
2828=0x1.b9c92810d76d6p-9
2829=-0x1.00d8413b8431p-7
2830=0x1.bc48601dc7b43p-9
2880=0x1.82a34334e750cp-11
2881=-0x1.95954a3092d4fp-11
2905=0x1.6cf667e4106b6p-12
2960=-0x1.31f65db01db06p-13
2961=0x1.add8a4ac9a06ep-10
2962=-0x1.b4ed9d6d4f0acp-14
2976=0x1.ee6491a9f4024p-11
2977=-0x1.4346e8dce622p-9
2978=0x1.da869efd13c4cp-11
3029=0x1.c1eb08efb7a2p-21
3037=0x1.339a55ca92b36p-12
3041=-0x1.7238a2e957f81p-13
3042=0x1.6ce9c75eeab1bp-12
3044=0x1.14072cd13993ap-10
3045=-0x1.92eb5fd0edd0ep-9
3046=0x1.1004af54864b6p-10
3073=-0x1.158d0a6140b9ap-12
3074=0x1.003ce9a510652p-10
3077=-0x1.85a536d786b64p-11
3079=0x1.e4bdc4a1f96a2p-11
3105=0x1.4825b138239e4p-12
3132=-0x1.d421d680d990ep-14
3133=0x1.cb29544cc2419p-10
3134=-0x1.f87e4650333f8p-13
3136=0x1.b5f56af98afcep-11
3137=-0x1.6c17c2634d184p-9
3138=0x1.a8a9ee7b23c44p-11
3157=0x1.9451a0e8cf08p-15
3173=0x1.7e5214f4a26cp-17
3192=0x1.0d19301c86d8bp-10
3193=-0x1.8b2a7a070534ep-9
3194=0x1.07b70a637e4dfp-10
3200=0x1.2e1df2c71ed81p-10
3201=-0x1.cf4a0e30cfa6bp-9
3202=0x1.2bb961ad791ep-10
3204=0x1.2d9c402ec02f7p-10
3205=-0x1.0599e01fe2326p-10
3219=0x1.b93ca4dea7438p-11
3220=0x1.ba58a1a00cb48p-10
3221=-0x1.10920df41d6f6p-8
3222=0x1.288f00a3904afp-9
3241=-0x1.947a138ecd5a6p-11
3242=0x1.172338f9c9314p-10
3244=0x1.12f8bdba3874ap-10
3245=-0x1.b70c1dea87f0ep-9
3246=0x1.1a0ffe3c316dep-10
3256=0x1.6bcf423d0bc28p-9
3257=-0x1.6705bc3ed98f2p-9
3269=-0x1.354aa87449b22p-9
3270=0x1.a5b8d7cc94798p-9
3274=0x1.b223e63c8bd38p-11
3280=0x1.08a3c5d5805cfp-10
3281=-0x1.adc4aeb7f80d7p-9
3282=0x1.4fe2959be5822p-10
3288=0x1.37d981a621812p-10
3289=-0x1.da6b6cb746535p-9
3290=0x1.371e2b27d03d5p-10
3304=0x1.6181bc8ae0b7dp-6
3305=-0x1.6630c5b64f08ep-6
3306=0x1.a03455576da2ep-7
3307=-0x1.c43f8a2eab8cp-8
3361=0x1.f7387d6e34fc5p-12
3365=0x1.70e09b7a0b6e8p-13
3389=0x1.6ae00ae75eb64p-12
3400=-0x1.bd7054fa4f4f2p-11
3401=0x1.c819bc648c441p-9
3402=-0x1.03c61f9bcdfb7p-11
3421=0x1.db15763d5d7bcp-12
3440=0x1.25d4d53073c14p-10
3441=-0x1.f5d7eb46f7df4p-11
3473=0x1.2c2b078b79133p-12
3548=0x1.222e96765856p-10
3549=-0x1.c26b141601bd9p-9
3550=0x1.5be9fd0765484p-10
3581=-0x1.2a50a20c011a6p-11
3583=0x1.094192df04abep-10
3588=0x1.123cd800dfa8dp-11
3589=-0x1.e0f822c284a39p-10
3590=0x1.216d9973c9c72p-11
3593=0x1.17754aa11dc99p-13
3636=0x1.bc374827a59a8p-11
3637=-0x1.0783adcd70da6p-12
3640=0x1.7f51052487462p-11
3641=-0x1.ea149500ff74dp-15
3681=-0x1.e85ba5fca423p-11
3682=0x1.287dbe7287d9bp-10
3721=0x1.0c395f568d83ep-13
3805=0x1.ee5f1c5a6d324p-12
3836=0x1.59da62f772429p-9
3837=-0x1.75f46b7134c2p-8
3838=0x1.8b23b3746af96p-9
3839=-0x1.b534c1d27a5a1p-13
3917=-0x1.c015d657c36aap-11
3918=0x1.89a5090335b21p-11
3952=-0x1.7b8148e16c244p-14
3953=0x1.38360fd399334p-10
3992=0x1.27306daf9ca92p-10
3993=-0x1.a9a9741a4efeep-9
3994=0x1.2928cb98517b3p-10
4001=0x1.f249af855779ep-14
4032=-0x1.156c3c4d2f382p-12
4033=0x1.091db6995bf61p-9
4034=-0x1.287683d851feap-12
4041=0x1.071811ef129c4p-16
4048=0x1.c026e53d29658p-9
4049=-0x1.0d4394958bff8p-7
4050=0x1.eb396d0c491e4p-9
4089=0x1.56471fa462308p-14
4116=0x1.676bbb082c595p-11
4117=-0x1.b5eca708e4095p-11
4145=0x1.f53419a7f7edbp-13
4173=0x1.5ded56a17cddcp-11
4209=0x1.75ebb739317aep-12
4220=0x1.73a7773ba8f15p-8
4221=-0x1.d1199e36a3911p-8
4222=0x1.4f31f92715b48p-11
4301=-0x1.d567bd4211178p-11
4302=0x1.aad6f7ffb2437p-15
4416=0x1.148639c2e8947p-10
4417=-0x1.9423dea4d0a16p-9
4418=0x1.12c1186fae2a4p-10
4581=0x1.923dd807a14a6p-11
4693=0x1.4894c3ee88ef9p-12
4829=0x1.881dc172098c6p-13
4917=0x1.1840e5ca3410bp-12
4948=0x1.71f57eed95b1p-9
4949=-0x1.b520152acd333p-8
4950=0x1.6e6a4d371955fp-9
4984=0x1.81107485a137bp-8
4985=-0x1.93fb147a1e2f5p-7
4986=0x1.6a45a1a55aebbp-8
5037=0x1.51eff837b9b2fp-15
5101=-0x1.57703cba41b95p-10
5102=0x1.82f5f69e9ccb8p-10
5268=0x1.0c5ee116a4bbp-10
5269=-0x1.a833650c2c4fep-11
5280=0x1.30d3a6b306e71p-10
5281=-0x1.d0e2c20135c24p-9
5282=0x1.2cc184bb8176dp-10
5321=0x1.1a6c8a0067414p-12
5372=0x1.83c7f1cf40d1cp-9
5373=-0x1.27de6f44cbc44p-8
5374=0x1.1edf47680dd2cp-11
5397=0x1.a1111b5d5e5ccp-11
5398=-0x1.d615ceca6438bp-17
5448=0x1.0dc36066786c7p-7
5449=-0x1.d96881a9192p-7
5450=0x1.6033402c51ff3p-8
5452=0x1.06db0c427079ap-9
5453=-0x1.3f15faf975b5cp-8
5454=0x1.4c6c744b9ad39p-9
5456=0x1.405a499e39278p-6
5457=-0x1.1a72d522e02e5p-5
5458=0x1.05522368e78dap-6
5459=-0x1.311d8414e40dbp-10
5477=-0x1.275a423943d25p-12
5478=0x1.cba4702467a67p-11
5480=0x1.eea2dbe423a28p-11
5481=-0x1.7770501488b74p-9
5482=0x1.f057fa8e9663dp-11
5489=-0x1.fd9dcfebd0db1p-10
5490=0x1.9359d80f9cf0fp-9
5492=0x1.98c8b792ff617p-9
5493=-0x1.ed050ea464052p-8
5494=0x1.bd7ff79054a3dp-9
5496=0x1.b806f29870d36p-11
5497=-0x1.09bdeef575be2p-12
5504=0x1.fe2573318e03cp-11
5505=-0x1.827ec34ccf0c5p-9
5506=0x1.05ac4ff6e6b75p-10
5513=0x1.47dbc0eaae5a6p-16
5520=0x1.372563844be0ap-10
5521=-0x1.23f96628a51cap-11
5529=0x1.1cf3de0a15c6p-18
5540=0x1.04d8648051e6cp-10
5541=-0x1.507191f85f635p-11
5548=0x1.7d45051ba0369p-8
5549=-0x1.9fd22d192ad9bp-7
5550=0x1.8de7cbd52e2bep-8
5568=0x1.e2ba4642c50afp-11
5569=-0x1.73693dc518606p-9
5570=0x1.ee21d1b73c714p-11
5572=0x1.1a71129b127a2p-10
5573=-0x1.badc99eca0778p-9
5574=0x1.1a7b80de06952p-10
5576=0x1.c1b450d0a8a84p-13
5648=0x1.c582616a6dca2p-11
5649=-0x1.8f2c399cee2cep-12
5684=0x1.d8da3ce41afddp-9
5685=-0x1.80da6461ec5c1p-8
5686=0x1.12dacfba7eb36p-10
5688=0x1.c789b6b48f09p-8
5689=-0x1.20f0943e701e6p-7
5690=0x1.d58002bf949fcp-10
5732=0x1.16a586ad921p-10
5733=-0x1.ad109f3c6e12cp-11
5740=0x1.2281542551126p-10
5741=-0x1.dd807aa3d46c2p-11
5749=0x1.195d7bb520e6ep-19
5765=-0x1.0155235abd37ep-11
5766=0x1.ee0b2e42ba9e7p-11
5768=0x1.e12bc5a43f9eap-11
5769=-0x1.71c112faae607p-9
5770=0x1.e920689463ea3p-11
5792=0x1.22fa90c6a9e04p-10
5793=-0x1.c747d4b9fa239p-9
5794=0x1.27d00a1e3fc42p-10
5800=-0x1.80296395524e5p-17
5801=0x1.b977ec7f90216p-11
5802=-0x1.aabe542ed46f5p-16
5836=0x1.d5b793cfd1c22p-9
5837=-0x1.528a3b6e26158p-9
5845=-0x1.633f1c7ceb876p-10
5846=0x1.88e7c3c24555ap-10
5857=-0x1.b10ef468f70d6p-11
5858=0x1.49dfc39cc5c1bp-10
5865=0x1.28e3c01b6ebdfp-16
5872=0x1.30879f197ab78p-10
5873=-0x1.d4387abb24737p-9
5874=0x1.32589f4c335a5p-10
5893=0x1.1bcc84fdb5dcep-16
5904=0x1.0dbde393c03b6p-10
5905=-0x1.90e73123396bap-9
5906=0x1.1249e328d7c9cp-10
5920=0x1.2e9f60d34d28cp-10
5921=-0x1.d1d95b2db30c6p-9
5922=0x1.2fb7e3862a6ddp-10
5925=0x1.e024325aedd58p-14
5961=0x1.31a304a754408p-12
5981=0x1.33692589e24f2p-17
6000=0x1.99001712fac9ep-9
6001=-0x1.c58c9dff4e231p-8
6002=0x1.bb4662133ee47p-9
6005=-0x1.bc95a171033c2p-11
6006=0x1.1c936c29f1de2p-10
6008=0x1.0b34a84070c9dp-10
6009=-0x1.abccd4a9a450ep-9
6010=0x1.0efe49f51f857p-10
6017=0x1.44685c8cdf19cp-16
6020=0x1.2b7943726360cp-10
6021=-0x1.d0e1aad686c7ap-9
6022=0x1.30d98114bcdd8p-10
6024=0x1.21592bdda3decp-10
6025=-0x1.d5e3725ee2786p-11
6064=0x1.2c1867e3b6181p-10
6065=-0x1.d0b9e8f261d84p-9
6066=0x1.300b0a11011dcp-10
6080=0x1.2c6e55c8e05e6p-10
6081=-0x1.cfebccf066654p-9
6082=0x1.2e81e20c3324dp-10
6084=0x1.281f6fb3a367ap-10
6085=-0x1.f8deeec5ddbdap-11
6089=-0x1.d154c4deae8e3p-11
6090=0x1.246364695290ap-10
6096=0x1.2a54e86aa454ep-10
6097=-0x1.cc151e8783ab9p-9
6098=0x1.29eed18e22d91p-10
6108=0x1.2133983c78742p-10
6109=-0x1.ddd9b25240032p-11
6133=-0x1.052588e756337p-9
6134=0x1.8edb7a91a7eaep-9
6136=0x1.523765e2d42f1p-11
6137=-0x1.e98278aebcbe2p-8
6138=0x1.a7c816fd1de52p-9
6139=0x1.2541c993d7e8cp-10
6196=0x1.17c62d460fa35p-10
6197=-0x1.bc34aaae7bd64p-9
6198=0x1.1f829d21b8db1p-10
6220=0x1.22a7de87e7783p-10
6221=-0x1.c850100a5f6f4p-9
6222=0x1.2a49a6ac64d05p-10
6256=0x1.d6cae3c66880ap-11
6257=-0x1.6d0b346da7417p-9
6258=0x1.e2db1e0a804fep-11
6268=0x1.17f72ecce66e6p-10
6269=-0x1.98105bc8c24b2p-11
6332=0x1.41d232c75633ep-12
6349=0x1.091ac3a11724dp-12
6461=0x1.9d57eed7fc2b4p-15
6516=0x1.0478d314091e2p-10
6517=-0x1.5b934b94c69b3p-8
6518=0x1.d200e00e9f313p-9
6576=0x1.7e08482b1f4aep-9
6577=-0x1.c4ad3fdbd139p-8
6578=0x1.7d987b019804fp-9
6593=-0x1.01b17131a453dp-10
6594=0x1.2cd2d0ad014e1p-10
6741=0x1.f3ea14a2605a3p-13
6852=0x1.37bb4df7f6c2ep-10
6853=-0x1.db6414389d35dp-9
6854=0x1.394ec7955ca85p-10
6928=0x1.16207c3f56d9p-10
6929=-0x1.9813e2d95958cp-9
6930=0x1.17f3e502d7328p-10
6992=0x1.dde9b547bb88ep-9
6993=-0x1.15e02319b1b48p-7
6994=0x1.de46929901e23p-9
7072=0x1.31b85cb823327p-10
7073=-0x1.d41b68d0c3cc5p-9
7074=0x1.31b0c84d35146p-10
7076=0x1.339cf058c0366p-10
7077=-0x1.d7858d86d5714p-9
7078=0x1.35c5b005f47a5p-10
7088=-0x1.e64189dffd316p-16
7089=0x1.37db6006fb4ccp-10
7090=-0x1.abdfcb3dd9345p-14
7101=0x1.1afb943a257fp-14
7109=0x1.1bf439df79f73p-10
7110=-0x1.09a8fd20c961fp-14
7176=0x1.30c899601e7ap-10
7177=-0x1.d19121313a17ep-9
7178=0x1.2e67b41aa726cp-10
7192=0x1.391fdc0078ae1p-10
7193=-0x1.db04666296f7dp-9
7194=0x1.371cc2719bdedp-10
7216=0x1.ea8887f6d3bd6p-12
7217=-0x1.d74bb23a65ffap-10
7218=0x1.64dafb11069ebp-12
7264=0x1.34abfed8a44e1p-10
7265=-0x1.0d488f4c6a75ep-10
7477=-0x1.23f2e9ad8fbd4p-10
7478=0x1.6f78ba6e5e2e2p-10
7480=0x1.328bcc8a28e24p-10
7481=-0x1.0770b94773b56p-10
7497=-0x1.cad0a6147e14ep-11
7498=0x1.1b5f17e87f6d7p-10
7525=-0x1.c5a0caa84890bp-11
7526=0x1.191b41b515d78p-10
7528=0x1.2b07248500c43p-10
7529=-0x1.c886ec2381656p-9
7530=0x1.23ba553483431p-10
7536=0x1.3d4783ae26a64p-10
7537=-0x1.df046824d5dcbp-9
7538=0x1.3a625fb62f249p-10
7544=0x1.38e9c7506563cp-11
7545=-0x1.1cfe991b08747p-9
7546=0x1.96d12cd50d4a8p-12
7577=0x1.8f40a4cf42e5ep-10
7578=-0x1.241c5930a79dp-13
7581=-0x1.0392e563ca34fp-10
7582=0x1.2cdd7dfeeead2p-10
7608=0x1.2b512a70e15fp-10
7609=-0x1.cb64edf37049bp-9
7610=0x1.280f11c663ebcp-10
7645=0x1.f2c2dc90faba2p-14
7689=0x1.9c50137e651e3p-17
7693=0x1.2c2408caf1e4fp-16
