#mdl#2#804
#rdr#10/2/0
9:u:%x[0,0],
10:u:%x[-1,0],
9:u:%x[1,0],
9:u:%x[0,1],
10:u:%x[-1,1],
9:u:%x[1,1],
9:u:%x[0,2],
10:u:%x[-1,2],
9:u:%x[1,2],
2:b:,
#qrk#4
4:pA_B,
4:pA_I,
4:pA_L,
4:pA_U,
#qrk#1870
8:u:all\o^,
6:u:_x-1,
4:u:c',
5:u:INT,
9:u:PRO:DEM,
9:u:ARTIC_U,
6:u:VP_B,
2:b:,
5:u:est,
10:u:VER:pres,
6:u:VP_L,
6:u:_x+1,
5:u:oui,
6:u:\c,a,
4:u:va,
4:u:et,
5:u:KON,
5:u:toi,
9:u:PRO:PER,
6:u:NP_U,
5:u:dis,
6:u:VP_U,
4:u:je,
9:u:voulais,
10:u:VER:impf,
4:u:te,
10:u:demander,
10:u:VER:infi,
8:u:demain,
5:u:ADV,
7:u:AdP_U,
4:u:vu,
10:u:VER:cond,
5:u:que,
4:u:on,
3:u:a,
5:u:qu',
5:u:une,
9:u:DET:ART,
6:u:NP_B,
7:u:heure,
5:u:NOM,
6:u:NP_L,
6:u:pour,
5:u:PRP,
6:u:PP_B,
8:u:manger,
6:u:PP_L,
5:u:euh,
6:u:VP_I,
5:u:dit,
7:u:aille,
8:u:dehors,
4:u:hm,
6:u:sais,
5:u:pas,
4:u:en,
5:u:ADJ,
6:u:fait,
7:u:parce,
4:u:le,
6:u:truc,
4:u:j',
4:u:ai,
8:u:encore,
4:u:de,
9:u:monnaie,
4:u:ah,
7:u:ouais,
6:u:donc,
4:u:du,
6:u:coup,
10:u:voudrait,
6:u:dire,
11:u:mangerait,
7:u:genre,
4:u:un,
10:u:sandwich,
5:u:non,
6:u:vrai,
6:u:AP_U,
7:u:AdP_B,
6:u:trop,
7:u:AdP_L,
5:u:top,
7:u:enfin,
10:u:VER:pper,
7:u:comme,
4:u:m-,
4:u:f-,
10:u:VER:simp,
12:u:ARTIC_U200,
4:u:me,
8:u:saoule,
5:u:peu,
5:u:des,
9:u:PRP:det,
12:u:sandwiches,
9:u:voil\a`,
10:u:d\e'pend,
4:u:si,
4:u:il,
6:u:nous,
9:u:l\a^che,
7:u:avant,
4:u:ou,
7:u:FNO_U,
4:u:d',
8:u:accord,
4:u:tu,
8:u:retard,
9:u:PRO:REL,
6:u:voit,
3:u:y,
4:u:la,
6:u:NP_I,
7:u:queue,
5:u:\a`,
6:u:PP_I,
8:u:limite,
6:u:veux,
4:u:ok,
10:u:VER:subp,
6:u:\e'-,
10:u:VER:futu,
9:u:\e'tait,
11:u:pr\e'voir,
5:u:moi,
7:u:aussi,
6:u:faut,
8:u:prenne,
4:u:l',
8:u:argent,
5:u:sur,
6:u:vois,
10:u:d'accord,
6:u:mais,
7:u:mange,
8:u:salade,
8:u:laisse,
6:u:peut,
7:u:aller,
9:u:cantine,
7:u:toute,
9:u:fa\c,on,
8:u:pareil,
9:u:appeler,
5:u:vas,
8:u:donner,
9:u:petites,
6:u:news,
9:u:comment,
5:u:ça,
8:u:allait,
7:u:avais,
4:u:se,
6:u:voie,
7:u:même,
6:u:elle,
5:u:là,
10:u:faudrait,
7:u:alors,
4:u:ce,
6:u:mois,
4:u:ci,
8:u:passé,
4:u:à,
9:u:PRO:IND,
8:u:allure,
6:u:quoi,
7:u:été,
7:u:super,
5:u:ric,
5:u:rac,
5:u:ben,
8:u:façon,
11:u:attendais,
8:u:retour,
10:u:réunion,
4:u:m',
8:u:étais,
8:u:aurait,
4:u:pu,
6:u:voir,
7:u:quand,
7:u:faire,
8:u:voilà,
5:u:bon,
6:u:puis,
8:u:après,
7:u:temps,
7:u:passe,
12:u:finalement,
8:u:arrive,
10:u:bientôt,
5:u:fin,
7:u:très,
6:u:vite,
12:u:exactement,
4:u:j-,
7:u:être,
8:u:essaie,
7:u:caler,
6:u:vous,
8:u:dirait,
9:u:semaine,
11:u:prochaine,
6:u:bien,
6:u:pris,
10:u:vendredi,
8:u:samedi,
7:u:c'est,
10:u:possible,
17:u:éventuellement,
10:u:gérable,
6:u:soir,
6:u:cool,
12:u:clairement,
9:u:reparle,
12:u:carrément,
6:u:vais,
12:u:rapidement,
4:u:au,
7:u:moins,
9:u:envoyer,
6:u:mail,
6:u:PP_U,
5:u:pis,
10:u:toujours,
12:u:compliqué,
11:u:plusieurs,
4:u:as,
8:u:raison,
9:u:propose,
9:u:instant,
4:u:t',
7:u:irait,
9:u:parfait,
5:u:où,
6:u:hein,
5:u:nan,
8:u:disais,
8:u:petite,
8:u:bouffe,
6:u:mai-,
8:u:maison,
9:u:bonjour,
7:u:salut,
9:u:entendu,
7:u:bruit,
7:u:merde,
8:u:entend,
9:u:arriver,
6:u:loin,
7:u:chaud,
5:u:ici,
7:u:aviez,
10:u:chouette,
11:u:installer,
5:u:les,
8:u:filles,
6:u:pose,
5:u:nos,
9:u:DET:POS,
10:u:affaires,
6:u:waou,
8:u:faites,
6:u:chez,
5:u:tes,
12:u:chaussures,
9:u:enlève,
5:u:mes,
9:u:obligé,
6:u:AP_B,
6:u:AP_L,
7:u:garde,
8:u:mettre,
6:u:joli,
6:u:suis,
10:u:craquée,
7:u:cette,
8:u:année,
10:u:rondelle,
8:u:citron,
6:u:tout,
6:u:plus,
8:u:grands,
5:u:ils,
6:u:sont,
11:u:chouettes,
5:u:ces,
8:u:verres,
7:u:beaux,
10:u:achetés,
9:u:exprès,
5:u:ouh,
5:u:mis,
11:u:chauffage,
7:u:crois,
6:u:tour,
10:u:obligée,
6:u:fond,
11:u:autrement,
8:u:marche,
6:u:c“,
7:u:loose,
5:u:PRO,
6:u:soit,
7:u:zéro,
9:u:éteint,
8:u:chiant,
10:u:VER:ppre,
6:u:fais,
11:u:engueuler,
10:u:consomme,
6:u:sers,
7:u:sûre,
4:u:oh,
8:u:partir,
8:u:moment,
8:u:rigolo,
5:u:ch-,
8:u:savais,
7:u:avait,
7:u:aimé,
7:u:avoir,
8:u:autres,
8:u:graals,
8:u:prévu,
11:u:inquiète,
8:u:paille,
7:u:allez,
10:u:habitude,
9:u:cuisine,
8:u:êtres,
7:u:miser,
15:u:présentation,
10:u:croirait,
6:u:dans,
8:u:dîner,
9:u:presque,
10:u:chercher,
7:u:autre,
7:u:mince,
13:u:commençais,
7:u:boire,
5:u:cas,
9:u:plaisir,
4:u:n',
10:u:empêche,
7:u:clair,
11:u:longtemps,
4:u:d-,
5:u:vue,
8:u:depuis,
5:u:cet,
14:u:anniversaire,
4:u:s',
6:u:vues,
9:u:remonte,
5:u:par,
11:u:croisées,
8:u:métro,
7:u:trois,
5:u:NUM,
9:u:arrêts,
8:u:était,
5:u:qui,
10:u:vraiment,
6:u:aïe,
8:u:vôtre,
8:u:santé,
8:u:mignon,
4:u:ma,
7:u:mère,
8:u:gardes,
8:u:cognac,
6:u:gros,
6:u:mets,
10:u:beaucoup,
13:u:normalement,
8:u:classe,
4:u:ne,
7:u:juste,
10:u:histoire,
7:u:petit,
6:u:sûr,
4:u:a-,
9:u:passée,
4:u:es,
7:u:seule,
9:u:souvent,
7:u:cours,
7:u:lundi,
13:u:interaction,
9:u:verbale,
6:u:lun-,
6:u:midi,
7:u:mardi,
10:u:mercredi,
9:u:syntaxe,
9:u:oublier,
6:u:neuf,
8:u:heures,
7:u:matin,
7:u:jeudi,
8:u:psycho,
6:u:demi,
6:u:fois,
6:u:deux,
6:u:int-,
9:u:analyse,
19:u:conversationnelle,
7:u:exact,
7:u:reste,
11:u:formation,
8:u:rester,
8:u:prends,
11:u:UNKNOWN_U,
6:u:pire,
7:u:train,
9:u:revenir,
7:u:vient,
9:u:voiture,
9:u:crevée,
9:u:rentrer,
8:u:chaque,
10:u:aimerais,
8:u:restes,
9:u:ramène,
6:u:sait,
8:u:jamais,
9:u:quelque,
7:u:chose,
7:u:faute,
8:u:tomber,
10:u:pourquoi,
13:u:franchement,
14:u:gestionnaire,
7:u:paies,
9:u:croyais,
9:u:reprend,
8:u:début,
7:u:soeur,
9:u:galère,
5:u:son,
8:u:master,
4:u:sa,
11:u:première,
8:u:loupé,
13:u:recommencé,
11:u:deuxième,
10:u:reloupé,
5:u:ont,
6:u:rien,
8:u:savait,
4:u:s-,
9:u:voulait,
10:u:retenter,
12:u:troisième,
7:u:idée,
7:u:monde,
9:u:travail,
7:u:marre,
10:u:arrivée,
7:u:vingt,
8:u:quatre,
5:u:ans,
15:u:compréhensif,
8:u:partie,
9:u:essayer,
10:u:cherché,
9:u:trouvé,
5:u:ad-,
9:u:adultes,
9:u:appelle,
6:u:sai-,
14:u:considérée,
12:u:étudiante,
12:u:intégrée,
8:u:dedans,
5:u:ami,
7:u:style,
5:u:de-,
10:u:semaines,
12:u:entreprise,
9:u:bizarre,
9:u:passait,
8:u:déjà,
5:u:mal,
9:u:compris,
13:u:réellement,
7:u:cadre,
9:u:choisie,
7:u:prise,
10:u:logiciel,
8:u:permet,
9:u:censés,
5:u:eux,
11:u:expliquer,
16:u:fonctionnement,
5:u:aux,
13:u:entreprises,
9:u:doivent,
6:u:bons,
8:u:calée,
9:u:déçue,
7:u:cause,
7:u:allô,
8:u:coucou,
10:u:appelais,
6:u:avec,
8:u:parlé,
11:u:septembre,
8:u:veniez,
7:u:fête,
11:u:lumières,
12:u:invitation,
7:u:tient,
7:u:fasse,
6:u:cher,
8:u:savoir,
8:u:disait,
7:u:venir,
8:u:priori,
5:u:lui,
13:u:particulier,
9:u:regarde,
9:u:surtout,
6:u:prix,
9:u:billets,
7:u:jouer,
8:u:boulot,
6:u:peux,
10:u:regarder,
12:u:maintenant,
10:u:rappelle,
10:u:regardé,
6:u:coca,
9:u:attaque,
8:u:pizzas,
9:u:attends,
6:u:sors,
8:u:occupe,
4:u:ta,
9:u:chèvre,
13:u:champignons,
8:u:jambon,
8:u:dessus,
10:u:pourrait,
7:u:sympa,
6:u:rire,
8:u:viande,
9:u:hachée,
9:u:chorizo,
10:u:poivrons,
12:u:allumettes,
9:u:lardons,
8:u:besoin,
9:u:occuper,
7:u:pâte,
5:u:ton,
5:u:job,
5:u:yes,
10:u:claquée,
5:u:dur,
6:u:week,
5:u:end,
11:u:émotions,
7:u:maman,
11:u:ressortir,
7:u:pense,
7:u:droit,
7:u:pète,
8:u:putain,
8:u:péter,
5:u:hé,
6:u:fous,
9:u:partout,
7:u:celle,
7:u:assez,
7:u:tiré,
9:u:arrives,
9:u:content,
7:u:jeté,
10:u:poubelle,
10:u:pratique,
8:u:bordel,
12:u:chicouille,
7:u:mieux,
12:u:dépêches,
9:u:ARTIC_B,
9:u:ARTIC_L,
8:u:chiche,
10:u:commande,
9:u:branche,
6:u:fils,
10:u:VER:subi,
10:u:trancher,
7:u:gorge,
6:u:hier,
8:u:abusé,
6:u:dise,
10:u:balancer,
6:u:ayé,
6:u:vont,
10:u:emmerder,
4:u:t-,
12:u:vêtements,
6:u:êt-,
10:u:choquée,
9:u:acheté,
8:u:esprit,
9:u:laisses,
6:u:ceux,
7:u:hiver,
10:u:énervé,
5:u:don,
10:u:énerver,
9:u:rouleau,
13:u:pâtisserie,
6:u:oula,
8:u:aurais,
12:u:préféré,
9:u:trouver,
6:u:sans,
8:u:manche,
6:u:aime,
11:u:préfère,
9:u:manches,
10:u:échappe,
7:u:mains,
6:u:sera,
10:u:présent,
14:u:physiquement,
6:u:sept,
8:u:rentre,
9:u:pratico,
7:u:delà,
5:u:ait,
13:u:billetterie,
7:u:salle,
11:u:spectacle,
9:u:quelqu',
9:u:entrée,
9:u:décide,
5:u:pot,
9:u:souhait,
6:u:pots,
5:u:so-,
14:u:conférences,
9:u:débats,
8:u:budget,
10:u:organise,
4:u:l-,
14:u:installation,
11:u:matériel,
5:u:mai,
6:u:main,
7:u:place,
8:u:tables,
9:u:chaises,
9:u:caetera,
6:u:okay,
8:u:compte,
5:u:mon,
8:u:agenda,
11:u:organiser,
7:u:serai,
6:u:mer-,
8:u:jusqu',
7:u:aider,
11:u:théâtre,
7:u:souci,
7:u:point,
15:u:interrogation,
10:u:partiras,
10:u:viendrai,
11:u:resterais,
8:u:serait,
8:u:quelle,
6:u:acc-,
6:u:tous,
11:u:mercredis,
8:u:fermé,
6:u:fini,
11:u:sûrement,
5:u:au-,
6:u:aura,
13:u:sollicitera,
7:u:votre,
9:u:atelier,
9:u:combien,
7:u:durer,
9:u:sachant,
9:u:numéro,
12:u:disponible,
5:u:dix,
6:u:huit,
13:u:conférence,
6:u:lieu,
8:u:rapide,
12:u:tranquille,
8:u:plaît,
9:u:horaire,
7:u:coût,
10:u:soixante,
7:u:euros,
8:u:blague,
10:u:comprise,
9:u:parlait,
9:u:fautive,
8:u:parlez,
8:u:fautif,
11:u:problème,
12:u:organisera,
9:u:acheter,
13:u:cacahuètes,
10:u:boissons,
8:u:suffit,
7:u:voyez,
8:u:choses,
8:u:débat,
11:u:organisez,
4:u:v-,
12:u:rencontrez,
6:u:plan,
7:u:suite,
9:u:contenu,
5:u:doc,
12:u:distribuer,
10:u:vacances,
8:u:quinze,
7:u:jours,
5:u:va-,
9:u:pendant,
7:u:avril,
12:u:travailler,
5:u:com,
9:u:diffuse,
9:u:affaire,
7:u:roule,
7:u:poser,
10:u:question,
15:u:communication,
9:u:support,
8:u:facile,
9:u:plutôt,
10:u:diffuser,
9:u:ensuite,
10:u:imaginer,
9:u:journal,
6:u:veut,
9:u:toucher,
12:u:population,
7:u:voter,
12:u:absolument,
10:u:sensible,
9:u:départ,
12:u:communique,
12:u:brouillard,
9:u:connais,
11:u:travaille,
8:u:Europe,
5:u:NAM,
7:u:lieux,
15:u:prédilection,
7:u:doute,
8:u:public,
8:u:trouve,
9:u:verrais,
9:u:espèce,
7:u:tract,
11:u:immeubles,
9:u:boîtes,
9:u:lettres,
10:u:quartier,
7:u:abord,
8:u:toutes,
12:u:activités,
15:u:systématique,
7:u:coupe,
12:u:aléatoire,
9:u:voisins,
6:u:cent,
12:u:locataires,
11:u:viendront,
7:u:elles,
13:u:condamnées,
9:u:motivé,
9:u:sportif,
13:u:parenthèse,
6:u:avez,
8:u:idées,
14:u:illuminantes,
10:u:hésitez,
8:u:membre,
7:u:verra,
13:u:facturation,
9:u:facture,
13:u:aujourd'hui,
8:u:pardon,
10:u:terminé,
10:u:rentrée,
11:u:nutrition,
6:u:gens,
10:u:viennent,
5:u:MJC,
6:u:Oul-,
9:u:Oullins,
11:u:personnes,
10:u:seraient,
9:u:octobre,
7:u:dates,
4:u:i-,
11:u:envisager,
8:u:saison,
9:u:courant,
6:u:juin,
9:u:juillet,
11:u:réserver,
7:u:trucs,
10:u:prépare,
6:u:fixe,
10:u:dérange,
5:u:air,
11:u:derrière,
6:u:pote,
10:u:Bastille,
9:u:écoute,
7:u:diras,
9:u:répond,
13:u:téléphone,
10:u:réponds,
9:u:paraît,
6:u:part,
10:u:appelée,
9:u:demande,
10:u:regardes,
9:u:entends,
7:u:reçu,
10:u:messages,
9:u:appelé,
10:u:dimanche,
8:u:excuse,
15:u:crémaillère,
11:u:présente,
9:u:essayé,
13:u:rencontrée,
5:u:ja-,
9:u:pouvait,
8:u:passer,
8:u:venait,
11:u:repartait,
8:u:rendus,
9:u:pouvoir,
11:u:descendre,
8:u:penses,
9:u:suivant,
10:u:faisable,
9:u:bonsoir,
7:u:merci,
9:u:restés,
10:u:nombreux,
8:u:soucis,
8:u:emploi,
11:u:cinquante,
9:u:minutes,
10:u:exprimer,
7:u:court,
6:u:bref,
14:u:synthétique,
13:u:géographie,
9:u:science,
11:u:synthèse,
10:u:quarante,
6:u:cinq,
11:u:comprenez,
12:u:véritable,
7:u:défi,
8:u:lancé,
11:u:excuserez,
10:u:certains,
9:u:aspects,
9:u:pourrai,
11:u:évidence,
6:u:tard,
10:u:ailleurs,
5:u:lie,
7:u:utile,
11:u:agréable,
9:u:lorsqu',
12:u:géographe,
11:u:ruraliste,
7:u:vigne,
5:u:vin,
16:u:généralement,
9:u:termine,
9:u:chanson,
7:u:caves,
7:u:force,
14:u:dégustation,
8:u:ferons,
10:u:heureuse,
12:u:accueillir,
9:u:travaux,
11:u:pratiques,
9:u:reconnu,
9:u:panneau,
8:u:UNESCO,
5:u:Val,
7:u:Loire,
11:u:essentiel,
10:u:discours,
8:u:porter,
10:u:quelques,
14:u:définitions,
16:u:mondialisation,
11:u:reprendre,
10:u:définit,
13:u:représente,
11:u:notamment,
9:u:Laurent,
10:u:Carroué,
5:u:ABR,
14:u:actuellement,
12:u:président,
9:u:respon-,
7:u:CAPES,
12:u:territoire,
9:u:inscrit,
13:u:géographes,
9:u:discute,
10:u:juristes,
12:u:également,
14:u:économistes,
10:u:manière,
12:u:présenter,
13:u:territoires,
11:u:simplifie,
11:u:Alexandre,
7:u:Moine,
7:u:mille,
14:u:interactions,
7:u:entre,
9:u:acteurs,
8:u:espace,
15:u:géographique,
6:u:cela,
10:u:reprends,
4:u:p-,
10:u:anglaise,
8:u:Jancis,
10:u:Robinson,
9:u:assiste,
11:u:mouvement,
11:u:diffusion,
9:u:passion,
14:u:consommation,
12:u:incroyable,
9:u:limites,
8:u:dirais,
12:u:oekoumène,
10:u:planète,
9:u:extrait,
11:u:contraire,
13:u:rétraction,
6:u:pays,
20:u:traditionnellement,
15:u:consommateurs,
13:u:producteurs,
14:u:exportateurs,
7:u:sorte,
15:u:contradiction,
6:u:ceci,
6:u:lié,
7:u:voulu,
9:u:montrer,
6:u:quel,
6:u:sens,
10:u:sérieux,
7:u:cirer,
7:u:tirer,
10:u:citation,
9:u:écrite,
14:u:circonstance,
8:u:écris,
10:u:articles,
12:u:simplement,
12:u:retiendrai,
9:u:dernier,
11:u:élément,
12:u:comprendre,
15:u:effectivement,
13:u:référence,
8:u:essaye,
13:u:présentent,
14:u:vitivinicole,
11:u:société,
16:u:intermédiaire,
9:u:actions,
14:u:informations,
11:u:remontent,
12:u:éléments,
12:u:permettent,
9:u:paysage,
16:u:véritablement,
7:u:image,
9:u:visible,
9:u:renvoie,
6:u:leur,
9:u:surface,
11:u:terrestre,
8:u:niveau,
13:u:négociants,
14:u:commerçants,
20:u:interprofessionnel,
15:u:professionnel,
11:u:gravitent,
8:u:autour,
13:u:fondamental,
11:u:important,
13:u:exportation,
13:u:importation,
12:u:production,
9:u:gestion,
5:u:AOC,
5:u:AOP,
7:u:rôle,
13:u:grandissant,
9:u:veulent,
9:u:prendre,
7:u:poids,
9:u:excusez,
13:u:directement,
16:u:problématique,
7:u:quels,
9:u:moteurs,
8:u:freins,
11:u:expansion,
8:u:mesure,
13:u:considérer,
8:u:France,
8:u:remise,
11:u:approches,
11:u:proposent,
9:u:optique,
14:u:territoriale,
9:u:insiste,
9:u:traiter,
6:u:cel-,
11:u:certaines,
10:u:prévues,
9:u:thèmes,
14:u:événements,
12:u:fondateurs,
8:u:parler,
7:u:mythe,
11:u:fondateur,
12:u:archétype,
12:u:historique,
9:u:puisque,
10:u:suggère,
11:u:fortement,
12:u:rechercher,
13:u:différents,
8:u:seuils,
16:u:chronologiques,
8:u:amené,
13:u:évolutions,
7:u:près,
9:u:produit,
11:u:seulement,
10:u:agricole,
10:u:culturel,
11:u:religieux,
8:u:relier,
10:u:religion,
13:u:chrétienne,
9:u:assuré,
4:u:eu,
8:u:série,
8:u:crises,
15:u:fondamentales,
11:u:neuvième,
9:u:siècle,
12:u:entraîné,
11:u:création,
14:u:appellations,
9:u:origine,
13:u:contrôlée,
15:u:rapprochement,
8:u:points,
6:u:vins,
9:u:terroir,
9:u:cépage,
9:u:banquet,
8:u:Platon,
14:u:fondamentaux,
8:u:quête,
10:u:vérité,
11:u:évoquent,
11:u:symposium,
6:u:grec,
10:u:convives,
9:u:passent,
10:u:cratère,
8:u:lequel,
5:u:eau,
6:u:font,
8:u:éloge,
7:u:amour,
6:u:lors,
10:u:banquets,
9:u:lancent,
8:u:défis,
10:u:essayent,
12:u:apprécié,
7:u:ainsi,
5:u:né,
12:u:guillemets,
17:u:interprétation,
13:u:personnelle,
9:u:permets,
13:u:philosophie,
8:u:Grèce,
7:u:verre,
5:u:re-,
11:u:retrouver,
7:u:tiens,
11:u:préciser,
9:u:vivante,
8:u:notée,
8:u:propos,
10:u:Arménie,
12:u:Françoise,
11:u:Ardillier,
10:u:chansons,
11:u:réponses,
5:u:sud,
7:u:ouest,
11:u:français,
9:u:exemple,
10:u:revenant,
10:u:Bidarray,
12:u:connaissez,
8:u:voulez,
8:u:mangé,
4:u:bu,
10:u:ensemble,
10:u:commence,
9:u:strophe,
6:u:doit,
10:u:terminer,
5:u:mot,
10:u:internet,
8:u:verrez,
12:u:insisterai,
10:u:oreilles,
12:u:pourraient,
11:u:supporter,
10:u:origines,
14:u:caucasiennes,
14:u:fondamenteur,
7:u:noces,
6:u:Cana,
9:u:travers,
9:u:tableau,
12:u:Véronèse,
14:u:interpréter,
4:u:lu,
11:u:Évangile,
6:u:Jean,
13:u:personnages,
7:u:clés,
8:u:jeunes,
9:u:mariés,
8:u:marié,
7:u:femme,
9:u:mariée,
6:u:coin,
8:u:contre,
8:u:donné,
8:u:durant,
6:u:vint,
9:u:manquer,
7:u:grave,
8:u:erreur,
9:u:parents,
7:u:rater,
7:u:leurs,
7:u:Marie,
12:u:intervient,
17:u:personnellement,
8:u:Jésus,
10:u:signifie,
11:u:implicite,
8:u:oeuvre,
10:u:réclame,
7:u:venue,
11:u:attention,
10:u:réponse,
11:u:serviteur,
6:u:dira,
9:u:remplir,
8:u:jarres,
10:u:apporter,
9:u:maître,
13:u:cérémonie,
10:u:changée,
16:u:extraordinaire,
14:u:fondamentale,
16:u:transformation,
12:u:exégètes,
8:u:disent,
15:u:premièrement,
6:u:agit,
13:u:institution,
13:u:eucharistie,
11:u:sacrifice,
7:u:croix,
6:u:dont,
8:u:verser,
6:u:sang,
11:u:humanité,
6:u:pain,
12:u:considère,
7:u:vraie,
12:u:nourriture,
9:u:boisson,
7:u:envie,
9:u:rapport,
13:u:thématique,
11:u:proposée,
8:u:sommes,
6:u:ange,
9:u:ressort,
10:u:extraits,
8:u:sortir,
19:u:caractéristiques,
9:u:aliment,
8:u:festif,
7:u:objet,
14:u:civilisation,
19:u:méditerranéenne,
8:u:certes,
8:u:judéo,
10:u:tendance,
8:u:perdre,
11:u:influence,
7:u:perdu,
8:u:aspect,
10:u:continue,
8:u:garder,
7:u:modes,
9:u:changé,
12:u:auparavant,
10:u:buvaient,
17:u:régulièrement,
11:u:coupaient,
15:u:particulière,
14:u:disparaître,
8:u:grande,
9:u:vitesse,
9:u:plupart,
9:u:disparu,
12:u:bataillons,
9:u:paysans,
11:u:autrefois,
10:u:ouvriers,
10:u:courante,
15:u:complètement,
14:u:transmission,
7:u:inch-,
24:u:intergénérationnelle,
11:u:quasiment,
6:u:rite,
9:u:faisait,
9:u:famille,
7:u:père,
11:u:tellement,
7:u:pater,
10:u:familial,
11:u:apprenait,
5:u:ses,
9:u:enfants,
8:u:buvait,
6:u:âge,
6:u:clé,
13:u:commençait,
11:u:commencer,
10:u:explique,
11:u:Bourgogne,
7:u:rouge,
12:u:forcément,
10:u:approche,
12:u:intronisé,
6:u:fée,
11:u:sorcière,
8:u:Marine,
8:u:vivait,
6:u:haut,
7:u:nuage,
10:u:château,
7:u:tours,
9:u:dorées,
8:u:reçut,
10:u:baguette,
9:u:magique,
7:u:bête,
8:u:patins,
11:u:roulettes,
7:u:magi-,
8:u:simple,
9:u:rollers,
10:u:pourrais,
8:u:casser,
5:u:nez,
9:u:tombant,
7:u:digne,
8:u:cadeau,
10:u:recevoir,
8:u:bateau,
9:u:exclama,
10:u:basculer,
6:u:robe,
13:u:dégoutante,
9:u:chapeau,
7:u:jeter,
7:u:fées,
10:u:devaient,
11:u:gentilles,
9:u:propres,
8:u:tartes,
9:u:miettes,
6:u:thé,
11:u:renverser,
7:u:tache,
10:u:raconter,
6:u:voix,
12:u:mielleuses,
11:u:histoires,
8:u:douces,
9:u:tendres,
8:u:agiter,
5:u:ca-,
9:u:gâteau,
6:u:beau,
8:u:cerise,
10:u:trouvait,
14:u:terriblement,
12:u:ennuyeuses,
17:u:malheureusement,
10:u:bouillo-,
9:u:bouill-,
11:u:bouillote,
11:u:théière,
12:u:sorcières,
9:u:avaient,
7:u:salir,
7:u:crier,
9:u:patiner,
10:u:naviguer,
6:u:bord,
6:u:jour,
10:u:sursauta,
9:u:horreur,
8:u:écria,
9:u:devrais,
7:u:honte,
8:u:frappa,
6:u:pied,
7:u:hurla,
10:u:certaine,
15:u:approchèrent,
8:u:dirent,
11:u:horribles,
12:u:crâneuses,
12:u:concoctent,
9:u:potions,
13:u:dangereuses,
13:u:transformer,
9:u:crapaud,
5:u:fit,
9:u:devenir,
8:u:existe,
8:u:règle,
8:u:gronda,
8:u:docile,
10:u:soignée,
9:u:insista,
11:u:répliqua,
10:u:furieuse,
9:u:endroit,
6:u:bois,
9:u:soupira,
10:u:envolant,
9:u:regarda,
9:u:tardera,
8:u:envole,
9:u:cliques,
9:u:claques,
7:u:vivre,
10:u:trompait,
11:u:convenait,
14:u:parfaitement,
13:u:construisit,
12:u:magnifique,
8:u:cabane,
8:u:duquel,
9:u:navigua,
10:u:rivière,
9:u:nourrir,
10:u:cueillit,
7:u:baies,
11:u:noisettes,
10:u:étaient,
11:u:adorables,
8:u:prêta,
5:u:mit,
12:u:serpentant,
8:u:arbres,
7:u:belle,
7:u:patin,
7:u:tête,
7:u:longs,
8:u:noeuds,
6:u:cro-,
9:u:crochus,
11:u:justement,
8:u:crochu,
9:u:marrant,
8:u:offrit,
7:u:jeune,
7:u:fille,
7:u:balai,
10:u:flambant,
11:u:aussitôt,
8:u:voulut,
11:u:apprendre,
7:u:voler,
10:u:empoigna,
7:u:engin,
8:u:grimpa,
7:u:arbre,
16:u:encouragèrent,
7:u:sauta,
7:u:resta,
11:u:suspendue,
6:u:airs,
9:u:écrasa,
5:u:sol,
7:u:pensa,
10:u:redressa,
8:u:essaya,
9:u:nouveau,
6:u:bout,
9:u:parvint,
14:u:applaudirent,
8:u:rompre,
8:u:volant,
10:u:effleura,
10:u:renversa,
6:u:seau,
5:u:jus,
11:u:groseille,
14:u:soupirèrent,
9:u:trouves,
10:u:chapeaux,
9:u:pointus,
6:u:noir,
7:u:moche,
13:u:cuisinière,
10:u:marrante,
8:u:fonça,
11:u:direction,
6:u:ciel,
6:u:cria,
7:u:viens,
8:u:tenait,
8:u:debout,
5:u:eut,
9:u:souffle,
8:u:coupé,
11:u:effrayée,
9:u:devenue,
7:u:folle,
10:u:atterrit,
9:u:douceur,
7:u:riant,
8:u:appris,
11:u:construit,
10:u:navigué,
12:u:formidable,
11:u:élection,
5:u:Lot,
9:u:Garonne,
17:u:circonscription,
14:u:législative,
11:u:partielle,
11:u:siègeait,
8:u:jusque,
10:u:Jérôme,
9:u:Cahuzac,
8:u:ancien,
10:u:ministre,
12:u:désormais,
8:u:fraude,
9:u:fiscale,
8:u:Suisse,
11:u:déclaré,
6:u:fisc,
9:u:dirigé,
15:u:démissionné,
8:u:siège,
10:u:député,
9:u:fallait,
10:u:pourvoir,
5:u:UMP,
10:u:emporté,
6:u:face,
10:u:candidat,
7:u:Front,
10:u:National,
5:u:six,
7:u:score,
7:u:large,
6:u:tant,
15:u:participation,
8:u:faible,
7:u:cents,
8:u:écart,
8:u:hommes,
14:u:relativement,
8:u:serré,
6:u:duel,
9:u:leçons,
12:u:politiques,
10:u:Bertrand,
9:u:Lacoste,
4:u:FN,
11:u:présence,
8:u:second,
7:u:terre,
9:u:certain,
10:u:diverses,
13:u:réflexions,
7:u:surgi,
10:u:occasion,
8:u:côté,
4:u:PS,
10:u:laissent,
10:u:perplexe,
7:u:quant,
6:u:tire,
9:u:entend-,
13:u:évidemment,
10:u:réjouir,
11:u:candidats,
12:u:dirigeants,
8:u:tenter,
9:u:quelles,
9:u:raisons,
12:u:éliminés,
9:u:premier,
7:u:effet,
14:u:candidatures,
6:u:pea-,
14:u:parasitaires,
8:u:isoler,
12:u:Villeneuve,
12:u:partielles,
11:u:dérouler,
12:u:desquelles,
11:u:symptôme,
9:u:malaise,
15:u:considérable,
8:u:droite,
6:u:taux,
12:u:abstention,
11:u:démontre,
14:u:intéressent,
6:u:type,
8:u:joutes,
12:u:désespoir,
5:u:tel,
11:u:anxiété,
7:u:telle,
16:u:découragement,
10:u:proposé,
7:u:offre,
11:u:politique,
11:u:déplacer,
8:u:soient,
8:u:enjeux,
9:u:époque,
10:u:venaient,
7:u:untel,
10:u:aujourd',
5:u:hui,
15:u:tétanisation,
11:u:situation,
12:u:totalement,
15:u:désespérés,
14:u:extrêmement,
13:u:inquiétant,
10:u:dirigent,
10:u:prennent,
5:u:ts-,
10:u:tsunamis,
13:u:progressifs,
12:u:retombées,
12:u:répliques,
10:u:secouent,
5:u:kl-,
4:u:r-,
8:u:pourra,
14:u:explications,
10:u:allusion,
7:u:front,
14:u:républicain,
8:u:posais,
14:u:introduction,
6:u:mort,
17:u:définitivement,
8:u:Gauche,
11:u:Écologie,
11:u:général,
11:u:classique,
11:u:députés,
9:u:remette,
7:u:notre,
12:u:stratégie,
7:u:appel,
6:u:sein,
7:u:parti,
12:u:socialiste,
7:u:Louis,
9:u:Bernard,
11:u:agonisant,
8:u:amener,
5:u:soi,
12:u:électeurs,
13:u:électrices,
14:u:propositions,
6:u:mode,
5:u:vie,
8:u:morale,
10:u:regardez,
10:u:souvenez,
9:u:traité,
11:u:européen,
9:u:médias,
9:u:élites,
11:u:pensantes,
7:u:voté,
12:u:importante,
18:u:circonscriptions,
8:u:Loiret,
9:u:circon-,
7:u:ordre,
9:u:absten-,
12:u:élections,
7:u:route,
6:u:fort,
8:u:claque,
8:u:aucune,
10:u:triomphe,
7:u:grand,
9:u:gagnant,
14:u:reconnaître,
6:u:dieu,
11:u:positions,
6:u:anti,
9:u:radical,
9:u:succès,
11:u:engrangé,
8:u:nombre,
10:u:victoire,
12:u:symbolique,
7:u:voire,
13:u:médiatique,
6:u:avis,
13:u:municipales,
11:u:capacité,
10:u:nuisance,
4:u:b-,
4:u:z-,
14:u:européennes,
13:u:socialistes,
8:u:risque,
7:u:Modem,
5:u:UDI,
8:u:change,
8:u:crains,
10:u:marchait,
9:u:Jacques,
8:u:Chirac,
9:u:réélu,
5:u:Pen,
8:u:Hassan,
7:u:Kerim,
11:u:résultat,
5:u:rue,
6:u:faux,
11:u:persuadé,
8:u:gauche,
11:u:questions,
8:u:posent,
16:u:compatibilité,
9:u:unités,
8:u:statut,
13:u:sémantique,
14:u:morphologues,
12:u:défendent,
7:u:signe,
12:u:saussurien,
9:u:affixes,
12:u:polysémie,
8:u:traite,
12:u:générale,
9:u:simples,
14:u:linguistique,
6:u:syn-,
11:u:expliqué,
5:u:en-,
13:u:pragmatique,
8:u:morpho,
9:u:claires,
12:u:explicites,
8:u:trois-,
8:u:puisse,
12:u:consacrée,
10:u:méthode,
12:u:synchronie,
12:u:diachronie,
8:u:aborde,
11:u:intuition,
12:u:intuitives,
13:u:morphologie,
10:u:énoncé,
9:u:globale,
4:u:u-,
13:u:plurisémie,
15:u:multiplicité,
9:u:strates,
18:u:interprétatives,
11:u:morphème,
12:u:flexionnel,
13:u:unisémique,
16:u:pluristratique,
10:u:évitant,
11:u:théories,
14:u:différentes,
12:u:décrivent,
9:u:chacune,
8:u:strate,
13:u:différente,
10:u:opposent,
6:u:unes,
9:u:malheur,
11:u:consacrer,
9:u:séance,
12:u:difficiles,
11:u:résolues,
10:u:apparait,
8:u:étant,
14:u:compliquées,
8:u:celles,
21:u:polycatégorialité,
12:u:traitement,
20:u:polycatégorielles,
9:u:lexique,
13:u:catégoriel,
10:u:matière,
11:u:confiance,
13:u:imagination,
8:u:servir,
8:u:sortes,
12:u:problèmes,
10:u:aimerait,
8:u:semble,
13:u:expérience,
14:u:sémanticien,
13:u:morphologue,
11:u:évidente,
11:u:sentiment,
12:u:prospectif,
10:u:chantier,
13:u:modérateur,
11:u:François,
8:u:carré,
12:u:immodéré,
11:u:agitateur,
12:u:commencent,
8:u:fermer,
6:u:oeil,
12:u:intervenir,
14:u:flexionnelle,
6:u:mots,
12:u:différent,
13:u:traitements,
11:u:méthodes,
9:u:relève,
10:u:principe,
8:u:Claude,
10:u:position,
14:u:dégueulasse,
13:u:réfléchir,
10:u:bêtises,
11:u:procédé,
7:u:banal,
10:u:consiste,
14:u:apparaissent,
12:u:virtuelles,
13:u:quelquefois,
11:u:énoncés,
10:u:virtuels,
7:u:gêne,
15:u:sémanticiens,
10:u:évoqué,
10:u:rotation,
13:u:indéniable,
7:u:rotor,
9:u:rotatif,
11:u:rotatoire,
9:u:rotonde,
7:u:rôti,
9:u:postule,
6:u:base,
17:u:matériellement,
5:u:ose,
7:u:verbe,
7:u:roter,
12:u:imaginaire,
5:u:se-,
6:u:sert,
14:u:archimodèle,
8:u:machin,
9:u:modèle,
14:u:lexématique,
11:u:reconnait,
7:u:rotat,
11:u:associée,
9:u:lexème,
11:u:réaliser,
10:u:autonome,
10:u:lexicale,
11:u:locuteurs,
13:u:permettrait,
8:u:former,
10:u:nouveaux,
6:u:ét-,
13:u:appartenant,
8:u:proche,
11:u:filiation,
9:u:directe,
12:u:hypothèse,
11:u:paradigme,
7:u:parle,
12:u:structures,
17:u:intériorisées,
12:u:prédateur,
12:u:prédation,
12:u:construits,
14:u:fonctionnent,
8:u:parent,
8:u:direct,
9:u:existé,
14:u:contemporain,
4=0x1.5ad524b83aeeep+0
5=-0x1.e05154cf4bf27p-1
6=-0x1.95d82bb51707fp+0
7=0x1.e18dbc18f56afp-1
8=0x1.ffee314fb6baap-3
10=-0x1.5659722dd36a6p-2
11=0x1.04db8ceb25fbfp-2
12=0x1.8b94c4f68e4cp-5
13=-0x1.a8f1d09dbe712p-2
14=-0x1.bbe645da30696p-4
15=0x1.bed7e1d318191p-3
16=-0x1.daac527ea5d38p-6
17=-0x1.fefb4bca347ap-7
18=0x1.2ff6d9d0aa4a9p-5
19=0x1.eda4696c709c8p-4
20=-0x1.28a31c083b491p-6
21=0x1.eb42dab752154p-6
22=-0x1.fb23ab0f0e3d1p-4
23=-0x1.54007a4720c2dp-4
24=-0x1.5cef8320bb6b7p-3
25=0x1.c272df997d49ep-5
26=0x1.9639a3a775b62p-2
28=-0x1.0cf5884a77209p+2
29=0x1.46fa587c338d4p+1
30=0x1.0404199b8cf1cp-3
31=-0x1.8bdd8f6c5417ep+1
32=-0x1.6eb3f95a58773p+2
33=0x1.4784461437f9ap+1
34=0x1.32d02c3200529p+0
35=-0x1.0ed939cb9d6e7p+2
36=0x1.069fd1f222d4fp+1
37=-0x1.2c9adf51a1436p+2
38=-0x1.1e20afe80bc74p+1
39=0x1.5a15f13706e7ep+0
40=0x1.ad4e8f48dd90ap-1
41=-0x1.a399a66766599p+1
42=-0x1.6b754f5c4bd33p+1
43=-0x1.e7f2f2b0096ccp+0
45=0x1.f11a93015c9e8p-4
47=-0x1.a83e41ba266cp-7
48=0x1.8d362948ed08fp-3
49=0x1.e5873b6db5ae4p-4
50=-0x1.d850a7539ab74p-3
51=-0x1.04dd814e8fd4cp-2
52=-0x1.f6f8cb6728158p-7
53=0x1.53484ce894892p-1
54=-0x1.1dfb6939c0976p-3
55=-0x1.22a3bef4630e7p+0
56=-0x1.ec8b61bfdecp+0
57=-0x1.3e3ad51f125bap+1
58=0x1.231c5ee7477cp+0
59=0x1.faf2af3201355p-2
60=0x1.ea96d7d3b9682p-1
61=-0x1.cbab067457738p-7
62=-0x1.029b323753febp-1
63=0x1.2c1b9a9fb3d66p-3
66=0x1.e013e1274efa8p-1
68=0x1.55acdc0ea9f22p-3
69=-0x1.141bf49337efcp-1
70=0x1.0a04eed7ef424p-1
72=-0x1.571d3cc7ae1a3p-4
73=0x1.c80acea24c9efp-3
74=0x1.bd39d400ad8cp-10
75=-0x1.f18628dd6b8bp-2
76=-0x1.008f45520c281p-2
77=0x1.ed219b47ad308p-3
78=0x1.42fce60d4c7ccp-2
79=-0x1.1ee51fad1f341p-1
81=-0x1.81d6dbe20699ep-4
84=-0x1.a0ca3ff7e8fbdp-5
85=0x1.38ab8758337b8p-2
86=0x1.1272e861a0ccap-5
87=-0x1.e69a908d1074bp-3
88=0x1.aacdc3287f6c9p-8
89=0x1.44d236ff5e72ep-4
90=-0x1.dfdd847992c75p-2
91=0x1.fa33b7b28dd9dp-3
93=-0x1.1014f386b67abp+0
96=-0x1.8e44b279a8631p-1
97=0x1.a546f1bb73c8bp-4
98=0x1.12f06f14b0fd1p-6
100=0x1.d4fea4d629acp-2
101=-0x1.5b07aea2ec083p-3
102=-0x1.047a3e6c5edb1p-5
108=-0x1.867f46f274b7ep-4
109=0x1.fbf79c26dea2dp-2
110=-0x1.e0d63ec8c20d8p-5
112=-0x1.cb03dd49d3c3cp-2
113=0x1.c241036ffcbacp-6
116=0x1.58891f88de454p-3
117=-0x1.bff46842453ap+0
120=-0x1.5a88651906ed3p-1
121=0x1.e24dc2f83afecp-3
122=-0x1.497cbe231888ep-6
123=0x1.b8e4d25e52ca3p-4
125=-0x1.38a653e8387f7p-1
128=0x1.2e8155f3d8eb8p-4
129=0x1.025d418e5bfd3p-3
131=-0x1.2a62e07ec75f6p-2
132=0x1.55a37784bdc39p-6
133=0x1.2ab8d9f0aacd1p-2
134=-0x1.439b46e04c815p-2
135=0x1.648e86c62f7cep-3
136=0x1.e3927e7aa60f7p-2
137=-0x1.04b13c5a31c86p+0
139=0x1.9b0c49f86422ap-2
140=0x1.5d7469464b6bdp-2
141=-0x1.7cb70ad7e4ep-9
142=-0x1.46c6ddd203387p+0
143=0x1.34d66868428a3p-4
144=-0x1.bfbde1b4b886bp-2
145=0x1.ac2946d4406b9p-1
146=-0x1.9c4c39a69409p-6
148=-0x1.6e5530271f431p-5
149=-0x1.710c088a0958p-7
150=0x1.2af1966114e16p-2
151=0x1.9bd8140318c6ap-5
152=0x1.fd9b07df44b52p-8
153=0x1.9f8aa83763fadp-3
154=-0x1.c79aa8c4fa14ap+0
156=-0x1.14b86638958a3p-5
157=0x1.07e570d30c5b6p+0
158=-0x1.6614d4bb9d202p-2
160=-0x1.e61a52e7c2ee7p-5
162=-0x1.70e847307a5b3p-7
163=0x1.58bbc7c9d84d1p-2
164=-0x1.7592116241ab1p-2
165=0x1.802bc91cf7924p-4
166=0x1.06e5d6ff5108cp-1
168=-0x1.3330be19c5f4p-3
169=0x1.ab28f7c50ed7cp-3
170=0x1.4db9315124d3fp-4
171=-0x1.c43e3a99afb3ap-3
173=0x1.b6aa7f46d3cep-2
176=0x1.c6ea2a67564bep-4
177=0x1.d26e05124fe6dp-2
178=-0x1.66ce499d8dcfcp-5
179=-0x1.b72d83571af53p-2
180=0x1.0bcb82ff1d205p-1
181=0x1.5220e4f9df919p-2
182=-0x1.f697299106d1fp-3
183=-0x1.d8368695d8e39p-3
185=-0x1.5b101510864d2p-2
186=0x1.bee9e40c11314p-3
188=-0x1.4923be8b15fd3p-2
189=0x1.61f3777de4769p-2
190=0x1.1b5416f2640cp-4
192=-0x1.d44a83118bd6cp-4
193=0x1.2c828b1f22514p-2
194=0x1.10c06e3da7962p-4
200=0x1.9d66c618b8abp-4
201=0x1.871f0c5dcc3cdp-5
202=0x1.b807621d8eb55p-4
203=-0x1.887153707d649p-1
204=-0x1.14f4c6352cf7ep-2
205=0x1.c06e3ed32e476p-2
206=-0x1.e7cf4f053503dp-3
207=0x1.4201bb7a2f27fp-2
208=0x1.498f0ef72b678p-2
209=0x1.a206359be1e58p-2
210=-0x1.5362ed7c37f72p-1
211=-0x1.2e1c55c77d483p-1
213=-0x1.5536c78d10c74p-2
214=0x1.0f13642808507p-2
225=-0x1.6a7fc2bbc4beap-4
226=0x1.023402ed348b3p-3
227=-0x1.198018007b89p-11
228=-0x1.ad5585513dd88p-6
229=-0x1.901a067fe849cp-2
230=0x1.533835a550c13p+0
232=-0x1.9f526202d5e26p-5
233=-0x1.d7e8d9ab33f4ap-5
234=0x1.10d5509678506p-1
236=-0x1.6c33e91ac124ap-2
237=-0x1.01d0dd261840cp-4
238=0x1.26888020c858cp-3
239=0x1.40e225a989ed5p-7
240=0x1.9ab8082e9bd96p-4
241=0x1.a356648c6fa67p-5
242=-0x1.ee1b9363cdcfcp-5
243=-0x1.05e42018e6be2p-3
245=-0x1.f850122fb84a8p-3
247=0x1.cedc263113904p+0
249=-0x1.f7205abf755a1p-3
250=0x1.39b9645886148p+0
252=-0x1.2cd51ab943474p-5
253=0x1.c22606672d6eep-2
254=-0x1.991a0dffd7227p-3
255=-0x1.c0d2809e28befp-9
260=-0x1.a26326ca4667p-8
261=-0x1.da3825a08a1e3p-5
262=0x1.907c24e8b47a2p-7
263=0x1.7a633f779e2dcp-3
265=0x1.ec2ebdb695213p-4
266=-0x1.24e405237f9f3p+0
272=-0x1.682cb3920f008p-2
273=0x1.566f6a8af6029p-4
274=0x1.afc8f67a43707p-4
281=0x1.c9ca8a837bc14p-7
282=0x1.129f3f84dd65ep-4
283=-0x1.d0cfc21d915c9p+0
284=0x1.4f673f08a589ap-6
285=-0x1.6dac5c9014f26p-1
286=-0x1.2e087d26c8b23p-3
287=0x1.cb5c4b37b8e1dp-1
289=-0x1.73d2ae687ea8ep-3
290=0x1.e98762e71d7c9p-4
292=-0x1.19c5b31d33e12p+0
294=0x1.6f41e874c9627p-1
297=0x1.8e9805a202525p-1
305=0x1.7a1786cbdd541p-2
316=-0x1.5b601cbe628b1p+0
317=0x1.47dac487b1cdap-3
324=0x1.70bc17c7fe851p-3
325=-0x1.5e15736c7172ap-3
326=-0x1.14bf7572c5c7cp-2
327=0x1.d33f4651dd81ap-1
332=-0x1.bc34a1fb52a6ap-5
333=0x1.43e587c420eaep-2
334=-0x1.8b56eeb3322ebp-4
336=-0x1.012d07bea3a62p-6
337=0x1.9782c74352c72p-3
340=-0x1.29092f8c536dep-4
341=0x1.9023233e1ca4bp-2
345=0x1.ce6c9b64dd063p-7
355=-0x1.0fa4d632482adp-6
356=-0x1.107f735507a63p-5
357=0x1.3217d0c6e6585p-1
358=-0x1.c474e0cd5f0f3p-2
359=-0x1.a0190db60a072p-7
360=0x1.5230242e446f3p-5
361=-0x1.afcccdbacfaf4p-3
362=0x1.46d5ba37a0525p-3
372=-0x1.beede3ab2afc2p-5
373=0x1.cbe74adb896d5p-5
381=0x1.abf086e28da73p-2
382=-0x1.e37930caccdb2p-4
392=0x1.e33c6184836e7p-5
393=0x1.1a738ec4a5ebcp-2
394=-0x1.2b1989261071fp-2
396=-0x1.d911549a94e2p+0
397=0x1.80b219b574c55p-2
398=-0x1.204e33d6f1391p-6
399=-0x1.932d8e0e2b0fep-7
412=-0x1.1ff2e55a96852p-2
413=0x1.206170db47f15p-2
414=-0x1.bb134f7661887p-2
415=0x1.299cf70461345p-2
416=-0x1.5b643acafabf8p-8
417=-0x1.edcd0d961abc8p-9
418=0x1.0b5e78eef7b0cp-2
432=-0x1.07d771abd605ep-9
434=0x1.7f4506601f35ep-3
436=0x1.3d8199767b54fp-2
437=0x1.24703989ccb4dp-3
438=-0x1.8b9c8563b93e3p-3
439=-0x1.cdf1ec99d0176p-2
440=-0x1.a0b6bc74533d6p-5
441=0x1.3c66556c802fdp-5
444=0x1.e4d1908b10d5p-4
448=-0x1.376473974d80bp-2
449=0x1.7c40493c9152ap-8
450=0x1.1b901b0c4949fp-2
456=-0x1.6ff379f37f872p-6
457=0x1.23b9217246d2p-1
458=-0x1.9eb234626fca9p-4
459=-0x1.dab6ab8f70a74p-9
464=0x1.3737ab970e85p-7
465=-0x1.632e8b6c82029p-4
466=0x1.84a4240047192p-11
468=0x1.ff6e6ecc8f1dap-9
469=0x1.f19e084173daep-5
470=-0x1.7421bda02dbd1p-4
471=0x1.4026b9456ae3ep-3
472=-0x1.069ea8ebb9a81p-2
473=0x1.daf7b2aa57c2fp-1
475=-0x1.f87fc8babd6abp-4
484=-0x1.848ffd64a6c4ap+0
485=0x1.7c9514f27b3e4p-2
486=0x1.f2177e272f232p-2
487=-0x1.cd902aadfbcbdp-1
492=0x1.52b4911d77991p+0
494=-0x1.6ba2a05449fe5p-5
497=-0x1.beff54797bdap-1
499=0x1.eafa4a40fd727p+1
501=0x1.d4494fa2fd6ddp-2
502=-0x1.6f445d5f4794ep-2
509=0x1.7f723794f804bp-2
510=-0x1.1f44a61767bap-3
520=0x1.e7947e402fe6dp-1
521=-0x1.2d700ee315cap-2
522=0x1.07e50d09f74a1p-4
523=-0x1.ce4dd72122687p-5
524=0x1.a29b88f831741p-9
525=-0x1.988dc8110e465p-8
529=0x1.6004ed1869335p-4
536=-0x1.da264d66ef3p-8
538=-0x1.b0900e9f1377bp-8
545=0x1.f15eb772a3998p-1
548=0x1.981c31c8fa081p-5
549=-0x1.5a87e7c8569b3p-1
550=0x1.0620d744cc192p-2
556=0x1.214bf6000f082p-2
557=0x1.4064ae0de53cp-11
558=-0x1.1f840d9a90163p-3
559=-0x1.4a91d0493396bp-6
577=0x1.bfccd5c5efb8p-5
588=0x1.e72a9edee9ea8p-2
589=-0x1.eeef80f21c26p+0
590=0x1.eaa1250d3b2d5p-2
600=0x1.b112d003fee93p+0
601=-0x1.40533281aae56p-3
616=-0x1.d82ae0564cd22p-10
617=0x1.7e1e2a7a154p-21
618=-0x1.36ba906d30663p-1
619=0x1.03dda423bf472p+1
620=0x1.82b66dd0d3958p-4
621=-0x1.d300bc9cfa14ap-3
622=0x1.37882a03b2f82p-9
628=0x1.7bfe2c9778bf2p+0
629=-0x1.a5f54bf5e1828p-1
632=0x1.c59bff47471a1p-2
633=-0x1.f8d7ef42a177ap-5
634=-0x1.025615eb5796p-13
641=0x1.67c9cc389fcb3p-1
644=0x1.6e6e22162c14p-7
645=-0x1.184d3db7a4027p-2
646=0x1.04391f8c5b293p-4
648=0x1.7225d0a34a317p-9
649=-0x1.1a9aed8c245aap-4
651=0x1.02bfcd1b14b22p-4
656=0x1.a6df4c1b70263p-2
659=-0x1.4c1c8aeaa7b97p-4
660=-0x1.ef6822ff8bf44p-8
661=0x1.7c54aaa2b0525p-5
664=0x1.cbc53683aed96p-5
665=-0x1.36805aee93ca1p-1
676=-0x1.9a3a6b1a8f058p-1
677=0x1.131e4c7b4b147p-3
678=0x1.3bdaba21d379cp-3
681=0x1.7dea3fa7645fp-7
688=0x1.4de722fc092cbp-2
689=-0x1.7e1ec7953d322p-1
690=0x1.8d499459781efp-2
692=0x1.6cb04358b540bp-3
693=-0x1.6f0ae527539dap+0
708=0x1.0ced30fc9e8b7p-2
709=0x1.5a2e3c1a87961p-2
710=-0x1.9c39e2c6a7dbdp-3
711=-0x1.01e1b7c100c95p+0
721=-0x1.00149d237b1c1p+1
722=0x1.c1cc811de133bp-2
724=0x1.f02120d24f06dp-2
725=-0x1.1a24ab1ff16c9p+1
726=0x1.df11fea78501ep-2
728=0x1.aa47d8c8c42aap-2
730=-0x1.400436cf3abep-7
737=0x1.5bec1b7f67709p-1
744=0x1.ffebe082a9b85p-2
745=-0x1.a5347fb4939d2p+0
747=0x1.3a07a439dd05fp-4
749=0x1.d219df82ed1dcp-9
753=0x1.000f8edbd7d2p+0
756=0x1.261a9b3bbadcp-4
757=-0x1.227ce05dd3204p+0
758=0x1.c0b7dba2b41ep-3
759=0x1.4cbc278c2989ep-1
760=0x1.03d6352eddbafp-1
761=-0x1.5aa41f0a89d3ep-1
762=0x1.6e7bc06f4c533p-2
763=-0x1.50acb37c0a741p-2
764=-0x1.911ba0e255425p-2
768=0x1.c16a22d51c1ecp-6
769=-0x1.7098aae4d2337p-1
770=0x1.164352be741d8p-1
777=0x1.70a848b450a4fp-4
781=0x1.7bc3eb93fb3c1p-3
796=-0x1.4d45a46ffd7e2p-6
798=0x1.424d91a4d83dep+0
801=0x1.741555bcd7b16p-1
813=0x1.4741ec1ac992dp-1
825=0x1.15677b4229322p-2
826=-0x1.3d724fca60c71p-1
841=-0x1.75929626d622ap-13
842=0x1.dc314436c833p-11
881=0x1.769baa56fe9d8p-2
889=-0x1.38eb77d5ecb36p-2
892=0x1.0afbeddea809ap-9
893=-0x1.9594e04f54e3bp-8
900=0x1.1d605a02e965bp-1
901=-0x1.425cbf369ff8ep-2
902=0x1.5d4c51741ebfep-4
916=-0x1.05bcfaf1a74d1p-1
918=0x1.75c12ac94b9a8p-1
925=-0x1.7d2cb6430774ep-1
936=-0x1.013f738304a1fp-4
938=0x1.f2e5a4da58375p-8
952=-0x1.0a763750707c4p+0
953=0x1.a4d38c69a43b6p-4
957=-0x1.30f7c97325fbp-1
958=0x1.392c024c0128cp+1
961=0x1.28c9ef3c730e9p-1
965=-0x1.c0e6983866f1p-3
968=-0x1.0c3f37ede475ep-4
969=0x1.5892daf2ba4acp-5
970=-0x1.422e8bac071cp-17
971=0x1.b828d6f3b1a0ep-2
1048=-0x1.425512595c1fap-3
1049=0x1.45c08f1475251p-2
1050=0x1.8654962902881p-8
1064=-0x1.4b43727d9a546p-9
1065=-0x1.cc715146e6ba7p-7
1066=0x1.6fc0c398015cfp-3
1104=-0x1.045dcfcb9502ap-1
1105=0x1.3da22f575c7b8p-4
1108=0x1.0a47dc00ac033p-5
1109=0x1.3e49ca3047d7cp-5
1110=-0x1.fc503383a4c4ap-6
1111=-0x1.6f8356716d6d7p-4
1117=-0x1.4f0c63b9b193p-4
1118=0x1.9e0e46a38d6d8p-1
1132=-0x1.4f78a48e49a7p-5
1134=0x1.9c91772994681p-4
1148=0x1.3573c3fb43df5p-2
1149=-0x1.effe726c47ad1p-3
1152=0x1.51dd4a78009ebp-9
1153=0x1.1e541c00d2d6cp-6
1154=-0x1.92d6169f72d6cp-4
1156=0x1.9ba3889734293p-4
1157=-0x1.87e8827269048p+0
1160=0x1.20ff86d574879p-14
1161=-0x1.43544750aae76p-4
1162=0x1.0a950982c3811p-4
1165=0x1.f555ecb02ce92p-7
1166=-0x1.547b5dde49bc6p-3
1192=0x1.37f88d8570579p+0
1193=-0x1.5434111854e17p-2
1194=0x1.4ed500fd83b36p-3
1195=-0x1.3187e889af459p-6
1224=0x1.59fa4915cbbe8p-6
1225=-0x1.c464bcd88313ep-2
1237=-0x1.7dac9d3afd1c7p-5
1257=-0x1.9bfda74d05154p-5
1258=0x1.4cf6038ef6ad3p-4
1276=0x1.031dbe59efa2p-3
1277=-0x1.87b39fd9e1416p-1
1281=-0x1.61d42e40e6446p-1
1289=0x1.fc4c64463de4ep-11
1305=0x1.32ed01c5a8844p-8
1328=0x1.bf4ed58845846p-2
1329=-0x1.079ce78793e9ap+1
1330=0x1.db55d2c985a27p-2
1337=0x1.59bd23c6fef8cp-2
1358=0x1.2d5d3f5d84bcep-12
1364=0x1.21463048dd53bp+0
1366=-0x1.34a33081605b4p+0
1397=0x1.655fe5e4f8075p-2
1405=0x1.b7a4aa770962ep-1
1406=-0x1.59412dde10408p-6
1433=-0x1.71cfcd37d1652p-4
1434=0x1.b53d852f66b9fp-2
1437=-0x1.ab73ba99ffce8p-1
1440=-0x1.dce27e11c8e32p-5
1452=0x1.d36041f92ec61p-1
1454=-0x1.727c2467ef028p-4
1465=0x1.12a585361bb8ap-5
1468=-0x1.f52daffbe13afp-3
1469=0x1.7a1c5705f0184p-4
1480=-0x1.9b6810fcf26ccp-6
1481=0x1.3c58c187b05b5p-1
1485=0x1.807e73ad54886p-3
1489=-0x1.a3db92eb315cp-8
1490=0x1.8816ccb888702p-5
1508=0x1.e3124744becb2p-2
1509=-0x1.50d5b6e3add48p+0
1510=0x1.5716ea8a09e91p-3
1520=0x1.47a92fae00996p+0
1521=-0x1.f733d0ab1e82p-7
1529=0x1.24ca1fabefb17p-1
1540=0x1.18fec76f2abc3p-2
1542=-0x1.4abea293b3825p-1
1553=-0x1.06d86414c9a8ep-3
1557=-0x1.80301cb90c4cap-8
1559=0x1.660331f8348f2p+1
1568=0x1.63b9dad6bb9a3p-2
1569=-0x1.5e73a0876e184p-4
1580=0x1.0d4922c8a688ep-6
1581=-0x1.205a51a27668dp+0
1582=0x1.9302c7220a6f6p-4
1600=0x1.c56206b69ccp-13
1601=-0x1.b15dca8155082p+0
1605=-0x1.0a5218744d149p+0
1606=0x1.30e77b306d2dep-3
1608=0x1.d89cada53a11ap+0
1609=-0x1.5a76fa3903d64p-2
1613=-0x1.086c799b756d7p+0
1621=-0x1.ad043abdabc24p-5
1624=0x1.0f33b53699ccep-6
1625=-0x1.108dbd0cca8e8p-3
1632=0x1.77da6e3e8bbe4p+0
1633=-0x1.d9ae1944b8552p-2
1641=-0x1.9ece9462a47adp+0
1642=0x1.9299592b47ddp-2
1649=0x1.43f56721bc9f3p-2
1665=-0x1.347c8625a0ec4p+1
1667=0x1.4f46daf38d2edp+1
1685=0x1.955e7a26f9529p-3
1741=0x1.1283d13e346d4p-5
1757=-0x1.20d2d955384acp+0
1758=0x1.0a249493d2ab1p-2
1759=0x1.7a9914f89d47cp-5
1769=-0x1.701fc3c483fb2p-1
1770=0x1.ee6f8b8eaf007p-2
1781=-0x1.285420d625a3dp+0
1782=0x1.0f6097854dd44p-4
1788=0x1.6688cf0182e4p-6
1789=-0x1.afccffcf03a0ap+0
1790=0x1.a56bd3f5f47p-10
1792=0x1.ad764449a8407p-2
1793=-0x1.9fe7c77c6cb54p-2
1801=-0x1.8bf189f0d79d3p-2
1802=0x1.6665bf14ab2fap-2
1824=-0x1.087f4d50bb49fp+0
1825=0x1.c5c4b71c34996p-8
1826=0x1.580f73baa35d9p-1
1873=-0x1.b189bf0b279d2p-11
1874=0x1.a3ac82bb6d7f6p-4
1905=-0x1.918f231480ebap-2
1906=0x1.1bc94bda7fba4p+1
1909=-0x1.f18cc26558285p-2
1925=-0x1.f78e83054f227p-3
1926=0x1.19e41a57cdbeep+1
1932=0x1.0ae6c4a96620bp-1
1933=-0x1.03f2cd9038694p+1
1934=0x1.fb9b22281b08p-2
1957=-0x1.1ca542e2a3bdbp+1
1965=-0x1.f7cf4bc4c5a22p-5
1969=0x1.a3299f79ee344p-4
2005=0x1.1e29c74b5f02bp-4
2020=0x1.241c108259d3cp-6
2021=-0x1.d062b509ebeb2p+0
2033=-0x1.07b438f5df48cp+1
2049=-0x1.4af4cdc788da5p+1
2051=0x1.5e27bfb399b86p+1
2056=-0x1.1246443af98a2p-3
2057=0x1.1cc97f8bf998ep-2
2109=0x1.5e925c43b016dp-15
2113=0x1.c08343981797cp-2
2120=-0x1.850fe29f8f6bcp-5
2121=-0x1.f2eb623a467a4p-1
2123=0x1.2fcffeaf30662p+1
2136=0x1.159a8aee03377p-1
2137=-0x1.04742853b86cp+1
2138=0x1.c4a244a8dacdap-2
2145=0x1.152038a37a042p-3
2156=0x1.d89ccb6807433p-2
2157=-0x1.4acd47448463dp-2
2236=0x1.d7b56a8ab99bdp-2
2237=-0x1.9b0b13e0bc921p-2
2273=-0x1.244c6cc820abbp+1
2276=0x1.2aa4634ab141fp+0
2281=0x1.22a93f98040a2p-1
2288=0x1.b65452947d37ep-3
2289=-0x1.2a60d1d2d5ep-1
2290=0x1.d5d52d6abbc2ep-5
2297=-0x1.29d451bcf73f5p-1
2298=0x1.54847bbf268b1p-2
2317=0x1.10a0f7dae1b9p-1
2356=0x1.fff64ba4833b7p-2
2357=-0x1.755183cd73522p+0
2358=0x1.0d086f2669f3ep-2
2377=0x1.0c6a9ce88568ap-3
2400=-0x1.04b1013dc1eddp-4
2401=0x1.d0d4250ee7ad5p-4
2425=0x1.af0272ffb9d8ap-11
2449=0x1.41a5b9f14ed07p-7
2493=-0x1.1cd79928dd76dp+1
2497=-0x1.aabfb8d951acap+0
2499=0x1.bfdb2acc46238p+0
2500=0x1.83bb18ee69975p-2
2501=-0x1.3b086f7c47e2bp-2
2529=-0x1.0451af8875058p+1
2530=0x1.c1d6c82e6391ap-4
2537=-0x1.381d1cac607c1p+1
2541=0x1.cad0d23557262p-4
2552=0x1.359b148b5347fp-2
2553=-0x1.424c140786e0dp+0
2554=0x1.951ce7605f27p-4
2576=0x1.0b9b14768c68ap+0
2577=-0x1.253e8875720b8p-2
2596=0x1.5d5c599d3e31ap-2
2597=-0x1.79819ac75d467p+0
2598=0x1.2dc85da7c87ccp-2
2740=0x1.5079bb86e4efep-4
2741=-0x1.43b8c811f977fp+0
2805=-0x1.2deed2dce1d0ap-10
2806=0x1.9292a3d0a02edp-5
2809=-0x1.21b11ef0575f4p+1
2837=-0x1.917cc98241cdcp-3
2838=0x1.30daf891f53f4p-1
2841=-0x1.d71999583050ep-3
2843=0x1.c44918377480ep+0
2901=-0x1.7a473c81f5c66p+0
2937=0x1.2c483f4697b5ep-6
2957=-0x1.0ccd7c5dbaa1bp+1
2964=0x1.21d592603640ep-3
2965=-0x1.19cf0d550a0cap+1
2968=0x1.301dfcbb1671p-7
2981=-0x1.718240ec424d6p-2
2983=0x1.323f365238df6p+1
2984=0x1.75bbd0f3bd9d4p-5
2985=-0x1.5d7032daa9169p-1
2986=0x1.a337780a74c41p-5
3009=-0x1.08decab2be2f8p+1
3020=0x1.01deafb71a1c8p-6
3034=0x1.1663e49756b6dp-1
3037=-0x1.173803a61a81fp-3
3038=0x1.1a7502b195e42p+0
3044=0x1.b74e5b6a0073fp-2
3045=-0x1.c657c840eb65bp+0
3046=0x1.bd7643391f5bep-2
3053=-0x1.19af67b302da7p+1
3068=0x1.406af4729158p-3
3069=0x1.bda462e9404c7p-3
3070=-0x1.ee6d37323bdbcp-3
3071=-0x1.c8861f666d167p-4
3161=0x1.e59d0ea5d1b08p-2
3200=0x1.47849487fcd14p+0
3201=-0x1.ec860988ced22p-2
3308=0x1.cffdcdd3c4b98p-2
3309=-0x1.e7a14b7adeac1p+0
3310=0x1.07ac411f02877p-1
3343=0x1.408657fdbdce6p+1
3349=-0x1.a557f0532a5adp+0
3396=0x1.0cee960fced75p-5
3437=-0x1.607ea638f3738p-5
3438=0x1.85cb77d35bef8p-1
3561=0x1.1445285d196d9p-3
3592=0x1.1ada52619568p-1
3593=-0x1.132401cf0f92ap-1
3594=0x1.5d52035dcb276p-4
3674=0x1.c88de94ec18d3p-1
3709=0x1.09e60613ef526p-2
3713=0x1.07d6a1acbbeap-15
3729=0x1.d97ed4c1cd449p-5
3749=-0x1.9f8634d019738p+0
3805=-0x1.5b837ca1a927bp+0
3872=0x1.f772182e8f5dcp-7
3901=0x1.75a62b1a1c2a2p-1
3965=0x1.7e545ed10ced1p-4
3976=0x1.7f21770a4ac4ap+0
3977=-0x1.b2cfd2efb7c49p-2
4052=0x1.e33f38892cc6cp-6
4053=-0x1.6d4691b9d169ep-2
4093=0x1.c35f382ab5554p-8
4169=-0x1.43f1da3a9fbc2p+0
4257=0x1.18d569ff14d2cp-3
4700=0x1.3a9ae339757b8p-2
4701=-0x1.5e106c20c39d9p+0
4702=0x1.cff376f7d343p-3
4736=0x1.57dc53946ae86p-1
4737=-0x1.b33a4537b2b08p+0
4738=0x1.c5129f8a4b8a2p-2
4777=0x1.6c3904ac02aefp-4
4853=-0x1.56fe0c64da67dp+1
4854=0x1.665f7a385c118p+1
4897=0x1.0ec347c124a51p-6
5020=0x1.7cf702c903e93p-2
5021=-0x1.4b80f2a358d56p-2
5032=0x1.f86534e88fe51p-2
5033=-0x1.21a2f83707cf5p+1
5034=0x1.f0c219e7e427bp-2
5124=0x1.1cafb3015d86ap-1
5125=-0x1.73d2b73c5b719p-1
5200=0x1.a1a20e1922b8dp+0
5201=-0x1.06bb53ede6ffep+0
5204=0x1.559b4651b6f2p-4
5205=-0x1.7b31e07711aa7p-1
5206=0x1.692884f49872p-4
5208=0x1.185675c341412p-1
5209=-0x1.0334fcbf234bbp+0
5210=0x1.ce09c9e46941bp-1
5217=0x1.3e0efab2767e4p-6
5230=0x1.3e23bb9681992p-3
5232=0x1.16865f503620ap-2
5233=-0x1.9626fbd4b962fp+0
5244=0x1.75b41203b1fe2p-2
5245=-0x1.4655e1fdb975dp+0
5248=0x1.28e884b319cfap+0
5249=-0x1.5bc45d2625bb8p-2
5256=0x1.522c49da3bc84p-5
5257=-0x1.ec5e9621c32fbp-2
5272=0x1.f28048a6ec062p-1
5273=-0x1.46e50ef13b9e8p-2
5292=0x1.5b443da62d76dp-3
5300=0x1.4ae390a7583e7p-1
5301=-0x1.0dafcee64c12cp+1
5302=0x1.8b1c84c294a3ep-2
5321=-0x1.497484b8d0d9ep-2
5324=0x1.d9ac76d67ad75p-2
5325=-0x1.5669061288d81p+0
5326=0x1.d2e80cf8a6aaep-2
5400=0x1.36cce82e7f206p-4
5436=0x1.c1ddd3cc268e7p+0
5437=-0x1.584601e8ecf69p+1
5440=0x1.39328e2d2176cp+1
5441=-0x1.3661d2a2a2bebp-1
5464=-0x1.27ba04cc10d83p-3
5465=0x1.7e294cab1cbfcp-3
5484=0x1.f922046d1ea84p-5
5485=-0x1.bd9ca926607eap-5
5492=0x1.400a768af51eep-1
5493=-0x1.fd74f08abc05dp-2
5501=0x1.71b615ae2ee92p-6
5521=-0x1.27b9bce0d76e8p+1
5522=0x1.d9849403ee256p-4
5545=-0x1.c27f190594facp+0
5573=0x1.a13863f86741p-9
5588=0x1.37b90dab3a7ecp-1
5589=-0x1.2f6dce2b5dd94p-4
5597=-0x1.4f746b4724197p+1
5598=0x1.66b830680e402p+1
5625=-0x1.5437e359e65c1p+1
5626=0x1.fea7800c3e9aap-2
5657=-0x1.3b7039dc35c16p+1
5658=0x1.1f29edaa27338p-3
5672=0x1.0df0030563dc4p-1
5673=-0x1.40e727faaa4a4p+1
5674=0x1.0b565cb744985p-1
5752=0x1.a33f5d2cd11a8p-3
5753=-0x1.5854357c87dc5p+0
5754=0x1.873163186bbb3p-3
5761=-0x1.9ab648c2989bap+0
5765=0x1.18811aad76a02p-17
5773=-0x1.725b5d21a2615p+1
5817=-0x1.0e12f1bd74eb4p+1
5832=0x1.161cc40dcef21p-3
5833=-0x1.c2d59b8683e04p+0
5834=0x1.de9d254d567cp-8
5836=0x1.b1608d6dd2725p-2
5837=-0x1.5e984e09d2da4p-7
5841=-0x1.04615d86b7fbdp-1
5842=0x1.535b922b9e007p+0
5848=0x1.efeaf2a812e86p-2
5849=-0x1.b0ce7797d6e7ap+0
5850=0x1.e08d916b5bcd3p-2
5860=0x1.8a6fd905244d3p-1
5861=-0x1.1192fc74e6c27p-1
5884=-0x1.eca89e61e6965p-8
5886=0x1.1cf5bba1f7993p-1
5888=-0x1.a9978e89c341dp-8
5889=-0x1.1960e3ff65d24p+1
5890=0x1.16e9914df3173p-1
5891=0x1.680d10d8e2701p+1
5921=0x1.e43fadc70d31ep-4
5948=0x1.f551f5911f29p-2
5949=-0x1.3b988617ad7fp+1
5950=0x1.26c93a852a9fap-1
5972=0x1.0471810631f9ep-1
5973=-0x1.7bd20212d5ff5p+1
5974=0x1.04c44b84ce0aep-1
6009=-0x1.3e17d34c9b195p+0
6020=0x1.48f8442a489aap+0
6021=-0x1.33bdb1b5cea8fp-3
6084=0x1.0559b69be06c9p-3
6085=-0x1.b4aa854959279p-8
6269=-0x1.8d47a5b3d1d56p-2
6270=0x1.f9838755cdd62p-2
6328=0x1.86fb8dbdeaa09p-4
6329=-0x1.e2d24c0140945p-1
6330=0x1.d2ac578feb4bdp-4
6345=-0x1.245ce73d15192p-3
6346=0x1.e9c2d148c47b7p+0
6393=0x1.7aa57ba224e58p-2
6493=0x1.2553319678905p-9
6521=0x1.9b856a1e63d34p-5
6605=-0x1.a71382c793ca4p-1
6606=0x1.0e3789f2f0a63p-4
6680=0x1.818e6ca49f93fp-2
6681=-0x1.64bb8e6b8b9eep+0
6744=0x1.32b43214268dep-1
6745=-0x1.7a6f90f673669p+0
6746=0x1.8aedfc6ccc168p-3
6824=0x1.b29c768b6d09ep-2
6825=-0x1.0f35b29bb8ebbp+1
6829=-0x1.1271807cc4bf4p+1
6929=-0x1.8974ce1bc1e6ap-1
6944=0x1.dc3e8242eb7fbp-2
6945=-0x1.c5af6e30a2cadp+0
6968=0x1.be7105f9aa8ebp-6
6969=-0x1.e522f5a154751p-1
7016=0x1.6b83b953d024ep+0
7017=-0x1.5f2738703078fp+0
7229=-0x1.0d11de7620884p-3
7230=0x1.38cb9bb9567a6p-1
7232=0x1.730d5d99bfe3p-3
7249=-0x1.b4b64bac06d4fp-2
7250=0x1.19c958aab087p+1
7281=-0x1.014274cb2a771p+1
7288=0x1.dbe072214fc07p-2
7289=-0x1.e35d134670ffap+0
7290=0x1.cf240caa871c8p-2
7297=-0x1.8e4fee4553f78p+0
7361=-0x1.30994e0992f58p+1
