#mdl#2#1183
#rdr#13/3/0
9:u:%x[0,0],
10:u:%x[-1,0],
9:u:%x[1,0],
9:u:%x[0,1],
10:u:%x[-1,1],
9:u:%x[1,1],
9:u:%x[0,2],
10:u:%x[-1,2],
9:u:%x[1,2],
9:u:%x[0,3],
10:u:%x[-1,3],
9:u:%x[1,3],
2:b:,
#qrk#4
4:pA_B,
4:pA_I,
4:pA_L,
4:pA_U,
#qrk#1841
6:u:allo,
6:u:_x-1,
3:u:c,
3:u:7,
4:u:10,
3:u:8,
3:u:5,
3:u:6,
2:b:,
5:u:est,
6:u:_x+1,
5:u:oui,
3:u:4,
5:u:ça,
4:u:va,
4:u:11,
4:u:et,
4:u:17,
5:u:toi,
5:u:dis,
3:u:9,
4:u:je,
9:u:voulais,
4:u:te,
10:u:demander,
8:u:demain,
4:u:vu,
5:u:que,
4:u:on,
3:u:a,
4:u:qu,
5:u:une,
7:u:heure,
6:u:pour,
8:u:manger,
5:u:euh,
5:u:dit,
7:u:aille,
8:u:dehors,
4:u:hm,
4:u:21,
3:u:3,
4:u:NA,
6:u:sais,
5:u:pas,
4:u:en,
6:u:fait,
7:u:parce,
4:u:19,
4:u:le,
6:u:truc,
4:u:14,
4:u:23,
4:u:13,
4:u:12,
3:u:j,
4:u:ai,
8:u:encore,
4:u:18,
4:u:22,
4:u:de,
9:u:monnaie,
4:u:ah,
7:u:ouais,
6:u:donc,
4:u:du,
6:u:coup,
10:u:voudrait,
6:u:dire,
11:u:mangerait,
7:u:genre,
4:u:un,
10:u:sandwich,
5:u:non,
6:u:vrai,
6:u:trop,
3:u:1,
5:u:top,
7:u:enfin,
3:u:2,
4:u:16,
4:u:15,
7:u:comme,
4:u:m-,
4:u:f-,
4:u:me,
8:u:saoule,
5:u:peu,
5:u:des,
12:u:sandwiches,
8:u:voilà,
9:u:dépend,
4:u:si,
4:u:il,
6:u:nous,
8:u:lâche,
7:u:avant,
4:u:ou,
4:u:20,
3:u:d,
8:u:accord,
4:u:tu,
8:u:retard,
6:u:voit,
3:u:y,
4:u:la,
7:u:queue,
4:u:à,
8:u:limite,
6:u:veux,
4:u:ok,
4:u:é,
8:u:était,
10:u:prévoir,
5:u:moi,
7:u:aussi,
6:u:faut,
8:u:prenne,
3:u:l,
8:u:argent,
5:u:sur,
6:u:vois,
9:u:daccord,
6:u:mais,
7:u:mange,
8:u:salade,
8:u:laisse,
6:u:peut,
7:u:aller,
9:u:cantine,
7:u:toute,
8:u:façon,
8:u:pareil,
9:u:appeler,
5:u:vas,
8:u:donner,
9:u:petites,
6:u:news,
9:u:comment,
8:u:allait,
7:u:avais,
4:u:se,
6:u:voie,
7:u:même,
6:u:elle,
5:u:là,
10:u:faudrait,
7:u:alors,
4:u:ce,
6:u:mois,
4:u:ci,
8:u:passé,
8:u:allure,
6:u:quoi,
4:u:30,
7:u:été,
7:u:super,
5:u:ric,
5:u:rac,
5:u:ben,
11:u:attendais,
8:u:retour,
10:u:réunion,
3:u:m,
8:u:étais,
8:u:aurait,
4:u:pu,
6:u:voir,
7:u:quand,
7:u:faire,
5:u:bon,
6:u:puis,
8:u:après,
7:u:temps,
7:u:passe,
12:u:finalement,
8:u:arrive,
10:u:bientôt,
5:u:fin,
7:u:très,
6:u:vite,
12:u:exactement,
4:u:j-,
7:u:être,
8:u:essaie,
7:u:caler,
6:u:vous,
8:u:dirait,
9:u:semaine,
11:u:prochaine,
6:u:bien,
6:u:pris,
10:u:vendredi,
8:u:samedi,
6:u:cest,
10:u:possible,
17:u:éventuellement,
10:u:gérable,
6:u:soir,
6:u:cool,
12:u:clairement,
4:u:29,
9:u:reparle,
12:u:carrément,
6:u:vais,
12:u:rapidement,
4:u:au,
7:u:moins,
9:u:envoyer,
6:u:mail,
5:u:pis,
10:u:toujours,
12:u:compliqué,
11:u:plusieurs,
4:u:as,
8:u:raison,
9:u:propose,
9:u:instant,
3:u:t,
7:u:irait,
9:u:parfait,
5:u:où,
6:u:hein,
5:u:nan,
8:u:disais,
8:u:petite,
8:u:bouffe,
6:u:mai-,
8:u:maison,
9:u:bonjour,
7:u:salut,
9:u:entendu,
7:u:bruit,
7:u:merde,
8:u:entend,
9:u:arriver,
6:u:loin,
7:u:chaud,
5:u:ici,
7:u:aviez,
10:u:chouette,
11:u:installer,
5:u:les,
8:u:filles,
6:u:pose,
5:u:nos,
10:u:affaires,
6:u:waou,
8:u:faites,
6:u:chez,
5:u:tes,
12:u:chaussures,
9:u:enlève,
5:u:mes,
9:u:obligé,
7:u:garde,
8:u:mettre,
6:u:joli,
6:u:suis,
10:u:craquée,
7:u:cette,
8:u:année,
10:u:rondelle,
8:u:citron,
6:u:tout,
4:u:28,
6:u:plus,
8:u:grands,
5:u:ils,
6:u:sont,
11:u:chouettes,
5:u:ces,
8:u:verres,
7:u:beaux,
10:u:achetés,
9:u:exprès,
5:u:ouh,
5:u:mis,
11:u:chauffage,
7:u:crois,
6:u:tour,
10:u:obligée,
6:u:fond,
11:u:autrement,
8:u:marche,
6:u:c“,
7:u:loose,
6:u:soit,
7:u:zéro,
9:u:éteint,
8:u:chiant,
6:u:fais,
11:u:engueuler,
10:u:consomme,
6:u:sers,
7:u:sûre,
4:u:oh,
8:u:partir,
8:u:moment,
8:u:rigolo,
5:u:ch-,
8:u:savais,
7:u:avait,
7:u:aimé,
7:u:avoir,
8:u:autres,
8:u:graals,
8:u:prévu,
11:u:inquiète,
8:u:paille,
7:u:allez,
10:u:habitude,
9:u:cuisine,
8:u:êtres,
7:u:miser,
15:u:présentation,
10:u:croirait,
6:u:dans,
8:u:dîner,
9:u:presque,
10:u:chercher,
7:u:autre,
7:u:mince,
13:u:commençais,
7:u:boire,
5:u:cas,
9:u:plaisir,
3:u:n,
10:u:empêche,
7:u:clair,
11:u:longtemps,
4:u:d-,
5:u:vue,
8:u:depuis,
5:u:cet,
14:u:anniversaire,
3:u:s,
6:u:vues,
9:u:remonte,
5:u:par,
11:u:croisées,
8:u:métro,
7:u:trois,
9:u:arrêts,
5:u:qui,
10:u:vraiment,
6:u:aïe,
8:u:vôtre,
8:u:santé,
8:u:mignon,
4:u:ma,
7:u:mère,
8:u:gardes,
8:u:cognac,
6:u:gros,
6:u:mets,
10:u:beaucoup,
13:u:normalement,
8:u:classe,
4:u:ne,
7:u:juste,
10:u:histoire,
7:u:petit,
6:u:sûr,
4:u:a-,
9:u:passée,
4:u:es,
7:u:seule,
9:u:souvent,
7:u:cours,
7:u:lundi,
13:u:interaction,
9:u:verbale,
6:u:lun-,
6:u:midi,
7:u:mardi,
10:u:mercredi,
9:u:syntaxe,
9:u:oublier,
6:u:neuf,
8:u:heures,
7:u:matin,
7:u:jeudi,
8:u:psycho,
6:u:demi,
6:u:fois,
6:u:deux,
6:u:int-,
9:u:analyse,
19:u:conversationnelle,
7:u:exact,
7:u:reste,
11:u:formation,
8:u:rester,
8:u:prends,
6:u:pire,
7:u:train,
9:u:revenir,
7:u:vient,
9:u:voiture,
9:u:crevée,
9:u:rentrer,
8:u:chaque,
10:u:aimerais,
8:u:restes,
9:u:ramène,
6:u:sait,
8:u:jamais,
9:u:quelque,
7:u:chose,
7:u:faute,
8:u:tomber,
10:u:pourquoi,
13:u:franchement,
14:u:gestionnaire,
7:u:paies,
9:u:croyais,
9:u:reprend,
8:u:début,
7:u:soeur,
9:u:galère,
5:u:son,
8:u:master,
4:u:sa,
11:u:première,
8:u:loupé,
13:u:recommencé,
11:u:deuxième,
10:u:reloupé,
5:u:ont,
6:u:rien,
8:u:savait,
4:u:s-,
9:u:voulait,
10:u:retenter,
12:u:troisième,
7:u:idée,
7:u:monde,
9:u:travail,
7:u:marre,
10:u:arrivée,
7:u:vingt,
8:u:quatre,
5:u:ans,
15:u:compréhensif,
8:u:partie,
9:u:essayer,
10:u:cherché,
9:u:trouvé,
5:u:ad-,
9:u:adultes,
9:u:appelle,
6:u:sai-,
14:u:considérée,
12:u:étudiante,
12:u:intégrée,
8:u:dedans,
5:u:ami,
7:u:style,
5:u:de-,
10:u:semaines,
12:u:entreprise,
9:u:bizarre,
9:u:passait,
8:u:déjà,
5:u:mal,
9:u:compris,
13:u:réellement,
7:u:cadre,
9:u:choisie,
7:u:prise,
10:u:logiciel,
8:u:permet,
9:u:censés,
5:u:eux,
11:u:expliquer,
16:u:fonctionnement,
5:u:aux,
13:u:entreprises,
9:u:doivent,
6:u:bons,
8:u:calée,
9:u:déçue,
7:u:cause,
7:u:allô,
8:u:coucou,
10:u:appelais,
6:u:avec,
8:u:parlé,
11:u:septembre,
8:u:veniez,
7:u:fête,
11:u:lumières,
12:u:invitation,
7:u:tient,
7:u:fasse,
6:u:cher,
8:u:savoir,
8:u:disait,
7:u:venir,
8:u:priori,
5:u:lui,
13:u:particulier,
9:u:regarde,
9:u:surtout,
6:u:prix,
9:u:billets,
7:u:jouer,
8:u:boulot,
6:u:peux,
10:u:regarder,
12:u:maintenant,
10:u:rappelle,
10:u:regardé,
6:u:coca,
9:u:attaque,
8:u:pizzas,
9:u:attends,
6:u:sors,
8:u:occupe,
4:u:ta,
9:u:chèvre,
13:u:champignons,
8:u:jambon,
8:u:dessus,
10:u:pourrait,
7:u:sympa,
6:u:rire,
8:u:viande,
9:u:hachée,
9:u:chorizo,
10:u:poivrons,
12:u:allumettes,
9:u:lardons,
8:u:besoin,
9:u:occuper,
7:u:pâte,
5:u:ton,
5:u:job,
5:u:yes,
10:u:claquée,
5:u:dur,
6:u:week,
5:u:end,
11:u:émotions,
7:u:maman,
11:u:ressortir,
7:u:pense,
7:u:droit,
7:u:pète,
8:u:putain,
8:u:péter,
5:u:hé,
6:u:fous,
9:u:partout,
7:u:celle,
7:u:assez,
7:u:tiré,
9:u:arrives,
9:u:content,
7:u:jeté,
10:u:poubelle,
10:u:pratique,
8:u:bordel,
12:u:chicouille,
7:u:mieux,
12:u:dépêches,
8:u:chiche,
10:u:commande,
9:u:branche,
6:u:fils,
10:u:trancher,
7:u:gorge,
6:u:hier,
8:u:abusé,
6:u:dise,
10:u:balancer,
6:u:ayé,
6:u:vont,
10:u:emmerder,
4:u:t-,
12:u:vêtements,
6:u:êt-,
10:u:choquée,
9:u:acheté,
8:u:esprit,
9:u:laisses,
6:u:ceux,
7:u:hiver,
10:u:énervé,
5:u:don,
10:u:énerver,
9:u:rouleau,
13:u:pâtisserie,
6:u:oula,
8:u:aurais,
12:u:préféré,
9:u:trouver,
6:u:sans,
8:u:manche,
6:u:aime,
11:u:préfère,
9:u:manches,
10:u:échappe,
7:u:mains,
6:u:sera,
10:u:présent,
14:u:physiquement,
6:u:sept,
8:u:rentre,
9:u:pratico,
7:u:delà,
5:u:ait,
13:u:billetterie,
7:u:salle,
11:u:spectacle,
8:u:quelqu,
9:u:entrée,
9:u:décide,
5:u:pot,
9:u:souhait,
6:u:pots,
5:u:so-,
14:u:conférences,
9:u:débats,
8:u:budget,
10:u:organise,
4:u:l-,
14:u:installation,
11:u:matériel,
5:u:mai,
6:u:main,
7:u:place,
8:u:tables,
9:u:chaises,
9:u:caetera,
6:u:okay,
8:u:compte,
5:u:mon,
8:u:agenda,
11:u:organiser,
7:u:serai,
6:u:mer-,
7:u:jusqu,
7:u:aider,
11:u:théâtre,
7:u:souci,
7:u:point,
15:u:interrogation,
10:u:partiras,
10:u:viendrai,
11:u:resterais,
8:u:serait,
8:u:quelle,
6:u:acc-,
6:u:tous,
11:u:mercredis,
8:u:fermé,
6:u:fini,
11:u:sûrement,
5:u:au-,
6:u:aura,
13:u:sollicitera,
7:u:votre,
9:u:atelier,
9:u:combien,
7:u:durer,
9:u:sachant,
9:u:numéro,
12:u:disponible,
5:u:dix,
6:u:huit,
13:u:conférence,
6:u:lieu,
8:u:rapide,
12:u:tranquille,
8:u:plaît,
9:u:horaire,
7:u:coût,
10:u:soixante,
7:u:euros,
8:u:blague,
10:u:comprise,
9:u:parlait,
9:u:fautive,
8:u:parlez,
8:u:fautif,
11:u:problème,
12:u:organisera,
9:u:acheter,
13:u:cacahuètes,
10:u:boissons,
8:u:suffit,
7:u:voyez,
8:u:choses,
8:u:débat,
11:u:organisez,
4:u:v-,
12:u:rencontrez,
6:u:plan,
7:u:suite,
9:u:contenu,
5:u:doc,
12:u:distribuer,
10:u:vacances,
8:u:quinze,
7:u:jours,
5:u:va-,
9:u:pendant,
7:u:avril,
12:u:travailler,
5:u:com,
9:u:diffuse,
9:u:affaire,
7:u:roule,
7:u:poser,
10:u:question,
15:u:communication,
9:u:support,
8:u:facile,
9:u:plutôt,
10:u:diffuser,
9:u:ensuite,
10:u:imaginer,
9:u:journal,
6:u:veut,
9:u:toucher,
12:u:population,
7:u:voter,
12:u:absolument,
10:u:sensible,
9:u:départ,
12:u:communique,
12:u:brouillard,
9:u:connais,
11:u:travaille,
8:u:Europe,
7:u:lieux,
15:u:prédilection,
7:u:doute,
8:u:public,
8:u:trouve,
9:u:verrais,
9:u:espèce,
7:u:tract,
11:u:immeubles,
9:u:boîtes,
9:u:lettres,
10:u:quartier,
7:u:abord,
8:u:toutes,
12:u:activités,
15:u:systématique,
7:u:coupe,
12:u:aléatoire,
9:u:voisins,
6:u:cent,
12:u:locataires,
11:u:viendront,
7:u:elles,
13:u:condamnées,
9:u:motivé,
9:u:sportif,
13:u:parenthèse,
6:u:avez,
8:u:idées,
14:u:illuminantes,
10:u:hésitez,
8:u:membre,
7:u:verra,
13:u:facturation,
9:u:facture,
12:u:aujourdhui,
8:u:pardon,
10:u:terminé,
10:u:rentrée,
11:u:nutrition,
6:u:gens,
10:u:viennent,
5:u:MJC,
6:u:Oul-,
9:u:Oullins,
11:u:personnes,
10:u:seraient,
9:u:octobre,
7:u:dates,
4:u:i-,
11:u:envisager,
8:u:saison,
9:u:courant,
6:u:juin,
9:u:juillet,
11:u:réserver,
7:u:trucs,
10:u:prépare,
6:u:fixe,
10:u:dérange,
5:u:air,
11:u:derrière,
6:u:pote,
10:u:Bastille,
9:u:écoute,
7:u:diras,
9:u:répond,
13:u:téléphone,
10:u:réponds,
9:u:paraît,
6:u:part,
10:u:appelée,
9:u:demande,
10:u:regardes,
9:u:entends,
7:u:reçu,
10:u:messages,
9:u:appelé,
10:u:dimanche,
8:u:excuse,
15:u:crémaillère,
11:u:présente,
9:u:essayé,
13:u:rencontrée,
5:u:ja-,
9:u:pouvait,
8:u:passer,
8:u:venait,
11:u:repartait,
8:u:rendus,
9:u:pouvoir,
11:u:descendre,
8:u:penses,
9:u:suivant,
10:u:faisable,
9:u:bonsoir,
7:u:merci,
9:u:restés,
10:u:nombreux,
8:u:soucis,
8:u:emploi,
11:u:cinquante,
9:u:minutes,
10:u:exprimer,
7:u:court,
6:u:bref,
14:u:synthétique,
13:u:géographie,
9:u:science,
11:u:synthèse,
10:u:quarante,
6:u:cinq,
11:u:comprenez,
12:u:véritable,
7:u:défi,
8:u:lancé,
11:u:excuserez,
10:u:certains,
9:u:aspects,
9:u:pourrai,
11:u:évidence,
6:u:tard,
10:u:ailleurs,
5:u:lie,
7:u:utile,
11:u:agréable,
8:u:lorsqu,
12:u:géographe,
11:u:ruraliste,
7:u:vigne,
5:u:vin,
16:u:généralement,
9:u:termine,
9:u:chanson,
7:u:caves,
7:u:force,
14:u:dégustation,
8:u:ferons,
10:u:heureuse,
12:u:accueillir,
9:u:travaux,
11:u:pratiques,
9:u:reconnu,
9:u:panneau,
8:u:UNESCO,
5:u:Val,
7:u:Loire,
11:u:essentiel,
10:u:discours,
8:u:porter,
10:u:quelques,
14:u:définitions,
16:u:mondialisation,
11:u:reprendre,
10:u:définit,
13:u:représente,
11:u:notamment,
9:u:Laurent,
10:u:Carroué,
14:u:actuellement,
12:u:président,
9:u:respon-,
7:u:CAPES,
12:u:territoire,
9:u:inscrit,
13:u:géographes,
9:u:discute,
10:u:juristes,
12:u:également,
14:u:économistes,
10:u:manière,
12:u:présenter,
13:u:territoires,
11:u:simplifie,
11:u:Alexandre,
7:u:Moine,
7:u:mille,
14:u:interactions,
7:u:entre,
9:u:acteurs,
8:u:espace,
15:u:géographique,
6:u:cela,
10:u:reprends,
4:u:p-,
10:u:anglaise,
8:u:Jancis,
10:u:Robinson,
9:u:assiste,
11:u:mouvement,
11:u:diffusion,
9:u:passion,
14:u:consommation,
12:u:incroyable,
9:u:limites,
8:u:dirais,
12:u:oekoumène,
10:u:planète,
9:u:extrait,
11:u:contraire,
13:u:rétraction,
6:u:pays,
20:u:traditionnellement,
15:u:consommateurs,
13:u:producteurs,
14:u:exportateurs,
7:u:sorte,
15:u:contradiction,
6:u:ceci,
6:u:lié,
7:u:voulu,
9:u:montrer,
6:u:quel,
6:u:sens,
10:u:sérieux,
7:u:cirer,
7:u:tirer,
10:u:citation,
9:u:écrite,
14:u:circonstance,
8:u:écris,
10:u:articles,
12:u:simplement,
12:u:retiendrai,
9:u:dernier,
11:u:élément,
12:u:comprendre,
15:u:effectivement,
13:u:référence,
8:u:essaye,
13:u:présentent,
14:u:vitivinicole,
11:u:société,
16:u:intermédiaire,
9:u:actions,
14:u:informations,
11:u:remontent,
12:u:éléments,
12:u:permettent,
9:u:paysage,
16:u:véritablement,
7:u:image,
9:u:visible,
9:u:renvoie,
6:u:leur,
9:u:surface,
11:u:terrestre,
8:u:niveau,
13:u:négociants,
14:u:commerçants,
20:u:interprofessionnel,
15:u:professionnel,
11:u:gravitent,
8:u:autour,
13:u:fondamental,
11:u:important,
13:u:exportation,
13:u:importation,
12:u:production,
9:u:gestion,
5:u:AOC,
5:u:AOP,
7:u:rôle,
13:u:grandissant,
9:u:veulent,
9:u:prendre,
7:u:poids,
9:u:excusez,
13:u:directement,
16:u:problématique,
7:u:quels,
9:u:moteurs,
8:u:freins,
11:u:expansion,
8:u:mesure,
13:u:considérer,
8:u:France,
8:u:remise,
11:u:approches,
11:u:proposent,
9:u:optique,
14:u:territoriale,
9:u:insiste,
9:u:traiter,
6:u:cel-,
11:u:certaines,
10:u:prévues,
9:u:thèmes,
14:u:événements,
12:u:fondateurs,
8:u:parler,
7:u:mythe,
11:u:fondateur,
12:u:archétype,
12:u:historique,
9:u:puisque,
10:u:suggère,
11:u:fortement,
12:u:rechercher,
13:u:différents,
8:u:seuils,
16:u:chronologiques,
8:u:amené,
13:u:évolutions,
7:u:près,
9:u:produit,
11:u:seulement,
10:u:agricole,
10:u:culturel,
11:u:religieux,
8:u:relier,
10:u:religion,
13:u:chrétienne,
9:u:assuré,
4:u:eu,
8:u:série,
8:u:crises,
15:u:fondamentales,
11:u:neuvième,
9:u:siècle,
12:u:entraîné,
11:u:création,
14:u:appellations,
9:u:origine,
13:u:contrôlée,
15:u:rapprochement,
8:u:points,
6:u:vins,
9:u:terroir,
9:u:cépage,
9:u:banquet,
8:u:Platon,
14:u:fondamentaux,
8:u:quête,
10:u:vérité,
11:u:évoquent,
11:u:symposium,
6:u:grec,
10:u:convives,
9:u:passent,
10:u:cratère,
8:u:lequel,
5:u:eau,
6:u:font,
8:u:éloge,
7:u:amour,
6:u:lors,
10:u:banquets,
9:u:lancent,
8:u:défis,
10:u:essayent,
12:u:apprécié,
7:u:ainsi,
5:u:né,
12:u:guillemets,
17:u:interprétation,
13:u:personnelle,
9:u:permets,
13:u:philosophie,
8:u:Grèce,
7:u:verre,
5:u:re-,
11:u:retrouver,
7:u:tiens,
11:u:préciser,
9:u:vivante,
8:u:notée,
8:u:propos,
10:u:Arménie,
12:u:Françoise,
11:u:Ardillier,
10:u:chansons,
11:u:réponses,
5:u:sud,
7:u:ouest,
11:u:français,
9:u:exemple,
10:u:revenant,
10:u:Bidarray,
12:u:connaissez,
8:u:voulez,
8:u:mangé,
4:u:bu,
10:u:ensemble,
10:u:commence,
9:u:strophe,
6:u:doit,
10:u:terminer,
5:u:mot,
10:u:internet,
8:u:verrez,
12:u:insisterai,
10:u:oreilles,
12:u:pourraient,
11:u:supporter,
10:u:origines,
14:u:caucasiennes,
14:u:fondamenteur,
7:u:noces,
6:u:Cana,
9:u:travers,
9:u:tableau,
12:u:Véronèse,
14:u:interpréter,
4:u:lu,
11:u:Évangile,
6:u:Jean,
13:u:personnages,
7:u:clés,
8:u:jeunes,
9:u:mariés,
8:u:marié,
7:u:femme,
9:u:mariée,
6:u:coin,
8:u:contre,
8:u:donné,
8:u:durant,
6:u:vint,
9:u:manquer,
7:u:grave,
8:u:erreur,
9:u:parents,
7:u:rater,
7:u:leurs,
7:u:Marie,
12:u:intervient,
17:u:personnellement,
8:u:Jésus,
10:u:signifie,
11:u:implicite,
8:u:oeuvre,
10:u:réclame,
7:u:venue,
11:u:attention,
10:u:réponse,
11:u:serviteur,
6:u:dira,
9:u:remplir,
8:u:jarres,
10:u:apporter,
9:u:maître,
13:u:cérémonie,
10:u:changée,
16:u:extraordinaire,
14:u:fondamentale,
16:u:transformation,
12:u:exégètes,
8:u:disent,
15:u:premièrement,
6:u:agit,
13:u:institution,
13:u:eucharistie,
11:u:sacrifice,
7:u:croix,
6:u:dont,
8:u:verser,
6:u:sang,
11:u:humanité,
6:u:pain,
12:u:considère,
7:u:vraie,
12:u:nourriture,
9:u:boisson,
7:u:envie,
9:u:rapport,
13:u:thématique,
11:u:proposée,
8:u:sommes,
6:u:ange,
9:u:ressort,
10:u:extraits,
8:u:sortir,
19:u:caractéristiques,
9:u:aliment,
8:u:festif,
7:u:objet,
14:u:civilisation,
19:u:méditerranéenne,
8:u:certes,
8:u:judéo,
10:u:tendance,
8:u:perdre,
11:u:influence,
7:u:perdu,
8:u:aspect,
10:u:continue,
8:u:garder,
7:u:modes,
9:u:changé,
12:u:auparavant,
10:u:buvaient,
17:u:régulièrement,
11:u:coupaient,
15:u:particulière,
14:u:disparaître,
8:u:grande,
9:u:vitesse,
9:u:plupart,
9:u:disparu,
12:u:bataillons,
9:u:paysans,
11:u:autrefois,
10:u:ouvriers,
10:u:courante,
15:u:complètement,
14:u:transmission,
7:u:inch-,
24:u:intergénérationnelle,
11:u:quasiment,
6:u:rite,
9:u:faisait,
9:u:famille,
7:u:père,
11:u:tellement,
7:u:pater,
10:u:familial,
11:u:apprenait,
5:u:ses,
9:u:enfants,
8:u:buvait,
6:u:âge,
6:u:clé,
13:u:commençait,
11:u:commencer,
10:u:explique,
11:u:Bourgogne,
7:u:rouge,
12:u:forcément,
10:u:approche,
12:u:intronisé,
6:u:fée,
11:u:sorcière,
8:u:Marine,
8:u:vivait,
6:u:haut,
7:u:nuage,
10:u:château,
7:u:tours,
9:u:dorées,
8:u:reçut,
10:u:baguette,
9:u:magique,
7:u:bête,
8:u:patins,
11:u:roulettes,
7:u:magi-,
8:u:simple,
9:u:rollers,
10:u:pourrais,
8:u:casser,
5:u:nez,
9:u:tombant,
7:u:digne,
8:u:cadeau,
10:u:recevoir,
8:u:bateau,
9:u:exclama,
10:u:basculer,
6:u:robe,
13:u:dégoutante,
9:u:chapeau,
7:u:jeter,
7:u:fées,
10:u:devaient,
11:u:gentilles,
9:u:propres,
8:u:tartes,
9:u:miettes,
6:u:thé,
11:u:renverser,
7:u:tache,
10:u:raconter,
6:u:voix,
12:u:mielleuses,
11:u:histoires,
8:u:douces,
9:u:tendres,
8:u:agiter,
5:u:ca-,
9:u:gâteau,
6:u:beau,
8:u:cerise,
10:u:trouvait,
14:u:terriblement,
12:u:ennuyeuses,
17:u:malheureusement,
10:u:bouillo-,
9:u:bouill-,
11:u:bouillote,
11:u:théière,
12:u:sorcières,
9:u:avaient,
7:u:salir,
7:u:crier,
9:u:patiner,
10:u:naviguer,
6:u:bord,
6:u:jour,
10:u:sursauta,
9:u:horreur,
8:u:écria,
9:u:devrais,
7:u:honte,
8:u:frappa,
6:u:pied,
7:u:hurla,
10:u:certaine,
15:u:approchèrent,
8:u:dirent,
11:u:horribles,
12:u:crâneuses,
12:u:concoctent,
9:u:potions,
13:u:dangereuses,
13:u:transformer,
9:u:crapaud,
5:u:fit,
9:u:devenir,
8:u:existe,
8:u:règle,
8:u:gronda,
8:u:docile,
10:u:soignée,
9:u:insista,
11:u:répliqua,
10:u:furieuse,
9:u:endroit,
6:u:bois,
9:u:soupira,
10:u:envolant,
9:u:regarda,
9:u:tardera,
8:u:envole,
9:u:cliques,
9:u:claques,
7:u:vivre,
10:u:trompait,
11:u:convenait,
14:u:parfaitement,
13:u:construisit,
12:u:magnifique,
8:u:cabane,
8:u:duquel,
9:u:navigua,
10:u:rivière,
9:u:nourrir,
10:u:cueillit,
7:u:baies,
11:u:noisettes,
10:u:étaient,
11:u:adorables,
8:u:prêta,
5:u:mit,
12:u:serpentant,
8:u:arbres,
7:u:belle,
7:u:patin,
7:u:tête,
7:u:longs,
8:u:noeuds,
6:u:cro-,
9:u:crochus,
11:u:justement,
8:u:crochu,
9:u:marrant,
8:u:offrit,
7:u:jeune,
7:u:fille,
7:u:balai,
10:u:flambant,
11:u:aussitôt,
8:u:voulut,
11:u:apprendre,
7:u:voler,
10:u:empoigna,
7:u:engin,
8:u:grimpa,
7:u:arbre,
16:u:encouragèrent,
7:u:sauta,
7:u:resta,
11:u:suspendue,
6:u:airs,
9:u:écrasa,
5:u:sol,
7:u:pensa,
10:u:redressa,
8:u:essaya,
9:u:nouveau,
6:u:bout,
9:u:parvint,
14:u:applaudirent,
8:u:rompre,
8:u:volant,
10:u:effleura,
10:u:renversa,
6:u:seau,
5:u:jus,
11:u:groseille,
14:u:soupirèrent,
9:u:trouves,
10:u:chapeaux,
9:u:pointus,
6:u:noir,
7:u:moche,
13:u:cuisinière,
10:u:marrante,
8:u:fonça,
11:u:direction,
6:u:ciel,
6:u:cria,
7:u:viens,
8:u:tenait,
8:u:debout,
5:u:eut,
9:u:souffle,
8:u:coupé,
11:u:effrayée,
9:u:devenue,
7:u:folle,
10:u:atterrit,
9:u:douceur,
7:u:riant,
8:u:appris,
11:u:construit,
10:u:navigué,
12:u:formidable,
11:u:élection,
5:u:Lot,
9:u:Garonne,
17:u:circonscription,
14:u:législative,
11:u:partielle,
11:u:siègeait,
8:u:jusque,
10:u:Jérôme,
9:u:Cahuzac,
8:u:ancien,
10:u:ministre,
12:u:désormais,
8:u:fraude,
9:u:fiscale,
8:u:Suisse,
11:u:déclaré,
6:u:fisc,
9:u:dirigé,
15:u:démissionné,
8:u:siège,
10:u:député,
9:u:fallait,
10:u:pourvoir,
5:u:UMP,
10:u:emporté,
6:u:face,
10:u:candidat,
7:u:Front,
10:u:National,
5:u:six,
7:u:score,
7:u:large,
6:u:tant,
15:u:participation,
8:u:faible,
7:u:cents,
8:u:écart,
8:u:hommes,
14:u:relativement,
8:u:serré,
6:u:duel,
9:u:leçons,
12:u:politiques,
10:u:Bertrand,
9:u:Lacoste,
4:u:FN,
11:u:présence,
8:u:second,
7:u:terre,
9:u:certain,
10:u:diverses,
13:u:réflexions,
7:u:surgi,
10:u:occasion,
8:u:côté,
4:u:PS,
10:u:laissent,
10:u:perplexe,
7:u:quant,
6:u:tire,
9:u:entend-,
13:u:évidemment,
10:u:réjouir,
11:u:candidats,
12:u:dirigeants,
8:u:tenter,
9:u:quelles,
9:u:raisons,
12:u:éliminés,
9:u:premier,
7:u:effet,
14:u:candidatures,
6:u:pea-,
14:u:parasitaires,
8:u:isoler,
12:u:Villeneuve,
12:u:partielles,
11:u:dérouler,
12:u:desquelles,
11:u:symptôme,
9:u:malaise,
15:u:considérable,
8:u:droite,
6:u:taux,
12:u:abstention,
11:u:démontre,
14:u:intéressent,
6:u:type,
8:u:joutes,
12:u:désespoir,
5:u:tel,
11:u:anxiété,
7:u:telle,
16:u:découragement,
10:u:proposé,
7:u:offre,
11:u:politique,
11:u:déplacer,
8:u:soient,
8:u:enjeux,
9:u:époque,
10:u:venaient,
7:u:untel,
9:u:aujourd,
5:u:hui,
15:u:tétanisation,
11:u:situation,
12:u:totalement,
15:u:désespérés,
14:u:extrêmement,
13:u:inquiétant,
10:u:dirigent,
10:u:prennent,
5:u:ts-,
10:u:tsunamis,
13:u:progressifs,
12:u:retombées,
12:u:répliques,
10:u:secouent,
5:u:kl-,
4:u:r-,
8:u:pourra,
14:u:explications,
10:u:allusion,
7:u:front,
14:u:républicain,
8:u:posais,
14:u:introduction,
6:u:mort,
17:u:définitivement,
8:u:Gauche,
11:u:Écologie,
11:u:général,
11:u:classique,
11:u:députés,
9:u:remette,
7:u:notre,
12:u:stratégie,
7:u:appel,
6:u:sein,
7:u:parti,
12:u:socialiste,
7:u:Louis,
9:u:Bernard,
11:u:agonisant,
8:u:amener,
5:u:soi,
12:u:électeurs,
13:u:électrices,
14:u:propositions,
6:u:mode,
5:u:vie,
8:u:morale,
10:u:regardez,
10:u:souvenez,
9:u:traité,
11:u:européen,
9:u:médias,
9:u:élites,
11:u:pensantes,
7:u:voté,
12:u:importante,
18:u:circonscriptions,
8:u:Loiret,
9:u:circon-,
7:u:ordre,
9:u:absten-,
12:u:élections,
7:u:route,
6:u:fort,
8:u:claque,
8:u:aucune,
10:u:triomphe,
7:u:grand,
9:u:gagnant,
14:u:reconnaître,
6:u:dieu,
11:u:positions,
6:u:anti,
9:u:radical,
9:u:succès,
11:u:engrangé,
8:u:nombre,
10:u:victoire,
12:u:symbolique,
7:u:voire,
13:u:médiatique,
6:u:avis,
13:u:municipales,
11:u:capacité,
10:u:nuisance,
4:u:b-,
4:u:z-,
14:u:européennes,
13:u:socialistes,
8:u:risque,
7:u:Modem,
5:u:UDI,
8:u:change,
8:u:crains,
10:u:marchait,
9:u:Jacques,
8:u:Chirac,
9:u:réélu,
5:u:Pen,
8:u:Hassan,
7:u:Kerim,
11:u:résultat,
5:u:rue,
6:u:faux,
11:u:persuadé,
8:u:gauche,
11:u:questions,
8:u:posent,
16:u:compatibilité,
9:u:unités,
8:u:statut,
13:u:sémantique,
14:u:morphologues,
12:u:défendent,
7:u:signe,
12:u:saussurien,
9:u:affixes,
12:u:polysémie,
8:u:traite,
12:u:générale,
9:u:simples,
14:u:linguistique,
6:u:syn-,
11:u:expliqué,
5:u:en-,
13:u:pragmatique,
8:u:morpho,
9:u:claires,
12:u:explicites,
8:u:trois-,
8:u:puisse,
12:u:consacrée,
10:u:méthode,
12:u:synchronie,
12:u:diachronie,
8:u:aborde,
11:u:intuition,
12:u:intuitives,
13:u:morphologie,
10:u:énoncé,
9:u:globale,
4:u:u-,
13:u:plurisémie,
15:u:multiplicité,
9:u:strates,
18:u:interprétatives,
11:u:morphème,
12:u:flexionnel,
13:u:unisémique,
16:u:pluristratique,
10:u:évitant,
11:u:théories,
14:u:différentes,
12:u:décrivent,
9:u:chacune,
8:u:strate,
13:u:différente,
10:u:opposent,
6:u:unes,
9:u:malheur,
11:u:consacrer,
9:u:séance,
12:u:difficiles,
11:u:résolues,
10:u:apparait,
8:u:étant,
14:u:compliquées,
8:u:celles,
21:u:polycatégorialité,
12:u:traitement,
20:u:polycatégorielles,
9:u:lexique,
13:u:catégoriel,
10:u:matière,
11:u:confiance,
13:u:imagination,
8:u:servir,
8:u:sortes,
12:u:problèmes,
10:u:aimerait,
8:u:semble,
13:u:expérience,
14:u:sémanticien,
13:u:morphologue,
11:u:évidente,
11:u:sentiment,
12:u:prospectif,
10:u:chantier,
13:u:modérateur,
11:u:François,
8:u:carré,
12:u:immodéré,
11:u:agitateur,
12:u:commencent,
8:u:fermer,
6:u:oeil,
12:u:intervenir,
14:u:flexionnelle,
6:u:mots,
12:u:différent,
13:u:traitements,
11:u:méthodes,
9:u:relève,
10:u:principe,
8:u:Claude,
10:u:position,
14:u:dégueulasse,
13:u:réfléchir,
10:u:bêtises,
11:u:procédé,
7:u:banal,
10:u:consiste,
14:u:apparaissent,
12:u:virtuelles,
13:u:quelquefois,
11:u:énoncés,
10:u:virtuels,
7:u:gêne,
15:u:sémanticiens,
10:u:évoqué,
10:u:rotation,
13:u:indéniable,
7:u:rotor,
9:u:rotatif,
11:u:rotatoire,
9:u:rotonde,
7:u:rôti,
9:u:postule,
6:u:base,
17:u:matériellement,
5:u:ose,
7:u:verbe,
7:u:roter,
12:u:imaginaire,
5:u:se-,
6:u:sert,
14:u:archimodèle,
8:u:machin,
9:u:modèle,
14:u:lexématique,
11:u:reconnait,
7:u:rotat,
11:u:associée,
9:u:lexème,
11:u:réaliser,
10:u:autonome,
10:u:lexicale,
11:u:locuteurs,
13:u:permettrait,
8:u:former,
10:u:nouveaux,
6:u:ét-,
13:u:appartenant,
8:u:proche,
11:u:filiation,
9:u:directe,
12:u:hypothèse,
11:u:paradigme,
7:u:parle,
12:u:structures,
17:u:intériorisées,
12:u:prédateur,
12:u:prédation,
12:u:construits,
14:u:fonctionnent,
8:u:parent,
8:u:direct,
9:u:existé,
14:u:contemporain,
4=0x1.6b94364e9bec3p-1
5=-0x1.38a0e8d62dbf2p+0
6=-0x1.59a82009cc0b7p+0
7=0x1.6748fe71691ddp-1
8=0x1.2616e087d8b84p-2
9=-0x1.5a1726bfd5e84p-4
10=-0x1.5a28b1c5d93d5p-6
11=-0x1.755f167808dd1p-6
12=0x1.5f00fb410f506p-6
13=0x1.fedb0f8ef080ep-3
14=-0x1.1dc6fa71ddfb2p-4
15=-0x1.09b393e910283p-3
16=-0x1.422b2453ce567p-7
17=0x1.b48dcb4f4cf9cp-4
18=-0x1.3cd256f49ea16p-5
19=-0x1.8bc41a7666034p-4
20=-0x1.499a677fb2d88p-4
21=0x1.3cc46989c105ap-2
22=-0x1.2728ca8d1db6bp-4
23=-0x1.925092a68cbf8p-2
24=-0x1.2ab7c4e6e5311p-5
25=0x1.b833852b84c9ap-3
26=-0x1.5b444afa2c9f9p-4
27=-0x1.5697c48450e32p-3
28=-0x1.aaf26a62a633cp-9
29=0x1.1b42e0e11c9dap-2
30=-0x1.be4a8653ba31p-6
31=-0x1.01d6c880b577fp-2
32=-0x1.3170c222b50f1p+0
33=0x1.512c85e4f2ca6p+0
34=-0x1.c8a19b8c18a2p-5
35=-0x1.44f8d727fd72bp-2
36=-0x1.4a6ba6d019623p+2
37=0x1.406730fd7f2b4p+0
38=0x1.3e07bb91e5fc6p+0
39=-0x1.6c16fcf02d337p+0
40=0x1.684536fbfad5cp+1
41=-0x1.407bf7a9a3093p+2
42=-0x1.02bca308c09b2p+0
43=0x1.651017415c698p-3
44=0x1.19ce43b92c519p-1
45=-0x1.af27b6726901cp+0
46=-0x1.62e3f17798354p-2
47=-0x1.112547fd33bd4p-5
48=-0x1.0c144eb08ae4p-9
49=0x1.1f5c1acfef77cp-2
50=-0x1.b44ce18585dfep-3
51=-0x1.0d9b5391ae32bp-2
52=-0x1.2b6d10b3081d1p+0
53=-0x1.193f5b2493b53p+0
54=0x1.d08da5545dd3p-1
55=0x1.4c4ccb8de871dp-1
56=0x1.bc69ceaede44ap-4
57=-0x1.61fc4a5c0cd6cp-3
58=0x1.228650e58328ep-8
59=0x1.c7935ebc658d4p-7
60=0x1.b93631e64a0e1p-6
61=0x1.7c528be6b8abep-3
62=-0x1.46ad92af907b6p-4
63=-0x1.a7bfb8f8f5d09p-3
64=0x1.72f136aaf34efp-4
65=-0x1.5124302c15523p-3
66=0x1.13e129b490e45p-4
67=-0x1.891c1afb6bd5bp-8
68=0x1.3ca91a83f99d3p-4
69=-0x1.a9b1d4efafc8bp-4
70=0x1.f590f02d9191p-5
71=-0x1.4e0447f9b567dp-5
72=-0x1.12058fd58abbdp-5
73=0x1.420958b42eb0ap-2
74=-0x1.aa851b9f725adp-5
75=-0x1.1428ee1c117f1p-4
76=-0x1.5d002cde35c83p-6
77=0x1.e8cae47edc8p-5
78=-0x1.ff1d9ba18359ep-8
79=-0x1.f5c5e65525c0dp-4
80=0x1.4350d9a465837p-4
81=-0x1.c07cb8900bfd5p-6
82=0x1.01edd7db77205p-7
83=-0x1.4179d14c0149ap-4
84=0x1.4b5e5cd04afeap-18
85=-0x1.a880b3849bc59p-8
86=0x1.0012c87b7a19dp-7
88=0x1.8093f0af5fa03p-6
89=-0x1.a00ae4ea730dfp-4
90=0x1.d92fe41d42b24p-6
91=0x1.403b8e1cd68cfp-8
92=-0x1.7071571f7dbf8p-6
93=0x1.d7d17d7f5db95p-4
94=0x1.5164905e1298cp-5
95=-0x1.e8cb97cb4f62ep-3
96=0x1.5d7874d24b1b8p-3
97=-0x1.bd1ddb8df93c4p-4
98=-0x1.76ebf1a1b9df5p-7
99=-0x1.0160e55ee5d39p-4
100=-0x1.eda2b68ebc3ccp-12
101=0x1.e6d8b840dcd2ep-7
104=-0x1.61e8f45ac1ffbp-5
105=0x1.843775ade1c0fp-4
106=-0x1.63ee805dcf742p-9
107=-0x1.b9afc26d412acp-10
108=0x1.277fa1f5e9ed2p-6
109=-0x1.d42db4254a802p-5
110=0x1.2e68a22112b7fp-6
112=0x1.290537082c3c5p-6
113=-0x1.d5cb233e4bee1p-5
114=0x1.307062f83c639p-6
116=0x1.1ad0aef0a1de3p-4
117=-0x1.dde887aa06f75p-4
119=0x1.8ea63c6f74aa1p-7
120=-0x1.18c2e63d21c4ap-3
121=0x1.160258918037cp-1
122=-0x1.cfa8ebd49f818p-3
123=-0x1.39574f98df842p-6
124=-0x1.f269f805afe8ep-11
125=0x1.96e15212d6975p-6
126=-0x1.8c67ca1f77bd7p-7
127=-0x1.527d525f53b08p-7
128=-0x1.5e33c0755fbb8p-6
129=0x1.78e8d8296c446p-2
130=-0x1.d99bf9ecb14edp-3
131=-0x1.0d1bcb8204803p-7
132=-0x1.0e808e579854fp-4
133=0x1.43eb2f95e9e3fp-2
134=-0x1.515f1c794706ep-3
135=-0x1.7fac6b5b20c77p-8
136=-0x1.9eb0989c12065p-6
137=-0x1.358e0b9d109bdp-6
138=0x1.f04f8167270b5p-5
140=-0x1.f7fc0e423aadfp-10
141=0x1.0711d93795f6dp-5
142=-0x1.0b832180025bap-10
144=-0x1.e2b244de29bffp-7
145=0x1.f6f07d1940cdbp-7
146=0x1.ae4db88dd685p-9
147=-0x1.11bb252337f17p-8
149=0x1.1dd51fcd27bddp-7
152=0x1.df43ea36f19f8p-10
154=-0x1.6d5dca36ae7dep-6
155=0x1.e4a92f2902635p-6
156=-0x1.bae64779ed174p-6
157=0x1.0df0233a13e35p-5
168=0x1.11bc68736b07ap-7
169=-0x1.3ac512233b2d2p-4
170=0x1.301198472c44dp-8
172=0x1.e7e3e59e6a0bcp-7
173=-0x1.8443bc339a88bp-4
174=0x1.3e62c502734ecp-4
175=-0x1.9d81fc31af238p-8
176=-0x1.0b7c2c8f4fe04p-4
177=0x1.480bacdcba9b5p-2
178=0x1.73c08b2ee75b2p-4
179=-0x1.69eb438cd0e21p-2
180=-0x1.944902b84ce81p-5
181=0x1.7e5541a0fa37bp-3
182=-0x1.2c4c28ecd26ccp-7
183=-0x1.e3ec73167338ap-3
184=0x1.4c56f3da85a49p-5
185=-0x1.549017f5ee226p-3
186=0x1.02b93cbe79a23p-3
187=-0x1.079aa2187bf2p-8
188=-0x1.d3140223340bcp-4
189=0x1.fbd4dcce85d9ap-4
190=0x1.387681ead4373p-11
191=-0x1.8964017458a7dp-5
192=-0x1.5fc77e11780acp-4
193=0x1.22419ea4c99fcp-3
194=-0x1.b9b0b1b99ed16p-8
195=-0x1.c0717d81f6e42p-8
196=-0x1.c685058d38d28p-10
197=0x1.9c34b7eb9e736p-7
198=-0x1.6e8d7504e1bfp-7
199=0x1.fccc3b72b2d71p-7
200=0x1.05e73f682230dp-4
201=-0x1.f808b50b0bcdep-4
202=0x1.8eba9ed2b0fe8p-5
203=-0x1.b70cf0a5ee1a3p-9
204=-0x1.31d7ab3bf9074p-3
205=0x1.a2d594fb9377dp-2
206=-0x1.26dc22daa98fdp-3
207=-0x1.07d5864f0898ep-4
208=-0x1.d309d4dcefaccp-4
209=0x1.d88d2aa85e053p-3
210=-0x1.cddecf4aeb431p-7
211=-0x1.92c08222930e2p-5
212=-0x1.f73b586a92d2ep-7
213=0x1.0885831343323p-4
214=-0x1.4de7a3d83314ep-7
216=0x1.d4d9afbcc1072p-8
217=0x1.4940dea67f539p-7
218=-0x1.823f9bdffa064p-7
219=-0x1.4e4be96c05a3p-9
221=0x1.d3c23177f7f92p-6
222=-0x1.37187145657fep-6
224=-0x1.4e9603d33aadcp-6
225=0x1.115d9ac13deacp-2
226=-0x1.61ae126215eaep-4
227=-0x1.e71e9fb0eca88p-3
228=-0x1.40cc2bbd5c0e5p-5
229=0x1.474a524d6a546p-2
230=-0x1.d8886107b6ba9p-4
231=-0x1.7a891d33a224dp-4
232=0x1.81c5c8fdc03cp-19
233=0x1.b40250f5c23d2p-10
234=-0x1.409e54e343d56p-8
235=0x1.4aef160ffe44ap-13
236=-0x1.866d47343600cp-8
237=0x1.9892ff3ca3ecbp-3
238=-0x1.dab0cbdd6a109p-4
239=-0x1.0c991ddbcb2cp-8
240=-0x1.6fa0e47125dd4p-14
241=0x1.b7aff1d190bbcp-7
244=-0x1.642215f4e2e04p-4
245=0x1.9accd99afeb9dp-3
246=-0x1.2d30f1833b756p-4
247=0x1.12b7081df94a2p-8
248=-0x1.7c83d26aae4b6p-8
249=0x1.bdf86c63ad163p-5
250=-0x1.15cf6c3b053aep-7
251=-0x1.cb073a642fa29p-4
252=-0x1.6aaf65fb353b3p-2
253=0x1.7206f8ced253p-2
254=-0x1.18be3f94b38fdp-6
255=-0x1.c1ad7128d06c7p-6
260=0x1.2aeb5f64b5cb3p-6
261=-0x1.dc0da2764ac43p-5
262=0x1.bf2dbbf317f86p-5
263=-0x1.d95374d4c54c7p-7
264=0x1.c702d6a37c084p-6
265=-0x1.53104f01385dap-1
266=0x1.45ac8e28980dap-9
267=0x1.80f09e14e0c5cp-1
268=0x1.7bb94cc5c1297p-3
269=-0x1.12239758692fp-2
270=0x1.251e4df73c2dap-4
272=-0x1.70ae4d77a78ccp-3
273=0x1.04adf84170576p-2
274=-0x1.3a08a283cd43ep-9
275=-0x1.e4d22a3d0954ep-7
276=-0x1.ccbea940af72dp-5
277=0x1.2fd5df0e89bcdp-3
278=-0x1.95f9d61ef4de1p-5
284=-0x1.f9cb99509e168p-6
285=0x1.45ce5df6d0c05p-5
293=0x1.fc3b6bf147687p-12
296=-0x1.85acaa4c31306p-3
297=0x1.114e57c5b349fp-3
298=0x1.b613278131fc2p-12
299=-0x1.bb3accd17714p-8
304=0x1.90265baf0be35p-7
305=-0x1.334e1c45f3037p-3
306=-0x1.06e05e44ba3a1p-9
307=0x1.4c9e3f668a487p-3
308=0x1.c2d2515be9643p-16
309=-0x1.38ddcba01bd5ap-7
312=-0x1.43c8e13b7ec9ap-5
313=0x1.0ef941f3b0ef9p-4
316=-0x1.49fe317fe00bfp-5
317=0x1.93b0e3c0394ecp-3
318=-0x1.7269b0ecd662bp-4
319=-0x1.a700e5d1522b1p-3
324=0x1.020abda113799p-6
325=-0x1.5b51ade463f7ap-5
326=0x1.3990d1605f98ep-6
328=0x1.f05a2f697fbdcp-6
329=0x1.6f05c3fec5af9p-2
330=-0x1.044a91ca44365p-8
331=-0x1.e29ec26e2b7ep-3
332=0x1.db3acb95332cep-6
333=0x1.0d9deacff0248p-4
334=-0x1.7de86e0cb87fap-6
335=-0x1.1508e988a202dp-4
336=-0x1.ec7c562a7499fp-5
337=0x1.0a9d7592f5051p-1
338=-0x1.caff1af78535fp-3
339=-0x1.0426fedb52a35p-3
340=-0x1.d5df73325e3p-14
341=-0x1.c9ebf4459db72p-6
342=0x1.c285f47301f34p-6
343=-0x1.4e31f25c003a4p-9
345=0x1.2ff99eee0a3ccp-10
349=0x1.ce66f6088c402p-14
352=-0x1.1ea036cb744dp-10
353=0x1.24a96cc057acep-4
354=-0x1.2357b48dbebbep-5
361=0x1.b870724347f72p-12
364=-0x1.210af64da3373p-3
365=0x1.3bc08b296ea76p-2
366=-0x1.269bee2c43df1p-4
367=-0x1.f2148b383fbc2p-8
372=0x1.e351dbd50b73bp-3
373=-0x1.7bfa7775b4786p-1
374=0x1.0e16b21e4f9bfp-2
375=0x1.61b23279377d6p-3
380=-0x1.17bb4ee0037cbp-5
381=0x1.63fb3bb7b8a41p-4
382=-0x1.82c7fef9fc816p-5
383=0x1.e6e4fb31b778fp-8
384=-0x1.ef0a8adde4424p-11
385=0x1.139dbf5498d85p-6
386=0x1.9e9ff4341c44p-10
387=-0x1.966aea15edd9p-8
389=0x1.d742827b15c62p-8
390=-0x1.4af257e06b153p-8
397=0x1.624dbe15ad7b7p-8
400=0x1.845973f3eda56p-14
401=-0x1.adcfbd8db9b8fp-6
402=0x1.43da14460ab4cp-5
403=-0x1.be94d98b8c756p-10
404=-0x1.44bc93de6675ap-9
405=0x1.778fbe1ceb3acp-5
406=0x1.f88e3d68cc7c4p-9
407=-0x1.db0d125414bcep-4
408=-0x1.c9adcc8117906p-7
409=0x1.4a9dd41a615c4p-6
410=0x1.885e536446374p-15
411=-0x1.b7de6fddb618cp-6
412=0x1.427c43f8fafe5p-8
413=-0x1.8b78bfe040634p-18
416=-0x1.d249daed50746p-6
417=0x1.5f29af823111bp-6
418=0x1.bfa9362ae518ap-12
419=-0x1.b5efe22460c2dp-6
425=0x1.07fe74e9ea3eap-11
428=0x1.90d9760aee868p-14
429=0x1.144fa869d02e3p-6
430=-0x1.025d4162661c7p-7
431=-0x1.6bc3e21258877p-8
432=-0x1.1c78d9ec3244ap-6
433=0x1.0547e2122c194p-8
434=0x1.9aae63bfbb05dp-5
435=0x1.37abda0cb6594p-8
440=-0x1.dff912a3eafecp-3
441=0x1.034a36873144fp-2
442=-0x1.d20b2283ed3dbp-9
443=-0x1.0ad67dd0eb6b6p-6
448=0x1.071a79dfda6cp-7
449=0x1.3a140f4b2826ep-7
450=-0x1.040d6ce09f91dp-5
451=-0x1.cf686afc384dcp-11
453=-0x1.210002a14f5c2p-4
455=0x1.62cb3062355e2p-4
460=-0x1.5041df96e4865p-11
461=0x1.b40720edae08ap-8
462=-0x1.f4589de35712ap-11
468=0x1.66382984622f4p-3
469=-0x1.04e9a3f3dbab5p-2
470=0x1.509f1cf7ede7p-4
471=-0x1.88414d1a445a3p-8
472=0x1.77710c0b07674p-10
473=0x1.4119f8f168fc2p-14
474=-0x1.c8210023b4cb2p-15
476=-0x1.d6f83e894613bp-7
477=0x1.f368b6e7f2aeap-5
478=-0x1.9b9d783bfa91p-7
484=-0x1.c950de197bf3cp-5
485=0x1.f4318669c9607p-4
486=-0x1.52e9a5f0f0cc9p-7
487=-0x1.509d0e2a3d25p-8
492=-0x1.3bfc62e525243p-4
493=0x1.870900e373073p-3
494=-0x1.30bfe4bf22f4ep-4
496=0x1.aa64b3d2d10d3p-6
497=-0x1.14ee411b6afc2p-4
498=0x1.3413bedb02eb2p-5
504=0x1.f78fde09336b7p-6
505=-0x1.d3fa8f27721fdp-8
506=-0x1.2af3d2a5d74cfp-9
507=-0x1.b8c0c52ba40dfp-8
517=0x1.b0ede37504c49p-9
520=-0x1.1e3bc7a3f2668p-10
521=0x1.18b87e94af17fp-4
522=-0x1.21fa413e285ap-5
524=-0x1.8af2939e4c139p-10
525=0x1.00abfa800df3ap-5
526=-0x1.0a8dbb7a62dcp-11
532=-0x1.3f893303937eep-7
533=0x1.c63d66bad6063p-9
536=0x1.ec61911211821p-9
537=-0x1.4b61278331932p-6
538=0x1.085c3ab2e74dp-9
548=0x1.0b54a7e146fedp-7
565=0x1.0bb24242930c4p-13
566=-0x1.02f57ab6ef5bap-8
567=0x1.0a1f50dde575bp-6
572=0x1.0ec40b48f6c2ap-16
574=-0x1.a58ca7d8f4169p-12
576=0x1.92647c326593fp-6
577=-0x1.e80f74cf8477p-11
578=-0x1.14bd67e66715ap-7
579=-0x1.4d08ee9998216p-9
581=0x1.530accf365f78p-13
584=-0x1.12f62f1170cccp-5
585=0x1.9440ee5be6a8p-4
586=-0x1.0291970a89184p-5
588=0x1.514f28cc92637p-4
589=-0x1.2c4726c839135p-4
590=0x1.ad8665436813ap-6
591=-0x1.3dbb7058d5582p-8
592=0x1.0eecb39b370f3p-6
593=-0x1.ffd87e46af538p-6
594=-0x1.92cbaf6352da2p-12
595=0x1.b277fd43f70c7p-7
600=0x1.d424ea89dd8fdp-5
601=-0x1.72304d9aae4ep-4
602=0x1.42a07e3942176p-5
604=-0x1.19e1483460e94p-11
605=0x1.f081596a4b0b7p-5
606=-0x1.dc435466d8896p-7
607=-0x1.3622192beb783p-6
608=0x1.7a45a34b7e2fp-7
609=-0x1.5eedc0ff5b346p-5
610=0x1.d48da1ed875dep-7
621=0x1.3c31b7c1721e4p-16
624=0x1.9a0f0595440cdp-5
625=-0x1.9ae4125fbc22p-3
626=0x1.83c9fcac0c8dep-4
628=-0x1.1d714fcbfc23p-4
629=0x1.089a213875d2fp-2
630=-0x1.1b2a3977f0ef4p-4
631=-0x1.90359eb64dfd2p-2
633=-0x1.5aa7e9d7b0c9p-13
637=0x1.4bf7d5480b727p-10
648=0x1.51de58c975abep-3
649=-0x1.073d316bec533p-14
651=-0x1.b7728b87d8d89p-4
656=0x1.1acdcdd87cf6cp-6
657=-0x1.b08f7dabd6b76p-5
658=0x1.16cd7f5c57813p-6
660=0x1.39c9ef19fe189p-6
661=-0x1.e33d37c962696p-5
662=0x1.3938a5ed0cdeap-6
664=0x1.f745ae9a6d8b2p-6
665=-0x1.2d8549f41f08ep-14
666=-0x1.0472f31aed17fp-8
672=0x1.b44f49de7c0f8p-6
673=-0x1.a5f33cb0ddf9ep-9
674=-0x1.491489191a084p-9
677=0x1.4d84a288b58c8p-7
678=-0x1.685772bab49dcp-14
680=0x1.41dc03764945ap-5
681=-0x1.11e9241e4574p-3
682=0x1.71727b954a3cep-5
683=0x1.c9bb74ea8ed43p-7
685=0x1.0d664086577cdp-11
688=-0x1.cf267c1f60fe5p-5
689=0x1.1e9c3edf4fa84p-3
690=-0x1.84a3640b19d1ap-5
692=0x1.149e5b2df8705p-2
693=-0x1.f6a45b33cc2b4p-2
694=0x1.14cb62c15803dp-2
695=-0x1.4bcdd2815de0cp-7
696=-0x1.15cee2bf019cbp-8
697=0x1.034b933982812p-8
700=0x1.e5027acd723acp-6
701=-0x1.347cc3192b5c8p-3
702=0x1.72c3c60e5cb44p-4
705=0x1.11391589471c4p-6
706=-0x1.d520227786aap-17
709=0x1.dbbcb9117c85dp-6
710=-0x1.d93839645bb59p-11
713=0x1.e7f2decb2d7e1p-11
717=0x1.529487f289de6p-9
725=0x1.2d89a6b189f63p-10
729=-0x1.0464642375127p-6
730=0x1.45156c82c8504p-5
732=-0x1.dc1071a18142bp-11
733=0x1.309d0c7aa6ee6p-5
734=-0x1.6c119826c018ep-13
737=0x1.e7c17390a8f47p-11
744=-0x1.02bbe134860f1p-4
745=0x1.4c4870c438679p-3
746=-0x1.e3c0b8287d02ap-5
756=-0x1.25bcf50914b8p-11
757=0x1.5d97abad9de3dp-4
758=-0x1.142f84c75065bp-4
759=-0x1.100f4d61a406ep-9
765=0x1.70a948a652972p-10
772=-0x1.863f74258f24bp-9
773=-0x1.5b53cbb322e07p-9
774=0x1.63f64ee4515cep-9
775=0x1.cd0a689187654p-9
777=0x1.f6beb85b9cbcp-10
780=-0x1.71ee20fd9618ep-10
781=0x1.b96f4fa65d068p-6
782=-0x1.57e6a31a28029p-12
784=-0x1.1127fa7ee9a44p-10
785=0x1.81a911620f1acp-7
786=-0x1.e253f64848214p-12
804=-0x1.6e7e3719a70f6p-9
805=0x1.1821a3a33b152p-5
806=-0x1.74f01c1eddef9p-10
813=0x1.59fc92a4c5caep-14
816=-0x1.67325e88c50cap-5
817=0x1.574c3c4d76741p-3
818=-0x1.6df5189b6e354p-5
819=-0x1.98c14a3cc5b96p-3
821=0x1.79ca42c854ee6p-12
824=0x1.14c2f0f4fcf6bp-6
825=-0x1.b8b2f802db4f2p-5
826=0x1.3accabdb9f2a4p-6
828=-0x1.55dfd6155e2bap-11
829=0x1.6aa8b7758fea4p-10
830=-0x1.0237c3b98dc9fp-10
836=0x1.3451bcc1f39d5p-4
837=-0x1.8c06aa3359b66p-4
838=0x1.0829122164dc2p-4
842=-0x1.97c5f7c232f45p-12
856=0x1.f9e276121b481p-17
857=-0x1.89d837328e76cp-7
858=0x1.05e0186de51efp-16
868=-0x1.e6c39127853efp-6
869=0x1.25f975b6f102cp-5
873=0x1.8b003e7ee201fp-8
874=-0x1.6c2aa7ecbdbf6p-14
881=0x1.78dc97803abfp-17
884=-0x1.2a8a4cfcfa66p-7
885=0x1.17d4613150995p-8
889=-0x1.f8192d6860827p-8
890=0x1.0284c75b26cccp-6
893=0x1.e473054843481p-12
897=-0x1.f25bdb92e3b47p-14
900=0x1.326b092c75272p-5
901=-0x1.8c79e1e4bb3c2p-3
902=0x1.99ea3b68e2502p-5
903=0x1.d29f5582ba26ap-6
913=0x1.f3611cfeafe3dp-8
937=0x1.33abb3a47a5a7p-6
961=0x1.bfa40eb5e1de1p-12
965=0x1.8fc81309f61bcp-7
980=-0x1.41e1a1a974bfp-4
981=0x1.6f81f6a17a6cdp-5
982=0x1.127bc0efbee4ep-7
983=-0x1.2a1b8205b5591p-5
1009=0x1.5bed3bd2158a2p-7
1038=0x1.4d11d62e0db9ep-7
1045=0x1.9f4f93f045d14p-6
1046=-0x1.2c0f6065a2869p-6
1052=-0x1.ad8944f76e09ap-6
1053=0x1.a6ff96821779dp-9
1054=0x1.dd4f49e238479p-8
1057=0x1.b470faa87d48ap-11
1068=0x1.344cd23bef38dp-6
1069=-0x1.0bab662c78c1bp-5
1070=0x1.4d5b83d157289p-7
1071=-0x1.697ef82cd873fp-9
1076=0x1.43cdd2a6c577ep-7
1077=-0x1.83faf5f67041p-11
1079=-0x1.995abb0bc3958p-14
1080=0x1.1487367a992a4p-6
1081=-0x1.c68658959324ap-5
1082=0x1.168124855e7c4p-6
1084=0x1.7256be2361c1fp-7
1085=-0x1.74a93611c1e91p-6
1086=0x1.2299022d624e2p-6
1089=0x1.6acf04b53ebb8p-5
1090=-0x1.d851967b92efcp-6
1096=-0x1.fef448b04d8d4p-8
1097=0x1.7739cfb320acp-5
1098=-0x1.b93fd8af3ea2bp-9
1116=0x1.7c907eeae3305p-4
1117=-0x1.6e511db9f1f07p-3
1118=0x1.5ee7bcf1a0b11p-4
1121=0x1.fb88feb1906b5p-11
1128=0x1.0668df3884ef5p-9
1132=-0x1.f9710dcbc333p-16
1134=0x1.e612161eb8b4dp-8
1137=0x1.099c3f94a188ep-9
1140=-0x1.d73725d79d2b7p-11
1141=0x1.cd7eaf14c9c5cp-6
1142=-0x1.59e5aa09af9afp-12
1148=0x1.fee5a4a51f321p-7
1149=-0x1.886f905f951f3p-5
1150=0x1.fc4fb98966e21p-7
1161=0x1.2c95964af8eaap-7
1176=-0x1.ca9e5bfd193d3p-9
1177=0x1.c865551165fcp-6
1178=-0x1.70636ec61c178p-16
1192=0x1.0546f3148928fp-6
1193=-0x1.9882ee1b312ecp-5
1194=0x1.ee046e27c7a69p-7
1196=0x1.57a1815ca38bfp-7
1197=-0x1.0d297394ce14p-5
1198=0x1.0a04da357f85p-7
1201=0x1.660a17d3e36cep-7
1205=0x1.1511490339864p-11
1220=-0x1.2d013f54fcc58p-6
1221=0x1.3124d061a0f52p-4
1222=-0x1.73a027148c498p-6
1228=-0x1.e280a0886946ep-10
1229=0x1.1eaed6b856d87p-5
1230=-0x1.195ef193a6645p-10
1234=0x1.8f7b765c7e435p-12
1241=0x1.82f863695cfd6p-10
1244=0x1.21a1a7c20ae96p-6
1245=-0x1.cddaa111569dbp-5
1246=0x1.26440c4425f73p-6
1273=-0x1.f98b4811ba2b2p-7
1274=0x1.3184cbc1ecf83p-6
1281=0x1.958a6470337d6p-4
1282=-0x1.ac84f0aa0a3b2p-4
1283=-0x1.2c102201ed21dp-11
1297=0x1.923bd8a55dda4p-7
1309=0x1.4ae2846f99e32p-10
1313=0x1.cbfce45534009p-8
1320=-0x1.54fd886eae12fp-8
1321=0x1.3fd6423e3b1fp-3
1322=-0x1.8eee24af65505p-4
1323=-0x1.68c0dbfcd8321p-9
1349=-0x1.d9e91dd487b11p-11
1350=0x1.6873ba617b67bp-7
1352=0x1.2128890c3c51ap-7
1353=-0x1.6a7b6027e96f8p-5
1354=0x1.c15e6333f271p-7
1356=-0x1.1013b3628571cp-7
1357=0x1.3196d1b390791p-4
1358=-0x1.e53ff0cf8b3ep-8
1368=0x1.172251e4910fdp-4
1369=-0x1.24fd6b9f1b4ffp-4
1380=-0x1.080153d5bbe71p-12
1381=0x1.745993e5ec538p-7
1388=-0x1.125e5305829dep-3
1389=0x1.5ff9773641d8p-2
1390=-0x1.1e7fdb27f3f8dp-3
1391=-0x1.ca4a0bc1a366dp-8
1392=-0x1.a0a25938ea745p-10
1393=0x1.ebded7a21270dp-6
1394=-0x1.1470ff1d41da4p-10
1396=0x1.bf79220ae8dccp-7
1397=-0x1.4fb47b6a703d3p-4
1398=0x1.cedb96c2bc491p-5
1412=-0x1.ac93414ba2c46p-13
1413=-0x1.bea8364df1bb5p-7
1414=0x1.6f47fddce654dp-5
1416=0x1.a78baff2d07dbp-5
1417=-0x1.ea2fa2e39e30ap-4
1418=0x1.c884d57e78811p-5
1428=0x1.40bbc60f52b39p-7
1429=-0x1.f53c107a7fe0dp-13
1433=0x1.0d308d173987bp-8
1437=0x1.b1a27c2c6fc63p-7
1448=0x1.f3f72f56828cep-5
1449=-0x1.2d3a0fd4596f4p-7
1450=-0x1.580f39659687dp-6
1453=0x1.e4adb5d28bccdp-8
1461=-0x1.1d11cec94633ap-14
1465=-0x1.1c65fd785a09ap-15
1467=0x1.257e6b123d56p-6
1476=0x1.19b308d27033p-12
1478=-0x1.4187d0a2e2fb6p-9
1488=0x1.e641378d42226p-9
1489=-0x1.fc601935eb506p-6
1490=0x1.a3632c5797cc9p-8
1493=0x1.04494be41842p-17
1508=0x1.26fbdacd57f36p-6
1509=-0x1.d2c1c7db4ab33p-5
1510=0x1.2ad10f10dbfa7p-6
1512=0x1.c2ef2585a11d6p-7
1513=-0x1.7aa3b4678da5ep-5
1514=0x1.d1ec0039e81bp-7
1516=0x1.f152354c1a347p-7
1517=-0x1.2bc613a319bc7p-7
1520=0x1.9401d9307d5fdp-7
1521=-0x1.51032c0661428p-5
1522=0x1.1772571b1f2e9p-7
1528=0x1.164688a39f8e3p-8
1529=-0x1.f0e301b87d5cap-6
1530=0x1.1c546e6dcd327p-8
1532=0x1.853aef6843e9ep-17
1533=-0x1.a2f67d112705dp-9
1537=0x1.12e1650ab816dp-10
1540=0x1.32c51b133a8d6p-6
1541=-0x1.1cfc03441e6a6p-6
1548=0x1.fd60868f86ca2p-7
1549=-0x1.b438517326181p-5
1550=0x1.25a54f2bc05f6p-6
1552=-0x1.58cea001df3cbp-14
1553=0x1.2883a7613794fp-7
1554=-0x1.4b7ed2d75e20bp-14
1556=-0x1.9d01c63a73c0cp-6
1557=0x1.3c186d37339eap-4
1558=-0x1.424c9129f5a19p-6
1573=-0x1.eaf2f64b0c699p-7
1575=0x1.36999a6304f5p-6
1581=0x1.b9250a7b22734p-8
1597=0x1.16df07890f0dcp-10
1617=0x1.d5ddf95a9ec73p-10
1637=0x1.0c006cc8f9c1ep-9
1641=0x1.2e6193a71f8f6p-10
1645=0x1.84528cfb74fcbp-9
1649=0x1.4d3f0057e3edap-12
1661=-0x1.45d3b3eabda91p-6
1662=0x1.24756a8f48ae6p-8
1663=0x1.3cad24ab20bfp-9
1672=0x1.ecd104c4c3131p-9
1673=-0x1.2b95507b5d5abp-4
1674=0x1.9e5d515bb07cfp-5
1677=0x1.a391874ee7578p-14
1684=0x1.786500c23afddp-7
1685=-0x1.4a8764b451f4p-5
1686=0x1.f1fca04e986fcp-7
1692=0x1.2e8fb4cbb1196p-6
1693=-0x1.d42c9e9fb0edep-5
1694=0x1.259913d7534acp-6
1696=0x1.a385a3bbfa086p-6
1697=-0x1.3616d26d359d4p-4
1698=0x1.bcc275373507dp-6
1701=0x1.2faebf525eee5p-13
1704=0x1.13d3ce9894e6fp-5
1705=-0x1.f1694e0764611p-4
1706=0x1.48f8ce3d0232cp-4
1720=0x1.80534ec2f8d5ap-8
1721=-0x1.1fcee745eb06p-5
1722=0x1.5b8247b5fbc37p-8
1728=-0x1.35171d83c76b7p-5
1729=0x1.7857488abd6cep-7
1730=0x1.172f74d4360ddp-8
1733=0x1.37a40cc20aeb5p-7
1734=-0x1.d6549c21b9415p-14
1741=0x1.7ba9538bd2e67p-9
1742=-0x1.3eef9b74153b5p-17
1744=0x1.09629a4c23117p-8
1746=-0x1.f615b643b61c4p-14
1761=0x1.2c24bc920837ep-10
1776=-0x1.0077e22530895p-11
1777=0x1.35d8ceb257f34p-15
1781=0x1.19bbf55ca21fp-9
1785=0x1.2ca503f231b3ap-12
1809=-0x1.8950c156da6f2p-7
1810=0x1.153e183e7260cp-6
1812=0x1.ab83aac4f67afp-7
1813=-0x1.7275a4da6ebcfp-5
1814=0x1.cc01937585a01p-7
1817=0x1.44dc47d8101e4p-13
1829=-0x1.df8d883d8d71dp-7
1830=0x1.23a0d5f1113abp-6
1836=0x1.d8f339d0dd41cp-7
1837=-0x1.796c38b3ba3fap-5
1838=0x1.a2e62c9f8bbdp-7
1857=0x1.04f6e10a6702ap-10
1860=0x1.0e340aef31b8ep-6
1861=-0x1.beefdc8c3533p-5
1862=0x1.2216003bf0e2cp-6
1868=0x1.19db71ea220dep-7
1869=-0x1.f0b99dc85bd54p-6
1870=0x1.5f52e9f37a992p-8
1873=0x1.9831b6929e06dp-12
1905=0x1.1cb7cd24a481p-17
1909=0x1.98ac42f7b31eap-10
1913=0x1.29075bcf69442p-12
1920=-0x1.1d352735be076p-8
1922=0x1.06e79ac62c07cp-5
1924=0x1.360d6148f7572p-6
1925=-0x1.e233469de68e7p-5
1926=0x1.3b020c98e7421p-6
1936=0x1.2c353ddff74f3p-6
1937=-0x1.d75e91eb6ca3p-5
1938=0x1.2ed5e06528d88p-6
1953=-0x1.260f5c0f2a183p-6
1955=0x1.133d2bd34f683p-6
1960=-0x1.c394993184401p-5
1961=0x1.79d0436cb19e3p-4
1962=-0x1.c078b12d37764p-8
2001=0x1.14e44f7cc90b4p-9
2016=-0x1.fedb0ad156b63p-10
2017=0x1.6cb9dc22e7459p-5
2018=-0x1.03af927ff51f3p-7
2025=-0x1.0c855c41ef11cp-3
2026=0x1.409b2c7f7db95p-5
2027=0x1.bade34cde651p-5
2040=0x1.00f54dcb1b2cdp-6
2041=-0x1.a7ac5745ac70ap-5
2042=0x1.077a0f0ff787cp-6
2048=-0x1.450bf6b434f3ep-12
2049=0x1.a2743a0f1c00ap-6
2050=-0x1.92029c1516c7ep-13
2060=0x1.df642ddc11823p-7
2061=-0x1.018542c04cfcap-7
2113=0x1.b05c8d96d9037p-14
2140=0x1.31feb0e38131ep-6
2141=-0x1.141351187e07ap-6
2160=-0x1.c6e736c30597dp-11
2176=0x1.4d332d94b35cdp-6
2177=-0x1.8de709f16091ap-4
2178=0x1.0236400b505b9p-6
2179=0x1.3638653d477a1p-6
2180=0x1.ab5706a47506ep-5
2181=-0x1.a102cd3c1bb7bp-6
2185=0x1.14ebe77fac529p-6
2186=-0x1.6b685bc01da82p-12
2192=0x1.32119e49d35dbp-4
2193=-0x1.c8ee4a2565477p-4
2194=0x1.fa5c245d71447p-6
2200=0x1.22b3aea5a9127p-16
2201=-0x1.46ad597a983dep-13
2202=0x1.149a51448eb7p-15
2209=0x1.88cc2ac419466p-12
2221=0x1.a0099701e193fp-8
2237=0x1.33fa451a70e58p-10
2260=0x1.df16334a9d8f2p-5
2261=-0x1.09661dc253dfap-3
2262=0x1.c75717abbabccp-5
2305=0x1.f7168dbb8a315p-16
2321=0x1.89d1369ee61dcp-11
2384=0x1.31391602fc6e6p-6
2385=-0x1.dd93ec3b5b442p-5
2386=0x1.35df77f1c8a21p-6
2389=-0x1.3c704c7932ebep-6
2391=0x1.46e0887545b57p-6
2392=0x1.1353956eb5149p-6
2393=-0x1.8f61a2fe9981p-7
2405=0x1.3e22b27ce43fep-7
2420=0x1.3492fd37a03adp-6
2421=-0x1.dfb0bf1dbd4cep-5
2422=0x1.34f5f1a139ed8p-6
2428=0x1.137d41ef3853cp-6
2429=-0x1.b7a77f501530dp-5
2430=0x1.3da7a2e35466ap-6
2432=-0x1.d26d3c3d3bc24p-9
2433=0x1.39be0ef242362p-5
2434=-0x1.7c3f2d3ec0762p-9
2444=0x1.ff916407bc9d2p-9
2445=-0x1.e2c72546defddp-6
2446=0x1.368795155f1b2p-8
2453=-0x1.fde99feb033ep-7
2454=0x1.29014411e50f2p-6
2468=0x1.18fb6ba910ac7p-7
2488=0x1.ba3edd3bdce18p-5
2489=-0x1.0639ad39ba1fdp-3
2490=0x1.be851544e3153p-5
2540=0x1.81cf154a18e02p-7
2541=-0x1.80fccc220db47p-9
2565=0x1.5803328778135p-10
2621=0x1.a992a86c546cfp-7
2632=0x1.ea6e4d24622b2p-7
2633=-0x1.5847d55c266dep-5
2634=0x1.c649b83011854p-7
2685=0x1.8c51887046781p-12
2693=0x1.b7d2d892f9867p-10
2698=0x1.d3e97643a0ce5p-9
2700=0x1.b08a3708d5b3cp-7
2701=-0x1.892fd2fe51f87p-5
2702=0x1.9e012d2a88e08p-7
2729=-0x1.6001fd15b2affp-8
2730=0x1.e983ef8aba6c1p-7
2733=-0x1.93108bd8ee5p-7
2735=0x1.01eebb380978ap-6
2737=0x1.36293b17e468cp-13
2761=0x1.f3daf8feeeec4p-13
2788=-0x1.0a7e52e907161p-11
2789=0x1.8b9a910370a29p-6
2790=-0x1.1cb5d5459d79dp-11
2792=0x1.a253247f9034ep-7
2793=-0x1.6db7565e50ea7p-5
2794=0x1.9b452abe42534p-7
2813=0x1.9ba07f3e76efap-12
2825=0x1.e2b8138062ca9p-18
2829=0x1.295010056d236p-11
2848=0x1.063b9b3c5d731p-6
2849=-0x1.b79059a9dc238p-5
2850=0x1.049be1fd545dp-6
2856=0x1.297ff95d9d17cp-6
2857=-0x1.cdd0bdb2f94eep-5
2858=0x1.20a6d03dbea94p-6
2860=0x1.1cbb319664edep-6
2861=-0x1.975f17f7404dfp-7
2873=-0x1.b7b6867989739p-18
2875=0x1.0c8374d7cbf18p-6
2876=0x1.0b38081adf4ap-5
2877=-0x1.474fc13bd20fp-4
2878=0x1.1811f9782d499p-5
2897=-0x1.e73bed820e192p-7
2898=0x1.28a8ce3db1a8fp-6
2900=0x1.253b3cfc85e12p-6
2901=-0x1.d2fe01b7351c7p-5
2902=0x1.2e0f04fcf8454p-6
2912=0x1.77c5baa9009cep-5
2913=-0x1.bcc29d6eef22ap-6
2925=-0x1.606f093d639eap-5
2926=0x1.b771397610919p-5
2930=0x1.5d5f01cdd9a27p-7
2936=0x1.04a986c5025e6p-6
2937=-0x1.b0b15295f1a3bp-5
2938=0x1.460aff3774c75p-6
2944=0x1.4289185476f76p-6
2945=-0x1.eaad5fb6bfe17p-5
2946=0x1.3e08d3f31152ep-6
3009=0x1.2196a7f7e35d1p-9
3013=0x1.f1c482176c3bap-11
3037=0x1.a0a61af3e073ep-10
3048=-0x1.2ff42ff376664p-6
3049=0x1.f0dd2fc63a9e6p-5
3050=-0x1.8245ca6807bdap-7
3069=0x1.cafadf6e63fefp-10
3088=0x1.0102e41bcc03ep-6
3089=-0x1.92043011934c1p-7
3120=-0x1.25cde04b11b14p-14
3121=0x1.1dc5daf34df35p-8
3122=-0x1.410026b66285p-13
3196=0x1.2c814e39db8aep-6
3197=-0x1.cc2afe55047b6p-5
3198=0x1.4f5c7f8525c06p-6
3229=-0x1.1a5ea49d3ab87p-9
3231=0x1.fc1eb24bf134dp-7
3236=0x1.2bd9aa63abdf4p-7
3237=-0x1.45a5cc88667dp-5
3238=0x1.1905a8a0f4cf7p-7
3284=0x1.10841cf2b974dp-6
3285=-0x1.471b753c20f86p-7
3325=-0x1.08fe57d23a1ccp-6
3326=0x1.2cf992dad6608p-6
3365=0x1.bd8021d9b0ffbp-17
3429=0x1.2f431acd8b695p-13
3448=-0x1.18dd3182d294p-19
3449=0x1.ec4466866e0b8p-9
3480=0x1.b17705f2f5e82p-5
3481=-0x1.e6de0619bedc6p-4
3482=0x1.a65e0cc02fa72p-5
3561=-0x1.0c2080ba9b61fp-7
3562=0x1.cd2fd6a40a826p-7
3632=0x1.34c56bc57e807p-6
3633=-0x1.e580df07daaafp-5
3634=0x1.33e1487df9512p-6
3672=-0x1.e44c811467259p-10
3673=0x1.18c5398982d29p-5
3674=-0x1.2c76d1d09e17p-9
3688=0x1.cd01e070cc5ap-5
3689=-0x1.166eb5507e2edp-3
3690=0x1.eff8abc0e5144p-5
3756=0x1.8abd99dafe78ep-8
3785=0x1.acabfd3762df2p-16
3813=0x1.3aac40f30c12ep-8
3849=0x1.26109426615f7p-10
3860=0x1.80f191a7f1485p-4
3861=-0x1.f5aa9a77d4023p-4
3862=0x1.851d951a6086dp-7
3936=0x1.d65fc7a584cffp-16
3937=-0x1.e4999d1a157acp-8
3938=0x1.15826e92c4eaep-15
4041=0x1.44561298d9aa5p-13
4052=0x1.2453f2c6aff16p-6
4053=-0x1.d462ac15c7fd8p-5
4054=0x1.22e07472f6b26p-6
4216=-0x1.96602bf415283p-13
4217=0x1.232101b8cc34ep-6
4218=-0x1.33647b16d7f03p-11
4369=0x1.1f183b5c8ad4cp-12
4465=0x1.366a78a6878a2p-15
4553=0x1.ea5bcf72cc207p-12
4584=0x1.90008047847d3p-5
4585=-0x1.d7d09e1d30704p-4
4586=0x1.853b3a7d6ed36p-5
4620=0x1.89b033ae7b873p-4
4621=-0x1.a45ff7acd5844p-3
4622=0x1.73bf1e6ebea23p-4
4657=0x1.0f20763653e3p-13
4737=-0x1.5f4aea485840cp-6
4738=0x1.7d22eb0358d8cp-6
4904=0x1.0fed15e2007b1p-6
4905=-0x1.6266fae366412p-7
4916=0x1.420806847cc3fp-6
4917=-0x1.eb6d294cde16ap-5
4918=0x1.3f8bf756b52f4p-6
5008=0x1.c0d3d7b1d8042p-5
5009=-0x1.4c092ad0c700ep-4
5010=0x1.e6ee163fa8d1ep-7
5032=-0x1.425bb74b2809ap-14
5033=0x1.2159a866116cdp-6
5084=0x1.08e89fcdcb7fcp-3
5085=-0x1.bfadcb8fcabbp-3
5086=0x1.5aa623caeb0cap-4
5088=0x1.6e5cf61d0488p-6
5089=-0x1.d01ea78a4d49ap-5
5090=0x1.8f07e471b5ed8p-6
5092=0x1.3cf8760b03791p-2
5093=-0x1.09c76bd6a8654p-1
5094=0x1.02cb9a7252bbep-2
5095=-0x1.cf3b4b84fe0c6p-8
5109=0x1.3660d3c3df482p-13
5114=0x1.a5a1cbb1a23abp-8
5116=0x1.9c250baa9ed68p-8
5117=-0x1.53abd66995c9cp-5
5118=0x1.5048fc8618a3ep-8
5124=-0x1.8e322a2a55501p-12
5125=-0x1.ff220c8cbcb0dp-7
5126=0x1.8488a67370eb4p-5
5128=0x1.9b55c33cfa9a8p-5
5129=-0x1.f5e6475982fd8p-4
5130=0x1.b8a7ebb0d603cp-5
5132=0x1.af64ae4215645p-7
5133=-0x1.ff8e55cabb3f6p-10
5140=0x1.fcd3f1879788dp-7
5141=-0x1.9180f05321648p-5
5142=0x1.b08d0f1c51221p-7
5149=0x1.3dac1434684f5p-9
5156=0x1.0d8f767609fbp-6
5157=-0x1.d1d0c2ae108e5p-8
5176=0x1.1f5b9e25e16dep-6
5177=-0x1.524f2efc10d79p-7
5184=0x1.7d1d9ef99caa5p-4
5185=-0x1.a292feac5bc14p-3
5186=0x1.8768d50e1f805p-4
5204=0x1.c51ef3c7e6486p-7
5205=-0x1.7a675945d0c5cp-5
5206=0x1.c8f668c573414p-7
5208=0x1.12220c61615a8p-6
5209=-0x1.b53434e442deep-5
5210=0x1.106495d63595p-6
5212=0x1.187cf2317536dp-16
5214=-0x1.3d93312edad9cp-13
5284=0x1.bd359dc07dd4cp-7
5285=-0x1.c59ea06adc75ap-9
5320=0x1.ccf79fdf146bep-5
5321=-0x1.7a3621789b45ap-4
5322=0x1.08e509260d686p-6
5324=0x1.a850e7bc328e4p-4
5325=-0x1.143109cc389cbp-3
5326=0x1.94710cfacacep-7
5329=0x1.ce9a95bac4e18p-14
5349=0x1.08d1403670d6fp-10
5368=0x1.25423b61ea216p-6
5369=-0x1.e5db497fcf756p-7
5376=0x1.3c235503236dep-8
5385=0x1.2faa066126124p-14
5401=-0x1.4d188e60d06dfp-8
5402=0x1.00b632c851fc1p-6
5404=0x1.fb978e1dda1bp-7
5405=-0x1.90100681ead5cp-5
5406=0x1.f5afa8ff43f64p-7
5428=0x1.2b80c64660b88p-6
5429=-0x1.d673f2c370f95p-5
5430=0x1.2d81ae7a631p-6
5436=-0x1.e11c562fd34d7p-12
5437=0x1.9a07a3286aa0ap-7
5438=-0x1.578174d0ae86cp-15
5472=0x1.c3fbe70d38a97p-5
5473=-0x1.400bff903eae8p-5
5481=-0x1.4cf4045d10f17p-6
5482=0x1.6bcf0b3f481c1p-6
5492=-0x1.e56e7219d738fp-18
5493=-0x1.0388f20b822a6p-11
5494=0x1.13db69282705p-7
5508=0x1.2fed5dde5a48p-6
5509=-0x1.d8d02f0db65bdp-5
5510=0x1.2f033a6eea903p-6
5529=0x1.79eab118858edp-10
5540=0x1.81c52d62a5c52p-7
5541=-0x1.6c485cab0a716p-5
5542=0x1.b680ccf8bcb26p-8
5545=0x1.260a3e21059dbp-14
5556=0x1.1a14c787a2f81p-6
5557=-0x1.c1d535af0f1ep-5
5558=0x1.1b71eb79aceb8p-6
5560=-0x1.d18b331ef51cep-11
5561=0x1.4448bb9a6c2a2p-8
5562=-0x1.48d7ac03bdba1p-13
5597=0x1.29fc4703eaf86p-9
5601=0x1.5647a4afa26f8p-12
5617=0x1.1dc68be768f2p-10
5636=0x1.85c1ba109e938p-5
5637=-0x1.c0a9a4262ac5cp-4
5638=0x1.99db882129aeap-5
5641=-0x1.3daa01e287558p-7
5642=0x1.1582c33c140a4p-6
5644=0x1.11c7d75f1f71ap-6
5645=-0x1.b7c95cce943e6p-5
5646=0x1.127fa7b6e533fp-6
5649=0x1.272a862d9a26cp-14
5653=0x1.512837a496cadp-11
5656=0x1.1ea6847b1d01bp-6
5657=-0x1.c72dc3b12361bp-5
5658=0x1.1e33244d58716p-6
5660=0x1.219b53fafeb19p-6
5661=-0x1.95bc9f3de5a94p-7
5700=0x1.27dd213c7a521p-6
5701=-0x1.d05a29e3d6d46p-5
5702=0x1.26b2578445e6p-6
5716=0x1.32dc83d08be23p-6
5717=-0x1.dea5fbce104cep-5
5718=0x1.36be287177f1cp-6
5720=0x1.2f947fbc63c1fp-6
5721=-0x1.15d4683b5431p-6
5725=-0x1.1a3f479796d17p-6
5726=0x1.3534b1420fb3bp-6
5732=0x1.1f12162cd591dp-6
5733=-0x1.c955b12c85a4ap-5
5734=0x1.261dee14509d6p-6
5744=0x1.044c5d643b393p-6
5745=-0x1.0b230762700b7p-7
5769=-0x1.0e7ae615ac5a6p-5
5770=0x1.b68e46c1b468dp-5
5772=0x1.10652c9ce8922p-7
5773=-0x1.090c0c5655c3dp-3
5774=0x1.c2d2b9d15bp-5
5775=0x1.54b0d2677ff9p-6
5832=0x1.0309d82ac2e3ap-6
5833=-0x1.a19da77a13ecdp-5
5834=0x1.ff1891d03b042p-7
5856=0x1.194edc926d92p-6
5857=-0x1.c51ded8945037p-5
5858=0x1.22d531fc5801cp-6
5873=0x1.11d8809f69916p-8
5874=-0x1.658ee12069468p-13
5892=0x1.1aa9378f2eceep-6
5893=-0x1.cd872e405710cp-5
5894=0x1.1e616f911e2dp-6
5904=0x1.32f8199a21066p-6
5905=-0x1.f4b438c02eef3p-7
5968=0x1.122a7d532d1bfp-10
5970=-0x1.2b76de9116d3ap-11
5981=0x1.7ac63f44af393p-11
5985=0x1.bac188013543cp-18
6057=0x1.6c34917c67d86p-13
6077=0x1.7474c74611df5p-13
6097=0x1.26faa0a36ba1p-10
6141=0x1.3b0681dec8769p-15
6149=0x1.e369fc803b3d9p-15
6152=0x1.fcd5c4fd4156p-8
6153=-0x1.5c3fd449535eap-4
6154=0x1.c4c487cda12ep-5
6212=0x1.bb733d2bbd815p-5
6213=-0x1.e85a60a7fa688p-4
6214=0x1.b6ada91d15183p-5
6229=-0x1.022f10eb494e5p-6
6230=0x1.25da76cc7b0f6p-6
6377=0x1.3a647acfb16d1p-11
6488=0x1.43634e8f27085p-6
6489=-0x1.edf2fe7527f6cp-5
6490=0x1.437545f130f83p-6
6517=0x1.7f7326e05859cp-17
6564=0x1.24a230b0762dcp-6
6565=-0x1.d25e24b23da9fp-5
6566=0x1.1eaa52fb3a2a8p-6
6628=0x1.e57137ba20e8cp-5
6629=-0x1.1affd1b809a5bp-3
6630=0x1.e0f6a992f48b6p-5
6708=0x1.2c1d886ea3104p-6
6709=-0x1.d1e1492518a95p-5
6710=0x1.28b494ed863d7p-6
6712=0x1.336013a64c2ddp-6
6713=-0x1.d991ae986d205p-5
6714=0x1.3005dfaf7cfa7p-6
6725=0x1.4e17274b7983ep-8
6726=-0x1.6fe26e8c01ae7p-18
6744=-0x1.b2b467102fc9ep-17
6745=0x1.66b445b68551ep-7
6746=-0x1.558dadd24fd94p-17
6812=0x1.442f1fda2d98cp-6
6813=-0x1.ef61f94a0c742p-5
6814=0x1.450de8937a838p-6
6828=0x1.41e59e823ap-6
6829=-0x1.ebb5c980e79ap-5
6830=0x1.40a4409231f3p-6
6852=0x1.c1fa5e5a0e521p-9
6853=-0x1.ce6873c155672p-6
6854=0x1.9af2a98f537f6p-9
6900=0x1.3163244426b9ap-6
6901=-0x1.0f30a15029c52p-6
7113=-0x1.31ac82010e9b8p-6
7114=0x1.68b072e908c6p-6
7116=0x1.4267021106461p-6
7117=-0x1.3064cc38384efp-6
7133=-0x1.13d0f2957875dp-6
7134=0x1.30edda2757afcp-6
7161=-0x1.054ed6cb93a8ap-6
7162=0x1.2b44fc01bc187p-6
7164=0x1.2e50b581da97ap-6
7165=-0x1.d641cc9d05f73p-5
7166=0x1.2bb879f7e93c1p-6
7172=0x1.47c3650b7616fp-6
7173=-0x1.f1bb628c1b5ecp-5
7174=0x1.45ef7531024aep-6
7180=0x1.5e22c0f0f7fddp-7
7181=-0x1.48f662675abcp-5
7182=0x1.5144a71225e62p-7
7212=-0x1.10ebd45c49b7fp-11
7213=0x1.27f2159852ca5p-6
7214=-0x1.04fefd5b3c581p-11
7217=-0x1.74413f97469f2p-7
7218=0x1.2674bf5ebb30fp-6
7244=0x1.2b9c8264144e3p-6
7245=-0x1.d515656e023f3p-5
7246=0x1.2db43003b408p-6
