#mdl#2#1608
#rdr#31/9/0
9:u:%x[0,0],
10:u:%x[-1,0],
9:u:%x[1,0],
9:u:%x[0,1],
10:u:%x[-1,1],
9:u:%x[1,1],
9:u:%x[0,2],
10:u:%x[-1,2],
9:u:%x[1,2],
9:u:%x[0,3],
10:u:%x[-1,3],
9:u:%x[1,3],
9:u:%x[0,4],
10:u:%x[-1,4],
9:u:%x[1,4],
9:u:%x[0,5],
10:u:%x[-1,5],
9:u:%x[1,5],
9:u:%x[0,6],
10:u:%x[-1,6],
9:u:%x[1,6],
9:u:%x[0,7],
10:u:%x[-1,7],
9:u:%x[1,7],
9:u:%x[0,8],
10:u:%x[-1,8],
9:u:%x[1,8],
9:u:%x[0,9],
10:u:%x[-1,9],
9:u:%x[1,9],
2:b:,
#qrk#4
4:pA_B,
4:pA_I,
4:pA_L,
4:pA_U,
#qrk#1911
7:u:allô,
6:u:_x-1,
4:u:c',
5:u:INT,
9:u:PRO:DEM,
9:u:ARTIC_U,
6:u:VP_B,
3:u:7,
4:u:10,
3:u:8,
3:u:5,
3:u:6,
4:u:83,
4:u:81,
4:u:29,
4:u:30,
4:u:28,
2:b:,
5:u:est,
10:u:VER:pres,
6:u:VP_L,
6:u:_x+1,
5:u:oui,
3:u:4,
4:u:82,
4:u:26,
5:u:ça,
4:u:va,
4:u:11,
4:u:27,
4:u:et,
5:u:KON,
4:u:17,
5:u:toi,
9:u:PRO:PER,
6:u:NP_U,
5:u:dis,
6:u:VP_U,
3:u:9,
4:u:je,
9:u:voulais,
10:u:VER:impf,
4:u:te,
4:u:80,
10:u:demander,
10:u:VER:infi,
4:u:86,
8:u:demain,
5:u:ADV,
7:u:AdP_U,
4:u:84,
4:u:vu,
10:u:VER:cond,
5:u:que,
4:u:on,
3:u:a,
5:u:qu',
5:u:une,
9:u:DET:ART,
6:u:NP_B,
7:u:heure,
5:u:NOM,
6:u:NP_L,
6:u:pour,
5:u:PRP,
6:u:PP_B,
8:u:manger,
6:u:PP_L,
4:u:85,
5:u:euh,
6:u:VP_I,
5:u:dit,
7:u:aille,
8:u:dehors,
4:u:hm,
4:u:21,
3:u:3,
4:u:88,
4:u:NA,
6:u:sais,
5:u:pas,
4:u:en,
5:u:ADJ,
6:u:fait,
7:u:parce,
4:u:19,
4:u:le,
6:u:truc,
4:u:14,
4:u:23,
4:u:13,
4:u:12,
4:u:j',
4:u:ai,
8:u:encore,
4:u:18,
4:u:22,
4:u:de,
9:u:monnaie,
4:u:ah,
7:u:ouais,
6:u:donc,
4:u:du,
6:u:coup,
10:u:voudrait,
6:u:dire,
11:u:mangerait,
7:u:genre,
4:u:un,
10:u:sandwich,
5:u:non,
6:u:vrai,
6:u:AP_U,
7:u:AdP_B,
6:u:trop,
7:u:AdP_L,
4:u:87,
3:u:1,
5:u:top,
7:u:enfin,
10:u:VER:pper,
3:u:2,
4:u:16,
4:u:15,
7:u:comme,
4:u:m-,
4:u:f-,
10:u:VER:simp,
12:u:ARTIC_U200,
4:u:me,
8:u:saoule,
5:u:peu,
5:u:des,
9:u:PRP:det,
12:u:sandwiches,
8:u:voilà,
9:u:dépend,
4:u:si,
4:u:il,
6:u:nous,
8:u:lâche,
7:u:avant,
4:u:ou,
4:u:20,
7:u:FNO_U,
4:u:d',
8:u:accord,
4:u:tu,
8:u:retard,
9:u:PRO:REL,
6:u:voit,
3:u:y,
4:u:la,
6:u:NP_I,
7:u:queue,
4:u:à,
6:u:PP_I,
8:u:limite,
6:u:veux,
4:u:ok,
10:u:VER:subp,
5:u:é-,
10:u:VER:futu,
8:u:était,
10:u:prévoir,
5:u:moi,
7:u:aussi,
6:u:faut,
8:u:prenne,
4:u:l',
8:u:argent,
5:u:sur,
6:u:vois,
10:u:d'accord,
6:u:mais,
7:u:mange,
8:u:salade,
8:u:laisse,
6:u:peut,
7:u:aller,
9:u:cantine,
7:u:toute,
8:u:façon,
8:u:pareil,
9:u:appeler,
5:u:vas,
8:u:donner,
9:u:petites,
6:u:news,
9:u:comment,
8:u:allait,
4:u:91,
7:u:avais,
4:u:se,
6:u:voie,
7:u:même,
6:u:elle,
5:u:là,
10:u:faudrait,
7:u:alors,
4:u:ce,
6:u:mois,
4:u:ci,
8:u:passé,
9:u:PRO:IND,
8:u:allure,
6:u:quoi,
7:u:été,
7:u:super,
5:u:ric,
5:u:rac,
5:u:ben,
11:u:attendais,
8:u:retour,
10:u:réunion,
4:u:m',
8:u:étais,
8:u:aurait,
4:u:pu,
6:u:voir,
7:u:quand,
7:u:faire,
5:u:bon,
6:u:puis,
8:u:après,
7:u:temps,
7:u:passe,
12:u:finalement,
8:u:arrive,
10:u:bientôt,
5:u:fin,
7:u:très,
6:u:vite,
12:u:exactement,
4:u:j-,
7:u:être,
8:u:essaie,
7:u:caler,
6:u:vous,
8:u:dirait,
9:u:semaine,
11:u:prochaine,
6:u:bien,
6:u:pris,
10:u:vendredi,
8:u:samedi,
7:u:c'est,
10:u:possible,
17:u:éventuellement,
10:u:gérable,
6:u:soir,
6:u:cool,
12:u:clairement,
9:u:reparle,
12:u:carrément,
6:u:vais,
12:u:rapidement,
4:u:au,
7:u:moins,
9:u:envoyer,
6:u:mail,
6:u:PP_U,
5:u:pis,
10:u:toujours,
12:u:compliqué,
11:u:plusieurs,
4:u:as,
8:u:raison,
9:u:propose,
9:u:instant,
4:u:t',
7:u:irait,
9:u:parfait,
5:u:où,
6:u:hein,
5:u:nan,
8:u:disais,
8:u:petite,
8:u:bouffe,
6:u:mai-,
8:u:maison,
9:u:bonjour,
4:u:89,
7:u:salut,
9:u:entendu,
7:u:bruit,
7:u:merde,
8:u:entend,
9:u:arriver,
6:u:loin,
7:u:chaud,
5:u:ici,
7:u:aviez,
10:u:chouette,
11:u:installer,
5:u:les,
8:u:filles,
6:u:pose,
5:u:nos,
9:u:DET:POS,
10:u:affaires,
6:u:waou,
4:u:90,
8:u:faites,
6:u:chez,
5:u:tes,
12:u:chaussures,
9:u:enlève,
5:u:mes,
9:u:obligé,
6:u:AP_B,
6:u:AP_L,
7:u:garde,
8:u:mettre,
6:u:joli,
6:u:suis,
10:u:craquée,
7:u:cette,
8:u:année,
10:u:rondelle,
8:u:citron,
6:u:tout,
6:u:plus,
8:u:grands,
6:u:2.02,
5:u:ils,
6:u:sont,
11:u:chouettes,
5:u:ces,
8:u:verres,
7:u:beaux,
10:u:achetés,
9:u:exprès,
5:u:ouh,
5:u:mis,
11:u:chauffage,
7:u:crois,
6:u:tour,
10:u:obligée,
6:u:fond,
11:u:autrement,
8:u:marche,
6:u:c“,
7:u:loose,
5:u:PRO,
6:u:soit,
7:u:zéro,
9:u:éteint,
8:u:chiant,
10:u:VER:ppre,
6:u:fais,
11:u:engueuler,
10:u:consomme,
6:u:sers,
7:u:sûre,
4:u:oh,
8:u:partir,
8:u:moment,
8:u:rigolo,
5:u:ch-,
8:u:savais,
7:u:avait,
7:u:aimé,
7:u:avoir,
8:u:autres,
8:u:graals,
8:u:prévu,
11:u:inquiète,
8:u:paille,
7:u:allez,
10:u:habitude,
9:u:cuisine,
8:u:êtres,
7:u:miser,
15:u:présentation,
10:u:croirait,
6:u:dans,
8:u:dîner,
9:u:presque,
10:u:chercher,
7:u:autre,
7:u:mince,
13:u:commençais,
7:u:boire,
5:u:cas,
9:u:plaisir,
4:u:n',
10:u:empêche,
7:u:clair,
11:u:longtemps,
4:u:d-,
5:u:vue,
8:u:depuis,
5:u:cet,
14:u:anniversaire,
4:u:s',
6:u:vues,
9:u:remonte,
5:u:par,
11:u:croisées,
8:u:métro,
7:u:trois,
5:u:NUM,
9:u:arrêts,
5:u:qui,
10:u:vraiment,
6:u:aïe,
8:u:vôtre,
8:u:santé,
8:u:mignon,
4:u:ma,
7:u:mère,
8:u:gardes,
8:u:cognac,
6:u:gros,
6:u:mets,
10:u:beaucoup,
13:u:normalement,
8:u:classe,
4:u:ne,
7:u:juste,
10:u:histoire,
7:u:petit,
6:u:sûr,
4:u:a-,
9:u:passée,
4:u:es,
7:u:seule,
9:u:souvent,
7:u:cours,
7:u:lundi,
13:u:interaction,
9:u:verbale,
6:u:lun-,
6:u:midi,
7:u:mardi,
10:u:mercredi,
9:u:syntaxe,
9:u:oublier,
6:u:neuf,
8:u:heures,
7:u:matin,
7:u:jeudi,
8:u:psycho,
6:u:demi,
6:u:fois,
6:u:deux,
6:u:int-,
9:u:analyse,
19:u:conversationnelle,
7:u:exact,
7:u:reste,
11:u:formation,
8:u:rester,
8:u:prends,
11:u:UNKNOWN_U,
6:u:pire,
7:u:train,
9:u:revenir,
7:u:vient,
9:u:voiture,
9:u:crevée,
9:u:rentrer,
8:u:chaque,
10:u:aimerais,
8:u:restes,
9:u:ramène,
6:u:sait,
8:u:jamais,
9:u:quelque,
7:u:chose,
7:u:faute,
8:u:tomber,
10:u:pourquoi,
13:u:franchement,
14:u:gestionnaire,
7:u:paies,
9:u:croyais,
9:u:reprend,
8:u:début,
7:u:soeur,
9:u:galère,
5:u:son,
8:u:master,
4:u:sa,
11:u:première,
8:u:loupé,
13:u:recommencé,
11:u:deuxième,
10:u:reloupé,
5:u:ont,
6:u:rien,
8:u:savait,
4:u:s-,
9:u:voulait,
10:u:retenter,
12:u:troisième,
7:u:idée,
7:u:monde,
9:u:travail,
7:u:marre,
10:u:arrivée,
7:u:vingt,
8:u:quatre,
5:u:ans,
15:u:compréhensif,
8:u:partie,
9:u:essayer,
10:u:cherché,
9:u:trouvé,
5:u:ad-,
9:u:adultes,
9:u:appelle,
6:u:sai-,
14:u:considérée,
12:u:étudiante,
12:u:intégrée,
8:u:dedans,
5:u:ami,
7:u:style,
5:u:de-,
10:u:semaines,
12:u:entreprise,
9:u:bizarre,
9:u:passait,
8:u:déjà,
5:u:mal,
9:u:compris,
13:u:réellement,
7:u:cadre,
9:u:choisie,
7:u:prise,
10:u:logiciel,
8:u:permet,
9:u:censés,
5:u:eux,
11:u:expliquer,
16:u:fonctionnement,
5:u:aux,
13:u:entreprises,
9:u:doivent,
6:u:bons,
8:u:calée,
9:u:déçue,
7:u:cause,
8:u:coucou,
10:u:appelais,
6:u:avec,
8:u:parlé,
11:u:septembre,
8:u:veniez,
7:u:fête,
11:u:lumières,
12:u:invitation,
7:u:tient,
7:u:fasse,
6:u:cher,
8:u:savoir,
8:u:disait,
7:u:venir,
8:u:priori,
5:u:lui,
13:u:particulier,
9:u:regarde,
9:u:surtout,
6:u:prix,
9:u:billets,
7:u:jouer,
8:u:boulot,
6:u:peux,
10:u:regarder,
12:u:maintenant,
10:u:rappelle,
10:u:regardé,
6:u:coca,
9:u:attaque,
8:u:pizzas,
9:u:attends,
6:u:sors,
8:u:occupe,
6:u:1.10,
4:u:ta,
9:u:chèvre,
13:u:champignons,
8:u:jambon,
8:u:dessus,
10:u:pourrait,
7:u:sympa,
6:u:rire,
8:u:viande,
9:u:hachée,
9:u:chorizo,
10:u:poivrons,
12:u:allumettes,
9:u:lardons,
8:u:besoin,
9:u:occuper,
7:u:pâte,
5:u:ton,
5:u:job,
5:u:yes,
10:u:claquée,
5:u:dur,
6:u:week,
5:u:end,
11:u:émotions,
7:u:maman,
11:u:ressortir,
7:u:pense,
7:u:droit,
7:u:pète,
8:u:putain,
8:u:péter,
5:u:hé,
6:u:fous,
9:u:partout,
7:u:celle,
7:u:assez,
7:u:tiré,
9:u:arrives,
9:u:content,
7:u:jeté,
10:u:poubelle,
10:u:pratique,
8:u:bordel,
12:u:chicouille,
7:u:mieux,
12:u:dépêches,
9:u:ARTIC_B,
9:u:ARTIC_L,
8:u:chiche,
10:u:commande,
9:u:branche,
6:u:fils,
10:u:VER:subi,
10:u:trancher,
7:u:gorge,
6:u:hier,
8:u:abusé,
6:u:dise,
10:u:balancer,
6:u:ayé,
6:u:vont,
10:u:emmerder,
4:u:t-,
12:u:vêtements,
6:u:êt-,
10:u:choquée,
9:u:acheté,
8:u:esprit,
9:u:laisses,
6:u:ceux,
7:u:hiver,
10:u:énervé,
5:u:don,
10:u:énerver,
9:u:rouleau,
13:u:pâtisserie,
6:u:oula,
8:u:aurais,
12:u:préféré,
9:u:trouver,
6:u:sans,
8:u:manche,
6:u:aime,
11:u:préfère,
9:u:manches,
10:u:échappe,
7:u:mains,
6:u:sera,
10:u:présent,
14:u:physiquement,
6:u:sept,
8:u:rentre,
9:u:pratico,
7:u:delà,
5:u:ait,
13:u:billetterie,
7:u:salle,
11:u:spectacle,
9:u:quelqu',
9:u:entrée,
9:u:décide,
5:u:pot,
9:u:souhait,
6:u:pots,
5:u:so-,
14:u:conférences,
9:u:débats,
8:u:budget,
10:u:organise,
4:u:l-,
14:u:installation,
11:u:matériel,
5:u:mai,
6:u:main,
7:u:place,
8:u:tables,
9:u:chaises,
9:u:caetera,
6:u:okay,
8:u:compte,
5:u:mon,
8:u:agenda,
11:u:organiser,
7:u:serai,
6:u:mer-,
8:u:jusqu',
7:u:aider,
11:u:théâtre,
7:u:souci,
7:u:point,
15:u:interrogation,
10:u:partiras,
10:u:viendrai,
11:u:resterais,
8:u:serait,
8:u:quelle,
4:u:96,
6:u:acc-,
6:u:tous,
11:u:mercredis,
8:u:fermé,
6:u:fini,
11:u:sûrement,
5:u:au-,
6:u:aura,
13:u:sollicitera,
7:u:votre,
9:u:atelier,
9:u:combien,
7:u:durer,
9:u:sachant,
9:u:numéro,
12:u:disponible,
5:u:dix,
6:u:huit,
13:u:conférence,
6:u:lieu,
8:u:rapide,
12:u:tranquille,
8:u:plaît,
9:u:horaire,
7:u:coût,
10:u:soixante,
7:u:euros,
8:u:blague,
10:u:comprise,
9:u:parlait,
9:u:fautive,
8:u:parlez,
8:u:fautif,
11:u:problème,
12:u:organisera,
9:u:acheter,
13:u:cacahuètes,
10:u:boissons,
8:u:suffit,
7:u:voyez,
8:u:choses,
8:u:débat,
11:u:organisez,
4:u:v-,
12:u:rencontrez,
6:u:plan,
7:u:suite,
9:u:contenu,
5:u:doc,
12:u:distribuer,
10:u:vacances,
8:u:quinze,
7:u:jours,
5:u:va-,
9:u:pendant,
7:u:avril,
12:u:travailler,
5:u:com,
9:u:diffuse,
9:u:affaire,
7:u:roule,
7:u:poser,
10:u:question,
15:u:communication,
9:u:support,
8:u:facile,
9:u:plutôt,
10:u:diffuser,
9:u:ensuite,
10:u:imaginer,
9:u:journal,
6:u:veut,
9:u:toucher,
12:u:population,
7:u:voter,
12:u:absolument,
10:u:sensible,
9:u:départ,
12:u:communique,
12:u:brouillard,
9:u:connais,
11:u:travaille,
8:u:Europe,
5:u:NAM,
7:u:lieux,
15:u:prédilection,
7:u:doute,
8:u:public,
8:u:trouve,
9:u:verrais,
4:u:92,
9:u:espèce,
7:u:tract,
11:u:immeubles,
9:u:boîtes,
9:u:lettres,
10:u:quartier,
7:u:abord,
8:u:toutes,
12:u:activités,
15:u:systématique,
7:u:coupe,
12:u:aléatoire,
9:u:voisins,
6:u:cent,
12:u:locataires,
11:u:viendront,
7:u:elles,
13:u:condamnées,
9:u:motivé,
9:u:sportif,
13:u:parenthèse,
6:u:avez,
8:u:idées,
14:u:illuminantes,
10:u:hésitez,
8:u:membre,
7:u:verra,
13:u:facturation,
9:u:facture,
13:u:aujourd'hui,
8:u:pardon,
10:u:terminé,
10:u:rentrée,
11:u:nutrition,
6:u:gens,
10:u:viennent,
5:u:MJC,
6:u:Oul-,
9:u:Oullins,
11:u:personnes,
10:u:seraient,
9:u:octobre,
7:u:dates,
4:u:i-,
11:u:envisager,
8:u:saison,
9:u:courant,
6:u:juin,
9:u:juillet,
11:u:réserver,
7:u:trucs,
10:u:prépare,
6:u:fixe,
10:u:dérange,
5:u:air,
11:u:derrière,
6:u:pote,
10:u:Bastille,
9:u:écoute,
7:u:diras,
9:u:répond,
13:u:téléphone,
10:u:réponds,
9:u:paraît,
6:u:part,
10:u:appelée,
9:u:demande,
10:u:regardes,
9:u:entends,
7:u:reçu,
10:u:messages,
9:u:appelé,
10:u:dimanche,
8:u:excuse,
15:u:crémaillère,
11:u:présente,
6:u:pA_I,
9:u:essayé,
13:u:rencontrée,
5:u:ja-,
9:u:pouvait,
8:u:passer,
8:u:venait,
11:u:repartait,
8:u:rendus,
9:u:pouvoir,
11:u:descendre,
8:u:penses,
9:u:suivant,
10:u:faisable,
9:u:bonsoir,
7:u:merci,
9:u:restés,
10:u:nombreux,
8:u:soucis,
8:u:emploi,
11:u:cinquante,
9:u:minutes,
10:u:exprimer,
7:u:court,
6:u:bref,
14:u:synthétique,
13:u:géographie,
9:u:science,
11:u:synthèse,
10:u:quarante,
6:u:cinq,
11:u:comprenez,
12:u:véritable,
7:u:défi,
8:u:lancé,
11:u:excuserez,
10:u:certains,
9:u:aspects,
9:u:pourrai,
11:u:évidence,
6:u:tard,
10:u:ailleurs,
5:u:lie,
7:u:utile,
11:u:agréable,
9:u:lorsqu',
12:u:géographe,
11:u:ruraliste,
7:u:vigne,
5:u:vin,
16:u:généralement,
9:u:termine,
9:u:chanson,
7:u:caves,
7:u:force,
14:u:dégustation,
8:u:ferons,
10:u:heureuse,
12:u:accueillir,
9:u:travaux,
11:u:pratiques,
9:u:reconnu,
9:u:panneau,
8:u:UNESCO,
5:u:Val,
7:u:Loire,
11:u:essentiel,
10:u:discours,
8:u:porter,
10:u:quelques,
14:u:définitions,
16:u:mondialisation,
11:u:reprendre,
10:u:définit,
13:u:représente,
11:u:notamment,
9:u:Laurent,
10:u:Carroué,
5:u:ABR,
14:u:actuellement,
12:u:président,
9:u:respon-,
7:u:CAPES,
12:u:territoire,
9:u:inscrit,
13:u:géographes,
9:u:discute,
10:u:juristes,
12:u:également,
14:u:économistes,
10:u:manière,
12:u:présenter,
13:u:territoires,
11:u:simplifie,
11:u:Alexandre,
7:u:Moine,
7:u:mille,
14:u:interactions,
7:u:entre,
9:u:acteurs,
8:u:espace,
15:u:géographique,
6:u:cela,
10:u:reprends,
4:u:p-,
10:u:anglaise,
8:u:Jancis,
10:u:Robinson,
9:u:assiste,
11:u:mouvement,
11:u:diffusion,
9:u:passion,
14:u:consommation,
12:u:incroyable,
9:u:limites,
8:u:dirais,
12:u:oekoumène,
10:u:planète,
9:u:extrait,
11:u:contraire,
13:u:rétraction,
6:u:pays,
20:u:traditionnellement,
15:u:consommateurs,
13:u:producteurs,
14:u:exportateurs,
7:u:sorte,
15:u:contradiction,
6:u:ceci,
6:u:lié,
7:u:voulu,
9:u:montrer,
6:u:quel,
6:u:sens,
10:u:sérieux,
7:u:cirer,
7:u:tirer,
10:u:citation,
9:u:écrite,
14:u:circonstance,
8:u:écris,
10:u:articles,
12:u:simplement,
12:u:retiendrai,
9:u:dernier,
11:u:élément,
12:u:comprendre,
15:u:effectivement,
13:u:référence,
8:u:essaye,
13:u:présentent,
14:u:vitivinicole,
6:u:1.00,
11:u:société,
16:u:intermédiaire,
9:u:actions,
14:u:informations,
11:u:remontent,
12:u:éléments,
12:u:permettent,
9:u:paysage,
16:u:véritablement,
7:u:image,
9:u:visible,
9:u:renvoie,
6:u:leur,
9:u:surface,
11:u:terrestre,
8:u:niveau,
13:u:négociants,
14:u:commerçants,
20:u:interprofessionnel,
15:u:professionnel,
11:u:gravitent,
8:u:autour,
13:u:fondamental,
11:u:important,
13:u:exportation,
13:u:importation,
12:u:production,
9:u:gestion,
5:u:AOC,
5:u:AOP,
7:u:rôle,
13:u:grandissant,
9:u:veulent,
9:u:prendre,
7:u:poids,
9:u:excusez,
13:u:directement,
16:u:problématique,
7:u:quels,
9:u:moteurs,
8:u:freins,
11:u:expansion,
8:u:mesure,
13:u:considérer,
8:u:France,
8:u:remise,
11:u:approches,
11:u:proposent,
9:u:optique,
14:u:territoriale,
9:u:insiste,
9:u:traiter,
6:u:cel-,
11:u:certaines,
10:u:prévues,
9:u:thèmes,
14:u:événements,
12:u:fondateurs,
8:u:parler,
7:u:mythe,
11:u:fondateur,
12:u:archétype,
12:u:historique,
9:u:puisque,
10:u:suggère,
11:u:fortement,
12:u:rechercher,
13:u:différents,
8:u:seuils,
16:u:chronologiques,
8:u:amené,
13:u:évolutions,
7:u:près,
9:u:produit,
11:u:seulement,
10:u:agricole,
10:u:culturel,
11:u:religieux,
8:u:relier,
10:u:religion,
13:u:chrétienne,
9:u:assuré,
4:u:eu,
8:u:série,
8:u:crises,
15:u:fondamentales,
11:u:neuvième,
9:u:siècle,
12:u:entraîné,
11:u:création,
14:u:appellations,
9:u:origine,
13:u:contrôlée,
15:u:rapprochement,
8:u:points,
6:u:vins,
9:u:terroir,
9:u:cépage,
9:u:banquet,
8:u:Platon,
14:u:fondamentaux,
8:u:quête,
10:u:vérité,
11:u:évoquent,
11:u:symposium,
6:u:grec,
10:u:convives,
9:u:passent,
10:u:cratère,
8:u:lequel,
5:u:eau,
6:u:font,
8:u:éloge,
7:u:amour,
6:u:lors,
10:u:banquets,
9:u:lancent,
8:u:défis,
10:u:essayent,
12:u:apprécié,
7:u:ainsi,
5:u:né,
12:u:guillemets,
17:u:interprétation,
13:u:personnelle,
9:u:permets,
13:u:philosophie,
8:u:Grèce,
7:u:verre,
5:u:re-,
11:u:retrouver,
7:u:tiens,
11:u:préciser,
9:u:vivante,
8:u:notée,
8:u:propos,
10:u:Arménie,
12:u:Françoise,
11:u:Ardillier,
10:u:chansons,
11:u:réponses,
5:u:sud,
7:u:ouest,
11:u:français,
9:u:exemple,
10:u:revenant,
10:u:Bidarray,
12:u:connaissez,
8:u:voulez,
8:u:mangé,
4:u:bu,
10:u:ensemble,
10:u:commence,
9:u:strophe,
6:u:doit,
10:u:terminer,
5:u:mot,
10:u:internet,
8:u:verrez,
12:u:insisterai,
10:u:oreilles,
12:u:pourraient,
11:u:supporter,
10:u:origines,
14:u:caucasiennes,
14:u:fondamenteur,
7:u:noces,
6:u:Cana,
9:u:travers,
9:u:tableau,
12:u:Véronèse,
14:u:interpréter,
4:u:lu,
11:u:Évangile,
6:u:Jean,
13:u:personnages,
7:u:clés,
8:u:jeunes,
9:u:mariés,
8:u:marié,
7:u:femme,
9:u:mariée,
6:u:coin,
8:u:contre,
8:u:donné,
8:u:durant,
6:u:vint,
9:u:manquer,
7:u:grave,
8:u:erreur,
9:u:parents,
7:u:rater,
7:u:leurs,
7:u:Marie,
12:u:intervient,
17:u:personnellement,
8:u:Jésus,
10:u:signifie,
11:u:implicite,
8:u:oeuvre,
10:u:réclame,
7:u:venue,
11:u:attention,
10:u:réponse,
11:u:serviteur,
6:u:dira,
9:u:remplir,
8:u:jarres,
10:u:apporter,
9:u:maître,
13:u:cérémonie,
10:u:changée,
16:u:extraordinaire,
14:u:fondamentale,
16:u:transformation,
12:u:exégètes,
8:u:disent,
15:u:premièrement,
6:u:agit,
13:u:institution,
13:u:eucharistie,
11:u:sacrifice,
7:u:croix,
6:u:dont,
8:u:verser,
6:u:sang,
11:u:humanité,
6:u:pain,
12:u:considère,
7:u:vraie,
12:u:nourriture,
9:u:boisson,
7:u:envie,
9:u:rapport,
13:u:thématique,
11:u:proposée,
8:u:sommes,
6:u:ange,
9:u:ressort,
10:u:extraits,
8:u:sortir,
19:u:caractéristiques,
9:u:aliment,
8:u:festif,
7:u:objet,
14:u:civilisation,
19:u:méditerranéenne,
8:u:certes,
8:u:judéo,
10:u:tendance,
8:u:perdre,
11:u:influence,
7:u:perdu,
8:u:aspect,
10:u:continue,
8:u:garder,
7:u:modes,
9:u:changé,
12:u:auparavant,
10:u:buvaient,
17:u:régulièrement,
11:u:coupaient,
15:u:particulière,
14:u:disparaître,
8:u:grande,
9:u:vitesse,
9:u:plupart,
9:u:disparu,
12:u:bataillons,
9:u:paysans,
11:u:autrefois,
10:u:ouvriers,
10:u:courante,
15:u:complètement,
14:u:transmission,
7:u:inch-,
24:u:intergénérationnelle,
11:u:quasiment,
6:u:rite,
9:u:faisait,
9:u:famille,
7:u:père,
11:u:tellement,
7:u:pater,
10:u:familial,
11:u:apprenait,
5:u:ses,
9:u:enfants,
8:u:buvait,
6:u:âge,
6:u:clé,
13:u:commençait,
11:u:commencer,
10:u:explique,
11:u:Bourgogne,
7:u:rouge,
12:u:forcément,
10:u:approche,
12:u:intronisé,
6:u:fée,
11:u:sorcière,
8:u:Marine,
8:u:vivait,
6:u:haut,
7:u:nuage,
10:u:château,
7:u:tours,
9:u:dorées,
8:u:reçut,
10:u:baguette,
9:u:magique,
7:u:bête,
8:u:patins,
11:u:roulettes,
7:u:magi-,
8:u:simple,
9:u:rollers,
10:u:pourrais,
8:u:casser,
5:u:nez,
9:u:tombant,
7:u:digne,
8:u:cadeau,
10:u:recevoir,
8:u:bateau,
9:u:exclama,
10:u:basculer,
6:u:robe,
13:u:dégoutante,
9:u:chapeau,
7:u:jeter,
7:u:fées,
10:u:devaient,
11:u:gentilles,
9:u:propres,
8:u:tartes,
9:u:miettes,
6:u:thé,
11:u:renverser,
7:u:tache,
10:u:raconter,
6:u:voix,
12:u:mielleuses,
11:u:histoires,
8:u:douces,
9:u:tendres,
8:u:agiter,
5:u:ca-,
9:u:gâteau,
6:u:beau,
8:u:cerise,
10:u:trouvait,
14:u:terriblement,
12:u:ennuyeuses,
17:u:malheureusement,
10:u:bouillo-,
9:u:bouill-,
11:u:bouillote,
11:u:théière,
12:u:sorcières,
9:u:avaient,
7:u:salir,
7:u:crier,
9:u:patiner,
10:u:naviguer,
6:u:bord,
6:u:jour,
10:u:sursauta,
9:u:horreur,
8:u:écria,
9:u:devrais,
7:u:honte,
8:u:frappa,
6:u:pied,
7:u:hurla,
10:u:certaine,
15:u:approchèrent,
8:u:dirent,
11:u:horribles,
12:u:crâneuses,
12:u:concoctent,
9:u:potions,
13:u:dangereuses,
13:u:transformer,
9:u:crapaud,
5:u:fit,
9:u:devenir,
8:u:existe,
8:u:règle,
8:u:gronda,
8:u:docile,
10:u:soignée,
9:u:insista,
11:u:répliqua,
10:u:furieuse,
9:u:endroit,
6:u:bois,
9:u:soupira,
10:u:envolant,
9:u:regarda,
9:u:tardera,
8:u:envole,
9:u:cliques,
9:u:claques,
7:u:vivre,
10:u:trompait,
11:u:convenait,
14:u:parfaitement,
13:u:construisit,
12:u:magnifique,
8:u:cabane,
8:u:duquel,
9:u:navigua,
10:u:rivière,
9:u:nourrir,
10:u:cueillit,
7:u:baies,
11:u:noisettes,
10:u:étaient,
11:u:adorables,
8:u:prêta,
5:u:mit,
12:u:serpentant,
8:u:arbres,
7:u:belle,
7:u:patin,
7:u:tête,
7:u:longs,
8:u:noeuds,
6:u:cro-,
9:u:crochus,
11:u:justement,
8:u:crochu,
9:u:marrant,
8:u:offrit,
7:u:jeune,
7:u:fille,
7:u:balai,
10:u:flambant,
11:u:aussitôt,
8:u:voulut,
11:u:apprendre,
7:u:voler,
10:u:empoigna,
7:u:engin,
8:u:grimpa,
7:u:arbre,
16:u:encouragèrent,
7:u:sauta,
7:u:resta,
11:u:suspendue,
6:u:airs,
9:u:écrasa,
5:u:sol,
7:u:pensa,
10:u:redressa,
8:u:essaya,
9:u:nouveau,
6:u:bout,
9:u:parvint,
14:u:applaudirent,
8:u:rompre,
8:u:volant,
10:u:effleura,
10:u:renversa,
6:u:seau,
5:u:jus,
11:u:groseille,
14:u:soupirèrent,
9:u:trouves,
10:u:chapeaux,
9:u:pointus,
6:u:noir,
7:u:moche,
13:u:cuisinière,
10:u:marrante,
8:u:fonça,
11:u:direction,
6:u:ciel,
6:u:cria,
7:u:viens,
8:u:tenait,
8:u:debout,
5:u:eut,
9:u:souffle,
8:u:coupé,
11:u:effrayée,
9:u:devenue,
7:u:folle,
10:u:atterrit,
9:u:douceur,
7:u:riant,
8:u:appris,
11:u:construit,
10:u:navigué,
12:u:formidable,
11:u:élection,
5:u:Lot,
9:u:Garonne,
17:u:circonscription,
14:u:législative,
11:u:partielle,
11:u:siègeait,
8:u:jusque,
10:u:Jérôme,
9:u:Cahuzac,
8:u:ancien,
10:u:ministre,
12:u:désormais,
8:u:fraude,
9:u:fiscale,
8:u:Suisse,
11:u:déclaré,
6:u:fisc,
9:u:dirigé,
15:u:démissionné,
8:u:siège,
10:u:député,
9:u:fallait,
10:u:pourvoir,
5:u:UMP,
10:u:emporté,
6:u:face,
10:u:candidat,
7:u:Front,
10:u:National,
5:u:six,
7:u:score,
7:u:large,
6:u:tant,
15:u:participation,
8:u:faible,
7:u:cents,
8:u:écart,
8:u:hommes,
14:u:relativement,
8:u:serré,
6:u:duel,
9:u:leçons,
12:u:politiques,
10:u:Bertrand,
9:u:Lacoste,
4:u:FN,
11:u:présence,
8:u:second,
7:u:terre,
9:u:certain,
10:u:diverses,
13:u:réflexions,
7:u:surgi,
10:u:occasion,
8:u:côté,
4:u:PS,
10:u:laissent,
10:u:perplexe,
7:u:quant,
6:u:tire,
9:u:entend-,
13:u:évidemment,
10:u:réjouir,
11:u:candidats,
12:u:dirigeants,
8:u:tenter,
9:u:quelles,
9:u:raisons,
12:u:éliminés,
9:u:premier,
7:u:effet,
14:u:candidatures,
6:u:pea-,
14:u:parasitaires,
8:u:isoler,
12:u:Villeneuve,
12:u:partielles,
11:u:dérouler,
12:u:desquelles,
11:u:symptôme,
9:u:malaise,
15:u:considérable,
8:u:droite,
6:u:taux,
12:u:abstention,
11:u:démontre,
14:u:intéressent,
6:u:type,
8:u:joutes,
12:u:désespoir,
5:u:tel,
11:u:anxiété,
7:u:telle,
16:u:découragement,
10:u:proposé,
7:u:offre,
11:u:politique,
11:u:déplacer,
8:u:soient,
8:u:enjeux,
9:u:époque,
10:u:venaient,
7:u:untel,
10:u:aujourd',
5:u:hui,
15:u:tétanisation,
11:u:situation,
12:u:totalement,
15:u:désespérés,
14:u:extrêmement,
13:u:inquiétant,
10:u:dirigent,
10:u:prennent,
5:u:ts-,
10:u:tsunamis,
13:u:progressifs,
12:u:retombées,
12:u:répliques,
10:u:secouent,
5:u:kl-,
4:u:r-,
8:u:pourra,
14:u:explications,
10:u:allusion,
7:u:front,
14:u:républicain,
8:u:posais,
14:u:introduction,
6:u:mort,
17:u:définitivement,
8:u:Gauche,
11:u:Écologie,
11:u:général,
11:u:classique,
11:u:députés,
9:u:remette,
7:u:notre,
12:u:stratégie,
7:u:appel,
6:u:sein,
7:u:parti,
12:u:socialiste,
7:u:Louis,
9:u:Bernard,
11:u:agonisant,
8:u:amener,
5:u:soi,
12:u:électeurs,
13:u:électrices,
14:u:propositions,
6:u:mode,
5:u:vie,
8:u:morale,
10:u:regardez,
10:u:souvenez,
9:u:traité,
11:u:européen,
9:u:médias,
9:u:élites,
11:u:pensantes,
7:u:voté,
12:u:importante,
18:u:circonscriptions,
8:u:Loiret,
9:u:circon-,
7:u:ordre,
9:u:absten-,
12:u:élections,
7:u:route,
6:u:fort,
8:u:claque,
8:u:aucune,
10:u:triomphe,
7:u:grand,
9:u:gagnant,
14:u:reconnaître,
6:u:dieu,
11:u:positions,
6:u:anti,
9:u:radical,
9:u:succès,
11:u:engrangé,
8:u:nombre,
10:u:victoire,
12:u:symbolique,
7:u:voire,
13:u:médiatique,
6:u:avis,
13:u:municipales,
11:u:capacité,
10:u:nuisance,
4:u:b-,
4:u:z-,
14:u:européennes,
13:u:socialistes,
8:u:risque,
7:u:Modem,
5:u:UDI,
8:u:change,
8:u:crains,
10:u:marchait,
9:u:Jacques,
8:u:Chirac,
9:u:réélu,
5:u:Pen,
8:u:Hassan,
7:u:Kerim,
11:u:résultat,
5:u:rue,
6:u:faux,
11:u:persuadé,
8:u:gauche,
11:u:questions,
8:u:posent,
16:u:compatibilité,
9:u:unités,
8:u:statut,
13:u:sémantique,
14:u:morphologues,
12:u:défendent,
7:u:signe,
12:u:saussurien,
9:u:affixes,
12:u:polysémie,
8:u:traite,
12:u:générale,
9:u:simples,
14:u:linguistique,
6:u:syn-,
11:u:expliqué,
5:u:en-,
13:u:pragmatique,
8:u:morpho,
9:u:claires,
12:u:explicites,
8:u:trois-,
8:u:puisse,
12:u:consacrée,
10:u:méthode,
12:u:synchronie,
12:u:diachronie,
8:u:aborde,
11:u:intuition,
12:u:intuitives,
13:u:morphologie,
10:u:énoncé,
9:u:globale,
4:u:u-,
13:u:plurisémie,
15:u:multiplicité,
9:u:strates,
18:u:interprétatives,
11:u:morphème,
12:u:flexionnel,
13:u:unisémique,
16:u:pluristratique,
10:u:évitant,
11:u:théories,
14:u:différentes,
12:u:décrivent,
9:u:chacune,
8:u:strate,
13:u:différente,
10:u:opposent,
6:u:unes,
9:u:malheur,
11:u:consacrer,
9:u:séance,
12:u:difficiles,
11:u:résolues,
10:u:apparait,
8:u:étant,
14:u:compliquées,
8:u:celles,
21:u:polycatégorialité,
12:u:traitement,
20:u:polycatégorielles,
9:u:lexique,
13:u:catégoriel,
10:u:matière,
11:u:confiance,
13:u:imagination,
8:u:servir,
8:u:sortes,
12:u:problèmes,
10:u:aimerait,
8:u:semble,
13:u:expérience,
14:u:sémanticien,
13:u:morphologue,
11:u:évidente,
11:u:sentiment,
12:u:prospectif,
10:u:chantier,
13:u:modérateur,
11:u:François,
8:u:carré,
12:u:immodéré,
11:u:agitateur,
12:u:commencent,
8:u:fermer,
6:u:oeil,
12:u:intervenir,
14:u:flexionnelle,
6:u:mots,
12:u:différent,
13:u:traitements,
11:u:méthodes,
9:u:relève,
10:u:principe,
8:u:Claude,
10:u:position,
14:u:dégueulasse,
13:u:réfléchir,
10:u:bêtises,
11:u:procédé,
7:u:banal,
10:u:consiste,
14:u:apparaissent,
12:u:virtuelles,
13:u:quelquefois,
11:u:énoncés,
10:u:virtuels,
7:u:gêne,
15:u:sémanticiens,
10:u:évoqué,
10:u:rotation,
13:u:indéniable,
7:u:rotor,
9:u:rotatif,
11:u:rotatoire,
9:u:rotonde,
7:u:rôti,
9:u:postule,
6:u:base,
17:u:matériellement,
5:u:ose,
7:u:verbe,
7:u:roter,
12:u:imaginaire,
5:u:se-,
6:u:sert,
14:u:archimodèle,
8:u:machin,
9:u:modèle,
14:u:lexématique,
11:u:reconnait,
7:u:rotat,
11:u:associée,
9:u:lexème,
11:u:réaliser,
10:u:autonome,
10:u:lexicale,
11:u:locuteurs,
13:u:permettrait,
8:u:former,
10:u:nouveaux,
6:u:ét-,
13:u:appartenant,
8:u:proche,
11:u:filiation,
9:u:directe,
12:u:hypothèse,
11:u:paradigme,
7:u:parle,
12:u:structures,
17:u:intériorisées,
12:u:prédateur,
12:u:prédation,
12:u:construits,
14:u:fonctionnent,
8:u:parent,
8:u:direct,
9:u:existé,
14:u:contemporain,
2=-0x1.8a3f5dbbf8502p-15
3=0x1.76919811ae9eap-11
4=0x1.a040d29788c43p-2
5=-0x1.b47fb47a76dffp-2
6=-0x1.f363228df1c62p-2
7=0x1.597c8b8a1fcbep-2
8=0x1.0a7325ff79a82p-7
9=-0x1.518f6af8fb63ap-9
10=-0x1.e5c2968adc787p-10
11=-0x1.9e1b20220d789p-9
12=0x1.a5a4d8fba5e95p-8
13=-0x1.8ffbec32a630ap-5
14=0x1.d25500f1b3e56p-9
15=0x1.eaed94612b20cp-9
16=0x1.85142aff2f509p-7
17=-0x1.92378152847bp-8
18=0x1.630ce2305a583p-9
19=-0x1.ca40500e3494ap-8
20=0x1.797bd3d7244a4p-6
21=-0x1.73a074c7c3d47p-6
22=-0x1.30808ddd977a5p-9
23=-0x1.f9949e730798dp-7
24=0x1.d14dc4e84bc4p-6
25=0x1.7fef1071d06ep-12
26=-0x1.4a2bdc9657aep-13
27=-0x1.0b7068eaf11bdp-5
28=0x1.0d8e5868418bcp-7
29=0x1.ac90b430ee0d6p-7
30=0x1.4f1ae1f09c39p-9
31=-0x1.ec4fd1a8a4b56p-7
32=0x1.64d54226f18fdp-8
33=-0x1.923b1bdfa269p-9
34=0x1.e7e53329dbe0ep-9
35=-0x1.01eba3615cddep-8
36=-0x1.55f1eb456b5f6p-11
37=0x1.3a91a92a5dcaap-6
38=-0x1.edd3247a9888fp-10
39=-0x1.1767dc454b384p-7
40=0x1.b3f160cd9c5bep-7
41=0x1.5ea22ededa0bap-5
42=0x1.3b04260608e34p-6
43=-0x1.b43ee490810dfp-5
44=0x1.3d3b14ece3396p-6
45=0x1.a9bb4eaba1eb1p-6
46=0x1.2b8e2d656d8bap-6
47=-0x1.00bfb289ab429p-5
48=0x1.008d62ac9639p-6
49=-0x1.392ad1a0f2748p-6
50=0x1.b3c76125fc02cp-6
51=-0x1.23af529091d7dp-6
52=-0x1.271556fdb505p-8
53=0x1.118736039cc3ap-3
54=-0x1.9f99b190cd90ep-6
55=-0x1.c2a2416258a4cp-4
56=0x1.67ec53bedea16p-5
57=0x1.732381a83c377p-2
58=-0x1.4c6b7ec37d19p-9
59=-0x1.d6fb1ec74006ep-3
60=-0x1.a476112f54f2ap-6
61=0x1.ea5e269e19fdbp-4
62=-0x1.515c01d17babbp-6
63=-0x1.7cd26a66ab396p-4
64=0x1.14c8d7744a1a8p-7
65=0x1.34578767ff86dp-2
66=0x1.515d827a5c92p-5
67=-0x1.861a8385479fdp-3
68=-0x1.713e0e697d25ep-5
69=0x1.ce4dd55a81d35p-4
70=-0x1.3d24a86ff151ep-7
71=-0x1.dfd3838baa57ap-6
72=-0x1.060f9088c1cb4p-3
73=0x1.e58e6a63fb221p-4
74=0x1.e3d6b184af28ep-4
75=-0x1.da713a79755bdp-5
76=0x1.3e4b846e625f6p-3
77=-0x1.f142bc5edd0f4p-4
78=-0x1.0cc00b9d3702dp-5
79=-0x1.24266bfd1cdb5p-7
80=-0x1.97e007059d5b6p-9
81=-0x1.de917132b69fbp-5
82=-0x1.42126a57f2378p-5
83=-0x1.9017076e62359p-7
84=0x1.85fc2f76be0e5p-13
85=0x1.c4a9d5272bf58p-7
86=-0x1.2a2b83fcf4045p-8
87=-0x1.16333c1f8167bp-6
88=0x1.7f14305d0a07cp-9
89=0x1.344c73c4f270ep-5
90=-0x1.fdb33316a20f1p-8
91=-0x1.0525bc3ee162ap-5
92=-0x1.3fe931e6dec38p-7
93=0x1.a5754ea3e2f36p-5
94=-0x1.d22b3942ad3b8p-8
95=-0x1.0041c6aac1bfep-4
96=-0x1.e32ff6f811b2dp-2
97=-0x1.03e14eec6631fp-1
98=0x1.d33e5fe4fcaa6p-2
99=0x1.0c56c3b2369f5p-2
100=0x1.357f94924ae2fp-8
101=-0x1.0ce7d0e2f05fcp-7
102=-0x1.fefe23d046644p-14
103=0x1.6dcd21bdf676ap-9
104=0x1.16e5e3094d7c5p-4
105=0x1.b8113eab56ae8p-6
106=0x1.4daba025b3127p-6
107=-0x1.246e9e21725d4p-4
108=0x1.5b49eaac1a94fp-7
109=0x1.a8383fb3dbd97p-6
110=0x1.c4164fe08957bp-8
111=-0x1.f865acc39e002p-6
112=0x1.2cba3865c67e2p-12
113=-0x1.b58c4d14c7a36p-8
114=0x1.1f32437f64fa9p-9
115=0x1.f724730d19295p-13
116=0x1.4a8f59f36e5b3p-8
117=-0x1.446707e506354p-7
118=0x1.40f456636a7e9p-8
119=-0x1.1eafdab0c4ea3p-9
120=0x1.0adf95dc925afp-9
121=-0x1.ed97e1bb44dd6p-9
122=0x1.115dc41782eb4p-9
123=-0x1.4b55276eb19bdp-10
125=0x1.045af9ea46a3bp-8
126=-0x1.35194d48accc7p-13
127=-0x1.67e45763c94ffp-10
128=-0x1.9e37d07c5b976p-8
129=0x1.eaeafafc0ad3ep-6
130=0x1.101ee03ddc4a2p-6
131=-0x1.374eee1f82f55p-5
133=0x1.bc62b2536e9e7p-8
134=-0x1.85ed1deeeb403p-12
135=-0x1.386a74413db9p-7
137=0x1.064255d7d12b4p-6
138=-0x1.a4ff3b54cf8d8p-14
139=-0x1.009eabfe13d46p-7
140=0x1.908c28fe28e9cp-8
141=-0x1.1f1368e6e6193p-7
142=0x1.a01c791f56156p-9
143=-0x1.57cd80eb42cebp-10
145=-0x1.d4dba20a6e12fp-13
146=0x1.ab0c5f80620d6p-11
148=0x1.4fb550d33a861p-6
149=0x1.78f693fd5bf9fp-6
150=-0x1.85165ba8b28b4p-12
151=-0x1.150e44507478ep-5
152=0x1.5fc532fe38f84p-8
153=-0x1.4302cfa1e290cp-9
154=0x1.4b4ccad6b28a2p-11
155=-0x1.ae1269e7c9c34p-9
156=0x1.5d155a13ea00bp-10
157=-0x1.976cc6028fbf1p-9
158=0x1.ee4906efba5b8p-11
159=0x1.25ef4f48e4473p-15
160=-0x1.f4ba6abbc4746p-9
161=0x1.2bd21b5c368bbp-7
162=0x1.c75431a870fbp-14
163=-0x1.b56119aaf8239p-9
164=0x1.bdcf893bf0dc2p-8
165=-0x1.f4a32fd63e506p-7
166=0x1.68e1e3a90a268p-7
167=-0x1.75590952fd41p-8
168=0x1.5d8613da890aep-7
169=-0x1.19f0e622a753p-8
170=0x1.d633da328a95dp-10
171=-0x1.5cd5cc0dce713p-8
172=-0x1.81c8563847dd2p-17
173=0x1.096c9bd416dd1p-12
176=-0x1.d068b0792c8bp-10
177=0x1.9b60f82f2028ep-8
178=-0x1.97081d1f73128p-9
179=-0x1.aec4842b38e47p-9
180=-0x1.49286c642cd5ep-11
181=0x1.af56fe400d9e8p-11
183=-0x1.cbf9f04a7fd48p-13
184=-0x1.b7487efe4631bp-7
185=0x1.24b67e3ab6cbcp-4
186=-0x1.4ed7fd0515ff3p-6
187=-0x1.471b07f7d4991p-4
188=0x1.007507ad1edf2p-11
189=-0x1.99594389c2a2fp-10
190=0x1.0a36b5508b49dp-11
192=-0x1.7b55222be4caep-8
193=0x1.b1a1a14b9036ep-7
194=0x1.58c70c277ba88p-13
195=-0x1.179be9446661fp-8
196=0x1.657f978be355ap-8
197=-0x1.236a774bddb48p-8
198=0x1.f3a6b955eb537p-9
199=-0x1.170cd3e806f59p-9
200=0x1.d7637da8099a6p-12
201=-0x1.82ef18e69930bp-10
202=0x1.ee5ce4c5cfc03p-12
204=0x1.019bfb78c620dp-6
205=-0x1.d067e6bc8ffc6p-7
206=0x1.8ce658c508a2dp-8
207=-0x1.b08e0fd6d97e3p-7
208=-0x1.5d908b091979ep-12
209=0x1.2c6ebf3d96731p-7
210=0x1.1f9032536093ep-11
211=-0x1.3d804ea698f2bp-8
212=0x1.ad4b2f3646aadp-8
213=-0x1.033fe74802396p-6
214=0x1.cee3e94e54c61p-6
215=-0x1.6bae46605c9ccp-7
216=0x1.3c8e322ad82adp-9
217=-0x1.765fefac4cc4cp-9
219=0x1.69f827d388631p-12
220=0x1.f214b86b261ap-9
221=0x1.64d7e76309a64p-13
222=-0x1.ebe074c82f914p-10
223=-0x1.7950b620886ep-11
224=-0x1.466372bdb33bdp-8
225=0x1.bcab392901d59p-7
226=-0x1.433c5c6c745e5p-8
227=-0x1.1c1d896ac9f9p-7
228=0x1.0a238a7de862cp-10
229=0x1.31ebdc71b77f2p-8
230=-0x1.bafc0b96d2866p-12
231=-0x1.49e8d15650bbep-9
232=-0x1.86d9ab4671a6fp-10
233=0x1.0d8b897f6c40ep-7
234=-0x1.8e568f909e756p-8
235=-0x1.f2efa84d736fap-10
236=-0x1.3a5b54f988cc5p-9
237=0x1.7f015e6b8d8f2p-7
238=-0x1.9049f4d8bb767p-8
239=-0x1.921abfc141bc8p-10
240=-0x1.26a20182875e1p-10
241=0x1.b5c189d7b2002p-11
242=0x1.ed2b405b9add2p-9
243=-0x1.49fa7df9bf1fbp-10
244=-0x1.0c8a777ebb545p-7
245=0x1.38148bec40974p-6
246=0x1.d42a4f4b04a52p-7
247=-0x1.2eb0ba574215p-7
248=-0x1.a964f79608b67p-8
249=0x1.7ec288f48cabdp-6
250=0x1.4a8c706b025aap-8
251=-0x1.42ff4f04783c9p-6
252=-0x1.7566dd3dc9e09p-13
253=0x1.5234db4ff805bp-11
254=-0x1.50f2cbb4cbc5cp-15
256=-0x1.2f778246f3ca2p-7
257=0x1.06f4dfd22f6f2p-4
258=0x1.2b71c4a7d07bbp-7
259=-0x1.15a29b1c7da38p-5
260=0x1.b44f19316665fp-8
261=0x1.8af8df53b6a14p-8
262=0x1.4ffab557555eep-7
263=-0x1.8b530299f3f02p-6
264=-0x1.5c12975dff56ep-11
265=0x1.04c8d4d0cec08p-9
266=0x1.890259104757bp-10
267=-0x1.1d502fb412a28p-10
268=-0x1.8f9c663d546ap-7
269=0x1.f80f62612de78p-6
270=-0x1.3bb03aa3b6f17p-8
271=-0x1.06ebf8a04d387p-5
272=-0x1.d9381914bc38p-7
273=0x1.301167e4e3ee9p-5
274=-0x1.7c591cf4201a7p-8
275=-0x1.b5de75d81710ap-6
276=-0x1.ad61d9d37cf3ep-17
277=0x1.d3ada9211a127p-15
280=0x1.ea186c993ad46p-8
281=-0x1.095877cb6fec8p-6
282=0x1.0babb7b73ca28p-5
283=-0x1.933e9fc96fccep-6
284=0x1.13edce29e432cp-8
285=0x1.b731a8446f1p-13
286=0x1.5fe822ebf35ap-8
287=-0x1.a4bea49fbce5ap-8
288=0x1.3596c265dc684p-12
289=0x1.4acc5398cc37fp-7
290=-0x1.8f834f91a3829p-10
291=-0x1.39a37552f9616p-8
292=0x1.f6a9aa6b2407p-11
293=0x1.c92607a6aeff9p-6
294=-0x1.e7d533eec7151p-7
295=-0x1.04f9c7e9fadcbp-5
296=-0x1.64680b2c3f4fp-11
297=0x1.89c71782202f8p-10
298=0x1.56bb611dd021p-18
299=-0x1.1302ba7b1ee13p-11
308=0x1.66f9fa9351449p-12
309=-0x1.a7e3a38fa8f7ep-9
310=0x1.bc61413115836p-13
311=0x1.8eda63b384c52p-10
312=0x1.db5e4f197f2dp-8
313=-0x1.35b79a578b17cp-6
314=0x1.5b65003cf929ap-7
315=-0x1.2d1fab085cb92p-12
316=-0x1.46f5ee18a5f42p-7
317=0x1.1c90376764e7cp-3
318=0x1.5d1bf44381e0ap-6
319=-0x1.337a48d8bdcd2p-4
320=-0x1.65bfc3c723da4p-12
321=0x1.1d9246c3fd8a3p-9
322=-0x1.82eaed80c3c2ap-12
323=-0x1.b5062339f1537p-11
324=-0x1.aceca6c141f94p-8
325=0x1.653271274d822p-5
326=-0x1.9b34b4ab0c805p-8
327=-0x1.4fb9fdd52e03cp-5
328=0x1.3df0165e9c387p-9
329=-0x1.918d6ac553efcp-8
330=0x1.ed51117ca8b8cp-9
331=-0x1.46fbfdb488a67p-11
332=-0x1.808d0a82fc3bcp-9
333=0x1.d41f2185bb4e3p-8
334=0x1.43f20b2d5d73ep-11
335=-0x1.96a4367f70d0dp-8
336=-0x1.07cd94b340654p-9
337=0x1.83254e1ccacb3p-8
338=-0x1.e99c9d2c84f88p-14
339=-0x1.0cd5e396ba417p-9
340=0x1.1296b3e128fcap-8
341=0x1.a7052818037e8p-12
342=0x1.c5624ef361b15p-7
343=-0x1.32b5169d635afp-7
345=0x1.7a79ec8276c12p-10
346=-0x1.8b6b2ab866cc6p-12
347=-0x1.732df6bfffd51p-12
348=0x1.35ea97edf0f7bp-10
349=-0x1.54919fde6af1ep-11
350=0x1.f7b575feb178ap-10
351=-0x1.a43c0afb55497p-11
352=-0x1.ae695157dd1bap-10
353=0x1.83ab8a9eb7cc1p-8
354=-0x1.679c9afbe8492p-10
355=-0x1.a2126fcbce99fp-11
356=-0x1.8dbf3c0bd633fp-9
357=0x1.21133c90aee1cp-7
358=-0x1.577bd454b4de2p-10
359=-0x1.ca6e71e0744eep-8
360=-0x1.615e9c86b6724p-13
361=0x1.93e8e2d4518fp-11
362=-0x1.323020f4e9eeep-15
364=0x1.4a204d2db6175p-9
365=-0x1.4ff758cf962cp-8
366=0x1.a37b7c21aae28p-11
367=0x1.89ba7e83301b1p-13
368=0x1.9865ef653aa06p-17
369=0x1.6195baf5d52c6p-16
370=-0x1.66359b7d66d03p-16
372=0x1.d695a61907032p-13
373=0x1.261b7fb6a791fp-9
374=-0x1.b54fafa31d54ap-13
375=-0x1.063112e569af4p-9
376=-0x1.3a00ee29f9254p-10
377=0x1.e994028e8ffe8p-9
378=-0x1.54438a237aa1fp-11
379=-0x1.b72bccf2f48cdp-10
380=0x1.09641eb04d7a5p-11
381=0x1.3a461d88cb118p-11
382=-0x1.1dec0e53d796p-12
383=-0x1.f6468c78cd665p-11
384=-0x1.793b0e38ed7f6p-14
385=0x1.0229617c02c64p-8
386=-0x1.6d2fcc5fcc493p-9
387=-0x1.f1bc395f19f5cp-11
388=-0x1.0fcc1c99bb8b4p-15
389=0x1.763139af7eb8ap-12
390=-0x1.73808384da032p-17
392=-0x1.b329e1fff0ddep-12
393=0x1.2232e37a41defp-10
394=-0x1.f9ac238c67937p-13
395=0x1.40fce8b77224p-12
396=0x1.03d5c6ea48e43p-8
397=-0x1.1fbdecdfe90aap-9
398=0x1.db1a133162062p-9
399=-0x1.b14373f555a2ap-10
400=-0x1.e0ab4375ab812p-8
401=0x1.ba8726ebcdae3p-7
402=-0x1.3704a93d84637p-9
403=-0x1.bc61eb37d3f55p-7
408=0x1.411a7530c8d64p-9
409=-0x1.afaad5ee5e0d5p-9
410=0x1.6ea94f93c45e4p-10
411=-0x1.e508193d6369p-12
412=0x1.b9440b51ef226p-9
413=-0x1.7582cbb017508p-6
414=-0x1.eba605b664de8p-12
415=0x1.d8c0a38706ab6p-6
416=0x1.f03c1083320a1p-8
417=-0x1.06e48236a6b14p-7
418=0x1.b48ccd68c1889p-10
419=-0x1.1c8cb84cb36e3p-10
420=-0x1.282637f7ab826p-8
421=0x1.1a81e255305f9p-8
422=0x1.6862425cf5f86p-15
423=-0x1.7cb5bb996537p-10
424=-0x1.325e2c760e99ep-10
425=0x1.f04791ef20d39p-9
426=-0x1.8712524d50c09p-11
427=-0x1.6244700e637e1p-12
432=-0x1.1b12df562be3fp-11
433=0x1.524abd4a46b1ep-10
435=-0x1.62132e3dee5bbp-12
441=0x1.74bb26e0e5425p-13
444=-0x1.9ffdb070e86eep-9
445=0x1.488ebe984ba64p-8
446=0x1.e799a26162e4ep-11
447=-0x1.cb31cc92151aep-10
452=0x1.3953a3a5ccab7p-10
453=-0x1.325511c8d2ea1p-8
454=-0x1.ea48133e55d4ap-12
455=0x1.1a8cb321596dp-8
456=0x1.74e98904d63f4p-15
457=-0x1.8cbd0bf49eab4p-12
458=0x1.9572f7208ce4bp-14
460=-0x1.e4a5e3c95a8c6p-11
461=0x1.3690971975d14p-10
462=0x1.bed8f444636b2p-13
463=-0x1.4f00a1aa8f31cp-10
464=0x1.2d1850fb05f26p-15
465=-0x1.2d7d301826b7fp-11
466=0x1.3b907cdbb374bp-10
467=-0x1.be6a40ea256bap-12
468=-0x1.0ebc519bfdea8p-10
469=0x1.9dbf7193429c5p-10
471=-0x1.23d928df37381p-12
472=0x1.2d6e136bf9ef3p-10
473=-0x1.6a6092532e1dcp-10
474=0x1.400f1874640b8p-12
475=-0x1.ba03820c354b3p-12
476=-0x1.90848f4ba0418p-10
478=0x1.3a8c5afc4a861p-8
479=-0x1.13ceebcebd975p-9
480=-0x1.de4d8baab516p-13
481=0x1.f180973303522p-4
482=0x1.a4d32b3f946b2p-8
483=-0x1.2216fcbb0b093p-4
488=0x1.10890870030e2p-10
489=-0x1.744f39723a9a4p-11
490=0x1.56eaad1b2d644p-10
491=-0x1.a446555572791p-12
492=-0x1.442940def0b22p-8
493=0x1.20bb2f4219d4bp-6
494=-0x1.63bce0105521p-8
495=-0x1.a4d633cbf8c45p-7
496=-0x1.95e83bccbb66ap-5
497=0x1.a1b46b1ada7e7p-3
498=-0x1.b51f23a1e73aap-5
499=-0x1.838c4778f22cap-4
500=0x1.b99ee3482a95fp-9
501=-0x1.fefe14f308143p-11
503=-0x1.5e0b065e46b7ep-10
504=-0x1.695fa1dc58a52p-11
505=0x1.a89f6dfa1e7f6p-9
506=-0x1.51ed73945b598p-9
507=-0x1.34ef82de55589p-10
508=0x1.f00de86876963p-12
509=-0x1.ae6cc0fafdcffp-11
510=0x1.a3e2eaf176472p-10
511=-0x1.20ea676279d02p-11
512=-0x1.38e6e1c30aeap-17
513=0x1.a52b0624f9695p-13
520=0x1.d2b84fd3ad6a9p-9
521=0x1.3f51f5e0292d4p-11
522=0x1.04f3a9910d0a8p-10
523=-0x1.4d40f6ff136cp-9
528=-0x1.26923fe804e73p-15
529=0x1.3d7ae35a5ff34p-10
530=-0x1.42deba01878a3p-11
531=-0x1.4caa7b5ffafbep-12
536=-0x1.a9c10c73a018p-18
537=0x1.47c648d307b22p-11
539=-0x1.d8fe8e6877232p-13
540=-0x1.48e0cbff96442p-9
541=0x1.aeb547620f9p-8
542=-0x1.5928ad160e485p-10
543=-0x1.8dcd65ff48baap-10
544=-0x1.21b20fed781aap-7
545=0x1.2866bdcbec20ep-7
546=0x1.030d7566177b8p-11
547=-0x1.a39b3e6fb1ac1p-8
552=0x1.7c292d6b42c19p-8
553=-0x1.6ea6156909d95p-6
554=0x1.b4cdbb7de0e16p-8
555=0x1.4b1384769987cp-8
560=-0x1.5d3a6d7eb4dc4p-12
561=0x1.1ced7446ff70dp-9
562=-0x1.97d41e229c6f9p-11
563=-0x1.8075b09e2f2f6p-12
564=0x1.97dee1e707244p-13
565=0x1.887f5aeee17efp-9
567=-0x1.6c0d9285f6008p-10
568=-0x1.5456c3736a6ep-17
569=0x1.3b470345843f6p-11
570=-0x1.f05a627cd987dp-15
571=-0x1.3978c6aea0494p-13
573=0x1.2677b10d2adecp-18
577=0x1.a9a13e0ebda1dp-15
580=0x1.9c7e6ffdcf24ep-11
581=-0x1.8272f237415c4p-11
582=0x1.50f098204bcd9p-10
583=-0x1.fd9fe1510ccb6p-12
584=0x1.f7c8ab535b0d8p-10
585=-0x1.7961ad525aeaep-8
586=0x1.2bb0fe794e695p-8
587=-0x1.57aa538f75a83p-10
588=0x1.78b896c37e0a4p-7
589=-0x1.06fc60fa2adbfp-6
590=0x1.b7fd1fcc7ba61p-9
591=0x1.7cb3a87a2a29p-9
592=-0x1.4adfbe3e3c6acp-12
593=0x1.7aca7236aac57p-9
594=0x1.0e3dd171e2b46p-11
595=-0x1.4a4ab4797d21ep-9
596=0x1.0705b2776f7cp-11
599=-0x1.86b8b3836536cp-14
600=-0x1.327259645ddb7p-13
601=0x1.c22d55a3e9d8cp-12
602=0x1.f59fdc6b8be91p-10
603=-0x1.e857d57e550c1p-10
605=0x1.4d302b31ca2f8p-17
608=-0x1.bf8f0743e8c1cp-9
609=0x1.3e06f865268f7p-7
610=-0x1.aa628088b15d5p-9
611=-0x1.2d695fda55d3cp-7
613=0x1.a7e4f23632b9dp-14
616=0x1.7c167a56deecp-12
617=0x1.624da728a14a4p-9
618=-0x1.9cdec7daa2201p-11
619=-0x1.668988b422846p-10
620=-0x1.7b39433754f5fp-10
621=0x1.6bddcd0e3241p-9
622=0x1.e53e6d81e249dp-10
623=-0x1.d02ec5a0100fp-10
624=-0x1.36a3caabf91bfp-7
625=0x1.2de45f87e770dp-6
626=-0x1.747facd95e602p-8
627=-0x1.2c53c4f3b0cd8p-6
632=-0x1.175593390c9bbp-8
633=0x1.ea7f8f50376e4p-8
634=-0x1.30290697a1e4p-17
635=-0x1.4f06479d9d04p-8
636=-0x1.ec4bbd7661342p-7
637=0x1.58fda6d0a1cccp-6
638=0x1.c90fccc69d92fp-8
639=-0x1.f1183399554c9p-6
644=0x1.e86cc314ed6cep-12
645=0x1.ed6fd0e4d8ab4p-12
646=-0x1.eda1486ab976p-12
647=-0x1.ae62dc743e7c6p-13
648=0x1.5249ee4be6dd4p-14
649=-0x1.3ab654a90de22p-9
651=0x1.5322b7af58b91p-9
652=-0x1.c9d330ff5bbap-12
653=0x1.920c6861c6b64p-8
654=-0x1.33cfacfc1c20ep-9
655=-0x1.88bb6f6e3980ep-11
660=-0x1.832d0e648ccc6p-13
661=0x1.2d1144677844bp-9
662=-0x1.bb706d061d349p-12
663=-0x1.24c42764101e2p-11
664=-0x1.4a10d4d8cd7bp-14
665=0x1.957f683e60f1fp-11
666=-0x1.883232fc44e96p-20
667=-0x1.2472774c4e331p-12
672=0x1.dadf7174e149bp-8
673=-0x1.e30c6e28e5932p-8
674=0x1.835fcb2ad12eap-9
675=-0x1.85b6cae1b0b99p-11
676=0x1.40ad20c857d3p-13
677=0x1.b60db3cac49b9p-11
678=-0x1.fcf4118b0fe08p-17
679=-0x1.945066a24584ap-12
680=-0x1.707adc728b932p-14
681=0x1.0a7bb19f3ea2ep-9
682=-0x1.29688559da095p-12
683=-0x1.fa71ccc9959ebp-14
688=-0x1.ba7307cdcdac1p-10
689=0x1.2aa0f58c3ede9p-8
690=-0x1.1d9d0023b0349p-10
691=-0x1.6f6c2f8cab34fp-10
696=-0x1.32f49362e07fep-10
697=0x1.758d673b08ee2p-8
698=-0x1.1d954ac92bcedp-10
699=-0x1.1d8f93f5e562ap-11
700=0x1.9bb24e80ef39fp-10
701=-0x1.1784318b2306cp-9
702=0x1.c2dfcbbbe5259p-10
703=-0x1.1680c7905e806p-13
707=0x1.db85c4853d39bp-14
708=0x1.d20251707882p-10
709=-0x1.3b88f478be0cbp-9
710=0x1.2595b032fc628p-11
711=-0x1.7407a88c39ee2p-10
713=0x1.14d0a6c10dc33p-14
720=-0x1.81da40931e4b8p-17
721=0x1.a99d5e9012bbap-13
724=-0x1.4709ef9566567p-14
725=0x1.f1533543ddcb8p-10
726=-0x1.8485826dbe305p-11
727=-0x1.67b5f1f395efbp-12
728=-0x1.c1b30545a9991p-13
729=0x1.f1ca198d5550fp-11
730=-0x1.1035b94dcb634p-13
731=-0x1.d64cef39939ap-19
733=0x1.31cb66348cedp-16
736=-0x1.bc255d3e9fa94p-12
737=0x1.44c5462ac360fp-11
739=-0x1.c8f3648e4e4a6p-14
740=0x1.99e157c2aa8p-14
741=-0x1.3cf768f54fab8p-11
742=0x1.d1aa382e29052p-14
745=0x1.1286a4ce1b0a8p-19
752=0x1.993befc665ab4p-12
757=0x1.f39696def6438p-18
761=0x1.5745908c2f6d8p-18
768=-0x1.ddac5598afb2p-16
769=0x1.b9b981a8a25dp-18
770=-0x1.8d02b0cbbadecp-13
771=0x1.c02fe9840826dp-11
773=0x1.41b80daf461a2p-17
776=0x1.85ecd0be3b674p-10
777=-0x1.862cd98237e1fp-9
778=0x1.bb27fc82cf34p-10
780=0x1.79a38738c8f8p-16
784=0x1.2c638490a8e55p-9
787=-0x1.2ba67d45be6cp-11
789=0x1.2d2de54cf7a1cp-16
792=-0x1.e401d816cec07p-12
793=0x1.983073aa1f726p-9
794=-0x1.c025a0eea7a0ap-12
795=-0x1.2ade2e3288363p-12
796=0x1.38fe04c751a3ap-8
797=-0x1.4cba8bcd1833ap-8
798=0x1.aa3439e1bad68p-10
799=-0x1.641349ca459e1p-10
800=0x1.2a9e3f29fbee5p-11
801=-0x1.086f4e2e7eeb2p-10
802=0x1.bbfcea3488e9ap-12
803=-0x1.edcbc3210980ep-12
805=0x1.a06c6ddc6deep-19
808=0x1.63283ec9515dcp-9
809=-0x1.719bef78509fp-9
810=0x1.859eb1d8d2e43p-11
811=-0x1.51b262d40712ap-12
812=-0x1.e6f5fa4d81692p-12
813=0x1.543c3d44f393p-8
814=-0x1.912ee2c1ae3fdp-10
815=-0x1.f470aa61ec0aep-9
816=0x1.03074b6716ce7p-12
817=-0x1.07e99b972c17cp-10
818=0x1.cfcdcad60c644p-12
828=-0x1.251cb0866e015p-11
829=0x1.fb475a35af536p-10
831=-0x1.791b42f187775p-11
836=0x1.03ec71befbb0ap-9
837=-0x1.312f9be2f6dbcp-8
838=0x1.fcbb56b9f6f09p-9
839=-0x1.2e8194a05e0eap-13
841=-0x1.19dfff4648872p-12
842=0x1.a0978549210f3p-14
844=-0x1.5f1345cccc2dap-18
845=0x1.e0bfe65edf569p-13
856=0x1.6252961810d1cp-7
857=-0x1.f28e172c716bcp-10
858=0x1.a0d69a4f6753p-12
859=-0x1.4ee7908c58b7ep-9
864=0x1.f3ae8ad7ac18cp-12
865=-0x1.4acca409a4866p-10
866=0x1.fb9791a1a170cp-12
868=0x1.125b9df7ece9dp-11
869=-0x1.aace920cc12acp-10
870=0x1.17630e39800d3p-11
872=0x1.aaf47e718be0ep-11
873=-0x1.3571edad42578p-14
874=-0x1.7f2f7764e9599p-14
875=-0x1.b129aa68c3eebp-13
880=0x1.14553cb310f6bp-10
881=-0x1.51509d2c9c432p-12
882=-0x1.7f2e7d0b20d9ap-17
885=0x1.6619308173859p-13
888=0x1.efa61b89e9171p-11
889=-0x1.a4b1e5e1c9e96p-9
890=0x1.807bde52d8996p-10
891=0x1.d6575f2a8cd84p-13
892=-0x1.d22f60ed50404p-16
893=0x1.db9ee90153cedp-12
895=-0x1.7b84c07f1d624p-13
896=-0x1.e34662ebb4c0ap-11
897=0x1.0f62ee58378bdp-8
898=-0x1.9c66c0ebc8eccp-11
899=-0x1.6c9b89145014dp-12
900=0x1.259a3a50b97d4p-7
901=-0x1.c861bac8cba5dp-7
902=0x1.27371bd49c01ap-7
903=-0x1.45cdf59e48909p-11
904=-0x1.7514fb4335db1p-14
905=0x1.0283e6f60d8bbp-11
906=-0x1.151b7e9d98e5p-16
907=-0x1.8277168c753d8p-14
908=0x1.91f8f6f4d75aap-10
909=-0x1.13aa2a2a8fb3ap-8
910=0x1.52364c7c09284p-9
911=-0x1.ddb251be20e5bp-13
912=-0x1.50b3345e8b9b4p-13
913=0x1.4b3a39af7f5a8p-11
914=-0x1.34a6ad48a8c13p-13
916=-0x1.0c804eea98584p-17
917=0x1.718031ebe5c67p-11
918=-0x1.a5f5dc043b3b6p-14
919=-0x1.0849c4ce9a666p-15
920=-0x1.5d95479709648p-19
921=0x1.0f96d633fe554p-12
924=-0x1.7d1504c260e7p-18
925=0x1.080ea5b74164cp-12
937=-0x1.159c4a8496ed4p-11
938=0x1.25efc098f411ep-10
940=-0x1.8dde4fca28378p-18
941=0x1.41f07390e22c3p-12
952=-0x1.aa83512d889e9p-10
953=0x1.3fdd0562c89dcp-8
954=-0x1.90245c0c42ce2p-10
955=-0x1.779c2f29cc104p-12
964=-0x1.8d811b0fc204ep-14
965=0x1.3984aabcaf064p-9
966=-0x1.e193e051bd55cp-10
967=-0x1.b2bd67fcd4929p-11
969=0x1.3a7f97e84afc4p-18
972=-0x1.408a74e84d53ap-18
973=0x1.023119ed38a2dp-12
974=-0x1.68d3a46d3e176p-18
977=0x1.ebae7f948eb5p-18
980=-0x1.970686c120ep-10
981=0x1.d68c3007db2ep-15
982=-0x1.0310c5d1a62e4p-11
983=0x1.1d7b6824b6ef8p-9
985=0x1.060365e3ebfap-13
988=-0x1.7883ff384fb49p-13
989=0x1.3423786c0d3bdp-10
990=-0x1.f4c20e9563d64p-15
992=-0x1.48af1b80b2ed4p-17
993=0x1.bf097b7ce5a04p-13
1009=0x1.111f8502accb8p-14
1012=-0x1.73dba561f721bp-13
1013=0x1.3ccf93100efbdp-10
1014=-0x1.b0314df752234p-15
1021=0x1.63a39b683989p-16
1025=0x1.16a27fe2da9d3p-14
1028=0x1.b56ceebfae698p-12
1029=-0x1.5d0213d70997dp-10
1030=0x1.21c6c0d61f8dcp-11
1032=0x1.68c854687b48cp-12
1033=0x1.386b4a0bbbd4cp-15
1034=-0x1.9c58193d6ea98p-18
1035=-0x1.075a6491ea2dfp-12
1040=0x1.1646682f51514p-9
1041=-0x1.0c241d9d3a13p-9
1042=0x1.21ab8ae35c81ep-9
1043=-0x1.0a4249e181c3fp-11
1044=0x1.95d96ff2eda06p-13
1056=-0x1.f07bd08244348p-12
1057=0x1.a8c18badc020bp-11
1058=0x1.55f4476001334p-11
1059=-0x1.0ece15ddcc40fp-12
1065=-0x1.5993f5e3fc23ep-12
1066=0x1.af657f0c26791p-16
1069=0x1.1b9da0f1e9e02p-17
1076=-0x1.c05319722a1ep-14
1077=0x1.dae15c780f463p-12
1079=-0x1.50bf31f8cd5dep-13
1080=-0x1.7d02fb1b5e2fp-19
1081=0x1.9323eaf1c12b1p-13
1089=0x1.63f4b9c58281fp-17
1092=-0x1.c0beb4daf7685p-13
1093=0x1.85f7971ab5237p-12
1097=-0x1.22695ac139b8ep-17
1098=0x1.990717f43bb31p-12
1101=0x1.355102f21a55dp-14
1105=0x1.993d41502f64p-18
1106=0x1.649baf977d8fap-14
1107=-0x1.c282ba1b15c1p-14
1108=0x1.ec1ef7d4c430ep-12
1109=-0x1.6b485873a81b4p-8
1110=0x1.3679413298acbp-9
1111=0x1.3f6f2a29292cap-10
1121=0x1.158dacc1b7fdp-12
1122=-0x1.74e83bab05d8p-20
1139=0x1.bfa3352779d96p-14
1140=0x1.a1efa9f99e478p-12
1141=-0x1.01311a5f24b5ap-9
1142=0x1.b7100efc648f8p-12
1147=0x1.6d0df59a50eb8p-14
1148=-0x1.be027599773ap-18
1149=0x1.e0dca19f365acp-12
1150=-0x1.c47a0116f58e8p-20
1159=0x1.ef30e8196c0b4p-15
1173=0x1.1b3a38f20b5d6p-18
1177=0x1.d3e9acaa8031fp-13
1192=-0x1.227a5b7c39e3fp-10
1193=0x1.9fce2a8ec630cp-9
1194=0x1.5af856445e246p-9
1195=-0x1.cf9fcf7c0f8cdp-10
1208=0x1.7e56359e33749p-12
1209=-0x1.eb02ce531e242p-10
1210=0x1.662aa44f942fap-8
1211=-0x1.1c44ca9109fc1p-9
1219=0x1.c4b76cb1b3eafp-14
1221=-0x1.d7239dfbf99b6p-11
1222=-0x1.89ad4b466d8f9p-12
1223=0x1.d8fbe9ffa5d31p-10
1229=0x1.24c68eebc8729p-17
1252=-0x1.6b3724c8db256p-10
1253=0x1.18049508f692dp-9
1254=0x1.5bae8476c359p-11
1255=-0x1.60db0658e551ap-10
1256=0x1.bc0fed2bad741p-12
1257=-0x1.8a5f542fa0762p-13
1258=0x1.3e170f3b7c84cp-14
1259=-0x1.45057db2c1e79p-10
1264=-0x1.39bb2e09933a4p-18
1266=0x1.1d088729087e9p-11
1272=0x1.cc5b4299b19f2p-17
1273=0x1.007e65d730989p-11
1274=-0x1.c3add90c120f5p-13
1275=-0x1.82ccdddc97968p-13
1280=-0x1.0d9ace4fe58c2p-11
1281=0x1.02b7316dea143p-10
1282=0x1.9b81d16c3c194p-11
1283=-0x1.75395bc233425p-12
1284=-0x1.3ae15a19268c4p-17
1285=0x1.886c63216c4a2p-14
1296=0x1.2bae33658dadep-10
1297=-0x1.e6c15d1696e94p-11
1298=0x1.3ed323c24881fp-10
1299=-0x1.6c3e4e500b63cp-11
1300=0x1.3d1d36c7f5f34p-12
1301=0x1.4587f6e5d6f8cp-11
1303=-0x1.1f2b0b21dc864p-11
1304=0x1.038d7702f9cb4p-11
1305=-0x1.52751e537e83p-10
1306=0x1.03bbb6a6a2402p-11
1308=0x1.21841618974a2p-11
1309=-0x1.b963ae5fffb29p-10
1310=0x1.2268b97b1de5bp-11
1312=0x1.e4fe08e0c0aacp-12
1313=-0x1.3be64c5f68578p-11
1314=0x1.695c9c9f9b877p-11
1315=-0x1.054d32b7f3abcp-12
1316=-0x1.c5e0f7e02766cp-16
1317=0x1.3197dcaab5358p-10
1318=-0x1.30f3c484b4bf8p-11
1319=-0x1.f22ea95e248eep-13
1324=-0x1.c4f15fd0cb25bp-13
1325=0x1.9371b34ba2a4fp-11
1326=-0x1.f2b4565ca7922p-14
1327=-0x1.b1824d237d22dp-15
1344=0x1.71dd28f32e27cp-9
1345=-0x1.7b72e89b05d01p-8
1346=0x1.5b39e2597c70cp-9
1349=0x1.1618251150d18p-14
1356=0x1.2585fa0ef7892p-13
1361=-0x1.d6cb09a4bf5bcp-15
1362=0x1.11ff5821981c5p-11
1365=0x1.b1c9326d3ff08p-15
1368=-0x1.38cbae8b67718p-13
1369=0x1.33f9b270fe124p-11
1370=-0x1.c3fbc99dc9a3ep-15
1373=0x1.02913655603ap-19
1376=0x1.fec5ccb827c3ep-12
1377=-0x1.42c664862c16ap-10
1378=0x1.01968d677a762p-11
1389=-0x1.393a0ff5e0198p-11
1390=0x1.fc5083a6a4314p-12
1392=-0x1.7b018595cf5ap-17
1393=0x1.4ac7019cc6198p-12
1394=-0x1.e6d4c6848754cp-18
1408=-0x1.21abb9874be5cp-16
1409=-0x1.0128a403e4a12p-12
1410=0x1.a9aedf67f8372p-11
1411=-0x1.f156554564f18p-14
1412=-0x1.10d6404063882p-17
1413=0x1.5c2d97caf8584p-12
1428=0x1.bcad62533de3cp-12
1429=-0x1.2c84e1737e4bfp-10
1430=0x1.bd5d083441ebfp-12
1432=0x1.783511af85befp-12
1433=-0x1.f1592a6773abp-11
1434=0x1.d285ebb771fb6p-13
1437=0x1.5509d10ef3ca6p-13
1441=0x1.15dfaea312bc1p-13
1456=-0x1.6da8f0069c0fap-13
1457=0x1.4c3f30e870d06p-9
1458=-0x1.7f83a64c26ec5p-12
1459=-0x1.db134355e778dp-13
1464=-0x1.916b0c5655837p-13
1465=0x1.5d68c01a3c89ep-11
1467=-0x1.ab5baae60791bp-15
1468=-0x1.2be43e50c431ep-15
1469=0x1.0e0ce70f128b9p-15
1470=0x1.5fc6b42529283p-18
1476=-0x1.2372fd18bd842p-17
1477=0x1.c0591cea8ab03p-13
1480=0x1.11f7b860c8d0fp-11
1481=-0x1.a6441f2617adcp-10
1482=0x1.0f27b5a13e3f5p-11
1489=0x1.85cfdb346acfap-18
1509=-0x1.fae8f4ded1ab8p-12
1510=0x1.2355d2f6699f4p-11
1516=0x1.3689e9d64c6b4p-13
1517=0x1.760bd12b18ddfp-9
1518=-0x1.70db5d22f9f79p-9
1519=-0x1.f5f423b31077dp-11
1525=0x1.ca6382a3028a4p-17
1529=0x1.98070a221828cp-18
1532=-0x1.b26f16bf7b03p-20
1533=0x1.94d1ccbd7dc93p-13
1545=0x1.ac7517a9a90e1p-13
1549=0x1.1df39b98be209p-13
1556=-0x1.6101111334e3ap-14
1557=0x1.7282236fc9bb6p-9
1558=-0x1.502f4e7d60df8p-9
1559=-0x1.c3855376c030bp-11
1569=0x1.4f632e09019c6p-17
1573=0x1.45944b5642a9p-17
1577=0x1.858e3e5c8474p-20
1581=0x1.07eefc62525c9p-13
1585=-0x1.b0a1073102a93p-16
1586=0x1.fee19b0b8c0d2p-12
1588=0x1.d69049a612f19p-12
1589=-0x1.3a4ba8eab73c2p-10
1590=0x1.d85c753f3f276p-12
1592=-0x1.3770327592f26p-13
1593=0x1.7982efc673e94p-10
1594=-0x1.0c2340bef2ba4p-14
1595=-0x1.e570764a9bf56p-12
1604=0x1.dafe32c4e2e82p-10
1605=-0x1.141a710de45e6p-9
1606=0x1.2ec976b6665d5p-13
1607=-0x1.cf9d6085a048p-13
1616=-0x1.b679d877b7f42p-17
1617=0x1.77d4016769ff9p-12
1618=-0x1.e1d9dcf06612p-19
1620=-0x1.bd71da011f2fcp-11
1621=0x1.22199a862d271p-9
1622=0x1.28a251c1fd0bcp-12
1623=-0x1.05f49bbcaf4cap-10
1628=-0x1.393ad17e53e6dp-8
1629=0x1.d25ff1be00052p-7
1630=-0x1.3b5219cb8cebfp-8
1631=-0x1.b0ac5878e41cbp-10
1632=-0x1.e658e5f92b39p-14
1633=0x1.0a398c554b73ep-11
1636=0x1.59803f218315ep-11
1637=-0x1.5456db0532f3p-9
1638=0x1.cf784051d54f3p-10
1647=0x1.b9e06f57949b5p-14
1652=-0x1.363715f87007ap-18
1653=-0x1.019bcf8298477p-11
1654=0x1.9df61a5a25821p-10
1656=0x1.9c31cac9a701ap-10
1657=-0x1.f60600fcd48ddp-9
1658=0x1.0c5fe1ae56414p-9
1668=0x1.647702a604d7bp-13
1670=-0x1.a44281dc2a2ecp-18
1673=0x1.ef9a0e310505ep-15
1676=-0x1.9a5b8d218ae2p-21
1677=0x1.91e63027feb0dp-12
1681=0x1.3aeb1fdd0e73p-23
1688=0x1.bb05d514799e8p-10
1689=-0x1.eab591c5d9612p-12
1690=-0x1.726e051d45fd7p-12
1691=-0x1.e1a8bf36ebfb2p-13
1692=-0x1.d854965494e6cp-18
1693=0x1.15e2cd4f7e06p-12
1694=-0x1.5322ea3fb49ap-19
1697=0x1.51fd84b48066dp-13
1701=-0x1.1ba57668b0b7dp-13
1704=-0x1.134e53a63a4dep-17
1705=-0x1.68fdc727f0023p-16
1707=0x1.903ed12de300cp-12
1717=0x1.1a5c0d7e8fce5p-12
1718=-0x1.e99df6df34693p-13
1728=0x1.ff0ea83f4e057p-14
1729=-0x1.4651656f15865p-11
1730=0x1.97a257fe2de64p-12
1733=0x1.e50816b6082b5p-19
1737=0x1.de9f3f557cd5p-20
1748=0x1.0cf83f415e246p-11
1749=-0x1.a05ac53329d95p-10
1750=0x1.0995695c50917p-11
1752=0x1.c0654ef3d3e58p-12
1753=-0x1.306661ac3591ep-10
1754=0x1.c843cd2dd20aap-12
1756=0x1.db5a2d911311dp-12
1757=-0x1.68133ea264b11p-13
1760=0x1.39671bae0ab36p-12
1761=-0x1.d743366b4fddp-11
1762=0x1.3666f51f1b3a4p-12
1768=0x1.213310cb5a0cp-12
1769=-0x1.08f965d5c1ff4p-10
1770=0x1.36db7ac81ade4p-12
1772=0x1.92b80d8289a0fp-14
1773=-0x1.35bec08d43ec5p-11
1774=0x1.138951816ebdcp-13
1776=-0x1.fd461b5c73aacp-18
1777=0x1.b369d1ecc604fp-13
1780=0x1.1b80baa12fb11p-11
1781=-0x1.e10dc88610bc7p-12
1788=0x1.f9b8ad289cd7cp-12
1789=-0x1.b4ea0ef90b90dp-10
1790=0x1.5716d5ccf2797p-11
1792=-0x1.1dc45554eaf1p-17
1793=0x1.6a19a39a2e614p-12
1794=-0x1.f39b4f2c5cc48p-19
1796=-0x1.f3b60282eda61p-12
1797=0x1.91489c314b978p-9
1798=-0x1.6fc32780791fap-12
1799=-0x1.1ce722f8b628fp-12
1813=-0x1.15f091a613cebp-11
1815=0x1.259780e24db3ap-11
1817=0x1.a7996d50365d8p-15
1820=-0x1.0a59b38ccf62bp-15
1821=0x1.64fa634cde75bp-12
1822=-0x1.186ccf0a264e8p-17
1829=0x1.cf4b225fc85f8p-18
1832=-0x1.0a26ca803d63cp-13
1833=0x1.010f66ba32288p-10
1834=-0x1.5a6cf6e42e20dp-13
1841=0x1.b56e2d5729c27p-14
1857=0x1.057110ce3f3e8p-17
1861=0x1.27f2a9ad9e799p-13
1869=0x1.934848215dab4p-18
1873=0x1.364a2979b92c3p-15
1881=0x1.d5789000c4978p-13
1884=-0x1.5f6279a85acd8p-17
1885=0x1.bd4f26dad856cp-13
1888=-0x1.9a495de2b6078p-19
1889=0x1.3469e1a5b251fp-12
1893=0x1.ed4b8cea74768p-19
1901=0x1.c3bb2acd2efdap-16
1904=0x1.a6105d9112c85p-14
1905=-0x1.a69285e22c97cp-10
1906=0x1.a6ac07c1c450cp-12
1907=0x1.62f94bd6e5576p-14
1913=0x1.9f282e2a7546p-14
1916=0x1.cdc7526c8f16p-17
1917=-0x1.9f5020dfe9bbbp-10
1918=0x1.6959d5a93506ap-10
1921=0x1.4db94ffad9cap-19
1928=0x1.239b060e90d6ap-12
1929=-0x1.02ef6c6fd14f1p-10
1930=0x1.62afe730dfc68p-11
1936=0x1.19f4cff05a0efp-11
1937=-0x1.aef875e309322p-10
1938=0x1.17540ccdc6eeap-11
1940=0x1.fd936003a68b6p-11
1941=-0x1.2383280e2b25ap-9
1942=0x1.01e1368796039p-10
1945=0x1.9697a424045ep-14
1948=0x1.141359414dfdcp-10
1949=-0x1.c096059c7c1d4p-9
1950=0x1.6b6a454f66f32p-9
1953=0x1.29e490701aa98p-17
1964=0x1.39592fc2c67f8p-12
1965=-0x1.0ec5a770e34aap-10
1966=0x1.34678023a7c45p-12
1972=-0x1.5ec0ff5f5b0cep-11
1973=0x1.b99e1bd878467p-11
1974=0x1.58963b9605ed5p-12
1975=-0x1.f62054fc42782p-13
1977=0x1.384f16005d09bp-13
1984=-0x1.1c8f88379d4e6p-17
1985=0x1.0b8a63f88887dp-12
1986=-0x1.d1272042c4a9p-18
1988=0x1.bb80628221c96p-13
1990=-0x1.fd8397f98caf4p-18
2005=0x1.bc873e2402975p-13
2020=-0x1.ca98d84f8995dp-18
2021=0x1.b6b7f0049662p-18
2022=0x1.515149bbceaf8p-16
2024=-0x1.17ed632f990bfp-17
2025=0x1.ce2debeebc751p-12
2026=-0x1.322438fbbcb6fp-17
2028=-0x1.f1083c6c9f56p-18
2029=0x1.73c0db107f64ep-13
2033=0x1.291210d8fe42p-12
2037=0x1.bcac566615b83p-16
2041=0x1.0e62683877971p-13
2053=-0x1.024b523fa0ef6p-12
2054=0x1.eaa5a995c74cdp-12
2056=0x1.773f28faa7633p-12
2057=-0x1.19e6225ae0c34p-10
2058=0x1.711f39a3aec25p-12
2061=0x1.93fcb3f1e7912p-14
2073=-0x1.3e87e6e08d098p-12
2074=0x1.f830e85f7f43dp-12
2077=0x1.30a89be11a7c4p-17
2080=0x1.8770212b2ed8ep-12
2081=-0x1.139c52d1ee65p-10
2082=0x1.a0e44dd8aacd2p-12
2089=0x1.d538181bcc201p-20
2101=0x1.46ce66cd528bep-17
2104=0x1.fccf34b410bd5p-12
2105=-0x1.928e010e47e48p-10
2106=0x1.ffd1f5d44aaa4p-12
2112=0x1.996b8d8b7abadp-14
2113=-0x1.17a2d6c7776b5p-11
2114=0x1.b57aa60919396p-14
2117=0x1.40028a4351426p-14
2121=0x1.51e0b390f0acp-14
2129=0x1.ebe35ebce5ecp-22
2141=0x1.97f7c0c66f5b4p-18
2145=0x1.51f41515abbaap-15
2149=0x1.7d6efb4db2b02p-15
2152=-0x1.edc93369103d4p-18
2153=0x1.c5dd3a9672d12p-13
2157=0x1.c95ccbf069ba8p-18
2164=-0x1.949f3ba9509b2p-13
2165=-0x1.50cfc8c7b1801p-12
2166=0x1.018ec21f65e68p-10
2168=0x1.0ec6116ae9fefp-11
2169=-0x1.a2da1037d4bc9p-10
2170=0x1.0cf0479e188aep-11
2180=0x1.16a2585874421p-11
2181=-0x1.ab75070a1cdb7p-10
2182=0x1.13da995af5c4dp-11
2193=-0x1.390fd86eeb231p-11
2195=0x1.295cb2a9d8ddfp-11
2200=-0x1.780f83d2a74dbp-10
2201=0x1.57c592e59ccbcp-10
2202=-0x1.fad3e155a9256p-13
2241=0x1.fc7b3a41048p-21
2253=0x1.08ec71dae59cp-17
2256=-0x1.8cea01ada5b36p-15
2257=0x1.354607094b214p-11
2258=-0x1.e0e1e546e1037p-14
2264=0x1.60428b32d6516p-14
2265=-0x1.e588880f8cdf6p-9
2266=0x1.33615a67601cp-10
2267=0x1.5ed7b09d77732p-10
2280=0x1.1296bb6ddd407p-11
2281=-0x1.ab58dadf1ca6bp-10
2282=0x1.180319524db12p-11
2289=0x1.1ab70aa9d41c2p-17
2300=0x1.fde4bc886e8dap-12
2301=-0x1.1aaefd062d2e7p-12
2332=0x1.f17c8e7e80807p-12
2333=-0x1.939af6cee413p-10
2335=0x1.0ddf9e558b45dp-11
2357=0x1.333bd30c39bdp-13
2384=0x1.2c02af99a9a11p-11
2385=-0x1.121f08ddb42ecp-11
2404=-0x1.e39ab37fa93d4p-16
2405=0x1.d5716cb065ddp-17
2406=0x1.c0e60006abef7p-14
2415=0x1.b3ad0765d06f6p-14
2420=0x1.6e872b2455b5cp-11
2421=-0x1.81bf308b0bf7cp-9
2422=0x1.f6e0a08edf13dp-12
2423=0x1.12453ce4ce8b2p-11
2424=0x1.8fc4cbadf467ap-10
2425=-0x1.3f19d35df1d12p-11
2428=-0x1.101349c4263ap-20
2429=0x1.f782528cade44p-13
2436=0x1.62dcc62e51a45p-9
2437=-0x1.cf79df86252dep-9
2438=0x1.c0440c30dbbp-10
2444=0x1.0a926bb0a190ep-15
2445=-0x1.bbe86354f697cp-12
2446=0x1.2fc72cefc47fep-15
2464=0x1.45e44d4b12957p-11
2465=0x1.60d2542f696bcp-18
2467=-0x1.670e511002f49p-14
2481=0x1.d540649ad6777p-13
2504=0x1.e23dc054a2846p-10
2505=-0x1.ed7ba4fe7c3dap-9
2506=0x1.b399cac4c369ap-10
2525=0x1.2b407a0d0f4edp-17
2529=0x1.5fb83a731a54ep-15
2548=-0x1.01e2d54d4a74ap-14
2550=0x1.007b83e1f5a11p-14
2561=0x1.5d0bd4822f10cp-14
2577=0x1.03b2a29aaaa1p-18
2581=0x1.4b60ec65bd2ep-18
2640=0x1.23e0bb0140ff1p-11
2641=-0x1.bc3a0a78a22d6p-10
2642=0x1.254a6a965ff07p-11
2645=-0x1.5147d7653b954p-11
2647=0x1.2dc2898e70568p-11
2648=0x1.0dd128d7a9df4p-11
2649=-0x1.4cdbcb9b8dbf8p-12
2660=-0x1.433176f54c418p-17
2661=0x1.08c3afdd9595fp-12
2676=0x1.188b04cb91d65p-11
2677=-0x1.b1aa11a090b69p-10
2678=0x1.1d5ea885edccbp-11
2681=0x1.12df1d2812e14p-17
2684=0x1.07b1bf9391c4bp-11
2685=-0x1.a1f463269cc58p-10
2686=0x1.70dc2c58917a1p-11
2688=-0x1.39ab8d6682befp-13
2689=0x1.a06a254dfd11fp-11
2690=-0x1.1c03f1fd8a767p-13
2700=0x1.ca1b56ea8987fp-13
2701=-0x1.e2b9d9aa8af54p-11
2702=0x1.139b6c8ae84fdp-11
2709=-0x1.fe7cc5040bd56p-12
2710=0x1.247b5cffa0e53p-11
2724=0x1.b7d691aecccfap-12
2725=-0x1.39101b5ca923ep-13
2733=0x1.a8de86b771fc4p-14
2744=0x1.adb687da28341p-10
2745=-0x1.e92884a40625ep-9
2746=0x1.b133e09cc4e43p-10
2796=0x1.56020709a7bebp-12
2797=-0x1.91a10aebf9594p-15
2821=0x1.137d877e381f6p-12
2876=-0x1.ff7d892cb1987p-16
2877=0x1.d1c87ac8d7ac6p-12
2878=-0x1.90f963f7f1688p-19
2892=0x1.1461aaa5fad75p-11
2893=-0x1.12b5de5e0d51ap-10
2894=0x1.11ee81606fcb1p-11
2925=0x1.a28d22246ddbcp-18
2945=0x1.af8fa0fe180aep-18
2953=0x1.c6a6df245e81p-13
2958=0x1.db3db3ebff7d4p-13
2960=0x1.0a8c99bd79d16p-11
2961=-0x1.5988bd9edc56dp-10
2962=0x1.0acb69baff3dcp-11
2989=-0x1.962ca9cafecap-14
2990=0x1.0cbbd2490611p-11
2993=-0x1.2ebd0934fbafep-11
2995=0x1.00c9b6f14b855p-11
3021=0x1.60fef93cdc529p-13
3048=-0x1.7cd0122f37a16p-14
3049=0x1.27872276dfaeep-11
3050=-0x1.d36872925b4a7p-14
3052=0x1.5fcca2fbb9f54p-12
3053=-0x1.23cc0cad00967p-10
3054=0x1.5cff6080581d4p-12
3073=0x1.cfa7e989c914cp-14
3089=0x1.52f7ca90b4294p-18
3108=0x1.07f4a36673869p-11
3109=-0x1.572c6625f9fd2p-10
3110=0x1.08c7937c1ec82p-11
3116=0x1.21dc0c6c25ae3p-11
3117=-0x1.b9103b4bc5a53p-10
3118=0x1.21b19b78832fbp-11
3120=0x1.20d9ca6b170b7p-11
3121=-0x1.f82c93ee889d4p-12
3133=-0x1.1bd4ecd0e281dp-16
3135=0x1.6fbc9fa7bf13cp-12
3136=0x1.e7a1236ff4c9cp-11
3137=-0x1.0ebd5fad69515p-9
3138=0x1.e958ae7f77c7ep-11
3139=-0x1.712e68e9896cdp-14
3157=-0x1.d02fa260767c3p-12
3158=0x1.1abb156f53edcp-11
3160=0x1.15d00065ea93bp-11
3161=-0x1.ae4dbd3d46f6dp-10
3162=0x1.19b553052e1bep-11
3172=0x1.3657594337185p-10
3173=-0x1.bf241a1ddc284p-12
3174=-0x1.b2ab224afa16p-20
3185=-0x1.15b59c128405bp-10
3186=0x1.94bdbc071f002p-10
3189=-0x1.0e3dfb0b21ec8p-17
3190=0x1.02ee5bec0314p-11
3196=0x1.0d4d66210329p-11
3197=-0x1.a969fd9d2f51dp-10
3198=0x1.79cd575d4a9dbp-11
3204=0x1.2a150e55dc867p-11
3205=-0x1.c1fa46a7e6223p-10
3206=0x1.2a1fd1c878e16p-11
3220=0x1.35599df0a75d8p-7
3221=-0x1.8466b0983d944p-7
3222=0x1.727fc41881facp-8
3223=-0x1.8fb7e68f5bf56p-9
3277=0x1.3fccf7e2bb4ecp-12
3281=0x1.37c26472975bp-13
3305=0x1.37aa23e93cc52p-12
3316=-0x1.1e0e999d8f84bp-12
3317=0x1.93fdb4ecb88e2p-10
3318=-0x1.3143618c80c87p-13
3337=0x1.6811dbd8831bap-12
3356=0x1.2077ba5fa2397p-11
3357=-0x1.fa739886e3f09p-12
3371=0x1.49727ba8a9fdp-14
3389=0x1.07bb737753458p-12
3464=0x1.11c18b6bebb2ap-11
3465=-0x1.a3ddbfadd3086p-10
3466=0x1.6bd35f00d97f2p-11
3477=0x1.5071d1c977fecp-18
3497=-0x1.45418167632cbp-12
3499=0x1.ee4fd263525d5p-12
3504=0x1.a82a6f89a1ac4p-13
3505=-0x1.c99497895614ep-11
3506=0x1.f0c28aa2ed4bp-13
3509=0x1.a1c478b85d3b1p-14
3552=0x1.cfe146e7a4472p-12
3553=-0x1.48947f8e45fa8p-13
3556=0x1.9a93ee9ad05bcp-12
3557=-0x1.bcbd3d9d2831ap-16
3561=0x1.294ba6da10d5ap-14
3597=-0x1.df2a11ca8862p-12
3598=0x1.1d869c293d953p-11
3637=0x1.4b769c27e47c2p-13
3649=0x1.259799db98b66p-14
3661=0x1.4b8c1a477a2e7p-14
3720=-0x1.04ad3d4e4a558p-19
3721=0x1.29c7689b005c7p-12
3749=0x1.57abf2f4d2806p-13
3752=0x1.c00d57752c2f4p-11
3753=-0x1.9b548eb52a34ep-10
3754=0x1.76d7d87f67bap-10
3755=-0x1.ba086f421d859p-12
3833=-0x1.45d615f1f5cbap-14
3834=0x1.532039d43783dp-12
3857=0x1.b2d1d3f6c7ae9p-15
3868=-0x1.130df4669464cp-13
3869=0x1.286e8440eed76p-11
3908=0x1.12672e0c330d3p-11
3909=-0x1.61bcb21fb37b1p-10
3910=0x1.1349b249f53b6p-11
3917=0x1.44f4504d47b2ap-13
3941=0x1.11415bd8ec66bp-13
3948=-0x1.7ff5329576259p-13
3949=0x1.809b2878cd464p-11
3950=-0x1.7526ea3043453p-13
3951=-0x1.00770bb31a40cp-16
3953=0x1.d94fc57ae854p-21
3957=0x1.0c0908fee17c6p-14
3964=0x1.99fae212da737p-10
3965=-0x1.f8b2e3896fac1p-9
3966=0x1.e0d36fd42b4fdp-10
4005=0x1.a9adc61f2eb88p-14
4032=0x1.33a4b659f70b7p-12
4033=-0x1.8b785c633db53p-15
4041=0x1.5bd54ecc5aa42p-15
4061=0x1.69d8c2b2c3d93p-13
4089=0x1.98f5c037bb076p-12
4125=0x1.9522a8534565bp-13
4136=0x1.5f1ce89bcf103p-9
4137=-0x1.97d1601311dfp-9
4138=0x1.55aece951ded5p-12
4141=0x1.2b7e44f8c32ccp-15
4189=0x1.55f3a870f6e04p-15
4197=0x1.20c2455a366b8p-17
4216=0x1.1cbdf0a34728p-16
4217=-0x1.4f38db8e5d2ecp-12
4218=0x1.69055dade50b8p-15
4321=0x1.57a2e47a4e81cp-14
4332=0x1.077fd71aee349p-11
4333=-0x1.5679d05773241p-10
4334=0x1.07b47bef192bcp-11
4401=0x1.e54cbfbd4c535p-14
4421=0x1.4250f7690fp-27
4465=0x1.8f50eed75b0d1p-15
4496=-0x1.c5d83aaabf375p-15
4497=0x1.d86278e7deff3p-12
4498=-0x1.635be1c017b6dp-16
4609=0x1.0be83ed3508fdp-12
4649=0x1.700425b69a9ap-19
4741=0x1.ba0c4069797ap-21
4745=0x1.af1dee6520d6dp-13
4833=0x1.b324ea57047b3p-13
4864=0x1.3938d8cc8e1f7p-10
4865=-0x1.6c535c3647489p-9
4866=0x1.3996a6a7abeafp-10
4900=0x1.803a689f1721ep-9
4901=-0x1.84d79f591cc65p-8
4902=0x1.553b4aaff83fdp-9
4953=0x1.6e049aa31455ap-14
5017=-0x1.640a511083afbp-11
5018=0x1.94ab0485dcd3bp-11
5033=0x1.3a9c3c6607408p-18
5181=0x1.8a864b457534p-19
5184=0x1.02ffea3f6998ep-11
5185=-0x1.e0f9d528a8968p-12
5196=0x1.2403d6512cea2p-11
5197=-0x1.ba771cb79caecp-10
5198=0x1.22ad8f13342efp-11
5237=0x1.2de5182b410d3p-13
5261=0x1.1fa6be7997ed6p-18
5288=0x1.4a835e13d518ep-10
5289=-0x1.f22571aa61526p-10
5290=0x1.e0dd72f51de28p-13
5312=-0x1.6c06b8d3dc368p-19
5313=0x1.6ab044cc60a12p-12
5314=-0x1.543dd1efcdeccp-18
5364=0x1.0bc8b0cf91c09p-8
5365=-0x1.cb1802d1b5fdep-8
5366=0x1.53a3a95e08d5p-9
5368=0x1.fb1c65f7cf0acp-11
5369=-0x1.2b50fe97a70f5p-9
5370=0x1.8b9410c23e4b8p-10
5372=0x1.4f667a1f2b85dp-7
5373=-0x1.207fca18140b6p-6
5374=0x1.0073d0d4cff58p-7
5375=-0x1.bd94e0603da0ep-12
5389=0x1.720bf2eaa9f74p-18
5393=-0x1.2bf38f91a0b8cp-13
5394=0x1.e83d2ef4747a7p-12
5396=0x1.feec12863951ep-12
5397=-0x1.5053eb9ea6d28p-10
5398=0x1.03ad40b9ad005p-11
5404=-0x1.5e9a43c94ae6ep-17
5405=-0x1.ec2109eea539ap-11
5406=0x1.94d92a8d8d98p-10
5408=0x1.87a536473068cp-10
5409=-0x1.e40f54e597413p-9
5410=0x1.ccb06909ef66cp-10
5412=0x1.beba042e42dc3p-12
5413=-0x1.2907618c5356ep-13
5420=0x1.003ac8509c10ep-11
5421=-0x1.51875a45c7fbp-10
5422=0x1.054fddb19a3bap-11
5429=0x1.512ff8bd9f7dap-14
5436=0x1.4b79a5776cb0bp-11
5437=-0x1.d400015f7a35cp-13
5445=0x1.3ada68e9e9342p-15
5456=0x1.13c8fe4b329ap-11
5457=-0x1.c100b0e378463p-12
5464=0x1.6f5a18e899d8bp-9
5465=-0x1.8ae70f1214d15p-8
5466=0x1.8a947f33a02dap-9
5477=0x1.7b508620ffd5p-19
5484=0x1.e738a0a9f9596p-12
5485=-0x1.44fd27ec99382p-10
5486=0x1.f21bdb98bd1e8p-12
5488=0x1.12064ec42cc5ap-11
5489=-0x1.a9d2277154ccbp-10
5490=0x1.15e03faa3d3fcp-11
5492=0x1.1e7e74b8160fbp-13
5561=0x1.8d19168dd0924p-18
5564=0x1.cc9733d4a5179p-12
5565=-0x1.1ef1c1da96ffep-13
5600=0x1.cbc8a4989b814p-10
5601=-0x1.743b89b5fc2f9p-9
5602=0x1.10c3af6b469afp-11
5604=0x1.d4c8fb0de19c5p-9
5605=-0x1.0fe6ce57c904cp-8
5606=0x1.f2b644d141d38p-11
5629=0x1.5032e02d2d8d4p-14
5648=0x1.11eb61f5af1a1p-11
5649=-0x1.bcb778495d5d2p-12
5656=0x1.1ebab40939c95p-11
5657=-0x1.f12dcdc1ba8aap-12
5665=0x1.03cae652fe994p-17
5681=-0x1.30e031aff9ca9p-12
5682=0x1.0832cf43e12d1p-11
5684=0x1.06ccc210d9281p-11
5685=-0x1.56d4c26d490f3p-10
5686=0x1.094a2a18fadb2p-11
5708=0x1.2214996b41b89p-11
5709=-0x1.bae209ee2d249p-10
5710=0x1.24804557597b9p-11
5716=-0x1.26c3b4bc0eb2p-18
5717=0x1.0bb57c8dc8e1bp-12
5718=-0x1.d784bfd4ac9cp-20
5752=0x1.d2143396a3d5cp-10
5753=-0x1.164cb624f10b3p-10
5761=-0x1.7a6d8b4776e6fp-11
5762=0x1.a35640b014e49p-11
5773=-0x1.15669d9e14fc5p-11
5774=0x1.76944d19ab032p-11
5777=0x1.ed7adf1229adp-19
5781=0x1.49d8de33ed28ap-16
5788=0x1.27807dff0d8e4p-11
5789=-0x1.bfe649dfa7bfbp-10
5790=0x1.28a501a3a2f6cp-11
5809=0x1.e7b10fdeb2504p-18
5820=0x1.06138ff67aedp-11
5821=-0x1.573bf5d32fe7p-10
5822=0x1.0aae7c5df74c3p-11
5836=0x1.21b4314265f13p-11
5837=-0x1.ba94aea618a7fp-10
5838=0x1.24708c8a2257p-11
5841=0x1.d80e180f4fd24p-18
5873=0x1.5d62b91050b0cp-20
5877=0x1.0dd3aa20cfbebp-13
5897=0x1.d8a1797fb3524p-18
5916=0x1.8c0e5256e82d4p-10
5917=-0x1.8967d513afe6bp-9
5918=0x1.c4738050ea261p-10
5921=-0x1.e1ba0387c13dp-12
5922=0x1.1df3ffefdb0bap-11
5924=0x1.15bff50db7619p-11
5925=-0x1.adc077cf2cacp-10
5926=0x1.1946ec550efc3p-11
5933=0x1.b918d2ed9769cp-18
5936=0x1.284181792e941p-11
5937=-0x1.c131cdd8b58bcp-10
5938=0x1.2a25404678ce7p-11
5940=0x1.25c87bc0aafe8p-11
5941=-0x1.05c547fee7c5bp-11
5980=0x1.257db24575f6fp-11
5981=-0x1.be8dd182f24dcp-10
5982=0x1.27fb293505fdcp-11
5996=0x1.2100dddcb6a3ap-11
5997=-0x1.ba00990a8104cp-10
5998=0x1.241dfdccb9963p-11
6000=0x1.20360d5767043p-11
6001=-0x1.f9a5706b77aep-12
6005=-0x1.ea5daac8a648p-12
6006=0x1.209c8544f0cf1p-11
6012=0x1.232910f898f81p-11
6013=-0x1.bb65319803258p-10
6014=0x1.24b14c0a7fafbp-11
6024=0x1.20868e449a57dp-11
6025=-0x1.fb6d762511f54p-12
6049=-0x1.f2a095b003d8ap-11
6050=0x1.87f3bf221576dp-10
6052=0x1.5d3c0915a285dp-12
6053=-0x1.d5d142048d55ep-9
6054=0x1.a0b25b0d35fb1p-10
6055=0x1.0dbbcfc778883p-11
6112=0x1.0da55a5649bd8p-11
6113=-0x1.a4fa20a32ae48p-10
6114=0x1.12358aac89374p-11
6136=0x1.14a7bf33d6bfbp-11
6137=-0x1.ade8389e0e19ap-10
6138=0x1.1a33b425e4aa5p-11
6141=0x1.b55a8f244e138p-17
6153=0x1.d57340f861fdap-15
6172=0x1.e30529468e827p-12
6173=-0x1.43571cc79cc25p-10
6174=0x1.ef28e95ff078bp-12
6184=0x1.0a54077ebab52p-11
6185=-0x1.44a59ede97e14p-12
6248=0x1.3dc6adc7b6a71p-13
6265=0x1.c3701533786aep-13
6269=0x1.be2528818d6c1p-15
6337=0x1.69ed28d329e0ep-14
6377=0x1.1660d014ce70bp-13
6432=0x1.ff747fede772fp-12
6433=-0x1.26a848fcf1cb1p-9
6434=0x1.bcc6e00acae46p-10
6492=0x1.4e31cae353219p-10
6493=-0x1.85d8cf1c18a47p-9
6494=0x1.4fa9e2a070e38p-10
6509=-0x1.ef2812b3269c6p-12
6510=0x1.208cddeeeeb7ap-11
6569=0x1.979602cb2237ep-15
6573=0x1.1ba1ca1486fap-17
6653=0x1.b4c17f095443p-14
6657=0x1.b59fb5a99d8f2p-13
6669=0x1.1fa58357da33p-20
6768=0x1.2b1879f7a0bd5p-11
6769=-0x1.c37fe2b04ab29p-10
6770=0x1.2c0aeb15faf19p-11
6844=0x1.0b677c168dedap-11
6845=-0x1.5b6a43ac9e229p-10
6846=0x1.0cf8fe75cda64p-11
6908=0x1.c850b657fa6edp-10
6909=-0x1.0771b9de2cc28p-8
6910=0x1.c958d754125c7p-10
6988=0x1.223bb1b1ac4bp-11
6989=-0x1.b92d560e0e23ep-10
6990=0x1.222a8fdd97911p-11
6992=0x1.29e9a3e8ca36p-11
6993=-0x1.c2594135540b7p-10
6994=0x1.2af1eabdb2064p-11
7004=-0x1.7bc07c726aac8p-14
7005=0x1.39a53be4edf2p-11
7006=-0x1.b544618693298p-14
7017=0x1.18466598866e3p-13
7025=0x1.d114f83f37382p-12
7026=-0x1.e46e2f1e826c8p-17
7092=0x1.26300397b2217p-11
7093=-0x1.bd4638985aceep-10
7094=0x1.25caada436899p-11
7108=0x1.29c772d498601p-11
7109=-0x1.c112a312153c4p-10
7110=0x1.28d1398bbe51ep-11
7132=0x1.5649d7deb6ad6p-13
7133=-0x1.22963287b5c5bp-11
7134=0x1.4b8cf357a44e7p-13
7180=0x1.26e3726e83436p-11
7181=-0x1.0482630678592p-11
7393=-0x1.291054f081be8p-11
7394=0x1.809feb82edf7p-11
7396=0x1.25bd17f43a3dap-11
7397=-0x1.01aee4f732f8dp-11
7413=-0x1.f63062f13b4c4p-12
7414=0x1.201ecf94fdb6p-11
7441=-0x1.fdd3df378795p-12
7442=0x1.21b8850f08792p-11
7444=0x1.24ff793ea8dccp-11
7445=-0x1.baf8faf575adap-10
7446=0x1.2283fa96848e2p-11
7452=0x1.299e52be0cfa6p-11
7453=-0x1.c0a0c5ebbfcfep-10
7454=0x1.28677890bd2cep-11
7460=0x1.05595912a96f6p-12
7461=-0x1.0142b447e64c6p-10
7462=0x1.0d703ed1b9c01p-12
7483=0x1.b3cb8bb7517bcp-15
7487=0x1.b54b85394efe8p-14
7492=-0x1.aea2f228758a2p-16
7493=0x1.ad380d61d7a2dp-12
7494=-0x1.59e3325bdd3e4p-16
7497=-0x1.f8ec1596f5973p-12
7498=0x1.21df415314fcep-11
7524=0x1.27a04509a29b3p-11
7525=-0x1.befb66b53ab3cp-10
7526=0x1.26fec66f508d6p-11
7553=0x1.1adfd1afb1c5cp-17
7561=0x1.2ee6b20d9b0a8p-17
7605=0x1.a85e43c050336p-17
7609=0x1.0821f9cbc9472p-17
